<?xml version="1.0"?>
<MethodSetup Method="MLP::MLP">
  <GeneralInfo>
    <Info name="TMVA Release" value="4.2.1 [262657]"/>
    <Info name="ROOT Release" value="6.12/06 [396294]"/>
    <Info name="Creator" value="lvinas"/>
    <Info name="Date" value="Tue Dec  3 02:58:15 2019"/>
    <Info name="Host" value="Linux buildservice008.fnal.gov 3.10.0-693.17.1.el7.x86_64 #1 SMP Thu Jan 25 04:11:40 CST 2018 x86_64 x86_64 x86_64 GNU/Linux"/>
    <Info name="Dir" value="/home/online1/lvinas/Art_to_Root"/>
    <Info name="Training events" value="242664"/>
    <Info name="TrainingTime" value="2.10870030e+03"/>
    <Info name="AnalysisType" value="Classification"/>
  </GeneralInfo>
  <Options>
    <Option name="NCycles" modified="No">500</Option>
    <Option name="HiddenLayers" modified="No">N,N-1</Option>
    <Option name="NeuronType" modified="No">sigmoid</Option>
    <Option name="RandomSeed" modified="No">1</Option>
    <Option name="EstimatorType" modified="No">CE</Option>
    <Option name="NeuronInputType" modified="No">sum</Option>
    <Option name="V" modified="Yes">False</Option>
    <Option name="VerbosityLevel" modified="No">Default</Option>
    <Option name="VarTransform" modified="Yes">N</Option>
    <Option name="H" modified="Yes">False</Option>
    <Option name="CreateMVAPdfs" modified="No">False</Option>
    <Option name="IgnoreNegWeightsInTraining" modified="No">False</Option>
    <Option name="TrainingMethod" modified="No">BP</Option>
    <Option name="LearningRate" modified="No">2.000000e-02</Option>
    <Option name="DecayRate" modified="No">1.000000e-02</Option>
    <Option name="TestRate" modified="No">10</Option>
    <Option name="EpochMonitoring" modified="No">False</Option>
    <Option name="Sampling" modified="No">1.000000e+00</Option>
    <Option name="SamplingEpoch" modified="No">1.000000e+00</Option>
    <Option name="SamplingImportance" modified="No">1.000000e+00</Option>
    <Option name="SamplingTraining" modified="No">True</Option>
    <Option name="SamplingTesting" modified="No">False</Option>
    <Option name="ResetStep" modified="No">50</Option>
    <Option name="Tau" modified="No">3.000000e+00</Option>
    <Option name="BPMode" modified="No">sequential</Option>
    <Option name="BatchSize" modified="No">-1</Option>
    <Option name="ConvergenceImprove" modified="No">1.000000e-30</Option>
    <Option name="ConvergenceTests" modified="No">-1</Option>
    <Option name="UseRegulator" modified="No">False</Option>
    <Option name="UpdateLimit" modified="No">10000</Option>
    <Option name="CalculateErrors" modified="No">False</Option>
    <Option name="WeightRange" modified="No">1.000000e+00</Option>
  </Options>
  <Variables NVar="7">
    <Variable VarIndex="0" Expression="detrkqual.NActiveHits" Label="detrkqual.NActiveHits" Title="NActive" Unit="Count" Internal="detrkqual.NActiveHits" Type="I" Min="1.40000000e+01" Max="8.60000000e+01"/>
    <Variable VarIndex="1" Expression="detrkqual.ActiveHitFraction" Label="detrkqual.ActiveHitFraction" Title="FActive" Unit="Fraction" Internal="detrkqual.ActiveHitFraction" Type="F" Min="3.40425521e-01" Max="1.00000000e+00"/>
    <Variable VarIndex="2" Expression="detrkqual.Log10FitCon" Label="detrkqual.Log10FitCon" Title="LogFitCon" Unit="Probability" Internal="detrkqual.Log10FitCon" Type="F" Min="-5.00000000e+01" Max="0.00000000e+00"/>
    <Variable VarIndex="3" Expression="detrkqual.MomError" Label="detrkqual.MomError" Title="FitMomErr" Unit="MeV/c" Internal="detrkqual.MomError" Type="F" Min="5.28592579e-02" Max="4.56853151e+00"/>
    <Variable VarIndex="4" Expression="detrkqual.T0Error" Label="detrkqual.T0Error" Title="T0Err" Unit="nsec" Internal="detrkqual.T0Error" Type="F" Min="9.60720778e-02" Max="4.71720171e+00"/>
    <Variable VarIndex="5" Expression="detrkqual.NullAmbigHitFraction" Label="detrkqual.NullAmbigHitFraction" Title="NullHitFraction" Unit="Fraction" Internal="detrkqual.NullAmbigHitFraction" Type="F" Min="0.00000000e+00" Max="5.00000000e-01"/>
    <Variable VarIndex="6" Expression="detrkqual.StrawHitFraction" Label="detrkqual.StrawHitFraction" Title="MatFraction" Unit="Fraction" Internal="detrkqual.StrawHitFraction" Type="F" Min="9.48717952e-01" Max="4.44444466e+00"/>
  </Variables>
  <Spectators NSpec="0"/>
  <Classes NClass="2">
    <Class Name="Background" Index="0"/>
    <Class Name="Signal" Index="1"/>
  </Classes>
  <Transformations NTransformations="1">
    <Transform Name="Normalize">
      <Selection>
        <Input NInputs="7">
          <Input Type="Variable" Label="detrkqual.NActiveHits" Expression="detrkqual.NActiveHits"/>
          <Input Type="Variable" Label="detrkqual.ActiveHitFraction" Expression="detrkqual.ActiveHitFraction"/>
          <Input Type="Variable" Label="detrkqual.Log10FitCon" Expression="detrkqual.Log10FitCon"/>
          <Input Type="Variable" Label="detrkqual.MomError" Expression="detrkqual.MomError"/>
          <Input Type="Variable" Label="detrkqual.T0Error" Expression="detrkqual.T0Error"/>
          <Input Type="Variable" Label="detrkqual.NullAmbigHitFraction" Expression="detrkqual.NullAmbigHitFraction"/>
          <Input Type="Variable" Label="detrkqual.StrawHitFraction" Expression="detrkqual.StrawHitFraction"/>
        </Input>
        <Output NOutputs="7">
          <Output Type="Variable" Label="detrkqual.NActiveHits" Expression="detrkqual.NActiveHits"/>
          <Output Type="Variable" Label="detrkqual.ActiveHitFraction" Expression="detrkqual.ActiveHitFraction"/>
          <Output Type="Variable" Label="detrkqual.Log10FitCon" Expression="detrkqual.Log10FitCon"/>
          <Output Type="Variable" Label="detrkqual.MomError" Expression="detrkqual.MomError"/>
          <Output Type="Variable" Label="detrkqual.T0Error" Expression="detrkqual.T0Error"/>
          <Output Type="Variable" Label="detrkqual.NullAmbigHitFraction" Expression="detrkqual.NullAmbigHitFraction"/>
          <Output Type="Variable" Label="detrkqual.StrawHitFraction" Expression="detrkqual.StrawHitFraction"/>
        </Output>
      </Selection>
      <Class ClassIndex="0">
        <Ranges>
          <Range Index="0" Min="1.4000000000000000e+01" Max="7.1000000000000000e+01"/>
          <Range Index="1" Min="3.4042552113533020e-01" Max="1.0000000000000000e+00"/>
          <Range Index="2" Min="-5.0000000000000000e+01" Max="-1.3046724234300200e-05"/>
          <Range Index="3" Min="7.6058022677898407e-02" Max="4.5685315132141113e+00"/>
          <Range Index="4" Min="9.7657628357410431e-02" Max="4.7172017097473145e+00"/>
          <Range Index="5" Min="0.0000000000000000e+00" Max="5.0000000000000000e-01"/>
          <Range Index="6" Min="9.5999997854232788e-01" Max="4.4444446563720703e+00"/>
        </Ranges>
      </Class>
      <Class ClassIndex="1">
        <Ranges>
          <Range Index="0" Min="1.4000000000000000e+01" Max="8.6000000000000000e+01"/>
          <Range Index="1" Min="5.8974361419677734e-01" Max="1.0000000000000000e+00"/>
          <Range Index="2" Min="-5.0000000000000000e+01" Max="0.0000000000000000e+00"/>
          <Range Index="3" Min="5.2859257906675339e-02" Max="8.6379057168960571e-01"/>
          <Range Index="4" Min="9.6072077751159668e-02" Max="3.6518876552581787e+00"/>
          <Range Index="5" Min="0.0000000000000000e+00" Max="5.0000000000000000e-01"/>
          <Range Index="6" Min="9.4871795177459717e-01" Max="2.9545454978942871e+00"/>
        </Ranges>
      </Class>
      <Class ClassIndex="2">
        <Ranges>
          <Range Index="0" Min="1.4000000000000000e+01" Max="8.6000000000000000e+01"/>
          <Range Index="1" Min="3.4042552113533020e-01" Max="1.0000000000000000e+00"/>
          <Range Index="2" Min="-5.0000000000000000e+01" Max="0.0000000000000000e+00"/>
          <Range Index="3" Min="5.2859257906675339e-02" Max="4.5685315132141113e+00"/>
          <Range Index="4" Min="9.6072077751159668e-02" Max="4.7172017097473145e+00"/>
          <Range Index="5" Min="0.0000000000000000e+00" Max="5.0000000000000000e-01"/>
          <Range Index="6" Min="9.4871795177459717e-01" Max="4.4444446563720703e+00"/>
        </Ranges>
      </Class>
    </Transform>
  </Transformations>
  <MVAPdfs/>
  <Weights>
    <Layout NLayers="4">
      <Layer Index="0" NNeurons="8">
        <Neuron NSynapses="7">
          -4.8367428005722191e-01 -2.6387697816333888e-01 9.3599717854261011e-01 9.1475719594676974e-01 -1.8326424590353788e-01 -8.9141469182409139e-01 -2.0444863221270484e-01 
        </Neuron>
        <Neuron NSynapses="7">
          1.8873315245263629e+00 -2.7150197836386489e+00 -9.0482049741370252e-01 3.7169546419040456e-01 1.7499956572770663e+00 -6.0746120855199537e-01 -1.4914121827518456e+00 
        </Neuron>
        <Neuron NSynapses="7">
          -5.6780054407704528e-01 1.6347750714879781e+00 1.0052800655642730e-01 4.2864984989411985e+00 4.2342838914864778e-01 8.7206361979271607e-01 -1.7739074864578532e+00 
        </Neuron>
        <Neuron NSynapses="7">
          -8.5407724402174989e-01 6.1105923925393695e+00 1.9008051910405106e+00 -8.1606459133155251e+00 7.7890568494879489e+00 3.5488506804021949e+00 3.8913472734801275e+00 
        </Neuron>
        <Neuron NSynapses="7">
          -1.9771967632012943e+00 -4.8112066923886215e-01 1.3556292158619565e+00 1.7804687452756216e+00 3.3840165653000809e+00 5.6667087759094703e-01 5.7118791964209270e-01 
        </Neuron>
        <Neuron NSynapses="7">
          -3.4753355825098436e-01 -1.9056992437232018e-01 1.5213118829356482e+00 -3.3544598089504685e-01 2.4425093494085406e-02 7.2251814281972493e-01 -2.0316441821930331e-01 
        </Neuron>
        <Neuron NSynapses="7">
          1.8050078556608529e+00 -1.1912344511761903e+00 -2.3016539811106913e-02 2.9606107753474037e-01 4.8209285719598522e+00 2.0143524366094506e-01 6.6588418466296861e-01 
        </Neuron>
        <Neuron NSynapses="7">
          1.7764841221415852e+00 5.4841012723519045e+00 4.8985924409687396e+00 -1.1004654858280126e+01 1.3032737951442195e+01 1.0565300008205668e-01 4.5906425790217451e+00 
        </Neuron>
      </Layer>
      <Layer Index="1" NNeurons="8">
        <Neuron NSynapses="6">
          -2.2592369413441626e+00 -1.2928560205637510e-01 7.8757891955474257e-01 5.7640199385905855e-01 -4.7812962284483657e-01 9.3713082391321778e-01 
        </Neuron>
        <Neuron NSynapses="6">
          2.1015593894259738e-01 -9.7772289261567974e-02 3.1857218108573870e+00 -1.5264013838256818e-01 -1.2064360659876072e+00 -3.9804783511356652e+00 
        </Neuron>
        <Neuron NSynapses="6">
          2.4331306062599505e+00 -3.1822304868162705e+00 -2.4744071566719159e-01 -1.2473649793663066e+00 -7.6738208986478457e-02 2.8851768330308986e-01 
        </Neuron>
        <Neuron NSynapses="6">
          -5.4778232007089256e-01 4.0139298507979664e+00 -3.8550297469548820e+00 -2.0363538587649574e+00 3.2651049010015107e+00 2.0088870030391037e+00 
        </Neuron>
        <Neuron NSynapses="6">
          6.4106156422231608e+00 -2.1019418128323473e+00 1.9161814509164230e+00 -5.6688036818962595e-01 -2.3982515994324660e+00 -1.4099710826449274e+00 
        </Neuron>
        <Neuron NSynapses="6">
          1.9285753029776849e+00 -1.8480977171938060e+00 -7.1863060394034839e-01 -1.4432755648578524e+00 -8.4814029737853003e-01 -1.8307139508130728e+00 
        </Neuron>
        <Neuron NSynapses="6">
          3.7175866379755940e+00 -3.3621550470648680e+00 7.7606701148382085e-01 2.0026749953890981e+00 -2.1117808957050674e+00 -3.2067619783571151e+00 
        </Neuron>
        <Neuron NSynapses="6">
          -2.1829004513545041e+00 1.4613681673936194e+00 -2.4873455682779082e+00 -1.7247781022196949e+00 1.6862923686701750e+00 1.9858421407672975e+00 
        </Neuron>
      </Layer>
      <Layer Index="2" NNeurons="7">
        <Neuron NSynapses="1">
          -6.3626621357324558e+00 
        </Neuron>
        <Neuron NSynapses="1">
          6.0452542136064338e+00 
        </Neuron>
        <Neuron NSynapses="1">
          -3.5160987653956055e+00 
        </Neuron>
        <Neuron NSynapses="1">
          -7.6367248318845626e-01 
        </Neuron>
        <Neuron NSynapses="1">
          4.4665139056149092e+00 
        </Neuron>
        <Neuron NSynapses="1">
          6.2993529701619995e+00 
        </Neuron>
        <Neuron NSynapses="1">
          6.0632097909975069e-01 
        </Neuron>
      </Layer>
      <Layer Index="3" NNeurons="1">
        <Neuron NSynapses="0"/>
      </Layer>
    </Layout>
  </Weights>
  <Calibration>
    <Calib Index="0" CalibVal="1" Val="0.999993"/>
    <Calib Index="1" CalibVal="0.99" Val="0.999943"/>
    <Calib Index="2" CalibVal="0.98" Val="0.999919"/>
    <Calib Index="3" CalibVal="0.97" Val="0.999897"/>
    <Calib Index="4" CalibVal="0.96" Val="0.999881"/>
    <Calib Index="5" CalibVal="0.95" Val="0.999851"/>
    <Calib Index="6" CalibVal="0.94" Val="0.999833"/>
    <Calib Index="7" CalibVal="0.93" Val="0.999805"/>
    <Calib Index="8" CalibVal="0.92" Val="0.999779"/>
    <Calib Index="9" CalibVal="0.91" Val="0.999749"/>
    <Calib Index="10" CalibVal="0.9" Val="0.999719"/>
    <Calib Index="11" CalibVal="0.89" Val="0.999697"/>
    <Calib Index="12" CalibVal="0.88" Val="0.999659"/>
    <Calib Index="13" CalibVal="0.87" Val="0.999627"/>
    <Calib Index="14" CalibVal="0.86" Val="0.999591"/>
    <Calib Index="15" CalibVal="0.85" Val="0.999553"/>
    <Calib Index="16" CalibVal="0.84" Val="0.999515"/>
    <Calib Index="17" CalibVal="0.83" Val="0.999473"/>
    <Calib Index="18" CalibVal="0.82" Val="0.999425"/>
    <Calib Index="19" CalibVal="0.81" Val="0.999377"/>
    <Calib Index="20" CalibVal="0.8" Val="0.999323"/>
    <Calib Index="21" CalibVal="0.79" Val="0.999271"/>
    <Calib Index="22" CalibVal="0.78" Val="0.999215"/>
    <Calib Index="23" CalibVal="0.77" Val="0.999151"/>
    <Calib Index="24" CalibVal="0.76" Val="0.999087"/>
    <Calib Index="25" CalibVal="0.75" Val="0.999015"/>
    <Calib Index="26" CalibVal="0.74" Val="0.998941"/>
    <Calib Index="27" CalibVal="0.73" Val="0.998859"/>
    <Calib Index="28" CalibVal="0.72" Val="0.998773"/>
    <Calib Index="29" CalibVal="0.71" Val="0.998683"/>
    <Calib Index="30" CalibVal="0.7" Val="0.998585"/>
    <Calib Index="31" CalibVal="0.69" Val="0.998479"/>
    <Calib Index="32" CalibVal="0.68" Val="0.998371"/>
    <Calib Index="33" CalibVal="0.67" Val="0.998249"/>
    <Calib Index="34" CalibVal="0.66" Val="0.998119"/>
    <Calib Index="35" CalibVal="0.65" Val="0.997981"/>
    <Calib Index="36" CalibVal="0.64" Val="0.997837"/>
    <Calib Index="37" CalibVal="0.63" Val="0.997675"/>
    <Calib Index="38" CalibVal="0.62" Val="0.997509"/>
    <Calib Index="39" CalibVal="0.61" Val="0.997327"/>
    <Calib Index="40" CalibVal="0.6" Val="0.997127"/>
    <Calib Index="41" CalibVal="0.59" Val="0.996921"/>
    <Calib Index="42" CalibVal="0.58" Val="0.996693"/>
    <Calib Index="43" CalibVal="0.57" Val="0.996453"/>
    <Calib Index="44" CalibVal="0.56" Val="0.996189"/>
    <Calib Index="45" CalibVal="0.55" Val="0.995903"/>
    <Calib Index="46" CalibVal="0.54" Val="0.995591"/>
    <Calib Index="47" CalibVal="0.53" Val="0.995251"/>
    <Calib Index="48" CalibVal="0.52" Val="0.994899"/>
    <Calib Index="49" CalibVal="0.51" Val="0.994511"/>
    <Calib Index="50" CalibVal="0.5" Val="0.994073"/>
    <Calib Index="51" CalibVal="0.49" Val="0.993609"/>
    <Calib Index="52" CalibVal="0.48" Val="0.993099"/>
    <Calib Index="53" CalibVal="0.47" Val="0.992529"/>
    <Calib Index="54" CalibVal="0.46" Val="0.991917"/>
    <Calib Index="55" CalibVal="0.45" Val="0.991261"/>
    <Calib Index="56" CalibVal="0.44" Val="0.990527"/>
    <Calib Index="57" CalibVal="0.43" Val="0.989741"/>
    <Calib Index="58" CalibVal="0.42" Val="0.988867"/>
    <Calib Index="59" CalibVal="0.41" Val="0.987919"/>
    <Calib Index="60" CalibVal="0.4" Val="0.986867"/>
    <Calib Index="61" CalibVal="0.39" Val="0.985691"/>
    <Calib Index="62" CalibVal="0.38" Val="0.984411"/>
    <Calib Index="63" CalibVal="0.37" Val="0.983005"/>
    <Calib Index="64" CalibVal="0.36" Val="0.981427"/>
    <Calib Index="65" CalibVal="0.35" Val="0.979693"/>
    <Calib Index="66" CalibVal="0.34" Val="0.977711"/>
    <Calib Index="67" CalibVal="0.33" Val="0.975549"/>
    <Calib Index="68" CalibVal="0.32" Val="0.973089"/>
    <Calib Index="69" CalibVal="0.31" Val="0.970411"/>
    <Calib Index="70" CalibVal="0.3" Val="0.967319"/>
    <Calib Index="71" CalibVal="0.29" Val="0.963799"/>
    <Calib Index="72" CalibVal="0.28" Val="0.959865"/>
    <Calib Index="73" CalibVal="0.27" Val="0.955309"/>
    <Calib Index="74" CalibVal="0.26" Val="0.950291"/>
    <Calib Index="75" CalibVal="0.25" Val="0.944601"/>
    <Calib Index="76" CalibVal="0.24" Val="0.937887"/>
    <Calib Index="77" CalibVal="0.23" Val="0.930195"/>
    <Calib Index="78" CalibVal="0.22" Val="0.921099"/>
    <Calib Index="79" CalibVal="0.21" Val="0.911037"/>
    <Calib Index="80" CalibVal="0.2" Val="0.899219"/>
    <Calib Index="81" CalibVal="0.19" Val="0.885247"/>
    <Calib Index="82" CalibVal="0.18" Val="0.868847"/>
    <Calib Index="83" CalibVal="0.17" Val="0.850043"/>
    <Calib Index="84" CalibVal="0.16" Val="0.828057"/>
    <Calib Index="85" CalibVal="0.15" Val="0.802435"/>
    <Calib Index="86" CalibVal="0.14" Val="0.773003"/>
    <Calib Index="87" CalibVal="0.13" Val="0.737451"/>
    <Calib Index="88" CalibVal="0.12" Val="0.695897"/>
    <Calib Index="89" CalibVal="0.11" Val="0.647087"/>
    <Calib Index="90" CalibVal="0.1" Val="0.589603"/>
    <Calib Index="91" CalibVal="0.09" Val="0.526073"/>
    <Calib Index="92" CalibVal="0.08" Val="0.457203"/>
    <Calib Index="93" CalibVal="0.07" Val="0.381613"/>
    <Calib Index="94" CalibVal="0.06" Val="0.299953"/>
    <Calib Index="95" CalibVal="0.05" Val="0.220967"/>
    <Calib Index="96" CalibVal="0.04" Val="0.148327"/>
    <Calib Index="97" CalibVal="0.03" Val="0.085503"/>
    <Calib Index="98" CalibVal="0.02" Val="0.036463"/>
    <Calib Index="99" CalibVal="0.01" Val="0.007343"/>
    <Calib Index="100" CalibVal="0" Val="0.0"/>
  </Calibration>
</MethodSetup>








