<?xml version="1.0"?>
<MethodSetup Method="MLP::MLPRelu">
  <GeneralInfo>
    <Info name="TMVA Release" value="4.2.1 [262657]"/>
    <Info name="ROOT Release" value="6.32/12 [401420]"/>
    <Info name="Creator" value="echenard"/>
    <Info name="Date" value="Thu Nov  6 16:44:08 2025"/>
    <Info name="Host" value="Linux vbox 5.14.0-503.11.1.el9_5.x86_64 #1 SMP PREEMPT_DYNAMIC Tue Nov 12 09:26:13 EST 2024 x86_64 x86_64 x86_64 GNU/Linux"/>
    <Info name="Dir" value="/home/echenard/Work/Mu2e/CaloTrig"/>
    <Info name="Training events" value="22537"/>
    <Info name="TrainingTime" value="8.21549819e+01"/>
    <Info name="AnalysisType" value="Classification"/>
  </GeneralInfo>
  <Options>
    <Option name="NCycles" modified="Yes">1000</Option>
    <Option name="HiddenLayers" modified="Yes">N</Option>
    <Option name="NeuronType" modified="Yes">ReLU</Option>
    <Option name="RandomSeed" modified="No">1</Option>
    <Option name="EstimatorType" modified="No">CE</Option>
    <Option name="NeuronInputType" modified="No">sum</Option>
    <Option name="V" modified="Yes">False</Option>
    <Option name="VerbosityLevel" modified="No">Default</Option>
    <Option name="VarTransform" modified="Yes">U</Option>
    <Option name="H" modified="Yes">True</Option>
    <Option name="CreateMVAPdfs" modified="No">False</Option>
    <Option name="IgnoreNegWeightsInTraining" modified="No">False</Option>
    <Option name="TrainingMethod" modified="No">BP</Option>
    <Option name="LearningRate" modified="No">2.000000e-02</Option>
    <Option name="DecayRate" modified="No">1.000000e-02</Option>
    <Option name="TestRate" modified="No">10</Option>
    <Option name="EpochMonitoring" modified="No">False</Option>
    <Option name="Sampling" modified="No">1.000000e+00</Option>
    <Option name="SamplingEpoch" modified="No">1.000000e+00</Option>
    <Option name="SamplingImportance" modified="No">1.000000e+00</Option>
    <Option name="SamplingTraining" modified="No">True</Option>
    <Option name="SamplingTesting" modified="No">False</Option>
    <Option name="ResetStep" modified="No">50</Option>
    <Option name="Tau" modified="No">3.000000e+00</Option>
    <Option name="BPMode" modified="No">sequential</Option>
    <Option name="BatchSize" modified="No">-1</Option>
    <Option name="ConvergenceImprove" modified="No">1.000000e-30</Option>
    <Option name="ConvergenceTests" modified="No">-1</Option>
    <Option name="UseRegulator" modified="No">False</Option>
    <Option name="UpdateLimit" modified="No">10000</Option>
    <Option name="CalculateErrors" modified="No">False</Option>
    <Option name="WeightRange" modified="No">1.000000e+00</Option>
  </Options>
  <Variables NVar="9">
    <Variable VarIndex="0" Expression="cluEnergy" Label="cluEnergy" Title="cluEnergy" Unit="F" Internal="cluEnergy" Type="F" Min="6.00078125e+01" Max="1.60765625e+02"/>
    <Variable VarIndex="1" Expression="cluCogR" Label="cluCogR" Title="cluCogR" Unit="F" Internal="cluCogR" Type="F" Min="3.75864258e+02" Max="6.34877258e+02"/>
    <Variable VarIndex="2" Expression="cluTime" Label="cluTime" Title="cluTime" Unit="F" Internal="cluTime" Type="F" Min="3.37124390e+02" Max="1.59975903e+03"/>
    <Variable VarIndex="3" Expression="cluNcrys" Label="cluNcrys" Title="cluNcrys" Unit="F" Internal="cluNcrys" Type="F" Min="1.00000000e+00" Max="2.30000000e+01"/>
    <Variable VarIndex="4" Expression="cluE1/cluEnergy" Label="cluE1/cluEnergy" Title="cluE1" Unit="F" Internal="cluE1_D_cluEnergy" Type="F" Min="1.59261957e-01" Max="1.00000000e+00"/>
    <Variable VarIndex="5" Expression="cluE2/cluEnergy" Label="cluE2/cluEnergy" Title="cluE2" Unit="F" Internal="cluE2_D_cluEnergy" Type="F" Min="2.84413695e-01" Max="1.00000000e+00"/>
    <Variable VarIndex="6" Expression="cluE9/cluEnergy" Label="cluE9/cluEnergy" Title="cluE9" Unit="F" Internal="cluE9_D_cluEnergy" Type="F" Min="1.89413264e-01" Max="1.00000000e+00"/>
    <Variable VarIndex="7" Expression="cluE25/cluEnergy" Label="cluE25/cluEnergy" Title="cluE25" Unit="F" Internal="cluE25_D_cluEnergy" Type="F" Min="2.47116044e-01" Max="1.00000000e+00"/>
    <Variable VarIndex="8" Expression="cluSec" Label="cluSec" Title="cluSec" Unit="F" Internal="cluSec" Type="F" Min="-4.80562449e-07" Max="2.81511425e+06"/>
  </Variables>
  <Spectators NSpec="0"/>
  <Classes NClass="2">
    <Class Name="Signal" Index="0"/>
    <Class Name="Background" Index="1"/>
  </Classes>
  <Transformations NTransformations="1">
    <Transform Name="Gauss" FlatOrGauss="Flat">
      <Selection>
        <Input NInputs="9">
          <Input Type="Variable" Label="cluEnergy" Expression="cluEnergy"/>
          <Input Type="Variable" Label="cluCogR" Expression="cluCogR"/>
          <Input Type="Variable" Label="cluTime" Expression="cluTime"/>
          <Input Type="Variable" Label="cluNcrys" Expression="cluNcrys"/>
          <Input Type="Variable" Label="cluE1/cluEnergy" Expression="cluE1/cluEnergy"/>
          <Input Type="Variable" Label="cluE2/cluEnergy" Expression="cluE2/cluEnergy"/>
          <Input Type="Variable" Label="cluE9/cluEnergy" Expression="cluE9/cluEnergy"/>
          <Input Type="Variable" Label="cluE25/cluEnergy" Expression="cluE25/cluEnergy"/>
          <Input Type="Variable" Label="cluSec" Expression="cluSec"/>
        </Input>
        <Output NOutputs="9">
          <Output Type="Variable" Label="cluEnergy" Expression="cluEnergy"/>
          <Output Type="Variable" Label="cluCogR" Expression="cluCogR"/>
          <Output Type="Variable" Label="cluTime" Expression="cluTime"/>
          <Output Type="Variable" Label="cluNcrys" Expression="cluNcrys"/>
          <Output Type="Variable" Label="cluE1/cluEnergy" Expression="cluE1/cluEnergy"/>
          <Output Type="Variable" Label="cluE2/cluEnergy" Expression="cluE2/cluEnergy"/>
          <Output Type="Variable" Label="cluE9/cluEnergy" Expression="cluE9/cluEnergy"/>
          <Output Type="Variable" Label="cluE25/cluEnergy" Expression="cluE25/cluEnergy"/>
          <Output Type="Variable" Label="cluSec" Expression="cluSec"/>
        </Output>
      </Selection>
      <Variable VarIndex="0">
        <CumulativePDF_cls0>
          <PDF Name="GaussTransform var0 cls0" MinNSmooth="0" MaxNSmooth="0" InterpolMethod="1" KDE_type="0" KDE_iter="1" KDE_border="1" KDE_finefactor="0.0000000000000000e+00">
            <Histogram Name="Cumulative_Var0_cls0_original" NBins="1897" XMin="6.0007713317871094e+01" XMax="1.4205468750000000e+02" HasEquidistantBins="0">
              3.87861859e-04 8.69345560e-04 1.40098378e-03 1.93930930e-03 2.47429125e-03 3.00927297e-03 3.54425493e-03 4.07923665e-03 4.61421860e-03 5.14920056e-03 5.68418251e-03 6.21916447e-03 6.75414596e-03 7.28912791e-03 7.82410987e-03 8.35909136e-03 8.89407378e-03 9.42905527e-03 9.96403769e-03 1.04990192e-02 1.10340007e-02 1.15689831e-02 1.21039646e-02 1.26389470e-02 1.31739285e-02 1.37089100e-02 1.42438924e-02 1.47788739e-02 1.53138563e-02 1.58488378e-02 1.63860489e-02 1.69277173e-02 1.74582414e-02 1.79575589e-02 1.84390415e-02 1.89361293e-02 1.94599647e-02 1.99949481e-02 2.05299295e-02 2.10649110e-02 2.15998925e-02 2.21348740e-02 2.26698574e-02 2.32048389e-02 2.37398203e-02 2.42748018e-02 2.48097852e-02 2.53447667e-02 2.58797482e-02 2.64147297e-02 2.69497111e-02 2.74846945e-02 2.80196760e-02 2.85546575e-02 2.90896390e-02 2.96246205e-02 3.01596038e-02 3.06945853e-02 3.12295668e-02 3.17645483e-02 3.22995298e-02 3.28345113e-02 3.33694927e-02 3.39044742e-02 3.44394594e-02 3.49744409e-02 3.55094224e-02 3.60444039e-02 3.65793854e-02 3.71143669e-02 3.76493484e-02 3.81843299e-02 3.87193114e-02 3.92542966e-02 3.97892781e-02 4.03242595e-02 4.08592410e-02 4.13942225e-02 4.19292040e-02 4.24641855e-02 4.29991670e-02 4.35341485e-02 4.40691300e-02 4.46041152e-02 4.51390967e-02 4.56740782e-02 4.62090597e-02 4.67440411e-02 4.72790226e-02 4.78140041e-02 4.83489856e-02 4.88839671e-02 4.94189486e-02 4.99539338e-02 5.04889153e-02 5.10238968e-02 5.15588783e-02 5.20938598e-02 5.26288413e-02 5.31638227e-02 5.36988042e-02 5.42337857e-02 5.47687672e-02 5.53037524e-02 5.58387339e-02 5.63737154e-02 5.69086969e-02 5.74436784e-02 5.79786599e-02 5.85136414e-02 5.90486228e-02 5.95836043e-02 6.01185896e-02 6.06535710e-02 6.11774065e-02 6.16752356e-02 6.21582046e-02 6.26560375e-02 6.31798729e-02 6.37148544e-02 6.42498359e-02 6.47848174e-02 6.53197989e-02 6.58547804e-02 6.63897619e-02 6.69247434e-02 6.74597248e-02 6.79947063e-02 6.85296953e-02 6.90646768e-02 6.95996583e-02 7.01346397e-02 7.06696212e-02 7.12046027e-02 7.17395842e-02 7.22745657e-02 7.28095472e-02 7.33445287e-02 7.38795102e-02 7.44144917e-02 7.49494731e-02 7.54844546e-02 7.60194361e-02 7.65544176e-02 7.70893991e-02 7.76243806e-02 7.81593621e-02 7.86943436e-02 7.92293325e-02 7.97643140e-02 8.02992955e-02 8.08476508e-02 8.14227536e-02 8.20112377e-02 8.25997144e-02 8.31881985e-02 8.37766752e-02 8.43651518e-02 8.49402621e-02 8.55053365e-02 8.60737562e-02 8.66254568e-02 8.71604383e-02 8.76954198e-02 8.82304013e-02 8.87653828e-02 8.93003643e-02 8.98241997e-02 9.03220326e-02 9.08050016e-02 9.13028270e-02 9.18266624e-02 9.23616514e-02 9.28966329e-02 9.34316143e-02 9.39665958e-02 9.45015773e-02 9.50365588e-02 9.55715403e-02 9.61065218e-02 9.66415033e-02 9.71764848e-02 9.77114663e-02 9.82464477e-02 9.87814292e-02 9.93164107e-02 9.98513922e-02 1.00386374e-01 1.00921355e-01 1.01456337e-01 1.01991318e-01 1.02526300e-01 1.03061289e-01 1.03596270e-01 1.04131252e-01 1.04666233e-01 1.05201215e-01 1.05736196e-01 1.06271178e-01 1.06806159e-01 1.07341141e-01 1.07876122e-01 1.08411103e-01 1.08946085e-01 1.09481066e-01 1.10016048e-01 1.10551029e-01 1.11086011e-01 1.11620992e-01 1.12153746e-01 1.12695418e-01 1.13266066e-01 1.13854542e-01 1.14425190e-01 1.14966862e-01 1.15486242e-01 1.15981095e-01 1.16462581e-01 1.16944067e-01 1.17425546e-01 1.17920406e-01 1.18442014e-01 1.18976995e-01 1.19511977e-01 1.20046958e-01 1.20581940e-01 1.21116921e-01 1.21651903e-01 1.22186884e-01 1.22721866e-01 1.23256847e-01 1.23791836e-01 1.24326818e-01 1.24861799e-01 1.25396773e-01 1.25931755e-01 1.26466736e-01 1.27001718e-01 1.27536699e-01 1.28071681e-01 1.28606662e-01 1.29141659e-01 1.29676640e-01 1.30211622e-01 1.30746603e-01 1.31281585e-01 1.31816566e-01 1.32351547e-01 1.32886529e-01 1.33421510e-01 1.33956492e-01 1.34491473e-01 1.35026455e-01 1.35561436e-01 1.36096418e-01 1.36631399e-01 1.37166381e-01 1.37701362e-01 1.38236344e-01 1.38771325e-01 1.39306307e-01 1.39841288e-01 1.40376270e-01 1.40911251e-01 1.41446233e-01 1.41981214e-01 1.42529577e-01 1.43104672e-01 1.43693164e-01 1.44281641e-01 1.44870117e-01 1.45458594e-01 1.46013647e-01 1.46521881e-01 1.47016734e-01 1.47511587e-01 1.48026511e-01 1.48561493e-01 1.49096474e-01 1.49631456e-01 1.50166437e-01 1.50701419e-01 1.51236400e-01 1.51771381e-01 1.52295217e-01 1.52792305e-01 1.53273791e-01 1.53773114e-01 1.54303625e-01 1.54845297e-01 1.55382514e-01 1.55917495e-01 1.56452477e-01 1.56987458e-01 1.57522440e-01 1.58057421e-01 1.58592403e-01 1.59127384e-01 1.59662366e-01 1.60197347e-01 1.60732329e-01 1.61267310e-01 1.61802292e-01 1.62352875e-01 1.62939876e-01 1.63547680e-01 1.64134666e-01 1.64685249e-01 1.65220231e-01 1.65755212e-01 1.66290194e-01 1.66825175e-01 1.67360157e-01 1.67895138e-01 1.68430120e-01 1.68965101e-01 1.69500083e-01 1.70035064e-01 1.70570046e-01 1.71105042e-01 1.71640024e-01 1.72175005e-01 1.72709987e-01 1.73244968e-01 1.73779950e-01 1.74301550e-01 1.74796402e-01 1.75277889e-01 1.75759375e-01 1.76240861e-01 1.76735714e-01 1.77257329e-01 1.77792311e-01 1.78327292e-01 1.78862274e-01 1.79397255e-01 1.79945603e-01 1.80520713e-01 1.81109190e-01 1.81697682e-01 1.82272777e-01 1.82821140e-01 1.83356121e-01 1.83891103e-01 1.84426084e-01 1.84961066e-01 1.85496047e-01 1.86031029e-01 1.86566010e-01 1.87114373e-01 1.87689468e-01 1.88277960e-01 1.88866436e-01 1.89454913e-01 1.90043390e-01 1.90631866e-01 1.91206977e-01 1.91755340e-01 1.92290321e-01 1.92825302e-01 1.93360284e-01 1.93895265e-01 1.94430247e-01 1.94965228e-01 1.95500210e-01 1.96035191e-01 1.96570173e-01 1.97105154e-01 1.97640136e-01 1.98175117e-01 1.98710099e-01 1.99245080e-01 1.99780062e-01 2.00315043e-01 2.00850025e-01 2.01385006e-01 2.01919988e-01 2.02454969e-01 2.02989951e-01 2.03524932e-01 2.04059914e-01 2.04594895e-01 2.05129877e-01 2.05664858e-01 2.06186473e-01 2.06681326e-01 2.07162812e-01 2.07644299e-01 2.08139151e-01 2.08660766e-01 2.09195748e-01 2.09730729e-01 2.10265711e-01 2.10800692e-01 2.11312264e-01 2.11777031e-01 2.12275237e-01 2.12887123e-01 2.13499010e-01 2.13997200e-01 2.14461967e-01 2.14973554e-01 2.15508536e-01 2.16043517e-01 2.16578498e-01 2.17100099e-01 2.17594966e-01 2.18076438e-01 2.18557924e-01 2.19039410e-01 2.19520897e-01 2.20002383e-01 2.20483854e-01 2.20965341e-01 2.21446827e-01 2.21928313e-01 2.22409800e-01 2.22904652e-01 2.23426268e-01 2.23961249e-01 2.24496230e-01 2.25031212e-01 2.25566193e-01 2.26073310e-01 2.26520240e-01 2.26948231e-01 2.27431387e-01 2.28004813e-01 2.28646800e-01 2.29270935e-01 2.29841024e-01 2.30412230e-01 2.31000707e-01 2.31575817e-01 2.32124180e-01 2.32659161e-01 2.33194143e-01 2.33729124e-01 2.34264106e-01 2.34799087e-01 2.35334069e-01 2.35855669e-01 2.36350536e-01 2.36832023e-01 2.37313494e-01 2.37794980e-01 2.38276467e-01 2.38771319e-01 2.39292935e-01 2.39827916e-01 2.40362898e-01 2.40897879e-01 2.41432860e-01 2.41967842e-01 2.42502823e-01 2.43037805e-01 2.43572786e-01 2.44107768e-01 2.44642749e-01 2.45177731e-01 2.45712712e-01 2.46247694e-01 2.46782675e-01 2.47317657e-01 2.47852638e-01 2.48387620e-01 2.48922601e-01 2.49457583e-01 2.49992564e-01 2.50527561e-01 2.51062542e-01 2.51570761e-01 2.52052248e-01 2.52533734e-01 2.53041953e-01 2.53603697e-01 2.54168779e-01 2.54710436e-01 2.55248755e-01 2.55783737e-01 2.56318718e-01 2.56840348e-01 2.57335186e-01 2.57816672e-01 2.58298159e-01 2.58779645e-01 2.59261131e-01 2.59742618e-01 2.60224104e-01 2.60705590e-01 2.61187077e-01 2.61668563e-01 2.62150019e-01 2.62644887e-01 2.63166487e-01 2.63701469e-01 2.64236450e-01 2.64771432e-01 2.65306413e-01 2.65841395e-01 2.66376376e-01 2.66911358e-01 2.67446339e-01 2.67981321e-01 2.68516332e-01 2.69051313e-01 2.69586295e-01 2.70121276e-01 2.70656258e-01 2.71191239e-01 2.71726221e-01 2.72247821e-01 2.72742689e-01 2.73224145e-01 2.73705631e-01 2.74187118e-01 2.74668604e-01 2.75150090e-01 2.75631577e-01 2.76113063e-01 2.76594549e-01 2.77076036e-01 2.77574241e-01 2.78089136e-01 2.78604060e-01 2.79132366e-01 2.79670686e-01 2.80219048e-01 2.80794144e-01 2.81382620e-01 2.81971097e-01 2.82559603e-01 2.83148080e-01 2.83736557e-01 2.84311652e-01 2.84860015e-01 2.85394996e-01 2.85929978e-01 2.86464959e-01 2.86996603e-01 2.87520438e-01 2.88039804e-01 2.88563639e-01 2.89108664e-01 2.89683759e-01 2.90272236e-01 2.90860713e-01 2.91449219e-01 2.92037696e-01 2.92626172e-01 2.93214649e-01 2.93803126e-01 2.94378221e-01 2.94926584e-01 2.95461565e-01 2.95996547e-01 2.96531528e-01 2.97030836e-01 2.97446936e-01 2.97815502e-01 2.98231602e-01 2.98730910e-01 2.99265891e-01 2.99800873e-01 3.00335854e-01 3.00870836e-01 3.01405817e-01 3.01940799e-01 3.02475780e-01 3.03010762e-01 3.03545743e-01 3.04080725e-01 3.04615706e-01 3.05150688e-01 3.05685669e-01 3.06220651e-01 3.06755632e-01 3.07290614e-01 3.07825595e-01 3.08360577e-01 3.08895558e-01 3.09430540e-01 3.09965521e-01 3.10500503e-01 3.11035484e-01 3.11543733e-01 3.12028557e-01 3.12516719e-01 3.13001543e-01 3.13483030e-01 3.13964516e-01 3.14472735e-01 3.15007716e-01 3.15542698e-01 3.16091061e-01 3.16666186e-01 3.17254663e-01 3.17843139e-01 3.18431616e-01 3.18993330e-01 3.19501579e-01 3.19983065e-01 3.20464551e-01 3.20946038e-01 3.21427524e-01 3.21908981e-01 3.22403848e-01 3.22925448e-01 3.23460430e-01 3.23995411e-01 3.24530393e-01 3.25065374e-01 3.25600356e-01 3.26118618e-01 3.26603472e-01 3.27071577e-01 3.27539682e-01 3.28064620e-01 3.28703254e-01 3.29398751e-01 3.30094218e-01 3.30709457e-01 3.31164181e-01 3.31538677e-01 3.31913143e-01 3.32287639e-01 3.32715631e-01 3.33250612e-01 3.33839089e-01 3.34427565e-01 3.35016042e-01 3.35604519e-01 3.36192995e-01 3.36781502e-01 3.37353259e-01 3.37891579e-01 3.38399798e-01 3.38881284e-01 3.39349389e-01 3.39817524e-01 3.40319067e-01 3.40887487e-01 3.41489345e-01 3.42091173e-01 3.42676312e-01 3.43228012e-01 3.43762994e-01 3.44297975e-01 3.44832957e-01 3.45367938e-01 3.45902920e-01 3.46437901e-01 3.46972883e-01 3.47507864e-01 3.48042846e-01 3.48577827e-01 3.49112809e-01 3.49636644e-01 3.50133747e-01 3.50615233e-01 3.51114541e-01 3.51645082e-01 3.52186739e-01 3.52723956e-01 3.53258938e-01 3.53793919e-01 3.54328901e-01 3.54863882e-01 3.55398864e-01 3.55947226e-01 3.56522322e-01 3.57110798e-01 3.57699275e-01 3.58287752e-01 3.58876228e-01 3.59464735e-01 3.60053211e-01 3.60641688e-01 3.61230165e-01 3.61818641e-01 3.62407118e-01 3.62995595e-01 3.63584071e-01 3.64172548e-01 3.64747673e-01 3.65296036e-01 3.65817636e-01 3.66312504e-01 3.66793960e-01 3.67275447e-01 3.67756933e-01 3.68238419e-01 3.68733287e-01 3.69254887e-01 3.69789869e-01 3.70324850e-01 3.70859832e-01 3.71381432e-01 3.71876299e-01 3.72357786e-01 3.72839272e-01 3.73320758e-01 3.73802245e-01 3.74283731e-01 3.74765217e-01 3.75246674e-01 3.75728160e-01 3.76209646e-01 3.76704514e-01 3.77252877e-01 3.77841353e-01 3.78403068e-01 3.78938049e-01 3.79473031e-01 3.80008012e-01 3.80542994e-01 3.81064624e-01 3.81559461e-01 3.82037610e-01 3.82509053e-01 3.82990539e-01 3.83498788e-01 3.84037107e-01 3.84608865e-01 3.85197341e-01 3.85785818e-01 3.86360943e-01 3.86909276e-01 3.87444288e-01 3.87965888e-01 3.88460726e-01 3.88942212e-01 3.89423698e-01 3.89905185e-01 3.90413433e-01 3.90975147e-01 3.91563624e-01 3.92152101e-01 3.92740607e-01 3.93329084e-01 3.93917561e-01 3.94506037e-01 3.95081133e-01 3.95629495e-01 3.96164477e-01 3.96668255e-01 3.97099197e-01 3.97488564e-01 3.97919506e-01 3.98423284e-01 3.98960501e-01 3.99502158e-01 4.00032699e-01 4.00532007e-01 4.01011258e-01 4.01503891e-01 4.02025491e-01 4.02560472e-01 4.03095454e-01 4.03630435e-01 4.04165417e-01 4.04700398e-01 4.05235380e-01 4.05770361e-01 4.06305343e-01 4.06826407e-01 4.07317370e-01 4.07798856e-01 4.08309311e-01 4.08864439e-01 4.09448922e-01 4.10025239e-01 4.10573334e-01 4.11108315e-01 4.11643296e-01 4.12178278e-01 4.12699878e-01 4.13194746e-01 4.13676232e-01 4.14157689e-01 4.14639175e-01 4.15120661e-01 4.15628910e-01 4.16190624e-01 4.16779101e-01 4.17367578e-01 4.17956084e-01 4.18544561e-01 4.19133037e-01 4.19708133e-01 4.20256495e-01 4.20778096e-01 4.21272963e-01 4.21754450e-01 4.22235936e-01 4.22757536e-01 4.23359394e-01 4.24001366e-01 4.24643338e-01 4.25285310e-01 4.25913930e-01 4.26502407e-01 4.27050769e-01 4.27585751e-01 4.28120732e-01 4.28655714e-01 4.29190695e-01 4.29725677e-01 4.30260658e-01 4.30795640e-01 4.31361258e-01 4.31990802e-01 4.32630748e-01 4.33168888e-01 4.33546245e-01 4.33833152e-01 4.34198797e-01 4.34719592e-01 4.35308069e-01 4.35896546e-01 4.36485022e-01 4.37073499e-01 4.37641919e-01 4.38161284e-01 4.38645005e-01 4.39137638e-01 4.39659238e-01 4.40194219e-01 4.40729201e-01 4.41264182e-01 4.41772431e-01 4.42227155e-01 4.42655146e-01 4.43083137e-01 4.43511128e-01 4.43935752e-01 4.44367081e-01 4.44821835e-01 4.45303291e-01 4.45811540e-01 4.46349859e-01 4.46921617e-01 4.47510093e-01 4.48100269e-01 4.48693752e-01 4.49262172e-01 4.49770391e-01 4.50242400e-01 4.50744510e-01 4.51326311e-01 4.51968282e-01 4.52592432e-01 4.53158617e-01 4.53710318e-01 4.54293221e-01 4.54901785e-01 4.55516994e-01 4.56132233e-01 4.56714034e-01 4.57228929e-01 4.57710415e-01 4.58191901e-01 4.58673388e-01 4.59168255e-01 4.59689856e-01 4.60224837e-01 4.60773200e-01 4.61348295e-01 4.61936772e-01 4.62525249e-01 4.63113755e-01 4.63702232e-01 4.64277327e-01 4.64825690e-01 4.65360671e-01 4.65895653e-01 4.66430634e-01 4.66965616e-01 4.67500597e-01 4.68035579e-01 4.68570560e-01 4.69105542e-01 4.69640523e-01 4.70175505e-01 4.70710486e-01 4.71245468e-01 4.71793830e-01 4.72368926e-01 4.72957402e-01 4.73548114e-01 4.74129915e-01 4.74682719e-01 4.75217700e-01 4.75770533e-01 4.76354539e-01 4.76949722e-01 4.77540433e-01 4.78128910e-01 4.78730768e-01 4.79359359e-01 4.80001330e-01 4.80643302e-01 4.81285304e-01 4.81887162e-01 4.82408762e-01 4.82876867e-01 4.83318239e-01 4.83746201e-01 4.84174192e-01 4.84602183e-01 4.85030174e-01 4.85498279e-01 4.86053884e-01 4.86655176e-01 4.87212449e-01 4.87693936e-01 4.88141984e-01 4.88598377e-01 4.89071518e-01 4.89553005e-01 4.90034491e-01 4.90515947e-01 4.90997434e-01 4.91478920e-01 4.91993845e-01 4.92577881e-01 4.93197560e-01 4.93808329e-01 4.94403481e-01 4.94991988e-01 4.95580465e-01 4.96168941e-01 4.96744037e-01 4.97292399e-01 4.97827381e-01 4.98362362e-01 4.98897344e-01 4.99432325e-01 4.99967307e-01 5.00502288e-01 5.01037300e-01 5.01572251e-01 5.02107263e-01 5.02642214e-01 5.03177226e-01 5.03698826e-01 5.04193664e-01 5.04675150e-01 5.05156636e-01 5.05638123e-01 5.06106198e-01 5.06547570e-01 5.06975591e-01 5.07403553e-01 5.07858276e-01 5.08366525e-01 5.08901477e-01 5.09436488e-01 5.09971440e-01 5.10506451e-01 5.11041403e-01 5.11576414e-01 5.12111366e-01 5.12646377e-01 5.13181388e-01 5.13716340e-01 5.14266908e-01 5.14853895e-01 5.15461743e-01 5.16048729e-01 5.16599298e-01 5.17134309e-01 5.17669261e-01 5.18235981e-01 5.18872976e-01 5.19541681e-01 5.20158589e-01 5.20680785e-01 5.21141052e-01 5.21620333e-01 5.22156417e-01 5.22718132e-01 5.23273170e-01 5.23814857e-01 5.24349868e-01 5.24884820e-01 5.25419831e-01 5.25954783e-01 5.26476383e-01 5.26971281e-01 5.27452767e-01 5.27934253e-01 5.28415740e-01 5.28897166e-01 5.29378653e-01 5.29843450e-01 5.30274749e-01 5.30689359e-01 5.31103969e-01 5.31545341e-01 5.32049716e-01 5.32591939e-01 5.33102930e-01 5.33555984e-01 5.33984005e-01 5.34411967e-01 5.34839928e-01 5.35294712e-01 5.35802901e-01 5.36337912e-01 5.36872864e-01 5.37407875e-01 5.37942827e-01 5.38477838e-01 5.39012790e-01 5.39547801e-01 5.40069401e-01 5.40564239e-01 5.41045725e-01 5.41527212e-01 5.42012036e-01 5.42503595e-01 5.42985022e-01 5.43439806e-01 5.43864429e-01 5.44255614e-01 5.44630110e-01 5.45004606e-01 5.45437634e-01 5.46009481e-01 5.46668649e-01 5.47268331e-01 5.47738850e-01 5.48144102e-01 5.48557520e-01 5.48983514e-01 5.49411535e-01 5.49839497e-01 5.50267518e-01 5.50708830e-01 5.51176965e-01 5.51658452e-01 5.52139938e-01 5.52640915e-01 5.53189635e-01 5.53773284e-01 5.54348767e-01 5.54896593e-01 5.55431545e-01 5.55966556e-01 5.56501508e-01 5.57036519e-01 5.57571471e-01 5.58106482e-01 5.58641434e-01 5.59176445e-01 5.59711397e-01 5.60246408e-01 5.60805321e-01 5.61423361e-01 5.62083185e-01 5.62725127e-01 5.63309133e-01 5.63849151e-01 5.64381361e-01 5.64916313e-01 5.65451324e-01 5.65986276e-01 5.66521287e-01 5.67056239e-01 5.67591250e-01 5.68126202e-01 5.68661213e-01 5.69182813e-01 5.69677651e-01 5.70159137e-01 5.70640624e-01 5.71135521e-01 5.71657121e-01 5.72205484e-01 5.72780550e-01 5.73369026e-01 5.73957503e-01 5.74545979e-01 5.75134516e-01 5.75696230e-01 5.76204479e-01 5.76685965e-01 5.77167392e-01 5.77648878e-01 5.78143775e-01 5.78665376e-01 5.79200327e-01 5.79735339e-01 5.80270290e-01 5.80791950e-01 5.81286788e-01 5.81768274e-01 5.82249761e-01 5.82744598e-01 5.83266199e-01 5.83804548e-01 5.84349573e-01 5.84897935e-01 5.85446239e-01 5.85977912e-01 5.86476088e-01 5.86954236e-01 5.87405622e-01 5.87809682e-01 5.88198066e-01 5.88635564e-01 5.89142084e-01 5.89677095e-01 5.90212047e-01 5.90747058e-01 5.91282010e-01 5.91817021e-01 5.92351973e-01 5.92860222e-01 5.93314946e-01 5.93742967e-01 5.94170928e-01 5.94598889e-01 5.95040262e-01 5.95508397e-01 5.95989883e-01 5.96471369e-01 5.96929431e-01 5.97335517e-01 5.97720742e-01 5.98158002e-01 5.98687530e-01 5.99276483e-01 5.99843860e-01 6.00347459e-01 6.00826621e-01 6.01344407e-01 6.01939857e-01 6.02610528e-01 6.03309095e-01 6.03971958e-01 6.04565620e-01 6.05118573e-01 6.05692983e-01 6.06319308e-01 6.06965005e-01 6.07574284e-01 6.08130991e-01 6.08665943e-01 6.09200954e-01 6.09735906e-01 6.10274255e-01 6.10820353e-01 6.11370981e-01 6.11917078e-01 6.12442017e-01 6.12936914e-01 6.13418400e-01 6.13899887e-01 6.14381373e-01 6.14862859e-01 6.15344346e-01 6.15825832e-01 6.16307259e-01 6.16788745e-01 6.17283642e-01 6.17818594e-01 6.18393719e-01 6.18982196e-01 6.19570673e-01 6.20159149e-01 6.20720863e-01 6.21229112e-01 6.21696651e-01 6.22134149e-01 6.22562110e-01 6.23025775e-01 6.23538435e-01 6.24106884e-01 6.24760866e-01 6.25471652e-01 6.26153469e-01 6.26770616e-01 6.27359092e-01 6.27947628e-01 6.28536105e-01 6.29124582e-01 6.29713058e-01 6.30301535e-01 6.30905628e-01 6.31545365e-01 6.32205188e-01 6.32847130e-01 6.33457899e-01 6.34026349e-01 6.34536803e-01 6.35031641e-01 6.35553241e-01 6.36088252e-01 6.36623204e-01 6.37158215e-01 6.37693167e-01 6.38234854e-01 6.38792872e-01 6.39362752e-01 6.39902949e-01 6.40371084e-01 6.40794575e-01 6.41244888e-01 6.41753078e-01 6.42288089e-01 6.42823040e-01 6.43327951e-01 6.43767655e-01 6.44187272e-01 6.44687176e-01 6.45310760e-01 6.46006227e-01 6.46701694e-01 6.47343695e-01 6.47918761e-01 6.48447096e-01 6.48932457e-01 6.49393320e-01 6.49858654e-01 6.50335133e-01 6.50816619e-01 6.51298046e-01 6.51792943e-01 6.52314544e-01 6.52849495e-01 6.53384507e-01 6.53919458e-01 6.54471159e-01 6.55056298e-01 6.55658185e-01 6.56260014e-01 6.56825125e-01 6.57316625e-01 6.57771349e-01 6.58226073e-01 6.58680797e-01 6.59135580e-01 6.59633756e-01 6.60175443e-01 6.60717070e-01 6.61278844e-01 6.61860645e-01 6.62442386e-01 6.63010836e-01 6.63565874e-01 6.64110899e-01 6.64645851e-01 6.65166914e-01 6.65657997e-01 6.66140497e-01 6.66661620e-01 6.67253137e-01 6.67898595e-01 6.68531001e-01 6.69066072e-01 6.69465065e-01 6.69781327e-01 6.70102060e-01 6.70460105e-01 6.70834601e-01 6.71222448e-01 6.71637058e-01 6.72065020e-01 6.72493041e-01 6.72921002e-01 6.73348963e-01 6.73803747e-01 6.74311936e-01 6.74846947e-01 6.75381899e-01 6.75916910e-01 6.76451862e-01 6.76986873e-01 6.77521825e-01 6.78056836e-01 6.78561687e-01 6.79006398e-01 6.79453373e-01 6.79964900e-01 6.80522203e-01 6.81110680e-01 6.81716979e-01 6.82303250e-01 6.82853818e-01 6.83388829e-01 6.83920443e-01 6.84448719e-01 6.84980392e-01 6.85528755e-01 6.86103821e-01 6.86692297e-01 6.87280834e-01 6.87869310e-01 6.88457787e-01 6.89002752e-01 6.89460874e-01 6.89875484e-01 6.90290093e-01 6.90721393e-01 6.91186190e-01 6.91667676e-01 6.92149162e-01 6.92630649e-01 6.93112135e-01 6.93593621e-01 6.94075048e-01 6.94569945e-01 6.95091546e-01 6.95626497e-01 6.96174860e-01 6.96749985e-01 6.97338462e-01 6.97926939e-01 6.98498726e-01 6.99037015e-01 6.99545264e-01 7.00026751e-01 7.00498223e-01 7.00976372e-01 7.01457798e-01 7.01939285e-01 7.02420771e-01 7.02888906e-01 7.03330278e-01 7.03758240e-01 7.04186261e-01 7.04614222e-01 7.05042183e-01 7.05483556e-01 7.05951691e-01 7.06459880e-01 7.07021654e-01 7.07610130e-01 7.08198607e-01 7.08787084e-01 7.09375560e-01 7.09964037e-01 7.10552514e-01 7.11140990e-01 7.11756229e-01 7.12424934e-01 7.13120401e-01 7.13815928e-01 7.14471281e-01 7.15046346e-01 7.15581357e-01 7.16116309e-01 7.16651320e-01 7.17186272e-01 7.17707872e-01 7.18202770e-01 7.18684256e-01 7.19165742e-01 7.19678402e-01 7.20264375e-01 7.20893800e-01 7.21485376e-01 7.21996665e-01 7.22457528e-01 7.22930670e-01 7.23448396e-01 7.23991692e-01 7.24558473e-01 7.25173950e-01 7.25819588e-01 7.26442873e-01 7.27023244e-01 7.27544904e-01 7.27980137e-01 7.28364050e-01 7.28752494e-01 7.29162097e-01 7.29586720e-01 7.30028093e-01 7.30512917e-01 7.31044531e-01 7.31592894e-01 7.32141256e-01 7.32672930e-01 7.33171105e-01 7.33652592e-01 7.34134078e-01 7.34628916e-01 7.35150516e-01 7.35685527e-01 7.36233890e-01 7.36811221e-01 7.37401903e-01 7.37972558e-01 7.38511980e-01 7.39040315e-01 7.39573061e-01 7.40108013e-01 7.40643024e-01 7.41177976e-01 7.41712987e-01 7.42261350e-01 7.42836416e-01 7.43424952e-01 7.44013429e-01 7.44601905e-01 7.45176971e-01 7.45725334e-01 7.46260345e-01 7.46795297e-01 7.47330308e-01 7.47865260e-01 7.48400271e-01 7.48935223e-01 7.49470234e-01 7.50005186e-01 7.50526786e-01 7.51021683e-01 7.51503170e-01 7.51984656e-01 7.52466142e-01 7.52960980e-01 7.53482580e-01 7.54017591e-01 7.54552543e-01 7.55087554e-01 7.55622506e-01 7.56157517e-01 7.56679118e-01 7.57173955e-01 7.57655442e-01 7.58136928e-01 7.58645713e-01 7.59222507e-01 7.59855568e-01 7.60497510e-01 7.61103868e-01 7.61646628e-01 7.62137651e-01 7.62617946e-01 7.63134658e-01 7.63702214e-01 7.64290690e-01 7.64879167e-01 7.65467644e-01 7.66056120e-01 7.66644597e-01 7.67219722e-01 7.67768085e-01 7.68289685e-01 7.68784523e-01 7.69266009e-01 7.69747496e-01 7.70228982e-01 7.70710468e-01 7.71272242e-01 7.71994472e-01 7.72673190e-01 7.73104548e-01 7.73482382e-01 7.74000645e-01 7.74589121e-01 7.75177598e-01 7.75785565e-01 7.76430309e-01 7.77072310e-01 7.77648509e-01 7.78131127e-01 7.78559089e-01 7.79040575e-01 7.79617369e-01 7.80217588e-01 7.80806065e-01 7.81381130e-01 7.81916142e-01 7.82410979e-01 7.82892466e-01 7.83373952e-01 7.83855438e-01 7.84336925e-01 7.84818411e-01 7.85316586e-01 7.85848260e-01 7.86399961e-01 7.86958337e-01 7.87493289e-01 7.87964225e-01 7.88390696e-01 7.88831353e-01 7.89306879e-01 7.89792240e-01 7.90273726e-01 7.90755212e-01 7.91253448e-01 7.91786194e-01 7.92336762e-01 7.92882860e-01 7.93421209e-01 7.93956220e-01 7.94491172e-01 7.95026183e-01 7.95561135e-01 7.96096146e-01 7.96614408e-01 7.97099233e-01 7.97567308e-01 7.98022032e-01 7.98436642e-01 7.98811138e-01 7.99185634e-01 7.99616992e-01 8.00121844e-01 8.00656855e-01 8.01191807e-01 8.01726818e-01 8.02261770e-01 8.02796781e-01 8.03331733e-01 8.03866744e-01 8.04401696e-01 8.04936707e-01 8.05471659e-01 8.05993259e-01 8.06488156e-01 8.06969643e-01 8.07451129e-01 8.07932615e-01 8.08414102e-01 8.08895588e-01 8.09377015e-01 8.09845150e-01 8.10286522e-01 8.10714483e-01 8.11142504e-01 8.11583817e-01 8.12051952e-01 8.12533438e-01 8.13014925e-01 8.13496411e-01 8.13977897e-01 8.14459383e-01 8.14940870e-01 8.15422356e-01 8.15903842e-01 8.16385329e-01 8.16866815e-01 8.17325413e-01 8.17732990e-01 8.18118989e-01 8.18553269e-01 8.19058716e-01 8.19593728e-01 8.20128679e-01 8.20663691e-01 8.21198642e-01 8.21733654e-01 8.22255254e-01 8.22750092e-01 8.23231578e-01 8.23713064e-01 8.24194551e-01 8.24662685e-01 8.25103998e-01 8.25562119e-01 8.26080382e-01 8.26642096e-01 8.27230573e-01 8.27819049e-01 8.28349590e-01 8.28786492e-01 8.29160988e-01 8.29553306e-01 8.30018044e-01 8.30538571e-01 8.31073523e-01 8.31608534e-01 8.32171381e-01 8.32794785e-01 8.33437502e-01 8.34007382e-01 8.34476590e-01 8.34904611e-01 8.35332572e-01 8.35827410e-01 8.36461604e-01 8.37171555e-01 8.37872624e-01 8.38521302e-01 8.39093626e-01 8.39610219e-01 8.40091705e-01 8.40564251e-01 8.41075301e-01 8.41640890e-01 8.42229366e-01 8.42817843e-01 8.43392968e-01 8.43941331e-01 8.44476283e-01 8.45011294e-01 8.45546305e-01 8.46081257e-01 8.46616268e-01 8.47151220e-01 8.47686231e-01 8.48194420e-01 8.48649144e-01 8.49109471e-01 8.49634409e-01 8.50218475e-01 8.50860417e-01 8.51520240e-01 8.52094233e-01 8.52527797e-01 8.52884471e-01 8.53258908e-01 8.53722572e-01 8.54311049e-01 8.54978323e-01 8.55621755e-01 8.56190920e-01 8.56725931e-01 8.57260883e-01 8.57795894e-01 8.58330846e-01 8.58892560e-01 8.59507799e-01 8.60113025e-01 8.60644639e-01 8.61149549e-01 8.61674488e-01 8.62206161e-01 8.62731099e-01 8.63256037e-01 8.63787651e-01 8.64336014e-01 8.64911139e-01 8.65499616e-01 8.66088092e-01 8.66634786e-01 8.67081702e-01 8.67464006e-01 8.67884159e-01 8.68384063e-01 8.68919015e-01 8.69454026e-01 8.69988978e-01 8.70523989e-01 8.71058941e-01 8.71593952e-01 8.72128904e-01 8.72663915e-01 8.73172164e-01 8.73626888e-01 8.74054849e-01 8.74482870e-01 8.74910831e-01 8.75338793e-01 8.75766814e-01 8.76194775e-01 8.76622796e-01 8.77050757e-01 8.77492130e-01 8.77960205e-01 8.78465116e-01 8.79016817e-01 8.79565179e-01 8.80060017e-01 8.80514801e-01 8.80942762e-01 8.81357372e-01 8.81771982e-01 8.82216692e-01 8.82721543e-01 8.83256555e-01 8.83791506e-01 8.84326518e-01 8.84848118e-01 8.85342956e-01 8.85824442e-01 8.86305928e-01 8.86803031e-01 8.87335956e-01 8.87887478e-01 8.88413727e-01 8.88896883e-01 8.89346063e-01 8.89772952e-01 8.90196443e-01 8.90624464e-01 8.91052425e-01 8.91520560e-01 8.92068923e-01 8.92657399e-01 8.93245876e-01 8.93834352e-01 8.94422829e-01 8.94997895e-01 8.95532906e-01 8.96027744e-01 8.96509230e-01 8.96990716e-01 8.97472203e-01 8.97953689e-01 8.98458004e-01 8.99013042e-01 8.99588168e-01 9.00112033e-01 9.00550604e-01 9.00940657e-01 9.01348591e-01 9.01830077e-01 9.02389586e-01 9.02978063e-01 9.03566539e-01 9.04155016e-01 9.04743493e-01 9.05331969e-01 9.05920446e-01 9.06508923e-01 9.07097399e-01 9.07685935e-01 9.08285558e-01 9.08911169e-01 9.09551680e-01 9.10177290e-01 9.10776913e-01 9.11365390e-01 9.11953866e-01 9.12542343e-01 9.13120806e-01 9.13680315e-01 9.14230883e-01 9.14763629e-01 9.15261865e-01 9.15743351e-01 9.16224837e-01 9.16746438e-01 9.17348266e-01 9.17990267e-01 9.18632209e-01 9.19260859e-01 9.19862688e-01 9.20451164e-01 9.21039641e-01 9.21614766e-01 9.22163129e-01 9.22698081e-01 9.23233092e-01 9.23768044e-01 9.24313068e-01 9.24878120e-01 9.25419807e-01 9.25894618e-01 9.26359355e-01 9.26870942e-01 9.27405953e-01 9.27940905e-01 9.28475916e-01 9.28995252e-01 9.29478228e-01 9.29940403e-01 9.30423379e-01 9.30942774e-01 9.31477726e-01 9.32012737e-01 9.32547688e-01 9.33093846e-01 9.33665574e-01 9.34250712e-01 9.34804678e-01 9.35292065e-01 9.35737550e-01 9.36203778e-01 9.36717570e-01 9.37252581e-01 9.37787533e-01 9.38299119e-01 9.38762784e-01 9.39201713e-01 9.39644396e-01 9.40112293e-01 9.40624416e-01 9.41159427e-01 9.41678822e-01 9.42171454e-01 9.42652941e-01 9.43134427e-01 9.43615854e-01 9.44097340e-01 9.44578826e-01 9.45060313e-01 9.45558548e-01 9.46090758e-01 9.46638525e-01 9.47177410e-01 9.47701335e-01 9.48216140e-01 9.48749602e-01 9.49323833e-01 9.49912310e-01 9.50465143e-01 9.50959980e-01 9.51421440e-01 9.51902926e-01 9.52428937e-01 9.52972293e-01 9.53510046e-01 9.54045057e-01 9.54580069e-01 9.55115020e-01 9.55650032e-01 9.56184983e-01 9.56733346e-01 9.57308471e-01 9.57896948e-01 9.58485425e-01 9.59043801e-01 9.59541976e-01 9.60010111e-01 9.60478187e-01 9.60963070e-01 9.61481333e-01 9.62016284e-01 9.62551296e-01 9.63086247e-01 9.63621259e-01 9.64156210e-01 9.64691222e-01 9.65226173e-01 9.65761185e-01 9.66296136e-01 9.66831148e-01 9.67366099e-01 9.67901111e-01 9.68436062e-01 9.68971074e-01 9.69506025e-01 9.70041037e-01 9.70575988e-01 9.71111000e-01 9.71645951e-01 9.72180963e-01 9.72715914e-01 9.73250926e-01 9.73785877e-01 9.74320889e-01 9.74855840e-01 9.75390851e-01 9.75925803e-01 9.76460814e-01 9.76995766e-01 9.77530777e-01 9.78065729e-01 9.78600740e-01 9.79135692e-01 9.79670703e-01 9.80205655e-01 9.80740666e-01 9.81275618e-01 9.81810629e-01 9.82345581e-01 9.82880592e-01 9.83415544e-01 9.83950555e-01 9.84485507e-01 9.85020518e-01 9.85555470e-01 9.86090481e-01 9.86625433e-01 9.87160444e-01 9.87695396e-01 9.88230407e-01 9.88765359e-01 9.89300370e-01 9.89835322e-01 9.90370333e-01 9.90905285e-01 9.91440296e-01 9.91975248e-01 9.92510259e-01 9.93045211e-01 9.93580222e-01 9.94115174e-01 9.94650185e-01 9.95185137e-01 9.95720148e-01 9.96255100e-01 9.96790111e-01 9.97325063e-01 9.97860074e-01 9.98395026e-01 9.98930037e-01 9.99464989e-01 1.00000000e+00 
            </Histogram>
            <HistogramBinning NBins="1897">
              6.00077133e+01 6.00078125e+01 6.01015625e+01 6.02187500e+01 6.03906250e+01 6.04921875e+01 6.05937500e+01 6.06484375e+01 6.07109375e+01 6.08984375e+01 6.10312500e+01 6.11171875e+01 6.11953125e+01 6.13046875e+01 6.14375000e+01 6.15703125e+01 6.16953125e+01 6.18281250e+01 6.19375000e+01 6.20625000e+01 6.21718750e+01 6.23125000e+01 6.23828125e+01 6.24765625e+01 6.26406250e+01 6.27500000e+01 6.28203125e+01 6.29062500e+01 6.30156250e+01 6.31250000e+01 6.31718750e+01 6.32500000e+01 6.33906250e+01 6.35234375e+01 6.35703125e+01 6.36484375e+01 6.38046875e+01 6.38906250e+01 6.39687500e+01 6.40546875e+01 6.41250000e+01 6.42343750e+01 6.43515625e+01 6.44062500e+01 6.45000000e+01 6.45625000e+01 6.46250000e+01 6.47421875e+01 6.48671875e+01 6.49453125e+01 6.50078125e+01 6.50625000e+01 6.51562500e+01 6.51953125e+01 6.52812500e+01 6.53906250e+01 6.54375000e+01 6.55703125e+01 6.56640625e+01 6.57500000e+01 6.59140625e+01 6.59687500e+01 6.60703125e+01 6.61171875e+01 6.62187500e+01 6.62734375e+01 6.63359375e+01 6.63750000e+01 6.64453125e+01 6.65781250e+01 6.66328125e+01 6.67265625e+01 6.67812500e+01 6.68593750e+01 6.69375000e+01 6.70234375e+01 6.71250000e+01 6.71640625e+01 6.72500000e+01 6.73125000e+01 6.73593750e+01 6.74218750e+01 6.75078125e+01 6.75546875e+01 6.76093750e+01 6.76953125e+01 6.77890625e+01 6.78281250e+01 6.78984375e+01 6.79531250e+01 6.80156250e+01 6.80781250e+01 6.81328125e+01 6.82578125e+01 6.83046875e+01 6.83984375e+01 6.84843750e+01 6.85312500e+01 6.86250000e+01 6.87343750e+01 6.87968750e+01 6.88593750e+01 6.89218750e+01 6.90078125e+01 6.90546875e+01 6.91093750e+01 6.91250000e+01 6.92187500e+01 6.92968750e+01 6.93593750e+01 6.94609375e+01 6.95234375e+01 6.95937500e+01 6.96328125e+01 6.96953125e+01 6.97578125e+01 6.98359375e+01 6.99140625e+01 6.99531250e+01 7.00234375e+01 7.00859375e+01 7.02031250e+01 7.02265625e+01 7.02968750e+01 7.03359375e+01 7.03984375e+01 7.04453125e+01 7.04921875e+01 7.05546875e+01 7.05937500e+01 7.06328125e+01 7.07343750e+01 7.07812500e+01 7.08437500e+01 7.08984375e+01 7.09453125e+01 7.09921875e+01 7.10546875e+01 7.11250000e+01 7.11875000e+01 7.12265625e+01 7.12578125e+01 7.13125000e+01 7.13437500e+01 7.14062500e+01 7.14375000e+01 7.15234375e+01 7.15468750e+01 7.16250000e+01 7.16718750e+01 7.17031250e+01 7.17656250e+01 7.18515625e+01 7.18671875e+01 7.19375000e+01 7.20312500e+01 7.20781250e+01 7.21093750e+01 7.21562500e+01 7.21953125e+01 7.22343750e+01 7.23046875e+01 7.23515625e+01 7.24062500e+01 7.24531250e+01 7.24921875e+01 7.25625000e+01 7.26484375e+01 7.27187500e+01 7.27656250e+01 7.27890625e+01 7.28203125e+01 7.28984375e+01 7.29218750e+01 7.29687500e+01 7.30390625e+01 7.31015625e+01 7.31640625e+01 7.32109375e+01 7.32578125e+01 7.33125000e+01 7.33515625e+01 7.33984375e+01 7.34453125e+01 7.34765625e+01 7.35390625e+01 7.35859375e+01 7.36406250e+01 7.36718750e+01 7.37187500e+01 7.37500000e+01 7.38437500e+01 7.38906250e+01 7.39296875e+01 7.39687500e+01 7.40000000e+01 7.40390625e+01 7.40859375e+01 7.41484375e+01 7.41953125e+01 7.42500000e+01 7.42890625e+01 7.43359375e+01 7.43593750e+01 7.43984375e+01 7.44531250e+01 7.44843750e+01 7.45546875e+01 7.46093750e+01 7.46718750e+01 7.47031250e+01 7.47578125e+01 7.47890625e+01 7.48515625e+01 7.48906250e+01 7.49375000e+01 7.49765625e+01 7.50234375e+01 7.50468750e+01 7.50937500e+01 7.51562500e+01 7.52031250e+01 7.52421875e+01 7.52968750e+01 7.53203125e+01 7.53828125e+01 7.54062500e+01 7.54296875e+01 7.54765625e+01 7.55000000e+01 7.55546875e+01 7.56093750e+01 7.56562500e+01 7.56875000e+01 7.57265625e+01 7.57812500e+01 7.58359375e+01 7.58671875e+01 7.59140625e+01 7.59453125e+01 7.59687500e+01 7.60156250e+01 7.60625000e+01 7.60937500e+01 7.61250000e+01 7.61718750e+01 7.62187500e+01 7.62421875e+01 7.62734375e+01 7.63203125e+01 7.63593750e+01 7.63984375e+01 7.64218750e+01 7.64531250e+01 7.64921875e+01 7.65390625e+01 7.65781250e+01 7.66250000e+01 7.66562500e+01 7.66875000e+01 7.67343750e+01 7.67812500e+01 7.68359375e+01 7.68828125e+01 7.69218750e+01 7.69687500e+01 7.70000000e+01 7.70390625e+01 7.70781250e+01 7.71171875e+01 7.71328125e+01 7.71640625e+01 7.71953125e+01 7.72265625e+01 7.72500000e+01 7.72890625e+01 7.73437500e+01 7.73828125e+01 7.74296875e+01 7.74687500e+01 7.75000000e+01 7.75546875e+01 7.75859375e+01 7.76171875e+01 7.76562500e+01 7.76796875e+01 7.77109375e+01 7.77343750e+01 7.77734375e+01 7.78125000e+01 7.78359375e+01 7.78671875e+01 7.78984375e+01 7.79453125e+01 7.79687500e+01 7.80000000e+01 7.80312500e+01 7.80625000e+01 7.81015625e+01 7.81171875e+01 7.81484375e+01 7.81718750e+01 7.82031250e+01 7.82265625e+01 7.82656250e+01 7.82812500e+01 7.83046875e+01 7.83359375e+01 7.83984375e+01 7.84218750e+01 7.84765625e+01 7.84921875e+01 7.85625000e+01 7.85937500e+01 7.86250000e+01 7.86406250e+01 7.86875000e+01 7.87265625e+01 7.87578125e+01 7.88046875e+01 7.88359375e+01 7.88828125e+01 7.89531250e+01 7.89765625e+01 7.90000000e+01 7.90312500e+01 7.90546875e+01 7.90937500e+01 7.91171875e+01 7.91406250e+01 7.91875000e+01 7.92109375e+01 7.92343750e+01 7.92656250e+01 7.92968750e+01 7.93359375e+01 7.93593750e+01 7.93984375e+01 7.94218750e+01 7.94531250e+01 7.94843750e+01 7.95078125e+01 7.95312500e+01 7.95546875e+01 7.96015625e+01 7.96171875e+01 7.96406250e+01 7.96640625e+01 7.96875000e+01 7.97187500e+01 7.97500000e+01 7.97734375e+01 7.98046875e+01 7.98359375e+01 7.98593750e+01 7.98984375e+01 7.99296875e+01 7.99453125e+01 7.99843750e+01 8.00156250e+01 8.00390625e+01 8.00703125e+01 8.00937500e+01 8.01171875e+01 8.01484375e+01 8.01796875e+01 8.01953125e+01 8.02187500e+01 8.02578125e+01 8.02734375e+01 8.02968750e+01 8.03203125e+01 8.03359375e+01 8.03593750e+01 8.04062500e+01 8.04296875e+01 8.04531250e+01 8.04921875e+01 8.05156250e+01 8.05625000e+01 8.05859375e+01 8.06171875e+01 8.06328125e+01 8.06562500e+01 8.06875000e+01 8.07109375e+01 8.07343750e+01 8.07500000e+01 8.07734375e+01 8.08125000e+01 8.08437500e+01 8.08828125e+01 8.09140625e+01 8.09375000e+01 8.09687500e+01 8.09843750e+01 8.10078125e+01 8.10312500e+01 8.10468750e+01 8.10781250e+01 8.11015625e+01 8.11250000e+01 8.11562500e+01 8.11875000e+01 8.12187500e+01 8.12421875e+01 8.12656250e+01 8.13046875e+01 8.13359375e+01 8.13593750e+01 8.13828125e+01 8.14218750e+01 8.14609375e+01 8.14687500e+01 8.14921875e+01 8.15156250e+01 8.15312500e+01 8.15390625e+01 8.15781250e+01 8.15937500e+01 8.16171875e+01 8.16406250e+01 8.16562500e+01 8.16953125e+01 8.17109375e+01 8.17343750e+01 8.17578125e+01 8.17734375e+01 8.17890625e+01 8.18203125e+01 8.18359375e+01 8.18671875e+01 8.18828125e+01 8.19140625e+01 8.19375000e+01 8.19531250e+01 8.19687500e+01 8.20000000e+01 8.20156250e+01 8.20390625e+01 8.20546875e+01 8.20781250e+01 8.21093750e+01 8.21328125e+01 8.21484375e+01 8.21875000e+01 8.22031250e+01 8.22265625e+01 8.22343750e+01 8.22656250e+01 8.22968750e+01 8.23281250e+01 8.23515625e+01 8.23671875e+01 8.23906250e+01 8.24140625e+01 8.24296875e+01 8.24453125e+01 8.24765625e+01 8.25000000e+01 8.25312500e+01 8.25625000e+01 8.25859375e+01 8.26093750e+01 8.26328125e+01 8.26562500e+01 8.26796875e+01 8.27031250e+01 8.27187500e+01 8.27421875e+01 8.27578125e+01 8.27734375e+01 8.28046875e+01 8.28125000e+01 8.28281250e+01 8.28359375e+01 8.28671875e+01 8.28750000e+01 8.29062500e+01 8.29218750e+01 8.29531250e+01 8.29687500e+01 8.29921875e+01 8.30156250e+01 8.30234375e+01 8.30468750e+01 8.30625000e+01 8.30937500e+01 8.31093750e+01 8.31250000e+01 8.31406250e+01 8.31562500e+01 8.31718750e+01 8.31953125e+01 8.32265625e+01 8.32343750e+01 8.32578125e+01 8.32812500e+01 8.33125000e+01 8.33281250e+01 8.33359375e+01 8.33515625e+01 8.33750000e+01 8.33984375e+01 8.34296875e+01 8.34531250e+01 8.34687500e+01 8.34921875e+01 8.35234375e+01 8.35312500e+01 8.35546875e+01 8.35859375e+01 8.35937500e+01 8.36171875e+01 8.36328125e+01 8.36562500e+01 8.36718750e+01 8.36875000e+01 8.37031250e+01 8.37265625e+01 8.37500000e+01 8.37656250e+01 8.37812500e+01 8.37968750e+01 8.38203125e+01 8.38359375e+01 8.38515625e+01 8.38671875e+01 8.38828125e+01 8.38906250e+01 8.39140625e+01 8.39375000e+01 8.39453125e+01 8.39609375e+01 8.39765625e+01 8.39921875e+01 8.40078125e+01 8.40234375e+01 8.40390625e+01 8.40625000e+01 8.40781250e+01 8.41015625e+01 8.41171875e+01 8.41328125e+01 8.41562500e+01 8.41875000e+01 8.42109375e+01 8.42265625e+01 8.42500000e+01 8.42656250e+01 8.42734375e+01 8.42812500e+01 8.42968750e+01 8.43281250e+01 8.43515625e+01 8.43593750e+01 8.43750000e+01 8.43906250e+01 8.44140625e+01 8.44218750e+01 8.44296875e+01 8.44531250e+01 8.44687500e+01 8.44921875e+01 8.45078125e+01 8.45312500e+01 8.45468750e+01 8.45625000e+01 8.45859375e+01 8.46015625e+01 8.46171875e+01 8.46328125e+01 8.46484375e+01 8.46640625e+01 8.46796875e+01 8.47031250e+01 8.47187500e+01 8.47343750e+01 8.47421875e+01 8.47578125e+01 8.47734375e+01 8.47890625e+01 8.48203125e+01 8.48281250e+01 8.48437500e+01 8.48671875e+01 8.48828125e+01 8.48984375e+01 8.49218750e+01 8.49375000e+01 8.49609375e+01 8.49687500e+01 8.49843750e+01 8.50000000e+01 8.50156250e+01 8.50234375e+01 8.50390625e+01 8.50546875e+01 8.50625000e+01 8.50781250e+01 8.51015625e+01 8.51250000e+01 8.51406250e+01 8.51640625e+01 8.51796875e+01 8.51953125e+01 8.52031250e+01 8.52187500e+01 8.52343750e+01 8.52421875e+01 8.52578125e+01 8.52812500e+01 8.52968750e+01 8.53125000e+01 8.53203125e+01 8.53437500e+01 8.53515625e+01 8.53671875e+01 8.53906250e+01 8.54140625e+01 8.54218750e+01 8.54375000e+01 8.54531250e+01 8.54609375e+01 8.54687500e+01 8.55000000e+01 8.55078125e+01 8.55312500e+01 8.55390625e+01 8.55625000e+01 8.55703125e+01 8.55859375e+01 8.56093750e+01 8.56171875e+01 8.56328125e+01 8.56406250e+01 8.56562500e+01 8.56718750e+01 8.56875000e+01 8.57031250e+01 8.57187500e+01 8.57265625e+01 8.57500000e+01 8.57578125e+01 8.57734375e+01 8.57968750e+01 8.58125000e+01 8.58281250e+01 8.58437500e+01 8.58515625e+01 8.58671875e+01 8.58828125e+01 8.58984375e+01 8.59140625e+01 8.59296875e+01 8.59453125e+01 8.59609375e+01 8.59765625e+01 8.59921875e+01 8.60000000e+01 8.60156250e+01 8.60312500e+01 8.60390625e+01 8.60625000e+01 8.60781250e+01 8.60937500e+01 8.61093750e+01 8.61250000e+01 8.61406250e+01 8.61562500e+01 8.61796875e+01 8.61953125e+01 8.62109375e+01 8.62265625e+01 8.62500000e+01 8.62656250e+01 8.62812500e+01 8.63046875e+01 8.63203125e+01 8.63281250e+01 8.63437500e+01 8.63593750e+01 8.63750000e+01 8.63828125e+01 8.63984375e+01 8.64140625e+01 8.64296875e+01 8.64453125e+01 8.64609375e+01 8.64765625e+01 8.64843750e+01 8.64921875e+01 8.65078125e+01 8.65234375e+01 8.65468750e+01 8.65546875e+01 8.65703125e+01 8.66015625e+01 8.66171875e+01 8.66250000e+01 8.66406250e+01 8.66562500e+01 8.66640625e+01 8.66796875e+01 8.66953125e+01 8.67109375e+01 8.67187500e+01 8.67421875e+01 8.67578125e+01 8.67734375e+01 8.67812500e+01 8.67968750e+01 8.68046875e+01 8.68203125e+01 8.68359375e+01 8.68671875e+01 8.68906250e+01 8.69062500e+01 8.69218750e+01 8.69296875e+01 8.69453125e+01 8.69531250e+01 8.69687500e+01 8.69843750e+01 8.70078125e+01 8.70234375e+01 8.70390625e+01 8.70468750e+01 8.70546875e+01 8.70703125e+01 8.70859375e+01 8.70937500e+01 8.71015625e+01 8.71171875e+01 8.71328125e+01 8.71406250e+01 8.71562500e+01 8.71718750e+01 8.71953125e+01 8.72031250e+01 8.72109375e+01 8.72265625e+01 8.72500000e+01 8.72656250e+01 8.72812500e+01 8.72968750e+01 8.73125000e+01 8.73203125e+01 8.73281250e+01 8.73515625e+01 8.73593750e+01 8.73750000e+01 8.73906250e+01 8.74062500e+01 8.74140625e+01 8.74296875e+01 8.74375000e+01 8.74609375e+01 8.74765625e+01 8.74921875e+01 8.75078125e+01 8.75312500e+01 8.75390625e+01 8.75468750e+01 8.75546875e+01 8.75703125e+01 8.75781250e+01 8.75937500e+01 8.76015625e+01 8.76171875e+01 8.76328125e+01 8.76484375e+01 8.76562500e+01 8.76718750e+01 8.76875000e+01 8.76953125e+01 8.77187500e+01 8.77265625e+01 8.77421875e+01 8.77500000e+01 8.77656250e+01 8.77734375e+01 8.77812500e+01 8.77968750e+01 8.78125000e+01 8.78281250e+01 8.78437500e+01 8.78515625e+01 8.78671875e+01 8.78750000e+01 8.78828125e+01 8.78906250e+01 8.79140625e+01 8.79218750e+01 8.79296875e+01 8.79453125e+01 8.79531250e+01 8.79687500e+01 8.79843750e+01 8.79921875e+01 8.80078125e+01 8.80234375e+01 8.80390625e+01 8.80546875e+01 8.80703125e+01 8.80859375e+01 8.81015625e+01 8.81171875e+01 8.81250000e+01 8.81406250e+01 8.81484375e+01 8.81640625e+01 8.81718750e+01 8.81875000e+01 8.82031250e+01 8.82187500e+01 8.82265625e+01 8.82421875e+01 8.82500000e+01 8.82578125e+01 8.82734375e+01 8.82890625e+01 8.83046875e+01 8.83203125e+01 8.83359375e+01 8.83437500e+01 8.83593750e+01 8.83671875e+01 8.83828125e+01 8.83984375e+01 8.84062500e+01 8.84140625e+01 8.84296875e+01 8.84375000e+01 8.84453125e+01 8.84531250e+01 8.84609375e+01 8.84765625e+01 8.84843750e+01 8.84921875e+01 8.85000000e+01 8.85156250e+01 8.85312500e+01 8.85390625e+01 8.85546875e+01 8.85703125e+01 8.85859375e+01 8.86015625e+01 8.86171875e+01 8.86250000e+01 8.86406250e+01 8.86562500e+01 8.86718750e+01 8.86875000e+01 8.86953125e+01 8.87031250e+01 8.87187500e+01 8.87343750e+01 8.87421875e+01 8.87578125e+01 8.87656250e+01 8.87812500e+01 8.87890625e+01 8.88046875e+01 8.88125000e+01 8.88281250e+01 8.88359375e+01 8.88437500e+01 8.88515625e+01 8.88593750e+01 8.88671875e+01 8.88750000e+01 8.88906250e+01 8.89062500e+01 8.89218750e+01 8.89375000e+01 8.89453125e+01 8.89687500e+01 8.89765625e+01 8.89843750e+01 8.89921875e+01 8.90000000e+01 8.90312500e+01 8.90390625e+01 8.90546875e+01 8.90625000e+01 8.90781250e+01 8.90859375e+01 8.90937500e+01 8.91015625e+01 8.91171875e+01 8.91250000e+01 8.91328125e+01 8.91484375e+01 8.91640625e+01 8.91796875e+01 8.91953125e+01 8.92031250e+01 8.92187500e+01 8.92265625e+01 8.92421875e+01 8.92500000e+01 8.92656250e+01 8.92734375e+01 8.92890625e+01 8.92968750e+01 8.93125000e+01 8.93203125e+01 8.93281250e+01 8.93359375e+01 8.93515625e+01 8.93593750e+01 8.93671875e+01 8.93750000e+01 8.93828125e+01 8.93984375e+01 8.94062500e+01 8.94140625e+01 8.94296875e+01 8.94375000e+01 8.94453125e+01 8.94531250e+01 8.94687500e+01 8.94843750e+01 8.94921875e+01 8.95000000e+01 8.95078125e+01 8.95234375e+01 8.95312500e+01 8.95468750e+01 8.95546875e+01 8.95625000e+01 8.95859375e+01 8.95937500e+01 8.96093750e+01 8.96250000e+01 8.96328125e+01 8.96406250e+01 8.96484375e+01 8.96562500e+01 8.96718750e+01 8.96875000e+01 8.96953125e+01 8.97109375e+01 8.97265625e+01 8.97421875e+01 8.97500000e+01 8.97656250e+01 8.97734375e+01 8.97812500e+01 8.98046875e+01 8.98125000e+01 8.98281250e+01 8.98359375e+01 8.98437500e+01 8.98593750e+01 8.98671875e+01 8.98828125e+01 8.98906250e+01 8.99062500e+01 8.99218750e+01 8.99296875e+01 8.99453125e+01 8.99531250e+01 8.99687500e+01 8.99843750e+01 8.99921875e+01 9.00000000e+01 9.00078125e+01 9.00234375e+01 9.00312500e+01 9.00468750e+01 9.00546875e+01 9.00625000e+01 9.00703125e+01 9.00781250e+01 9.00937500e+01 9.01015625e+01 9.01171875e+01 9.01328125e+01 9.01406250e+01 9.01484375e+01 9.01562500e+01 9.01640625e+01 9.01796875e+01 9.01953125e+01 9.02031250e+01 9.02109375e+01 9.02187500e+01 9.02343750e+01 9.02421875e+01 9.02578125e+01 9.02656250e+01 9.02734375e+01 9.02890625e+01 9.02968750e+01 9.03125000e+01 9.03203125e+01 9.03281250e+01 9.03359375e+01 9.03437500e+01 9.03593750e+01 9.03750000e+01 9.03828125e+01 9.03906250e+01 9.03984375e+01 9.04062500e+01 9.04140625e+01 9.04218750e+01 9.04296875e+01 9.04375000e+01 9.04453125e+01 9.04609375e+01 9.04687500e+01 9.04765625e+01 9.04921875e+01 9.05000000e+01 9.05078125e+01 9.05156250e+01 9.05312500e+01 9.05390625e+01 9.05468750e+01 9.05703125e+01 9.05781250e+01 9.05859375e+01 9.05937500e+01 9.06015625e+01 9.06171875e+01 9.06250000e+01 9.06328125e+01 9.06406250e+01 9.06562500e+01 9.06640625e+01 9.06718750e+01 9.06796875e+01 9.06875000e+01 9.07031250e+01 9.07187500e+01 9.07265625e+01 9.07343750e+01 9.07421875e+01 9.07500000e+01 9.07656250e+01 9.07734375e+01 9.07812500e+01 9.07890625e+01 9.08046875e+01 9.08125000e+01 9.08281250e+01 9.08359375e+01 9.08437500e+01 9.08515625e+01 9.08593750e+01 9.08750000e+01 9.08828125e+01 9.09062500e+01 9.09140625e+01 9.09218750e+01 9.09296875e+01 9.09375000e+01 9.09453125e+01 9.09531250e+01 9.09687500e+01 9.09765625e+01 9.09843750e+01 9.10000000e+01 9.10156250e+01 9.10234375e+01 9.10312500e+01 9.10390625e+01 9.10468750e+01 9.10546875e+01 9.10625000e+01 9.10703125e+01 9.10781250e+01 9.10859375e+01 9.11015625e+01 9.11093750e+01 9.11171875e+01 9.11328125e+01 9.11406250e+01 9.11484375e+01 9.11562500e+01 9.11640625e+01 9.11718750e+01 9.11796875e+01 9.11875000e+01 9.11953125e+01 9.12031250e+01 9.12187500e+01 9.12265625e+01 9.12343750e+01 9.12421875e+01 9.12578125e+01 9.12734375e+01 9.12812500e+01 9.12968750e+01 9.13046875e+01 9.13203125e+01 9.13281250e+01 9.13359375e+01 9.13515625e+01 9.13593750e+01 9.13750000e+01 9.13828125e+01 9.13984375e+01 9.14140625e+01 9.14218750e+01 9.14296875e+01 9.14375000e+01 9.14531250e+01 9.14609375e+01 9.14687500e+01 9.14843750e+01 9.14921875e+01 9.15078125e+01 9.15156250e+01 9.15234375e+01 9.15390625e+01 9.15468750e+01 9.15546875e+01 9.15703125e+01 9.15781250e+01 9.15859375e+01 9.15937500e+01 9.16093750e+01 9.16171875e+01 9.16250000e+01 9.16328125e+01 9.16406250e+01 9.16562500e+01 9.16640625e+01 9.16718750e+01 9.16796875e+01 9.16953125e+01 9.17031250e+01 9.17109375e+01 9.17187500e+01 9.17265625e+01 9.17421875e+01 9.17500000e+01 9.17578125e+01 9.17656250e+01 9.17734375e+01 9.17812500e+01 9.17890625e+01 9.18046875e+01 9.18125000e+01 9.18203125e+01 9.18281250e+01 9.18359375e+01 9.18437500e+01 9.18515625e+01 9.18593750e+01 9.18671875e+01 9.18828125e+01 9.18906250e+01 9.18984375e+01 9.19062500e+01 9.19140625e+01 9.19218750e+01 9.19296875e+01 9.19453125e+01 9.19531250e+01 9.19687500e+01 9.19765625e+01 9.19843750e+01 9.19921875e+01 9.20000000e+01 9.20078125e+01 9.20234375e+01 9.20390625e+01 9.20546875e+01 9.20625000e+01 9.20781250e+01 9.20937500e+01 9.21015625e+01 9.21093750e+01 9.21250000e+01 9.21328125e+01 9.21406250e+01 9.21562500e+01 9.21640625e+01 9.21718750e+01 9.21796875e+01 9.21875000e+01 9.21953125e+01 9.22031250e+01 9.22109375e+01 9.22187500e+01 9.22265625e+01 9.22421875e+01 9.22578125e+01 9.22656250e+01 9.22734375e+01 9.22812500e+01 9.22890625e+01 9.22968750e+01 9.23046875e+01 9.23125000e+01 9.23203125e+01 9.23359375e+01 9.23437500e+01 9.23515625e+01 9.23671875e+01 9.23750000e+01 9.23828125e+01 9.23906250e+01 9.23984375e+01 9.24062500e+01 9.24140625e+01 9.24296875e+01 9.24375000e+01 9.24531250e+01 9.24609375e+01 9.24765625e+01 9.24843750e+01 9.24921875e+01 9.25000000e+01 9.25156250e+01 9.25234375e+01 9.25312500e+01 9.25390625e+01 9.25468750e+01 9.25546875e+01 9.25625000e+01 9.25703125e+01 9.25781250e+01 9.25937500e+01 9.26015625e+01 9.26093750e+01 9.26171875e+01 9.26250000e+01 9.26328125e+01 9.26484375e+01 9.26562500e+01 9.26640625e+01 9.26718750e+01 9.26875000e+01 9.26953125e+01 9.27031250e+01 9.27109375e+01 9.27187500e+01 9.27265625e+01 9.27421875e+01 9.27578125e+01 9.27734375e+01 9.27812500e+01 9.27890625e+01 9.27968750e+01 9.28046875e+01 9.28125000e+01 9.28203125e+01 9.28281250e+01 9.28359375e+01 9.28437500e+01 9.28515625e+01 9.28593750e+01 9.28671875e+01 9.28750000e+01 9.28906250e+01 9.28984375e+01 9.29062500e+01 9.29218750e+01 9.29296875e+01 9.29375000e+01 9.29531250e+01 9.29609375e+01 9.29687500e+01 9.29843750e+01 9.29921875e+01 9.30078125e+01 9.30156250e+01 9.30234375e+01 9.30390625e+01 9.30468750e+01 9.30546875e+01 9.30703125e+01 9.30781250e+01 9.30859375e+01 9.31015625e+01 9.31093750e+01 9.31171875e+01 9.31250000e+01 9.31406250e+01 9.31484375e+01 9.31562500e+01 9.31640625e+01 9.31718750e+01 9.31875000e+01 9.31953125e+01 9.32109375e+01 9.32187500e+01 9.32265625e+01 9.32343750e+01 9.32421875e+01 9.32500000e+01 9.32578125e+01 9.32656250e+01 9.32812500e+01 9.32890625e+01 9.32968750e+01 9.33125000e+01 9.33203125e+01 9.33359375e+01 9.33437500e+01 9.33515625e+01 9.33671875e+01 9.33750000e+01 9.33828125e+01 9.33906250e+01 9.33984375e+01 9.34062500e+01 9.34140625e+01 9.34218750e+01 9.34375000e+01 9.34453125e+01 9.34531250e+01 9.34687500e+01 9.34765625e+01 9.34843750e+01 9.34921875e+01 9.35000000e+01 9.35156250e+01 9.35312500e+01 9.35390625e+01 9.35546875e+01 9.35625000e+01 9.35781250e+01 9.35859375e+01 9.35937500e+01 9.36093750e+01 9.36171875e+01 9.36250000e+01 9.36328125e+01 9.36484375e+01 9.36562500e+01 9.36640625e+01 9.36718750e+01 9.36796875e+01 9.36875000e+01 9.36953125e+01 9.37031250e+01 9.37109375e+01 9.37343750e+01 9.37421875e+01 9.37500000e+01 9.37578125e+01 9.37656250e+01 9.37734375e+01 9.37812500e+01 9.37968750e+01 9.38046875e+01 9.38203125e+01 9.38281250e+01 9.38359375e+01 9.38437500e+01 9.38593750e+01 9.38671875e+01 9.38750000e+01 9.38828125e+01 9.38906250e+01 9.39062500e+01 9.39140625e+01 9.39218750e+01 9.39296875e+01 9.39375000e+01 9.39453125e+01 9.39609375e+01 9.39765625e+01 9.39921875e+01 9.40000000e+01 9.40078125e+01 9.40156250e+01 9.40234375e+01 9.40312500e+01 9.40390625e+01 9.40468750e+01 9.40625000e+01 9.40703125e+01 9.40781250e+01 9.40859375e+01 9.40937500e+01 9.41015625e+01 9.41171875e+01 9.41328125e+01 9.41406250e+01 9.41484375e+01 9.41562500e+01 9.41640625e+01 9.41718750e+01 9.41796875e+01 9.41875000e+01 9.41953125e+01 9.42109375e+01 9.42187500e+01 9.42265625e+01 9.42343750e+01 9.42421875e+01 9.42500000e+01 9.42578125e+01 9.42656250e+01 9.42812500e+01 9.42890625e+01 9.43046875e+01 9.43125000e+01 9.43281250e+01 9.43359375e+01 9.43515625e+01 9.43593750e+01 9.43750000e+01 9.43828125e+01 9.43984375e+01 9.44062500e+01 9.44218750e+01 9.44296875e+01 9.44375000e+01 9.44453125e+01 9.44609375e+01 9.44687500e+01 9.44765625e+01 9.44843750e+01 9.44921875e+01 9.45000000e+01 9.45078125e+01 9.45156250e+01 9.45234375e+01 9.45312500e+01 9.45390625e+01 9.45468750e+01 9.45625000e+01 9.45703125e+01 9.45781250e+01 9.45937500e+01 9.46015625e+01 9.46093750e+01 9.46250000e+01 9.46328125e+01 9.46484375e+01 9.46562500e+01 9.46640625e+01 9.46718750e+01 9.46796875e+01 9.46875000e+01 9.47031250e+01 9.47187500e+01 9.47265625e+01 9.47343750e+01 9.47421875e+01 9.47500000e+01 9.47656250e+01 9.47812500e+01 9.47890625e+01 9.48046875e+01 9.48125000e+01 9.48203125e+01 9.48281250e+01 9.48359375e+01 9.48437500e+01 9.48515625e+01 9.48593750e+01 9.48671875e+01 9.48828125e+01 9.48906250e+01 9.48984375e+01 9.49062500e+01 9.49218750e+01 9.49296875e+01 9.49453125e+01 9.49531250e+01 9.49609375e+01 9.49687500e+01 9.49843750e+01 9.49921875e+01 9.50000000e+01 9.50156250e+01 9.50234375e+01 9.50312500e+01 9.50468750e+01 9.50625000e+01 9.50781250e+01 9.50859375e+01 9.50937500e+01 9.51093750e+01 9.51171875e+01 9.51328125e+01 9.51406250e+01 9.51562500e+01 9.51640625e+01 9.51718750e+01 9.51796875e+01 9.51953125e+01 9.52031250e+01 9.52187500e+01 9.52265625e+01 9.52343750e+01 9.52421875e+01 9.52500000e+01 9.52578125e+01 9.52656250e+01 9.52734375e+01 9.52812500e+01 9.52968750e+01 9.53046875e+01 9.53125000e+01 9.53281250e+01 9.53359375e+01 9.53437500e+01 9.53515625e+01 9.53671875e+01 9.53750000e+01 9.53828125e+01 9.53906250e+01 9.53984375e+01 9.54062500e+01 9.54218750e+01 9.54296875e+01 9.54453125e+01 9.54609375e+01 9.54687500e+01 9.54843750e+01 9.55000000e+01 9.55078125e+01 9.55156250e+01 9.55234375e+01 9.55390625e+01 9.55468750e+01 9.55546875e+01 9.55625000e+01 9.55703125e+01 9.55781250e+01 9.56015625e+01 9.56093750e+01 9.56250000e+01 9.56328125e+01 9.56484375e+01 9.56562500e+01 9.56640625e+01 9.56796875e+01 9.56875000e+01 9.56953125e+01 9.57031250e+01 9.57109375e+01 9.57187500e+01 9.57343750e+01 9.57421875e+01 9.57500000e+01 9.57656250e+01 9.57734375e+01 9.57812500e+01 9.57968750e+01 9.58046875e+01 9.58125000e+01 9.58281250e+01 9.58359375e+01 9.58437500e+01 9.58515625e+01 9.58671875e+01 9.58828125e+01 9.58906250e+01 9.59062500e+01 9.59140625e+01 9.59296875e+01 9.59375000e+01 9.59453125e+01 9.59531250e+01 9.59687500e+01 9.59765625e+01 9.59843750e+01 9.60000000e+01 9.60156250e+01 9.60234375e+01 9.60390625e+01 9.60468750e+01 9.60546875e+01 9.60703125e+01 9.60859375e+01 9.61015625e+01 9.61171875e+01 9.61250000e+01 9.61484375e+01 9.61640625e+01 9.61718750e+01 9.61875000e+01 9.61953125e+01 9.62031250e+01 9.62109375e+01 9.62187500e+01 9.62343750e+01 9.62421875e+01 9.62500000e+01 9.62578125e+01 9.62734375e+01 9.62812500e+01 9.62968750e+01 9.63125000e+01 9.63203125e+01 9.63359375e+01 9.63515625e+01 9.63593750e+01 9.63750000e+01 9.63828125e+01 9.63906250e+01 9.63984375e+01 9.64140625e+01 9.64296875e+01 9.64453125e+01 9.64531250e+01 9.64609375e+01 9.64687500e+01 9.64843750e+01 9.64921875e+01 9.65000000e+01 9.65078125e+01 9.65234375e+01 9.65312500e+01 9.65468750e+01 9.65546875e+01 9.65625000e+01 9.65781250e+01 9.65859375e+01 9.66015625e+01 9.66093750e+01 9.66250000e+01 9.66484375e+01 9.66718750e+01 9.66796875e+01 9.66953125e+01 9.67109375e+01 9.67187500e+01 9.67343750e+01 9.67500000e+01 9.67656250e+01 9.67812500e+01 9.67968750e+01 9.68125000e+01 9.68281250e+01 9.68359375e+01 9.68437500e+01 9.68593750e+01 9.68750000e+01 9.68906250e+01 9.69062500e+01 9.69218750e+01 9.69296875e+01 9.69375000e+01 9.69609375e+01 9.69687500e+01 9.69843750e+01 9.70000000e+01 9.70156250e+01 9.70312500e+01 9.70390625e+01 9.70546875e+01 9.70703125e+01 9.70781250e+01 9.70937500e+01 9.71093750e+01 9.71171875e+01 9.71328125e+01 9.71406250e+01 9.71484375e+01 9.71562500e+01 9.71718750e+01 9.71796875e+01 9.71953125e+01 9.72109375e+01 9.72265625e+01 9.72421875e+01 9.72578125e+01 9.72656250e+01 9.72812500e+01 9.72890625e+01 9.72968750e+01 9.73046875e+01 9.73125000e+01 9.73437500e+01 9.73515625e+01 9.73671875e+01 9.73828125e+01 9.73906250e+01 9.74140625e+01 9.74218750e+01 9.74296875e+01 9.74375000e+01 9.74453125e+01 9.74531250e+01 9.74765625e+01 9.74921875e+01 9.75000000e+01 9.75156250e+01 9.75234375e+01 9.75312500e+01 9.75468750e+01 9.75546875e+01 9.75703125e+01 9.75781250e+01 9.75937500e+01 9.76093750e+01 9.76171875e+01 9.76406250e+01 9.76562500e+01 9.76796875e+01 9.76953125e+01 9.77031250e+01 9.77187500e+01 9.77343750e+01 9.77500000e+01 9.77578125e+01 9.77734375e+01 9.77812500e+01 9.77968750e+01 9.78046875e+01 9.78281250e+01 9.78437500e+01 9.78671875e+01 9.78828125e+01 9.79140625e+01 9.79296875e+01 9.79453125e+01 9.79609375e+01 9.79687500e+01 9.79765625e+01 9.79921875e+01 9.80078125e+01 9.80312500e+01 9.80390625e+01 9.80625000e+01 9.80859375e+01 9.81015625e+01 9.81250000e+01 9.81484375e+01 9.81562500e+01 9.81718750e+01 9.81875000e+01 9.82031250e+01 9.82187500e+01 9.82265625e+01 9.82500000e+01 9.82734375e+01 9.82890625e+01 9.83125000e+01 9.83203125e+01 9.83437500e+01 9.83671875e+01 9.83750000e+01 9.83906250e+01 9.84062500e+01 9.84218750e+01 9.84375000e+01 9.84609375e+01 9.84765625e+01 9.84921875e+01 9.85156250e+01 9.85234375e+01 9.85468750e+01 9.85703125e+01 9.85859375e+01 9.86015625e+01 9.86171875e+01 9.86328125e+01 9.86562500e+01 9.86718750e+01 9.87031250e+01 9.87187500e+01 9.87343750e+01 9.87500000e+01 9.87890625e+01 9.88125000e+01 9.88281250e+01 9.88437500e+01 9.88593750e+01 9.88828125e+01 9.88984375e+01 9.89218750e+01 9.89375000e+01 9.89453125e+01 9.89687500e+01 9.89843750e+01 9.90000000e+01 9.90156250e+01 9.90468750e+01 9.90625000e+01 9.90703125e+01 9.90937500e+01 9.91171875e+01 9.91406250e+01 9.91796875e+01 9.92031250e+01 9.92343750e+01 9.92578125e+01 9.92812500e+01 9.93125000e+01 9.93281250e+01 9.93437500e+01 9.93671875e+01 9.93906250e+01 9.94296875e+01 9.94609375e+01 9.94843750e+01 9.95078125e+01 9.95312500e+01 9.95625000e+01 9.95937500e+01 9.96093750e+01 9.96406250e+01 9.96640625e+01 9.96875000e+01 9.97265625e+01 9.97578125e+01 9.97734375e+01 9.98125000e+01 9.98281250e+01 9.98671875e+01 9.99140625e+01 9.99609375e+01 1.00000000e+02 1.00039062e+02 1.00070312e+02 1.00117188e+02 1.00164062e+02 1.00187500e+02 1.00203125e+02 1.00250000e+02 1.00289062e+02 1.00328125e+02 1.00367188e+02 1.00398438e+02 1.00453125e+02 1.00484375e+02 1.00531250e+02 1.00554688e+02 1.00625000e+02 1.00664062e+02 1.00679688e+02 1.00734375e+02 1.00765625e+02 1.00804688e+02 1.00843750e+02 1.00882812e+02 1.00906250e+02 1.00937500e+02 1.00976562e+02 1.01023438e+02 1.01085938e+02 1.01140625e+02 1.01187500e+02 1.01210938e+02 1.01242188e+02 1.01296875e+02 1.01367188e+02 1.01453125e+02 1.01500000e+02 1.01546875e+02 1.01609375e+02 1.01656250e+02 1.01726562e+02 1.01757812e+02 1.01882812e+02 1.01937500e+02 1.02023438e+02 1.02101562e+02 1.02156250e+02 1.02250000e+02 1.02335938e+02 1.02445312e+02 1.02570312e+02 1.02679688e+02 1.02843750e+02 1.02960938e+02 1.03093750e+02 1.03210938e+02 1.03351562e+02 1.03562500e+02 1.03804688e+02 1.03984375e+02 1.04171875e+02 1.04515625e+02 1.04703125e+02 1.05007812e+02 1.05343750e+02 1.05632812e+02 1.05906250e+02 1.06265625e+02 1.06546875e+02 1.06992188e+02 1.07828125e+02 1.08585938e+02 1.09617188e+02 1.10953125e+02 1.12390625e+02 1.15453125e+02 1.17648438e+02 1.19882812e+02 1.22968750e+02 1.27273438e+02 1.34914062e+02 1.42054688e+02 
            </HistogramBinning>
          </PDF>
        </CumulativePDF_cls0>
        <CumulativePDF_cls1>
          <PDF Name="GaussTransform var0 cls1" MinNSmooth="0" MaxNSmooth="0" InterpolMethod="1" KDE_type="0" KDE_iter="1" KDE_border="1" KDE_finefactor="0.0000000000000000e+00">
            <Histogram Name="Cumulative_Var0_cls1_original" NBins="352" XMin="6.0007713317871094e+01" XMax="1.6076562500000000e+02" HasEquidistantBins="0">
              1.28246739e-03 3.56240943e-03 6.37671305e-03 9.26226471e-03 1.21121919e-02 1.49621200e-02 1.78120472e-02 2.06619743e-02 2.36187745e-02 2.66824476e-02 2.97461189e-02 3.28097902e-02 3.57665904e-02 3.86165194e-02 4.14664447e-02 4.43163738e-02 4.71663028e-02 5.00162281e-02 5.28661571e-02 5.57160825e-02 5.85660115e-02 6.14159405e-02 6.42658696e-02 6.71157911e-02 6.99657202e-02 7.28156492e-02 7.56655782e-02 7.85155073e-02 8.13654289e-02 8.42153579e-02 8.70652869e-02 8.99152160e-02 9.27651450e-02 9.56150666e-02 9.84649956e-02 1.01314925e-01 1.04081728e-01 1.06654584e-01 1.09116599e-01 1.11689456e-01 1.14456259e-01 1.17306188e-01 1.20156109e-01 1.23006038e-01 1.25855967e-01 1.28705889e-01 1.31555825e-01 1.34405747e-01 1.37184426e-01 1.39820606e-01 1.42385542e-01 1.44950479e-01 1.47586659e-01 1.50365338e-01 1.53215274e-01 1.56065196e-01 1.58915132e-01 1.61765054e-01 1.64614975e-01 1.67464912e-01 1.70332655e-01 1.73111334e-01 1.75765321e-01 1.78508386e-01 1.81358308e-01 1.84208229e-01 1.87058166e-01 1.89908087e-01 1.92758024e-01 1.95607945e-01 1.98457867e-01 2.01307803e-01 2.04157725e-01 2.07007661e-01 2.09857583e-01 2.12707505e-01 2.15557441e-01 2.18407363e-01 2.21257299e-01 2.24107221e-01 2.26957142e-01 2.29747698e-01 2.32399717e-01 2.34972566e-01 2.37624586e-01 2.40415141e-01 2.43265063e-01 2.46114999e-01 2.48964921e-01 2.51814842e-01 2.54664779e-01 2.57514715e-01 2.60364622e-01 2.63214558e-01 2.66064495e-01 2.68914402e-01 2.71764338e-01 2.74614275e-01 2.77464211e-01 2.80314118e-01 2.83164054e-01 2.86013991e-01 2.88863897e-01 2.91713834e-01 2.94563770e-01 2.97413677e-01 3.00263613e-01 3.03113550e-01 3.05963486e-01 3.08813393e-01 3.11663330e-01 3.14501375e-01 3.17315698e-01 3.20189357e-01 3.23229283e-01 3.26364219e-01 3.29416007e-01 3.32325310e-01 3.35175216e-01 3.38025153e-01 3.40875089e-01 3.43725026e-01 3.46574932e-01 3.49424869e-01 3.52274805e-01 3.55124712e-01 3.57974648e-01 3.60824585e-01 3.63674492e-01 3.66583794e-01 3.69631648e-01 3.72758657e-01 3.75806481e-01 3.78715783e-01 3.81565720e-01 3.84415656e-01 3.87265563e-01 3.90115499e-01 3.92965436e-01 3.95815343e-01 3.98665279e-01 4.01515216e-01 4.04365152e-01 4.07215059e-01 4.10064995e-01 4.12914932e-01 4.15764838e-01 4.18614775e-01 4.21464711e-01 4.24314618e-01 4.27164555e-01 4.30014491e-01 4.32864428e-01 4.35714334e-01 4.38564271e-01 4.41414207e-01 4.44264114e-01 4.47114050e-01 4.49963987e-01 4.52813894e-01 4.55663830e-01 4.58513767e-01 4.61363703e-01 4.64213610e-01 4.67063546e-01 4.69913483e-01 4.72763389e-01 4.75613326e-01 4.78463262e-01 4.81313169e-01 4.84163105e-01 4.87013042e-01 4.89862978e-01 4.92712885e-01 4.95562822e-01 4.98412758e-01 5.01262665e-01 5.04112601e-01 5.06962538e-01 5.09812474e-01 5.12662411e-01 5.15512288e-01 5.18362224e-01 5.21212161e-01 5.24062097e-01 5.26912034e-01 5.29761970e-01 5.32611907e-01 5.35461783e-01 5.38311720e-01 5.41161656e-01 5.44011593e-01 5.46861529e-01 5.49711466e-01 5.52561343e-01 5.55411279e-01 5.58261216e-01 5.61111152e-01 5.63961089e-01 5.66811025e-01 5.69660962e-01 5.72510839e-01 5.75360775e-01 5.78210711e-01 5.81060648e-01 5.83910584e-01 5.86760521e-01 5.89610457e-01 5.92460334e-01 5.95310271e-01 5.98160207e-01 6.01010144e-01 6.03860080e-01 6.06710017e-01 6.09559953e-01 6.12409830e-01 6.15259767e-01 6.18109703e-01 6.20959640e-01 6.23809576e-01 6.26659513e-01 6.29509389e-01 6.32359326e-01 6.35209262e-01 6.38059199e-01 6.40909135e-01 6.43759072e-01 6.46609008e-01 6.49458885e-01 6.52308822e-01 6.55158758e-01 6.58008695e-01 6.60858631e-01 6.63708568e-01 6.66558504e-01 6.69408381e-01 6.72258317e-01 6.75108254e-01 6.77958190e-01 6.80808127e-01 6.83658063e-01 6.86507940e-01 6.89357877e-01 6.92207813e-01 6.95057750e-01 6.97907686e-01 7.00757623e-01 7.03607559e-01 7.06457436e-01 7.09307373e-01 7.12157309e-01 7.15007246e-01 7.17857182e-01 7.20707119e-01 7.23557055e-01 7.26406932e-01 7.29256868e-01 7.32106805e-01 7.34956741e-01 7.37806678e-01 7.40656614e-01 7.43506491e-01 7.46356428e-01 7.49206364e-01 7.52056301e-01 7.54906237e-01 7.57756174e-01 7.60606110e-01 7.63455987e-01 7.66305923e-01 7.69155860e-01 7.72005796e-01 7.74855733e-01 7.77705669e-01 7.80555606e-01 7.83405483e-01 7.86255419e-01 7.89105356e-01 7.91955292e-01 7.94805229e-01 7.97655165e-01 8.00505042e-01 8.03354979e-01 8.06204915e-01 8.09054852e-01 8.11904788e-01 8.14754725e-01 8.17604661e-01 8.20454538e-01 8.23304474e-01 8.26154411e-01 8.29004347e-01 8.31854284e-01 8.34704220e-01 8.37554157e-01 8.40404034e-01 8.43253970e-01 8.46103907e-01 8.48953843e-01 8.51803780e-01 8.54653716e-01 8.57503593e-01 8.60353529e-01 8.63203466e-01 8.66053402e-01 8.68903339e-01 8.71753275e-01 8.74603212e-01 8.77453089e-01 8.80303025e-01 8.83152962e-01 8.86002898e-01 8.88852835e-01 8.91702771e-01 8.94552708e-01 8.97402585e-01 9.00252521e-01 9.03102458e-01 9.05952394e-01 9.08802330e-01 9.11652267e-01 9.14502144e-01 9.17352080e-01 9.20202017e-01 9.23051953e-01 9.25901890e-01 9.28751826e-01 9.31601763e-01 9.34451640e-01 9.37301576e-01 9.40151513e-01 9.43001449e-01 9.45851386e-01 9.48701322e-01 9.51551259e-01 9.54401135e-01 9.57251072e-01 9.60101008e-01 9.62950945e-01 9.65800881e-01 9.68650818e-01 9.71500695e-01 9.74350631e-01 9.77200568e-01 9.80050504e-01 9.82900441e-01 9.85750377e-01 9.88600314e-01 9.91450191e-01 9.94300127e-01 9.97150064e-01 1.00000000e+00 
            </Histogram>
            <HistogramBinning NBins="352">
              6.00077133e+01 6.00078125e+01 6.00390625e+01 6.00703125e+01 6.01093750e+01 6.01562500e+01 6.02031250e+01 6.02265625e+01 6.02656250e+01 6.03046875e+01 6.03515625e+01 6.03906250e+01 6.04140625e+01 6.04453125e+01 6.04921875e+01 6.05390625e+01 6.05781250e+01 6.06328125e+01 6.06640625e+01 6.06796875e+01 6.07187500e+01 6.07578125e+01 6.08046875e+01 6.08281250e+01 6.08671875e+01 6.08906250e+01 6.09296875e+01 6.09921875e+01 6.10234375e+01 6.10703125e+01 6.11093750e+01 6.11406250e+01 6.11796875e+01 6.12187500e+01 6.12812500e+01 6.13359375e+01 6.13671875e+01 6.14218750e+01 6.14531250e+01 6.14921875e+01 6.15390625e+01 6.15781250e+01 6.16250000e+01 6.16718750e+01 6.17031250e+01 6.17343750e+01 6.17578125e+01 6.18203125e+01 6.18593750e+01 6.19140625e+01 6.19375000e+01 6.20000000e+01 6.20468750e+01 6.20859375e+01 6.21640625e+01 6.22109375e+01 6.22500000e+01 6.22812500e+01 6.23437500e+01 6.23984375e+01 6.24531250e+01 6.24921875e+01 6.25546875e+01 6.25859375e+01 6.26406250e+01 6.26875000e+01 6.27265625e+01 6.27421875e+01 6.28125000e+01 6.28437500e+01 6.28984375e+01 6.29375000e+01 6.29843750e+01 6.30546875e+01 6.31015625e+01 6.31562500e+01 6.31875000e+01 6.32421875e+01 6.32968750e+01 6.33671875e+01 6.34296875e+01 6.35000000e+01 6.35546875e+01 6.35937500e+01 6.36171875e+01 6.36640625e+01 6.37031250e+01 6.37343750e+01 6.38203125e+01 6.38984375e+01 6.39609375e+01 6.40000000e+01 6.40546875e+01 6.41328125e+01 6.41640625e+01 6.42343750e+01 6.42968750e+01 6.43828125e+01 6.44453125e+01 6.45390625e+01 6.46015625e+01 6.46718750e+01 6.47343750e+01 6.47968750e+01 6.48515625e+01 6.48906250e+01 6.49296875e+01 6.49843750e+01 6.50390625e+01 6.51093750e+01 6.51562500e+01 6.51953125e+01 6.52968750e+01 6.53593750e+01 6.54218750e+01 6.54765625e+01 6.55468750e+01 6.56250000e+01 6.56796875e+01 6.57343750e+01 6.57890625e+01 6.58359375e+01 6.58906250e+01 6.59765625e+01 6.60468750e+01 6.61093750e+01 6.61796875e+01 6.62968750e+01 6.63828125e+01 6.64609375e+01 6.65078125e+01 6.65781250e+01 6.66484375e+01 6.66796875e+01 6.67421875e+01 6.68437500e+01 6.69062500e+01 6.69687500e+01 6.70390625e+01 6.70781250e+01 6.71328125e+01 6.71953125e+01 6.72578125e+01 6.73125000e+01 6.73671875e+01 6.74375000e+01 6.75156250e+01 6.76093750e+01 6.76953125e+01 6.77734375e+01 6.79140625e+01 6.80000000e+01 6.80546875e+01 6.81093750e+01 6.81562500e+01 6.82109375e+01 6.83359375e+01 6.84296875e+01 6.84765625e+01 6.85625000e+01 6.86484375e+01 6.87734375e+01 6.88359375e+01 6.89062500e+01 6.89687500e+01 6.90468750e+01 6.91250000e+01 6.92265625e+01 6.93125000e+01 6.93750000e+01 6.94843750e+01 6.95546875e+01 6.96250000e+01 6.96796875e+01 6.97187500e+01 6.97734375e+01 6.98359375e+01 6.98671875e+01 6.99375000e+01 7.00234375e+01 7.01250000e+01 7.02265625e+01 7.02890625e+01 7.03515625e+01 7.04218750e+01 7.04843750e+01 7.05703125e+01 7.06171875e+01 7.06796875e+01 7.08046875e+01 7.08671875e+01 7.09375000e+01 7.10703125e+01 7.11406250e+01 7.11953125e+01 7.12578125e+01 7.13593750e+01 7.14218750e+01 7.14921875e+01 7.15937500e+01 7.16718750e+01 7.17343750e+01 7.17968750e+01 7.18593750e+01 7.19453125e+01 7.20156250e+01 7.20703125e+01 7.21328125e+01 7.21953125e+01 7.23046875e+01 7.23984375e+01 7.24687500e+01 7.25703125e+01 7.26328125e+01 7.27187500e+01 7.27968750e+01 7.28828125e+01 7.29609375e+01 7.30703125e+01 7.32187500e+01 7.33203125e+01 7.34687500e+01 7.35546875e+01 7.36015625e+01 7.37031250e+01 7.38281250e+01 7.38906250e+01 7.39921875e+01 7.40781250e+01 7.41562500e+01 7.42421875e+01 7.43203125e+01 7.44140625e+01 7.44765625e+01 7.46171875e+01 7.47343750e+01 7.47890625e+01 7.48984375e+01 7.49765625e+01 7.51250000e+01 7.52109375e+01 7.53203125e+01 7.54453125e+01 7.55390625e+01 7.56093750e+01 7.56718750e+01 7.57734375e+01 7.58437500e+01 7.59140625e+01 7.60234375e+01 7.60703125e+01 7.61406250e+01 7.63281250e+01 7.64531250e+01 7.65000000e+01 7.66093750e+01 7.68046875e+01 7.69218750e+01 7.70390625e+01 7.71328125e+01 7.72500000e+01 7.73359375e+01 7.74843750e+01 7.75859375e+01 7.76796875e+01 7.78906250e+01 7.80234375e+01 7.81406250e+01 7.82734375e+01 7.83984375e+01 7.85625000e+01 7.86640625e+01 7.87890625e+01 7.89765625e+01 7.91093750e+01 7.91953125e+01 7.92890625e+01 7.94453125e+01 7.95625000e+01 7.96562500e+01 7.98750000e+01 7.99531250e+01 8.02031250e+01 8.03046875e+01 8.05000000e+01 8.06875000e+01 8.08203125e+01 8.10000000e+01 8.10781250e+01 8.12421875e+01 8.14609375e+01 8.16953125e+01 8.17968750e+01 8.19375000e+01 8.22265625e+01 8.23906250e+01 8.24687500e+01 8.26796875e+01 8.28437500e+01 8.30078125e+01 8.31484375e+01 8.33125000e+01 8.34843750e+01 8.37109375e+01 8.38281250e+01 8.40312500e+01 8.42265625e+01 8.45078125e+01 8.46328125e+01 8.48437500e+01 8.50703125e+01 8.52734375e+01 8.55625000e+01 8.57109375e+01 8.59531250e+01 8.62265625e+01 8.63750000e+01 8.67265625e+01 8.68671875e+01 8.70390625e+01 8.72812500e+01 8.76640625e+01 8.78359375e+01 8.82187500e+01 8.85390625e+01 8.89453125e+01 8.93828125e+01 8.96640625e+01 8.99218750e+01 9.02968750e+01 9.07265625e+01 9.11015625e+01 9.16406250e+01 9.21562500e+01 9.26484375e+01 9.30703125e+01 9.36484375e+01 9.40625000e+01 9.46171875e+01 9.62656250e+01 9.70937500e+01 9.78906250e+01 9.90703125e+01 1.00429688e+02 1.01984375e+02 1.04179688e+02 1.06093750e+02 1.08382812e+02 1.10765625e+02 1.16015625e+02 1.20703125e+02 1.32687500e+02 1.60765625e+02 
            </HistogramBinning>
          </PDF>
        </CumulativePDF_cls1>
        <CumulativePDF_cls2>
          <PDF Name="GaussTransform var0 cls2" MinNSmooth="0" MaxNSmooth="0" InterpolMethod="1" KDE_type="0" KDE_iter="1" KDE_border="1" KDE_finefactor="0.0000000000000000e+00">
            <Histogram Name="Cumulative_Var0_cls2_original" NBins="1878" XMin="6.0007713317871094e+01" XMax="1.6076562500000000e+02" HasEquidistantBins="0">
              1.79110153e-04 5.54122031e-04 1.06540998e-03 1.65163819e-03 2.26460840e-03 2.88939523e-03 3.51628056e-03 4.11284808e-03 4.66743670e-03 5.20476699e-03 5.74209774e-03 6.27942802e-03 6.80789631e-03 7.31700752e-03 7.81958923e-03 8.35575350e-03 8.95403046e-03 9.58223827e-03 1.01662893e-02 1.06781991e-02 1.11595578e-02 1.16409166e-02 1.21362684e-02 1.26596056e-02 1.31969359e-02 1.37342662e-02 1.42715974e-02 1.48089277e-02 1.53462579e-02 1.58835892e-02 1.64209194e-02 1.69778392e-02 1.75807811e-02 1.82110872e-02 1.88177619e-02 1.93774793e-02 1.99148115e-02 2.04633363e-02 2.10342500e-02 2.16163564e-02 2.21835393e-02 2.27264669e-02 2.32619327e-02 2.37992629e-02 2.43365932e-02 2.48739235e-02 2.54112538e-02 2.59485841e-02 2.64859144e-02 2.70232446e-02 2.75605749e-02 2.80979052e-02 2.86352374e-02 2.91725677e-02 2.97098979e-02 3.02472282e-02 3.07845585e-02 3.13218907e-02 3.18592191e-02 3.23965512e-02 3.29338796e-02 3.34712118e-02 3.40085402e-02 3.45458724e-02 3.50832008e-02 3.56205329e-02 3.61578614e-02 3.66951935e-02 3.72213311e-02 3.77250761e-02 3.82176302e-02 3.87101844e-02 3.92027348e-02 3.96952890e-02 4.01878431e-02 4.06915881e-02 4.12177257e-02 4.17550541e-02 4.22923863e-02 4.28297184e-02 4.33670469e-02 4.39043790e-02 4.44300473e-02 4.49307635e-02 4.54249494e-02 4.59527150e-02 4.65331934e-02 4.71432880e-02 4.77309898e-02 4.82608601e-02 4.87534106e-02 4.92548272e-02 4.97814305e-02 5.03187589e-02 5.08560911e-02 5.13934195e-02 5.19307517e-02 5.24680838e-02 5.30054122e-02 5.35558015e-02 5.41363545e-02 5.47330789e-02 5.53099029e-02 5.58484755e-02 5.63668385e-02 5.69026135e-02 5.74707277e-02 5.80528378e-02 5.86349443e-02 5.92170507e-02 5.97879663e-02 6.03364892e-02 6.08738214e-02 6.14111535e-02 6.19484819e-02 6.24858141e-02 6.30231425e-02 6.35604709e-02 6.40978068e-02 6.46351352e-02 6.51724637e-02 6.57097921e-02 6.62471280e-02 6.67844564e-02 6.73217848e-02 6.78591207e-02 6.83964491e-02 6.89337775e-02 6.94711059e-02 7.00084418e-02 7.05457702e-02 7.10830986e-02 7.16073737e-02 7.21011683e-02 7.25775510e-02 7.30713457e-02 7.35956207e-02 7.41329491e-02 7.46702775e-02 7.52076060e-02 7.57449418e-02 7.62822703e-02 7.68195987e-02 7.73569345e-02 7.78942630e-02 7.84315914e-02 7.89689198e-02 7.95062557e-02 8.00435841e-02 8.05809125e-02 8.11182410e-02 8.16555768e-02 8.21929052e-02 8.27302337e-02 8.32675695e-02 8.38048980e-02 8.43422264e-02 8.48795548e-02 8.54168907e-02 8.59542191e-02 8.64719599e-02 8.69505182e-02 8.74374732e-02 8.79804045e-02 8.85233283e-02 8.90102834e-02 8.94972384e-02 9.00401697e-02 9.05914903e-02 9.11036357e-02 9.15961862e-02 9.20887440e-02 9.25812945e-02 9.30850431e-02 9.36111808e-02 9.41485092e-02 9.46858376e-02 9.52231660e-02 9.57605019e-02 9.62978303e-02 9.68351588e-02 9.73724946e-02 9.79098231e-02 9.84471515e-02 9.89844799e-02 9.95218158e-02 1.00059144e-01 1.00596473e-01 1.01133801e-01 1.01671137e-01 1.02208465e-01 1.02745794e-01 1.03283130e-01 1.03820458e-01 1.04357786e-01 1.04895115e-01 1.05432451e-01 1.05969779e-01 1.06507108e-01 1.07044443e-01 1.07581772e-01 1.08119100e-01 1.08656429e-01 1.09193765e-01 1.09731093e-01 1.10268421e-01 1.10815085e-01 1.11383505e-01 1.11964375e-01 1.12532794e-01 1.13079458e-01 1.13616787e-01 1.14154115e-01 1.14691451e-01 1.15217581e-01 1.15721330e-01 1.16213888e-01 1.16706438e-01 1.17198989e-01 1.17691547e-01 1.18184097e-01 1.18687846e-01 1.19213983e-01 1.19751312e-01 1.20288640e-01 1.20825969e-01 1.21363305e-01 1.21900633e-01 1.22437961e-01 1.22975290e-01 1.23512626e-01 1.24049954e-01 1.24587283e-01 1.25124618e-01 1.25661939e-01 1.26199275e-01 1.26747802e-01 1.27318710e-01 1.27900824e-01 1.28482938e-01 1.29065037e-01 1.29647151e-01 1.30229250e-01 1.30811363e-01 1.31382272e-01 1.31930798e-01 1.32468134e-01 1.33005455e-01 1.33542791e-01 1.34080127e-01 1.34617448e-01 1.35154784e-01 1.35692120e-01 1.36229441e-01 1.36766776e-01 1.37304112e-01 1.37839571e-01 1.38384357e-01 1.38957143e-01 1.39546707e-01 1.40121356e-01 1.40669882e-01 1.41207218e-01 1.41744539e-01 1.42281875e-01 1.42819211e-01 1.43356532e-01 1.43893868e-01 1.44431204e-01 1.44968525e-01 1.45505860e-01 1.46043196e-01 1.46580517e-01 1.47117853e-01 1.47655174e-01 1.48181319e-01 1.48685068e-01 1.49177611e-01 1.49670169e-01 1.50185108e-01 1.50744826e-01 1.51326939e-01 1.51909053e-01 1.52479962e-01 1.53028488e-01 1.53565809e-01 1.54103145e-01 1.54643282e-01 1.55189857e-01 1.55739859e-01 1.56274319e-01 1.56775802e-01 1.57263845e-01 1.57782361e-01 1.58345819e-01 1.58927932e-01 1.59510031e-01 1.60080954e-01 1.60629466e-01 1.61166802e-01 1.61704138e-01 1.62241459e-01 1.62778795e-01 1.63316131e-01 1.63853452e-01 1.64390787e-01 1.64928123e-01 1.65465444e-01 1.65980384e-01 1.66475743e-01 1.66973889e-01 1.67472035e-01 1.67958990e-01 1.68457150e-01 1.69000074e-01 1.69529006e-01 1.70021564e-01 1.70514122e-01 1.71006665e-01 1.71499223e-01 1.72002971e-01 1.72529101e-01 1.73066437e-01 1.73603758e-01 1.74141094e-01 1.74678430e-01 1.75215751e-01 1.75753087e-01 1.76290423e-01 1.76827744e-01 1.77365080e-01 1.77902415e-01 1.78439736e-01 1.78977072e-01 1.79514393e-01 1.80051729e-01 1.80589065e-01 1.81126386e-01 1.81663722e-01 1.82201058e-01 1.82738379e-01 1.83275715e-01 1.83813050e-01 1.84350371e-01 1.84887707e-01 1.85425028e-01 1.85962364e-01 1.86499700e-01 1.87037021e-01 1.87574357e-01 1.88111693e-01 1.88649014e-01 1.89186350e-01 1.89737678e-01 1.90316975e-01 1.90910280e-01 1.91503584e-01 1.92085698e-01 1.92645416e-01 1.93193942e-01 1.93730339e-01 1.94238752e-01 1.94731295e-01 1.95238784e-01 1.95770517e-01 1.96309716e-01 1.96847036e-01 1.97384372e-01 1.97921693e-01 1.98459029e-01 1.98996365e-01 1.99533686e-01 2.00071022e-01 2.00619549e-01 2.01190457e-01 2.01772571e-01 2.02354670e-01 2.02936783e-01 2.03518897e-01 2.04089805e-01 2.04638332e-01 2.05175668e-01 2.05712989e-01 2.06250325e-01 2.06787646e-01 2.07313791e-01 2.07817540e-01 2.08310083e-01 2.08802640e-01 2.09295198e-01 2.09798947e-01 2.10325077e-01 2.10862413e-01 2.11399734e-01 2.11937070e-01 2.12474406e-01 2.13000074e-01 2.13500395e-01 2.13992640e-01 2.14515358e-01 2.15080202e-01 2.15662315e-01 2.16244414e-01 2.16826528e-01 2.17408642e-01 2.17979550e-01 2.18528077e-01 2.19065413e-01 2.19602734e-01 2.20140070e-01 2.20677391e-01 2.21214727e-01 2.21752062e-01 2.22289383e-01 2.22826719e-01 2.23364055e-01 2.23901376e-01 2.24438712e-01 2.24976048e-01 2.25513369e-01 2.26050705e-01 2.26588026e-01 2.27125362e-01 2.27662697e-01 2.28200018e-01 2.28737354e-01 2.29274690e-01 2.29812011e-01 2.30349347e-01 2.30886683e-01 2.31424004e-01 2.31961340e-01 2.32498661e-01 2.33035997e-01 2.33573332e-01 2.34110653e-01 2.34647989e-01 2.35185325e-01 2.35711455e-01 2.36215204e-01 2.36707762e-01 2.37200305e-01 2.37692863e-01 2.38185421e-01 2.38677964e-01 2.39170521e-01 2.39663079e-01 2.40155622e-01 2.40648180e-01 2.41140738e-01 2.41644487e-01 2.42170617e-01 2.42707953e-01 2.43245274e-01 2.43782610e-01 2.44319931e-01 2.44846076e-01 2.45349824e-01 2.45842367e-01 2.46334925e-01 2.46827483e-01 2.47340083e-01 2.47902140e-01 2.48499170e-01 2.49081284e-01 2.49626070e-01 2.50156403e-01 2.50691414e-01 2.51228750e-01 2.51766056e-01 2.52303392e-01 2.52840728e-01 2.53378063e-01 2.53915399e-01 2.54452735e-01 2.54990041e-01 2.55513400e-01 2.56008744e-01 2.56490111e-01 2.56971449e-01 2.57455617e-01 2.57945359e-01 2.58437932e-01 2.58930475e-01 2.59445429e-01 2.59982735e-01 2.60520071e-01 2.61057407e-01 2.61572361e-01 2.62064904e-01 2.62557447e-01 2.63050020e-01 2.63542563e-01 2.64035106e-01 2.64527678e-01 2.65020221e-01 2.65512764e-01 2.66005337e-01 2.66509086e-01 2.67035216e-01 2.67589331e-01 2.68154651e-01 2.68714368e-01 2.69279689e-01 2.69833803e-01 2.70371139e-01 2.70908475e-01 2.71445811e-01 2.71983117e-01 2.72520453e-01 2.73057789e-01 2.73595124e-01 2.74132460e-01 2.74669766e-01 2.75207102e-01 2.75722057e-01 2.76192218e-01 2.76639998e-01 2.77084976e-01 2.77534604e-01 2.78002918e-01 2.78497338e-01 2.79020667e-01 2.79558003e-01 2.80095339e-01 2.80632645e-01 2.81169981e-01 2.81707317e-01 2.82244653e-01 2.82781988e-01 2.83319294e-01 2.83856630e-01 2.84393966e-01 2.84931302e-01 2.85468638e-01 2.86005974e-01 2.86554486e-01 2.87125409e-01 2.87707508e-01 2.88289607e-01 2.88871735e-01 2.89465487e-01 2.90084600e-01 2.90711790e-01 2.91308522e-01 2.91863114e-01 2.92400450e-01 2.92937785e-01 2.93475091e-01 2.94012427e-01 2.94549763e-01 2.95087099e-01 2.95624435e-01 2.96161771e-01 2.96699077e-01 2.97214031e-01 2.97717780e-01 2.98243910e-01 2.98781246e-01 2.99340963e-01 2.99923062e-01 3.00505191e-01 3.01087290e-01 3.01669389e-01 3.02251488e-01 3.02833617e-01 3.03415716e-01 3.03986639e-01 3.04535151e-01 3.05072486e-01 3.05609822e-01 3.06147158e-01 3.06684464e-01 3.07221800e-01 3.07759136e-01 3.08296472e-01 3.08833808e-01 3.09371144e-01 3.09908450e-01 3.10448587e-01 3.10994327e-01 3.11540037e-01 3.12080175e-01 3.12606305e-01 3.13110054e-01 3.13602597e-01 3.14095169e-01 3.14587712e-01 3.15080255e-01 3.15572828e-01 3.16076577e-01 3.16602707e-01 3.17142844e-01 3.17688555e-01 3.18234295e-01 3.18774402e-01 3.19311738e-01 3.19849074e-01 3.20386410e-01 3.20923746e-01 3.21461052e-01 3.21998388e-01 3.22535723e-01 3.23073059e-01 3.23610395e-01 3.24147731e-01 3.24685037e-01 3.25222373e-01 3.25771362e-01 3.26345712e-01 3.26928139e-01 3.27480078e-01 3.27989876e-01 3.28482419e-01 3.28974992e-01 3.29467535e-01 3.29971284e-01 3.30497414e-01 3.31034750e-01 3.31572086e-01 3.32109421e-01 3.32646757e-01 3.33184063e-01 3.33708346e-01 3.34202141e-01 3.34678531e-01 3.35172325e-01 3.35696578e-01 3.36233914e-01 3.36771250e-01 3.37295532e-01 3.37789327e-01 3.38265717e-01 3.38759512e-01 3.39283764e-01 3.39821100e-01 3.40358436e-01 3.40895772e-01 3.41433078e-01 3.41970414e-01 3.42507750e-01 3.43045086e-01 3.43582422e-01 3.44119757e-01 3.44668269e-01 3.45239192e-01 3.45821291e-01 3.46403390e-01 3.46996695e-01 3.47601205e-01 3.48205686e-01 3.48782212e-01 3.49294335e-01 3.49772900e-01 3.50254267e-01 3.50735635e-01 3.51216972e-01 3.51712346e-01 3.52235675e-01 3.52773011e-01 3.53310347e-01 3.53847653e-01 3.54407370e-01 3.55011880e-01 3.55638772e-01 3.56265664e-01 3.56870145e-01 3.57429862e-01 3.57967198e-01 3.58504534e-01 3.59044671e-01 3.59590858e-01 3.60138923e-01 3.60668302e-01 3.61162722e-01 3.61638039e-01 3.62094671e-01 3.62515837e-01 3.62918854e-01 3.63321841e-01 3.63747239e-01 3.64217401e-01 3.64709944e-01 3.65202516e-01 3.65695059e-01 3.66187602e-01 3.66702557e-01 3.67262274e-01 3.67844373e-01 3.68426472e-01 3.69008601e-01 3.69590700e-01 3.70172799e-01 3.70754927e-01 3.71325821e-01 3.71874362e-01 3.72411698e-01 3.72949004e-01 3.73486340e-01 3.74034882e-01 3.74616981e-01 3.75232667e-01 3.75859559e-01 3.76486450e-01 3.77113342e-01 3.77717823e-01 3.78277540e-01 3.78814876e-01 3.79352212e-01 3.79889548e-01 3.80426854e-01 3.80964190e-01 3.81501526e-01 3.82038862e-01 3.82564992e-01 3.83068740e-01 3.83561283e-01 3.84053856e-01 3.84557605e-01 3.85083735e-01 3.85621071e-01 3.86158407e-01 3.86695713e-01 3.87233049e-01 3.87770385e-01 3.88285339e-01 3.88755500e-01 3.89203250e-01 3.89651030e-01 3.90098810e-01 3.90546590e-01 3.90994370e-01 3.91479462e-01 3.92056584e-01 3.92703384e-01 3.93340200e-01 3.93933505e-01 3.94511878e-01 3.95094007e-01 3.95676106e-01 3.96235824e-01 3.96750778e-01 3.97243321e-01 3.97735864e-01 3.98242414e-01 3.98777872e-01 3.99328262e-01 3.99874926e-01 4.00415063e-01 4.00952399e-01 4.01489735e-01 4.02027041e-01 4.02564377e-01 4.03101712e-01 4.03639048e-01 4.04176384e-01 4.04713720e-01 4.05251026e-01 4.05788362e-01 4.06325698e-01 4.06877011e-01 4.07456338e-01 4.08049643e-01 4.08645749e-01 4.09236252e-01 4.09807146e-01 4.10366863e-01 4.10894871e-01 4.11347479e-01 4.11752164e-01 4.12187994e-01 4.12686586e-01 4.13226724e-01 4.13795918e-01 4.14380670e-01 4.14974123e-01 4.15588439e-01 4.16215301e-01 4.16827261e-01 4.17413116e-01 4.17961627e-01 4.18457925e-01 4.18928087e-01 4.19398248e-01 4.19885218e-01 4.20405746e-01 4.20943081e-01 4.21480417e-01 4.22017723e-01 4.22555059e-01 4.23092395e-01 4.23595220e-01 4.24020439e-01 4.24411476e-01 4.24872160e-01 4.25455660e-01 4.26112384e-01 4.26739275e-01 4.27291542e-01 4.27814871e-01 4.28347528e-01 4.28884864e-01 4.29422200e-01 4.29959536e-01 4.30496871e-01 4.31034207e-01 4.31571513e-01 4.32108849e-01 4.32646185e-01 4.33183521e-01 4.33709651e-01 4.34213400e-01 4.34705943e-01 4.35198516e-01 4.35691059e-01 4.36183602e-01 4.36715335e-01 4.37325448e-01 4.37974721e-01 4.38623995e-01 4.39250886e-01 4.39816177e-01 4.40325528e-01 4.40818071e-01 4.41310644e-01 4.41814393e-01 4.42361504e-01 4.42967415e-01 4.43594307e-01 4.44176406e-01 4.44683403e-01 4.45150316e-01 4.45639133e-01 4.46176469e-01 4.46736187e-01 4.47312683e-01 4.47922796e-01 4.48549688e-01 4.49176550e-01 4.49792236e-01 4.50385541e-01 4.50956464e-01 4.51493800e-01 4.51997548e-01 4.52490091e-01 4.52982664e-01 4.53475207e-01 4.53981757e-01 4.54516292e-01 4.55088139e-01 4.55713928e-01 4.56368953e-01 4.56989139e-01 4.57551211e-01 4.58088547e-01 4.58625853e-01 4.59163189e-01 4.59700525e-01 4.60223854e-01 4.60719228e-01 4.61200565e-01 4.61681932e-01 4.62163299e-01 4.62669849e-01 4.63226765e-01 4.63808864e-01 4.64390963e-01 4.64973092e-01 4.65555191e-01 4.66137290e-01 4.66730595e-01 4.67346281e-01 4.67973173e-01 4.68600065e-01 4.69226956e-01 4.69831437e-01 4.70391154e-01 4.70928490e-01 4.71465826e-01 4.72003162e-01 4.72529292e-01 4.73033041e-01 4.73525584e-01 4.74018157e-01 4.74521905e-01 4.75059211e-01 4.75630134e-01 4.76212233e-01 4.76794362e-01 4.77376461e-01 4.77947384e-01 4.78495896e-01 4.79033232e-01 4.79570568e-01 4.80107903e-01 4.80645210e-01 4.81214255e-01 4.81853038e-01 4.82517004e-01 4.83104497e-01 4.83557940e-01 4.83920962e-01 4.84307021e-01 4.84793037e-01 4.85355556e-01 4.85937685e-01 4.86519784e-01 4.87064570e-01 4.87523556e-01 4.87926543e-01 4.88344461e-01 4.88840759e-01 4.89430338e-01 4.90057200e-01 4.90684092e-01 4.91313785e-01 4.91949052e-01 4.92575943e-01 4.93180454e-01 4.93762553e-01 4.94322270e-01 4.94870782e-01 4.95402515e-01 4.95900691e-01 4.96388108e-01 4.96910036e-01 4.97495890e-01 4.98122752e-01 4.98727739e-01 4.99285102e-01 4.99822438e-01 5.00359774e-01 5.00885904e-01 5.01389682e-01 5.01882195e-01 5.02374768e-01 5.02878487e-01 5.03404677e-01 5.03941953e-01 5.04488647e-01 5.05057037e-01 5.05637944e-01 5.06206334e-01 5.06753027e-01 5.07290363e-01 5.07827699e-01 5.08364975e-01 5.08891165e-01 5.09394884e-01 5.09887457e-01 5.10379970e-01 5.10872543e-01 5.11365116e-01 5.11857629e-01 5.12350202e-01 5.12865126e-01 5.13424873e-01 5.14006972e-01 5.14589071e-01 5.15171170e-01 5.15727639e-01 5.16224623e-01 5.16688943e-01 5.17190635e-01 5.17761350e-01 5.18366694e-01 5.18954039e-01 5.19506514e-01 5.20043850e-01 5.20581186e-01 5.21118522e-01 5.21655858e-01 5.22193193e-01 5.22730529e-01 5.23267865e-01 5.23824751e-01 5.24420857e-01 5.25008559e-01 5.25540292e-01 5.26063621e-01 5.26626170e-01 5.27208269e-01 5.27790368e-01 5.28372467e-01 5.28954566e-01 5.29536724e-01 5.30100167e-01 5.30626297e-01 5.31111360e-01 5.31544209e-01 5.31947196e-01 5.32376349e-01 5.32850206e-01 5.33353984e-01 5.33880115e-01 5.34417450e-01 5.34954786e-01 5.35492122e-01 5.36029458e-01 5.36566794e-01 5.37087321e-01 5.37596643e-01 5.38111567e-01 5.38626552e-01 5.39141476e-01 5.39656401e-01 5.40171385e-01 5.40686309e-01 5.41201234e-01 5.41716158e-01 5.42289913e-01 5.42958736e-01 5.43664038e-01 5.44369280e-01 5.45074522e-01 5.45737743e-01 5.46317101e-01 5.46854436e-01 5.47391713e-01 5.47929049e-01 5.48466384e-01 5.49003720e-01 5.49541056e-01 5.50078392e-01 5.50615728e-01 5.51153064e-01 5.51690400e-01 5.52227736e-01 5.52765071e-01 5.53302348e-01 5.53839684e-01 5.54377019e-01 5.54914355e-01 5.55451691e-01 5.55989027e-01 5.56523561e-01 5.57077706e-01 5.57654202e-01 5.58208287e-01 5.58740020e-01 5.59271753e-01 5.59803486e-01 5.60335219e-01 5.60869753e-01 5.61407089e-01 5.61992943e-01 5.62690735e-01 5.63451946e-01 5.64157188e-01 5.64745545e-01 5.65254271e-01 5.65767944e-01 5.66327691e-01 5.66909790e-01 5.67491889e-01 5.68073988e-01 5.68633735e-01 5.69148660e-01 5.69641173e-01 5.70133746e-01 5.70626318e-01 5.71130037e-01 5.71656168e-01 5.72193503e-01 5.72730839e-01 5.73268175e-01 5.73827922e-01 5.74432373e-01 5.75059295e-01 5.75686157e-01 5.76301873e-01 5.76895177e-01 5.77477276e-01 5.78059375e-01 5.78641474e-01 5.79210043e-01 5.79748750e-01 5.80275893e-01 5.80834091e-01 5.81442595e-01 5.82069457e-01 5.82651556e-01 5.83158553e-01 5.83625495e-01 5.84114313e-01 5.84651649e-01 5.85211337e-01 5.85768282e-01 5.86316764e-01 5.86845756e-01 5.87349474e-01 5.87842047e-01 5.88334560e-01 5.88827133e-01 5.89319706e-01 5.89812219e-01 5.90327203e-01 5.90886891e-01 5.91468990e-01 5.92051089e-01 5.92644870e-01 5.93263984e-01 5.93891203e-01 5.94487906e-01 5.95042527e-01 5.95579863e-01 5.96117139e-01 5.96615314e-01 5.97023964e-01 5.97388208e-01 5.97820163e-01 5.98368466e-01 5.98966002e-01 5.99504709e-01 5.99931479e-01 6.00288332e-01 6.00662887e-01 6.01088703e-01 6.01536512e-01 6.01984262e-01 6.02460027e-01 6.02991760e-01 6.03562653e-01 6.04155958e-01 6.04754865e-01 6.05342567e-01 6.05924666e-01 6.06506824e-01 6.07088923e-01 6.07671022e-01 6.08253121e-01 6.08835220e-01 6.09417319e-01 6.09977067e-01 6.10491991e-01 6.10983133e-01 6.11471534e-01 6.11980855e-01 6.12540543e-01 6.13122702e-01 6.13671660e-01 6.14166021e-01 6.14622712e-01 6.15080714e-01 6.15561783e-01 6.16054356e-01 6.16546929e-01 6.17048800e-01 6.17572427e-01 6.18108511e-01 6.18632197e-01 6.19134903e-01 6.19629860e-01 6.20113015e-01 6.20569289e-01 6.21016741e-01 6.21494651e-01 6.22014761e-01 6.22552097e-01 6.23089433e-01 6.23626769e-01 6.24164104e-01 6.24687433e-01 6.25182748e-01 6.25664115e-01 6.26145482e-01 6.26640856e-01 6.27164185e-01 6.27701521e-01 6.28266811e-01 6.28888130e-01 6.29537404e-01 6.30186677e-01 6.30807936e-01 6.31373286e-01 6.31910563e-01 6.32447898e-01 6.32974029e-01 6.33477807e-01 6.33970380e-01 6.34462893e-01 6.34997427e-01 6.35634601e-01 6.36343539e-01 6.37022674e-01 6.37604773e-01 6.38108552e-01 6.38592720e-01 6.39082432e-01 6.39575005e-01 6.40106738e-01 6.40716851e-01 6.41315758e-01 6.41813874e-01 6.42261684e-01 6.42709434e-01 6.43157244e-01 6.43593788e-01 6.44007981e-01 6.44410968e-01 6.44813955e-01 6.45225406e-01 6.45652652e-01 6.46087348e-01 6.46537006e-01 6.47015572e-01 6.47508085e-01 6.48045421e-01 6.48672342e-01 6.49343967e-01 6.50015652e-01 6.50687277e-01 6.51314199e-01 6.51851535e-01 6.52334750e-01 6.52795553e-01 6.53243363e-01 6.53712094e-01 6.54222012e-01 6.54743373e-01 6.55218780e-01 6.55630887e-01 6.56017065e-01 6.56403303e-01 6.56838477e-01 6.57371581e-01 6.57953680e-01 6.58535838e-01 6.59117937e-01 6.59700036e-01 6.60270929e-01 6.60819471e-01 6.61356807e-01 6.61894143e-01 6.62431479e-01 6.62968814e-01 6.63506091e-01 6.64043427e-01 6.64580762e-01 6.65118098e-01 6.65633023e-01 6.66103244e-01 6.66550994e-01 6.66998744e-01 6.67434871e-01 6.67845666e-01 6.68248355e-01 6.68681502e-01 6.69156790e-01 6.69649363e-01 6.70141876e-01 6.70623243e-01 6.71082258e-01 6.71530008e-01 6.71977758e-01 6.72425568e-01 6.72895730e-01 6.73410654e-01 6.73947990e-01 6.74485326e-01 6.75022662e-01 6.75559998e-01 6.76097333e-01 6.76634669e-01 6.77171946e-01 6.77709281e-01 6.78246617e-01 6.78783953e-01 6.79307282e-01 6.79802656e-01 6.80284023e-01 6.80765390e-01 6.81229949e-01 6.81660950e-01 6.82108700e-01 6.82623625e-01 6.83183372e-01 6.83765471e-01 6.84347570e-01 6.84882104e-01 6.85355067e-01 6.85802817e-01 6.86250627e-01 6.86743200e-01 6.87325299e-01 6.87952161e-01 6.88579082e-01 6.89183533e-01 6.89743280e-01 6.90280616e-01 6.90817952e-01 6.91355288e-01 6.91892564e-01 6.92429900e-01 6.92967236e-01 6.93504572e-01 6.94019496e-01 6.94489717e-01 6.94937468e-01 6.95385218e-01 6.95833027e-01 6.96258426e-01 6.96639001e-01 6.97030842e-01 6.97489798e-01 6.97982311e-01 6.98474884e-01 6.98967457e-01 6.99471176e-01 6.99997306e-01 7.00534642e-01 7.01071978e-01 7.01609313e-01 7.02107906e-01 7.02514350e-01 7.02861667e-01 7.03245699e-01 7.03705132e-01 7.04197705e-01 7.04690278e-01 7.05196798e-01 7.05731332e-01 7.06279874e-01 7.06828415e-01 7.07365692e-01 7.07880676e-01 7.08384395e-01 7.08858788e-01 7.09265471e-01 7.09636807e-01 7.10054696e-01 7.10548639e-01 7.11091578e-01 7.11670399e-01 7.12269783e-01 7.12865412e-01 7.13450789e-01 7.14031041e-01 7.14626193e-01 7.15247989e-01 7.15860367e-01 7.16398180e-01 7.16839433e-01 7.17236340e-01 7.17659414e-01 7.18131006e-01 7.18623519e-01 7.19130099e-01 7.19664633e-01 7.20213115e-01 7.20761657e-01 7.21307397e-01 7.21847534e-01 7.22384870e-01 7.22922206e-01 7.23459542e-01 7.23996818e-01 7.24523008e-01 7.25026727e-01 7.25519300e-01 7.26011813e-01 7.26504385e-01 7.27008104e-01 7.27534294e-01 7.28071570e-01 7.28608906e-01 7.29146242e-01 7.29683578e-01 7.30220914e-01 7.30758250e-01 7.31295586e-01 7.31821239e-01 7.32321739e-01 7.32814312e-01 7.33336687e-01 7.33924389e-01 7.34579563e-01 7.35243440e-01 7.35827744e-01 7.36284912e-01 7.36666858e-01 7.37101674e-01 7.37664461e-01 7.38299251e-01 7.38899112e-01 7.39424586e-01 7.39917099e-01 7.40409672e-01 7.40902245e-01 7.41381705e-01 7.41831362e-01 7.42264211e-01 7.42711961e-01 7.43201733e-01 7.43734419e-01 7.44282961e-01 7.44831443e-01 7.45365977e-01 7.45872557e-01 7.46365070e-01 7.46857643e-01 7.47350216e-01 7.47865140e-01 7.48424828e-01 7.49006987e-01 7.49589086e-01 7.50171185e-01 7.50730872e-01 7.51245856e-01 7.51738369e-01 7.52230942e-01 7.52723515e-01 7.53216028e-01 7.53708601e-01 7.54189968e-01 7.54648924e-01 7.55096734e-01 7.55544484e-01 7.56037056e-01 7.56619155e-01 7.57246017e-01 7.57872939e-01 7.58466244e-01 7.58992374e-01 7.59484887e-01 7.59977460e-01 7.60470033e-01 7.60996163e-01 7.61589468e-01 7.62193978e-01 7.62753665e-01 7.63291001e-01 7.63828337e-01 7.64365673e-01 7.64903009e-01 7.65440345e-01 7.65977681e-01 7.66514957e-01 7.67041147e-01 7.67544866e-01 7.68037438e-01 7.68529952e-01 7.69022524e-01 7.69515097e-01 7.70007610e-01 7.70500183e-01 7.70992756e-01 7.71485269e-01 7.71966636e-01 7.72425592e-01 7.72873402e-01 7.73321152e-01 7.73813725e-01 7.74395823e-01 7.75022745e-01 7.75649607e-01 7.76254117e-01 7.76813805e-01 7.77351141e-01 7.77888477e-01 7.78425813e-01 7.78977156e-01 7.79556453e-01 7.80149758e-01 7.80743062e-01 7.81319559e-01 7.81862497e-01 7.82388628e-01 7.82914758e-01 7.83443689e-01 7.83978224e-01 7.84515560e-01 7.85052896e-01 7.85590231e-01 7.86116362e-01 7.86611676e-01 7.87087440e-01 7.87571609e-01 7.88064182e-01 7.88556755e-01 7.89071679e-01 7.89631367e-01 7.90213525e-01 7.90795624e-01 7.91377723e-01 7.91959822e-01 7.92541921e-01 7.93124020e-01 7.93683767e-01 7.94192612e-01 7.94670701e-01 7.95167029e-01 7.95704365e-01 7.96260774e-01 7.96797633e-01 7.97289252e-01 7.97738910e-01 7.98184812e-01 7.98679233e-01 7.99236178e-01 7.99818277e-01 8.00400376e-01 8.00982475e-01 8.01564574e-01 8.02146733e-01 8.02728832e-01 8.03299725e-01 8.03848267e-01 8.04385602e-01 8.04922938e-01 8.05460274e-01 8.05997550e-01 8.06534886e-01 8.07072222e-01 8.07609558e-01 8.08137119e-01 8.08645070e-01 8.09120834e-01 8.09546173e-01 8.09949219e-01 8.10398400e-01 8.10917497e-01 8.11466038e-01 8.12014580e-01 8.12549114e-01 8.13055634e-01 8.13548207e-01 8.14040720e-01 8.14533293e-01 8.15025866e-01 8.15532386e-01 8.16066921e-01 8.16615462e-01 8.17164004e-01 8.17748904e-01 8.18406582e-01 8.19072604e-01 8.19682717e-01 8.20264816e-01 8.20846915e-01 8.21429014e-01 8.22011173e-01 8.22593272e-01 8.23175371e-01 8.23735058e-01 8.24238837e-01 8.24697793e-01 8.25145602e-01 8.25593352e-01 8.26041102e-01 8.26488912e-01 8.26936662e-01 8.27384472e-01 8.27832222e-01 8.28279972e-01 8.28750193e-01 8.29265118e-01 8.29802454e-01 8.30339789e-01 8.30877125e-01 8.31425607e-01 8.31996560e-01 8.32578659e-01 8.33160758e-01 8.33742857e-01 8.34324956e-01 8.34884703e-01 8.35399628e-01 8.35892200e-01 8.36384714e-01 8.36877286e-01 8.37369859e-01 8.37862372e-01 8.38368952e-01 8.38903487e-01 8.39451969e-01 8.40000510e-01 8.40546250e-01 8.41063976e-01 8.41534138e-01 8.41981947e-01 8.42429698e-01 8.42877507e-01 8.43325257e-01 8.43784213e-01 8.44265580e-01 8.44758153e-01 8.45250666e-01 8.45743239e-01 8.46235812e-01 8.46728325e-01 8.47195685e-01 8.47663105e-01 8.48180830e-01 8.48723769e-01 8.49266648e-01 8.49784434e-01 8.50276947e-01 8.50769520e-01 8.51262093e-01 8.51754606e-01 8.52258384e-01 8.52784514e-01 8.53321850e-01 8.53859186e-01 8.54393721e-01 8.54921699e-01 8.55445981e-01 8.55985165e-01 8.56553316e-01 8.57135415e-01 8.57717514e-01 8.58288407e-01 8.58814538e-01 8.59284699e-01 8.59732509e-01 8.60180259e-01 8.60650420e-01 8.61165345e-01 8.61702681e-01 8.62240016e-01 8.62766147e-01 8.63269925e-01 8.63762498e-01 8.64255011e-01 8.64747584e-01 8.65251303e-01 8.65777433e-01 8.66325974e-01 8.66896927e-01 8.67479026e-01 8.68061125e-01 8.68643224e-01 8.69225323e-01 8.69796216e-01 8.70344758e-01 8.70882094e-01 8.71419430e-01 8.71956766e-01 8.72484744e-01 8.72990370e-01 8.73482943e-01 8.73991311e-01 8.74527752e-01 8.75076234e-01 8.75624776e-01 8.76148105e-01 8.76621068e-01 8.77068877e-01 8.77516627e-01 8.77986789e-01 8.78501773e-01 8.79039049e-01 8.79576385e-01 8.80113721e-01 8.80651057e-01 8.81177187e-01 8.81680965e-01 8.82173479e-01 8.82666051e-01 8.83158624e-01 