<?xml version="1.0"?>
<MethodSetup Method="MLP::MLPRelu">
  <GeneralInfo>
    <Info name="TMVA Release" value="4.2.1 [262657]"/>
    <Info name="ROOT Release" value="6.32/12 [401420]"/>
    <Info name="Creator" value="echenard"/>
    <Info name="Date" value="Wed Nov 12 18:12:13 2025"/>
    <Info name="Host" value="Linux vbox 5.14.0-503.11.1.el9_5.x86_64 #1 SMP PREEMPT_DYNAMIC Tue Nov 12 09:26:13 EST 2024 x86_64 x86_64 x86_64 GNU/Linux"/>
    <Info name="Dir" value="/home/echenard/Work/Mu2e/CaloTrig"/>
    <Info name="Training events" value="31446"/>
    <Info name="TrainingTime" value="4.07162192e+01"/>
    <Info name="AnalysisType" value="Classification"/>
  </GeneralInfo>
  <Options>
    <Option name="NCycles" modified="Yes">500</Option>
    <Option name="HiddenLayers" modified="Yes">N</Option>
    <Option name="NeuronType" modified="Yes">ReLU</Option>
    <Option name="RandomSeed" modified="No">1</Option>
    <Option name="EstimatorType" modified="No">CE</Option>
    <Option name="NeuronInputType" modified="No">sum</Option>
    <Option name="V" modified="Yes">False</Option>
    <Option name="VerbosityLevel" modified="No">Default</Option>
    <Option name="VarTransform" modified="Yes">Norm</Option>
    <Option name="H" modified="Yes">True</Option>
    <Option name="CreateMVAPdfs" modified="No">False</Option>
    <Option name="IgnoreNegWeightsInTraining" modified="No">False</Option>
    <Option name="TrainingMethod" modified="No">BP</Option>
    <Option name="LearningRate" modified="No">2.000000e-02</Option>
    <Option name="DecayRate" modified="No">1.000000e-02</Option>
    <Option name="TestRate" modified="No">10</Option>
    <Option name="EpochMonitoring" modified="No">False</Option>
    <Option name="Sampling" modified="No">1.000000e+00</Option>
    <Option name="SamplingEpoch" modified="No">1.000000e+00</Option>
    <Option name="SamplingImportance" modified="No">1.000000e+00</Option>
    <Option name="SamplingTraining" modified="No">True</Option>
    <Option name="SamplingTesting" modified="No">False</Option>
    <Option name="ResetStep" modified="No">50</Option>
    <Option name="Tau" modified="No">3.000000e+00</Option>
    <Option name="BPMode" modified="No">sequential</Option>
    <Option name="BatchSize" modified="No">-1</Option>
    <Option name="ConvergenceImprove" modified="No">1.000000e-30</Option>
    <Option name="ConvergenceTests" modified="No">-1</Option>
    <Option name="UseRegulator" modified="No">False</Option>
    <Option name="UpdateLimit" modified="No">10000</Option>
    <Option name="CalculateErrors" modified="No">False</Option>
    <Option name="WeightRange" modified="No">1.000000e+00</Option>
  </Options>
  <Variables NVar="9">
    <Variable VarIndex="0" Expression="cluEnergy" Label="cluEnergy" Title="cluEnergy" Unit="F" Internal="cluEnergy" Type="F" Min="9.00078125e+01" Max="2.02640625e+02"/>
    <Variable VarIndex="1" Expression="cluCogR" Label="cluCogR" Title="cluCogR" Unit="F" Internal="cluCogR" Type="F" Min="3.88151550e+02" Max="6.31421021e+02"/>
    <Variable VarIndex="2" Expression="cluTime" Label="cluTime" Title="cluTime" Unit="F" Internal="cluTime" Type="F" Min="3.39486450e+02" Max="1.59997620e+03"/>
    <Variable VarIndex="3" Expression="cluNcrys" Label="cluNcrys" Title="cluNcrys" Unit="F" Internal="cluNcrys" Type="F" Min="1.00000000e+00" Max="2.30000000e+01"/>
    <Variable VarIndex="4" Expression="cluE1" Label="cluE1" Title="cluE1" Unit="F" Internal="cluE1" Type="F" Min="1.29372999e-01" Max="1.00000000e+00"/>
    <Variable VarIndex="5" Expression="cluE2" Label="cluE2" Title="cluE2" Unit="F" Internal="cluE2" Type="F" Min="2.52059311e-01" Max="1.00000000e+00"/>
    <Variable VarIndex="6" Expression="cluE9" Label="cluE9" Title="cluE9" Unit="F" Internal="cluE9" Type="F" Min="2.19184831e-01" Max="1.00000000e+00"/>
    <Variable VarIndex="7" Expression="cluE25" Label="cluE25" Title="cluE25" Unit="F" Internal="cluE25" Type="F" Min="2.19184831e-01" Max="1.00000000e+00"/>
    <Variable VarIndex="8" Expression="cluSec" Label="cluSec" Title="cluSec" Unit="F" Internal="cluSec" Type="F" Min="0.00000000e+00" Max="1.90668301e+04"/>
  </Variables>
  <Spectators NSpec="0"/>
  <Classes NClass="2">
    <Class Name="Signal" Index="0"/>
    <Class Name="Background" Index="1"/>
  </Classes>
  <Transformations NTransformations="1">
    <Transform Name="Normalize">
      <Selection>
        <Input NInputs="9">
          <Input Type="Variable" Label="cluEnergy" Expression="cluEnergy"/>
          <Input Type="Variable" Label="cluCogR" Expression="cluCogR"/>
          <Input Type="Variable" Label="cluTime" Expression="cluTime"/>
          <Input Type="Variable" Label="cluNcrys" Expression="cluNcrys"/>
          <Input Type="Variable" Label="cluE1" Expression="cluE1"/>
          <Input Type="Variable" Label="cluE2" Expression="cluE2"/>
          <Input Type="Variable" Label="cluE9" Expression="cluE9"/>
          <Input Type="Variable" Label="cluE25" Expression="cluE25"/>
          <Input Type="Variable" Label="cluSec" Expression="cluSec"/>
        </Input>
        <Output NOutputs="9">
          <Output Type="Variable" Label="cluEnergy" Expression="cluEnergy"/>
          <Output Type="Variable" Label="cluCogR" Expression="cluCogR"/>
          <Output Type="Variable" Label="cluTime" Expression="cluTime"/>
          <Output Type="Variable" Label="cluNcrys" Expression="cluNcrys"/>
          <Output Type="Variable" Label="cluE1" Expression="cluE1"/>
          <Output Type="Variable" Label="cluE2" Expression="cluE2"/>
          <Output Type="Variable" Label="cluE9" Expression="cluE9"/>
          <Output Type="Variable" Label="cluE25" Expression="cluE25"/>
          <Output Type="Variable" Label="cluSec" Expression="cluSec"/>
        </Output>
      </Selection>
      <Class ClassIndex="0">
        <Ranges>
          <Range Index="0" Min="9.0007812500000000e+01" Max="2.0264062500000000e+02"/>
          <Range Index="1" Min="3.9445452880859375e+02" Max="6.3142102050781250e+02"/>
          <Range Index="2" Min="3.6921655273437500e+02" Max="1.5999761962890625e+03"/>
          <Range Index="3" Min="1.0000000000000000e+00" Max="1.9000000000000000e+01"/>
          <Range Index="4" Min="1.2937299907207489e-01" Max="1.0000000000000000e+00"/>
          <Range Index="5" Min="2.5205931067466736e-01" Max="1.0000000000000000e+00"/>
          <Range Index="6" Min="2.1918483078479767e-01" Max="1.0000000000000000e+00"/>
          <Range Index="7" Min="2.1918483078479767e-01" Max="1.0000000000000000e+00"/>
          <Range Index="8" Min="0.0000000000000000e+00" Max="1.4588338867187500e+04"/>
        </Ranges>
      </Class>
      <Class ClassIndex="1">
        <Ranges>
          <Range Index="0" Min="9.0031250000000000e+01" Max="1.9240625000000000e+02"/>
          <Range Index="1" Min="3.8815155029296875e+02" Max="5.2917700195312500e+02"/>
          <Range Index="2" Min="3.3948645019531250e+02" Max="1.4516553955078125e+03"/>
          <Range Index="3" Min="1.0000000000000000e+00" Max="2.3000000000000000e+01"/>
          <Range Index="4" Min="1.7428410053253174e-01" Max="1.0000000000000000e+00"/>
          <Range Index="5" Min="3.2331782579421997e-01" Max="1.0000000000000000e+00"/>
          <Range Index="6" Min="2.2886276245117188e-01" Max="1.0000000000000000e+00"/>
          <Range Index="7" Min="2.4513438344001770e-01" Max="1.0000000000000000e+00"/>
          <Range Index="8" Min="2.5355380017799689e-09" Max="1.9066830078125000e+04"/>
        </Ranges>
      </Class>
      <Class ClassIndex="2">
        <Ranges>
          <Range Index="0" Min="9.0007812500000000e+01" Max="2.0264062500000000e+02"/>
          <Range Index="1" Min="3.8815155029296875e+02" Max="6.3142102050781250e+02"/>
          <Range Index="2" Min="3.3948645019531250e+02" Max="1.5999761962890625e+03"/>
          <Range Index="3" Min="1.0000000000000000e+00" Max="2.3000000000000000e+01"/>
          <Range Index="4" Min="1.2937299907207489e-01" Max="1.0000000000000000e+00"/>
          <Range Index="5" Min="2.5205931067466736e-01" Max="1.0000000000000000e+00"/>
          <Range Index="6" Min="2.1918483078479767e-01" Max="1.0000000000000000e+00"/>
          <Range Index="7" Min="2.1918483078479767e-01" Max="1.0000000000000000e+00"/>
          <Range Index="8" Min="0.0000000000000000e+00" Max="1.9066830078125000e+04"/>
        </Ranges>
      </Class>
    </Transform>
  </Transformations>
  <MVAPdfs/>
  <Weights>
    <Layout NLayers="3">
      <Layer Index="0" NNeurons="10">
        <Neuron NSynapses="9">
          -1.5554594107288524e+00 2.9242790852074347e+00 1.3728831820401819e+00 -1.0961229874043377e+00 -2.4551510834214687e+00 -1.4940535882478931e+00 -1.2558693749354688e-01 1.9658857095948501e+00 -1.3395957308041120e+00 
        </Neuron>
        <Neuron NSynapses="9">
          -1.7824122247731347e+00 4.2257410522729544e-01 1.0520374384322519e+00 -4.4828450755049403e+00 -9.0479834232648837e-01 9.8052433114929205e-01 -4.7858573682134170e-01 -3.9729531851081490e-01 1.7276621245645094e+00 
        </Neuron>
        <Neuron NSynapses="9">
          1.8304940483143688e+00 3.0076636908844749e+00 -4.3173639443622358e-01 -2.8264480282686835e+00 3.8154870783961853e-01 3.8484403039647286e+00 -1.3617660904356821e+00 -2.0137678466057932e-01 1.4639955866332850e+00 
        </Neuron>
        <Neuron NSynapses="9">
          7.2951168972563019e-01 -1.8101717891976559e+00 -7.1663145102796055e-01 1.0996871954514027e+00 2.7222406734774474e+00 1.1552187627701704e+00 -6.7231935407868690e-03 2.3200691238167734e-01 -2.4429318802491881e-01 
        </Neuron>
        <Neuron NSynapses="9">
          -1.6062759806224649e+00 1.2032387880678725e+00 -1.8992582570435708e+00 4.3113624496192698e-01 1.0615261116201313e+00 9.5006831617115844e-03 1.5340107032758579e+00 1.2276356177197350e+00 -7.1159967236313348e-01 
        </Neuron>
        <Neuron NSynapses="9">
          -1.3138426804374421e+00 4.9058171761646574e-01 -2.4846308067806236e-01 2.4230805296299204e-01 1.6699440197899657e-01 -9.0358953056454350e-01 1.9830197759069466e+00 -1.6457745155101722e+00 1.3194215446616504e+00 
        </Neuron>
        <Neuron NSynapses="9">
          -1.2687006559760998e+00 4.4794081020599064e-01 -1.5775696402168160e+00 -9.3585954316428499e-01 1.8978093887349203e+00 -1.2660202367152311e+00 -1.5535359859494218e+00 3.8964984107194972e-01 -2.8574630384603483e-01 
        </Neuron>
        <Neuron NSynapses="9">
          1.0739115225842228e+00 1.6565602889060442e+00 -4.4506644706851110e-02 8.3894245405396828e-01 -1.1071386126968514e+00 1.0335390714289718e+00 -2.0984064982714639e+00 -7.5057372890266416e-01 -1.4086159860300587e+00 
        </Neuron>
        <Neuron NSynapses="9">
          6.7348751516372485e-01 1.0623130242981795e+00 1.5442564026692471e+00 -5.4695180795857265e-02 -8.2417075430208508e-01 -4.1157919488175159e+00 4.6842043313265641e-01 5.1518538938472380e-01 1.9941316787803123e+00 
        </Neuron>
        <Neuron NSynapses="9">
          -9.0556892192288285e-01 2.1307285511400402e+00 -7.3948120774972670e-01 -5.4063452348150367e+00 -1.8367975447177516e+00 1.2719630979687129e+00 -1.5801747071225086e-01 -1.6173723072553658e+00 -1.7846722633162235e+00 
        </Neuron>
      </Layer>
      <Layer Index="1" NNeurons="10">
        <Neuron NSynapses="1">
          -1.7583956350032051e+00 
        </Neuron>
        <Neuron NSynapses="1">
          -2.0218427713401859e+00 
        </Neuron>
        <Neuron NSynapses="1">
          2.7557690536434767e+00 
        </Neuron>
        <Neuron NSynapses="1">
          -2.5041348770729148e+00 
        </Neuron>
        <Neuron NSynapses="1">
          2.1059895831724469e+00 
        </Neuron>
        <Neuron NSynapses="1">
          1.8217237275589313e+00 
        </Neuron>
        <Neuron NSynapses="1">
          -9.2206261572573578e-01 
        </Neuron>
        <Neuron NSynapses="1">
          -1.5200332746203977e+00 
        </Neuron>
        <Neuron NSynapses="1">
          -1.4386515779378990e+00 
        </Neuron>
        <Neuron NSynapses="1">
          2.3506187203265250e+00 
        </Neuron>
      </Layer>
      <Layer Index="2" NNeurons="1">
        <Neuron NSynapses="0"/>
      </Layer>
    </Layout>
  </Weights>
</MethodSetup>
