<?xml version="1.0"?>
<MethodSetup Method="MLP::MLPRelu">
  <GeneralInfo>
    <Info name="TMVA Release" value="4.2.1 [262657]"/>
    <Info name="ROOT Release" value="6.32/12 [401420]"/>
    <Info name="Creator" value="echenard"/>
    <Info name="Date" value="Sat Nov 15 19:07:18 2025"/>
    <Info name="Host" value="Linux vbox 5.14.0-503.11.1.el9_5.x86_64 #1 SMP PREEMPT_DYNAMIC Tue Nov 12 09:26:13 EST 2024 x86_64 x86_64 x86_64 GNU/Linux"/>
    <Info name="Dir" value="/home/echenard/Work/Mu2e/CaloTrig"/>
    <Info name="Training events" value="42182"/>
    <Info name="TrainingTime" value="1.36959835e+02"/>
    <Info name="AnalysisType" value="Classification"/>
  </GeneralInfo>
  <Options>
    <Option name="NCycles" modified="Yes">1000</Option>
    <Option name="HiddenLayers" modified="Yes">N</Option>
    <Option name="NeuronType" modified="Yes">ReLU</Option>
    <Option name="RandomSeed" modified="No">1</Option>
    <Option name="EstimatorType" modified="No">CE</Option>
    <Option name="NeuronInputType" modified="No">sum</Option>
    <Option name="V" modified="Yes">False</Option>
    <Option name="VerbosityLevel" modified="No">Default</Option>
    <Option name="VarTransform" modified="Yes">N</Option>
    <Option name="H" modified="Yes">True</Option>
    <Option name="CreateMVAPdfs" modified="No">False</Option>
    <Option name="IgnoreNegWeightsInTraining" modified="No">False</Option>
    <Option name="TrainingMethod" modified="No">BP</Option>
    <Option name="LearningRate" modified="No">2.000000e-02</Option>
    <Option name="DecayRate" modified="No">1.000000e-02</Option>
    <Option name="TestRate" modified="No">10</Option>
    <Option name="EpochMonitoring" modified="No">False</Option>
    <Option name="Sampling" modified="No">1.000000e+00</Option>
    <Option name="SamplingEpoch" modified="No">1.000000e+00</Option>
    <Option name="SamplingImportance" modified="No">1.000000e+00</Option>
    <Option name="SamplingTraining" modified="No">True</Option>
    <Option name="SamplingTesting" modified="No">False</Option>
    <Option name="ResetStep" modified="No">50</Option>
    <Option name="Tau" modified="No">3.000000e+00</Option>
    <Option name="BPMode" modified="No">sequential</Option>
    <Option name="BatchSize" modified="No">-1</Option>
    <Option name="ConvergenceImprove" modified="No">1.000000e-30</Option>
    <Option name="ConvergenceTests" modified="No">-1</Option>
    <Option name="UseRegulator" modified="No">False</Option>
    <Option name="UpdateLimit" modified="No">10000</Option>
    <Option name="CalculateErrors" modified="No">False</Option>
    <Option name="WeightRange" modified="No">1.000000e+00</Option>
  </Options>
  <Variables NVar="9">
    <Variable VarIndex="0" Expression="cluEnergy" Label="cluEnergy" Title="cluEnergy" Unit="F" Internal="cluEnergy" Type="F" Min="6.00078125e+01" Max="1.92406250e+02"/>
    <Variable VarIndex="1" Expression="cluCogR" Label="cluCogR" Title="cluCogR" Unit="F" Internal="cluCogR" Type="F" Min="3.75864258e+02" Max="6.35476379e+02"/>
    <Variable VarIndex="2" Expression="cluTime" Label="cluTime" Title="cluTime" Unit="F" Internal="cluTime" Type="F" Min="3.37624756e+02" Max="1.59974658e+03"/>
    <Variable VarIndex="3" Expression="cluNcrys" Label="cluNcrys" Title="cluNcrys" Unit="F" Internal="cluNcrys" Type="F" Min="1.00000000e+00" Max="2.30000000e+01"/>
    <Variable VarIndex="4" Expression="cluE1" Label="cluE1" Title="cluE1" Unit="F" Internal="cluE1" Type="F" Min="1.73072442e-01" Max="1.00000000e+00"/>
    <Variable VarIndex="5" Expression="cluE2" Label="cluE2" Title="cluE2" Unit="F" Internal="cluE2" Type="F" Min="3.15030247e-01" Max="1.00000000e+00"/>
    <Variable VarIndex="6" Expression="cluE9" Label="cluE9" Title="cluE9" Unit="F" Internal="cluE9" Type="F" Min="1.90234795e-01" Max="1.00000000e+00"/>
    <Variable VarIndex="7" Expression="cluE25" Label="cluE25" Title="cluE25" Unit="F" Internal="cluE25" Type="F" Min="2.38966152e-01" Max="1.00000000e+00"/>
    <Variable VarIndex="8" Expression="cluSec" Label="cluSec" Title="cluSec" Unit="F" Internal="cluSec" Type="F" Min="-7.12134174e-09" Max="2.42649570e+04"/>
  </Variables>
  <Spectators NSpec="0"/>
  <Classes NClass="2">
    <Class Name="Signal" Index="0"/>
    <Class Name="Background" Index="1"/>
  </Classes>
  <Transformations NTransformations="1">
    <Transform Name="Normalize">
      <Selection>
        <Input NInputs="9">
          <Input Type="Variable" Label="cluEnergy" Expression="cluEnergy"/>
          <Input Type="Variable" Label="cluCogR" Expression="cluCogR"/>
          <Input Type="Variable" Label="cluTime" Expression="cluTime"/>
          <Input Type="Variable" Label="cluNcrys" Expression="cluNcrys"/>
          <Input Type="Variable" Label="cluE1" Expression="cluE1"/>
          <Input Type="Variable" Label="cluE2" Expression="cluE2"/>
          <Input Type="Variable" Label="cluE9" Expression="cluE9"/>
          <Input Type="Variable" Label="cluE25" Expression="cluE25"/>
          <Input Type="Variable" Label="cluSec" Expression="cluSec"/>
        </Input>
        <Output NOutputs="9">
          <Output Type="Variable" Label="cluEnergy" Expression="cluEnergy"/>
          <Output Type="Variable" Label="cluCogR" Expression="cluCogR"/>
          <Output Type="Variable" Label="cluTime" Expression="cluTime"/>
          <Output Type="Variable" Label="cluNcrys" Expression="cluNcrys"/>
          <Output Type="Variable" Label="cluE1" Expression="cluE1"/>
          <Output Type="Variable" Label="cluE2" Expression="cluE2"/>
          <Output Type="Variable" Label="cluE9" Expression="cluE9"/>
          <Output Type="Variable" Label="cluE25" Expression="cluE25"/>
          <Output Type="Variable" Label="cluSec" Expression="cluSec"/>
        </Output>
      </Selection>
      <Class ClassIndex="0">
        <Ranges>
          <Range Index="0" Min="6.0031250000000000e+01" Max="1.7421875000000000e+02"/>
          <Range Index="1" Min="3.9578131103515625e+02" Max="6.3547637939453125e+02"/>
          <Range Index="2" Min="3.3762475585937500e+02" Max="1.5997465820312500e+03"/>
          <Range Index="3" Min="1.0000000000000000e+00" Max="1.4000000000000000e+01"/>
          <Range Index="4" Min="1.9260215759277344e-01" Max="1.0000000000000000e+00"/>
          <Range Index="5" Min="3.6510670185089111e-01" Max="1.0000000000000000e+00"/>
          <Range Index="6" Min="2.8650385141372681e-01" Max="1.0000000000000000e+00"/>
          <Range Index="7" Min="3.3813977241516113e-01" Max="1.0000000000000000e+00"/>
          <Range Index="8" Min="-7.1213417385251887e-09" Max="1.0659038085937500e+04"/>
        </Ranges>
      </Class>
      <Class ClassIndex="1">
        <Ranges>
          <Range Index="0" Min="6.0007812500000000e+01" Max="1.9240625000000000e+02"/>
          <Range Index="1" Min="3.7586425781250000e+02" Max="6.2912579345703125e+02"/>
          <Range Index="2" Min="3.3785198974609375e+02" Max="1.5734655761718750e+03"/>
          <Range Index="3" Min="1.0000000000000000e+00" Max="2.3000000000000000e+01"/>
          <Range Index="4" Min="1.7307244241237640e-01" Max="1.0000000000000000e+00"/>
          <Range Index="5" Min="3.1503024697303772e-01" Max="1.0000000000000000e+00"/>
          <Range Index="6" Min="1.9023479521274567e-01" Max="1.0000000000000000e+00"/>
          <Range Index="7" Min="2.3896615207195282e-01" Max="1.0000000000000000e+00"/>
          <Range Index="8" Min="-5.8261027113815089e-09" Max="2.4264957031250000e+04"/>
        </Ranges>
      </Class>
      <Class ClassIndex="2">
        <Ranges>
          <Range Index="0" Min="6.0007812500000000e+01" Max="1.9240625000000000e+02"/>
          <Range Index="1" Min="3.7586425781250000e+02" Max="6.3547637939453125e+02"/>
          <Range Index="2" Min="3.3762475585937500e+02" Max="1.5997465820312500e+03"/>
          <Range Index="3" Min="1.0000000000000000e+00" Max="2.3000000000000000e+01"/>
          <Range Index="4" Min="1.7307244241237640e-01" Max="1.0000000000000000e+00"/>
          <Range Index="5" Min="3.1503024697303772e-01" Max="1.0000000000000000e+00"/>
          <Range Index="6" Min="1.9023479521274567e-01" Max="1.0000000000000000e+00"/>
          <Range Index="7" Min="2.3896615207195282e-01" Max="1.0000000000000000e+00"/>
          <Range Index="8" Min="-7.1213417385251887e-09" Max="2.4264957031250000e+04"/>
        </Ranges>
      </Class>
    </Transform>
  </Transformations>
  <MVAPdfs/>
  <Weights>
    <Layout NLayers="3">
      <Layer Index="0" NNeurons="10">
        <Neuron NSynapses="9">
          -4.7483240127705111e+00 3.6193996642329518e+00 2.0563923475585424e-01 -2.6727366381375606e-01 -9.6612792712729831e+00 2.1018267408124758e+00 -1.9471804524985346e+00 2.0041794853816155e+00 -1.4094651282777042e+00 
        </Neuron>
        <Neuron NSynapses="9">
          -6.1783208460503456e+00 -1.4710000734175199e-01 -1.3654396800425737e+00 -8.5438645780143219e+00 -2.7804637701407431e-01 6.8746944036095248e-01 2.1875568511194712e-01 -4.4162494957843662e-01 1.7382396162128460e+00 
        </Neuron>
        <Neuron NSynapses="9">
          -1.3923329415848060e-01 1.0205840747312096e+00 -1.0365622316713474e+00 -2.4103689609293824e+00 6.7316478919210121e-01 2.9527786880525753e+00 1.5078034884866867e-01 -2.5382708218224764e-01 1.5084836357926588e+00 
        </Neuron>
        <Neuron NSynapses="9">
          9.4626746408979570e-02 -3.5765870276256089e+00 -3.1653263060218190e-01 6.3363295520650498e-01 1.6429064354102263e+00 9.6108857441732221e-01 -2.1173222773409059e+00 2.7449938166869237e-01 -2.7333678727650956e-01 
        </Neuron>
        <Neuron NSynapses="9">
          -5.9000458934269517e-01 9.2540213091174095e-01 -1.3058191543335946e+00 4.2679224117904140e-02 3.5521546153119099e-01 1.7701054811938406e+00 1.7520375678834288e+00 1.1718938009428799e+00 -7.4605245515489349e-01 
        </Neuron>
        <Neuron NSynapses="9">
          -7.6262083317666773e-01 -6.1762087907992769e-01 1.0776865041880419e+00 -7.0850416842358399e-01 -5.9895966025629321e-01 -1.2333175659488986e+00 1.7722499102054696e+00 -1.6983856224055669e+00 1.3141939581120041e+00 
        </Neuron>
        <Neuron NSynapses="9">
          -4.2208527825912361e+00 -4.3310294407028049e-01 -1.2768702741929190e+00 6.2950563298631301e-01 1.2475481654558975e+00 1.5895008224467552e-01 -1.2942530037090811e+00 3.3947047015687964e-01 -3.1985706386786983e-01 
        </Neuron>
        <Neuron NSynapses="9">
          -8.8065536130157918e-01 1.3148275144787791e+00 -6.1007464801569622e-01 8.2925215232972194e-01 8.3186722909319366e-01 1.3165369855788787e+00 -1.0730551247811475e+00 -7.7042757415170082e-01 -1.4358653142795241e+00 
        </Neuron>
        <Neuron NSynapses="9">
          1.8607662757712067e+00 1.2567127567262126e+00 2.2137248583023323e+00 1.8076184507800084e+00 1.4912666039557421e+00 -3.6718616759956264e+00 1.4731991133471771e+00 5.0804325579088028e-01 1.9598300211621629e+00 
        </Neuron>
        <Neuron NSynapses="9">
          6.3650897609440649e-02 1.0056324497466672e-01 -1.0700035823161005e+00 -5.6563017122569272e+00 -6.0979278969846016e+00 2.6393409875464759e+00 -2.3101074269886284e+00 -1.5473558793218682e+00 -1.7111132541219076e+00 
        </Neuron>
      </Layer>
      <Layer Index="1" NNeurons="10">
        <Neuron NSynapses="1">
          -1.0579181345970960e+00 
        </Neuron>
        <Neuron NSynapses="1">
          -1.7208521483056760e+00 
        </Neuron>
        <Neuron NSynapses="1">
          2.8954110366232313e+00 
        </Neuron>
        <Neuron NSynapses="1">
          -1.5946189297274240e+00 
        </Neuron>
        <Neuron NSynapses="1">
          -1.8396787445262974e+00 
        </Neuron>
        <Neuron NSynapses="1">
          9.5142157680245898e-01 
        </Neuron>
        <Neuron NSynapses="1">
          -1.0528372329220368e+00 
        </Neuron>
        <Neuron NSynapses="1">
          -1.5344503499325612e+00 
        </Neuron>
        <Neuron NSynapses="1">
          -1.4794730035999797e+00 
        </Neuron>
        <Neuron NSynapses="1">
          2.7757131096197720e+00 
        </Neuron>
      </Layer>
      <Layer Index="2" NNeurons="1">
        <Neuron NSynapses="0"/>
      </Layer>
    </Layout>
  </Weights>
</MethodSetup>
