<?xml version="1.0"?>
<MethodSetup Method="MLP::MLP">
  <GeneralInfo>
    <Info name="TMVA Release" value="4.2.0 [262656]"/>
    <Info name="ROOT Release" value="5.34/32 [336416]"/>
    <Info name="Creator" value="alaha"/>
    <Info name="Date" value="Mon Jul 11 11:37:39 2016"/>
    <Info name="Host" value="Linux buildservice003.fnal.gov 2.6.18-406.el5 #1 SMP Tue Jun 2 11:24:48 CDT 2015 x86_64 x86_64 x86_64 GNU/Linux"/>
    <Info name="Dir" value="/mu2e/app/users/alaha/dev"/>
    <Info name="Training events" value="7777"/>
    <Info name="TrainingTime" value="3.78520890e+02"/>
    <Info name="AnalysisType" value="Classification"/>
  </GeneralInfo>
  <Options>
    <Option name="NCycles" modified="No">500</Option>
    <Option name="HiddenLayers" modified="No">N,N-1</Option>
    <Option name="NeuronType" modified="No">sigmoid</Option>
    <Option name="RandomSeed" modified="No">1</Option>
    <Option name="EstimatorType" modified="No">MSE</Option>
    <Option name="NeuronInputType" modified="No">sum</Option>
    <Option name="V" modified="Yes">False</Option>
    <Option name="VerbosityLevel" modified="No">Default</Option>
    <Option name="VarTransform" modified="Yes">N</Option>
    <Option name="H" modified="Yes">False</Option>
    <Option name="CreateMVAPdfs" modified="No">False</Option>
    <Option name="IgnoreNegWeightsInTraining" modified="No">False</Option>
    <Option name="TrainingMethod" modified="No">BP</Option>
    <Option name="LearningRate" modified="No">2.000000e-02</Option>
    <Option name="DecayRate" modified="No">1.000000e-02</Option>
    <Option name="TestRate" modified="No">10</Option>
    <Option name="EpochMonitoring" modified="No">False</Option>
    <Option name="Sampling" modified="No">1.000000e+00</Option>
    <Option name="SamplingEpoch" modified="No">1.000000e+00</Option>
    <Option name="SamplingImportance" modified="No">1.000000e+00</Option>
    <Option name="SamplingTraining" modified="No">True</Option>
    <Option name="SamplingTesting" modified="No">False</Option>
    <Option name="ResetStep" modified="No">50</Option>
    <Option name="Tau" modified="No">3.000000e+00</Option>
    <Option name="BPMode" modified="No">sequential</Option>
    <Option name="BatchSize" modified="No">-1</Option>
    <Option name="ConvergenceImprove" modified="No">1.000000e-30</Option>
    <Option name="ConvergenceTests" modified="No">-1</Option>
    <Option name="UseRegulator" modified="No">False</Option>
    <Option name="UpdateLimit" modified="No">10000</Option>
    <Option name="CalculateErrors" modified="No">False</Option>
    <Option name="WeightRange" modified="No">1.000000e+00</Option>
  </Options>
  <Variables NVar="10">
    <Variable VarIndex="0" Expression="nactive" Label="nactive" Title="Variable 1" Unit="units" Internal="nactive" Type="F" Min="1.50000000e+01" Max="7.70000000e+01"/>
    <Variable VarIndex="1" Expression="nafract" Label="nafract" Title="Variable 2" Unit="units" Internal="nafract" Type="F" Min="4.73684222e-01" Max="1.00000000e+00"/>
    <Variable VarIndex="2" Expression="chi2dof" Label="chi2dof" Title="Variable 3" Unit="units" Internal="chi2dof" Type="F" Min="-5.88235296e-02" Max="6.17934942e+00"/>
    <Variable VarIndex="3" Expression="momerr" Label="momerr" Title="Variable 4" Unit="units" Internal="momerr" Type="F" Min="6.06474653e-02" Max="3.07068872e+00"/>
    <Variable VarIndex="4" Expression="t0err" Label="t0err" Title="Variable 5" Unit="units" Internal="t0err" Type="F" Min="2.71266639e-01" Max="6.77239180e+00"/>
    <Variable VarIndex="5" Expression="d0" Label="d0" Title="Variable 6" Unit="units" Internal="d0" Type="F" Min="-3.74575623e+02" Max="1.08127769e+02"/>
    <Variable VarIndex="6" Expression="rmax" Label="rmax" Title="Variable 7" Unit="units" Internal="rmax" Type="F" Min="4.20360718e+02" Max="6.83617065e+02"/>
    <Variable VarIndex="7" Expression="nda_o_na" Label="nda_o_na" Title="Variable 8" Unit="units" Internal="nda_o_na" Type="F" Min="1.30434781e-01" Max="5.00000000e-01"/>
    <Variable VarIndex="8" Expression="nza_o_na" Label="nza_o_na" Title="Variable 9" Unit="units" Internal="nza_o_na" Type="F" Min="0.00000000e+00" Max="9.58333313e-01"/>
    <Variable VarIndex="9" Expression="nma_o_na" Label="nma_o_na" Title="Variable10" Unit="units" Internal="nma_o_na" Type="F" Min="1.00000000e+00" Max="2.97886353e+03"/>
  </Variables>
  <Spectators NSpec="0"/>
  <Classes NClass="2">
    <Class Name="Background" Index="0"/>
    <Class Name="Signal" Index="1"/>
  </Classes>
  <Transformations NTransformations="1">
    <Transform Name="Normalize">
      <Selection>
        <Input NInputs="10">
          <Input Type="Variable" Label="nactive" Expression="nactive"/>
          <Input Type="Variable" Label="nafract" Expression="nafract"/>
          <Input Type="Variable" Label="chi2dof" Expression="chi2dof"/>
          <Input Type="Variable" Label="momerr" Expression="momerr"/>
          <Input Type="Variable" Label="t0err" Expression="t0err"/>
          <Input Type="Variable" Label="d0" Expression="d0"/>
          <Input Type="Variable" Label="rmax" Expression="rmax"/>
          <Input Type="Variable" Label="nda_o_na" Expression="nda_o_na"/>
          <Input Type="Variable" Label="nza_o_na" Expression="nza_o_na"/>
          <Input Type="Variable" Label="nma_o_na" Expression="nma_o_na"/>
        </Input>
        <Output NOutputs="10">
          <Output Type="Variable" Label="nactive" Expression="nactive"/>
          <Output Type="Variable" Label="nafract" Expression="nafract"/>
          <Output Type="Variable" Label="chi2dof" Expression="chi2dof"/>
          <Output Type="Variable" Label="momerr" Expression="momerr"/>
          <Output Type="Variable" Label="t0err" Expression="t0err"/>
          <Output Type="Variable" Label="d0" Expression="d0"/>
          <Output Type="Variable" Label="rmax" Expression="rmax"/>
          <Output Type="Variable" Label="nda_o_na" Expression="nda_o_na"/>
          <Output Type="Variable" Label="nza_o_na" Expression="nza_o_na"/>
          <Output Type="Variable" Label="nma_o_na" Expression="nma_o_na"/>
        </Output>
      </Selection>
      <Class ClassIndex="0">
        <Ranges>
          <Range Index="0" Min="1.5000000000000000e+01" Max="6.6000000000000000e+01"/>
          <Range Index="1" Min="4.7368422150611877e-01" Max="1.0000000000000000e+00"/>
          <Range Index="2" Min="-5.8823529630899429e-02" Max="6.1793494224548340e+00"/>
          <Range Index="3" Min="9.9279418587684631e-02" Max="3.0706887245178223e+00"/>
          <Range Index="4" Min="3.1518381834030151e-01" Max="6.7723917961120605e+00"/>
          <Range Index="5" Min="-3.7457562255859375e+02" Max="1.0812776947021484e+02"/>
          <Range Index="6" Min="4.2036071777343750e+02" Max="6.8361706542968750e+02"/>
          <Range Index="7" Min="1.3333334028720856e-01" Max="5.0000000000000000e-01"/>
          <Range Index="8" Min="3.7037037312984467e-02" Max="9.5833331346511841e-01"/>
          <Range Index="9" Min="1.0000000000000000e+00" Max="2.9788635253906250e+03"/>
        </Ranges>
      </Class>
      <Class ClassIndex="1">
        <Ranges>
          <Range Index="0" Min="1.5000000000000000e+01" Max="7.7000000000000000e+01"/>
          <Range Index="1" Min="6.2857145071029663e-01" Max="1.0000000000000000e+00"/>
          <Range Index="2" Min="-2.7777777984738350e-02" Max="4.0475697517395020e+00"/>
          <Range Index="3" Min="6.0647465288639069e-02" Max="8.6771327257156372e-01"/>
          <Range Index="4" Min="2.7126663923263550e-01" Max="4.6961908340454102e+00"/>
          <Range Index="5" Min="-9.0301208496093750e+01" Max="1.0669233703613281e+02"/>
          <Range Index="6" Min="4.3774435424804688e+02" Max="6.7263153076171875e+02"/>
          <Range Index="7" Min="1.3043478131294250e-01" Max="5.0000000000000000e-01"/>
          <Range Index="8" Min="0.0000000000000000e+00" Max="7.8571426868438721e-01"/>
          <Range Index="9" Min="1.0000000000000000e+00" Max="1.5984146728515625e+03"/>
        </Ranges>
      </Class>
      <Class ClassIndex="2">
        <Ranges>
          <Range Index="0" Min="1.5000000000000000e+01" Max="7.7000000000000000e+01"/>
          <Range Index="1" Min="4.7368422150611877e-01" Max="1.0000000000000000e+00"/>
          <Range Index="2" Min="-5.8823529630899429e-02" Max="6.1793494224548340e+00"/>
          <Range Index="3" Min="6.0647465288639069e-02" Max="3.0706887245178223e+00"/>
          <Range Index="4" Min="2.7126663923263550e-01" Max="6.7723917961120605e+00"/>
          <Range Index="5" Min="-3.7457562255859375e+02" Max="1.0812776947021484e+02"/>
          <Range Index="6" Min="4.2036071777343750e+02" Max="6.8361706542968750e+02"/>
          <Range Index="7" Min="1.3043478131294250e-01" Max="5.0000000000000000e-01"/>
          <Range Index="8" Min="0.0000000000000000e+00" Max="9.5833331346511841e-01"/>
          <Range Index="9" Min="1.0000000000000000e+00" Max="2.9788635253906250e+03"/>
        </Ranges>
      </Class>
    </Transform>
  </Transformations>
  <MVAPdfs/>
  <Weights>
    <Layout NLayers="4">
      <Layer Index="0" NNeurons="11">
        <Neuron NSynapses="10">
          -5.7617006463354625e-01 2.0079945453691641e+00 7.3149645545154018e-01 9.3476968905111446e-01 -1.4189576984284249e+00 -1.6740181346127636e+00 -1.9868927290133307e+00 2.0592316992263244e+00 -9.8410414500087995e-01 -6.1752329587017707e-01 
        </Neuron>
        <Neuron NSynapses="10">
          -1.6470673555717141e+00 -2.5146700568369251e-01 -1.2012017032431079e+00 -2.7578671762021201e-01 -1.0137495650612638e+00 3.4053562487035610e-01 -1.0635202019065142e+00 2.6668722982696140e+00 1.8430363769760919e-01 8.9551784817432922e-01 
        </Neuron>
        <Neuron NSynapses="10">
          -2.6986388766542113e-01 -8.2075984012120318e-01 7.4164651337149989e-01 -6.0717906050890103e-01 -2.6400438910071000e-01 7.2008383202217507e-01 2.7477224757635361e+00 -2.0658477275568310e+00 -8.4521159209509644e-01 -2.6295974377085235e-01 
        </Neuron>
        <Neuron NSynapses="10">
          3.9123452468439940e-01 1.6095919114286066e+00 -3.6004124688182887e-01 -8.1005211307180891e-01 1.7728081149467398e+00 2.5526778909354902e-01 2.4969386972545866e+00 -3.0063065696165309e-01 -1.0646595418037159e+00 2.7818073564236236e+00 
        </Neuron>
        <Neuron NSynapses="10">
          1.1835234232166929e+00 7.4493045672886748e-01 1.7182854600474498e+00 5.9146412811771087e-01 -8.4081119283211414e-01 -8.4993811751959314e-01 2.4191325210257930e-01 -2.1057475573132839e-01 1.9612938260351143e+00 1.1336431597118575e+00 
        </Neuron>
        <Neuron NSynapses="10">
          1.7114258072217243e+00 1.3204863196855050e+00 -1.6870549663889483e+00 1.3668830405908550e+00 -2.4429341049491713e+00 -1.3289922676582189e+00 -3.2037130013730333e+00 -1.8178324791746367e-01 1.2493942803577187e+00 4.7313908171163988e-01 
        </Neuron>
        <Neuron NSynapses="10">
          -1.4453044939643860e+00 3.2783698599151273e-01 -2.9173375251903733e-01 2.3757624100532870e-01 1.9012312481776761e+00 -5.4522925142914103e-01 1.1559139862952774e+00 -1.2452054523450575e+00 8.8851018680268679e-01 -8.4162237832200670e-01 
        </Neuron>
        <Neuron NSynapses="10">
          -7.9442123459741254e-01 -1.3518261875519317e+00 8.3714375828250265e-01 1.3461667022000929e+00 1.1039785719621313e+00 -2.7999622635574584e-01 -2.4016162585534820e-01 -2.0273921414694964e+00 1.1318128152689766e+00 -2.2896250875086216e-01 
        </Neuron>
        <Neuron NSynapses="10">
          2.1034105853233771e+00 5.5612604874983773e-01 9.7822544395964051e-01 -7.2504986205949584e-01 -4.3258915665128334e-01 5.4664109240381509e-02 1.3693156910983002e+00 -1.8022393935826966e+00 -1.1964385490614562e+00 -1.1555953127621816e+00 
        </Neuron>
        <Neuron NSynapses="10">
          -4.3780086787997269e-01 -2.0751591217610571e-01 1.6715564858680794e+00 -1.6552540182330089e+00 -1.0445510874614672e+00 2.2127944310181658e+00 -3.3773006628729463e+00 -1.3687856918322709e+00 -1.7783815485553063e+00 3.7783342678006260e-01 
        </Neuron>
        <Neuron NSynapses="10">
          -1.7734877609070820e+00 -1.5664043356547810e+00 8.4072871173913366e-01 2.5887940211807461e+00 -2.7112165991270415e-01 1.0220678164295203e+00 1.7687719762906184e+00 -1.5065381366316557e+00 -6.0172040409951499e-01 9.7696301236699956e-01 
        </Neuron>
      </Layer>
      <Layer Index="1" NNeurons="11">
        <Neuron NSynapses="9">
          -1.8498602793333814e+00 9.7101644735524725e-02 2.7245153898011498e-01 6.6687547408687076e-01 -1.5258074238759649e+00 1.7592009073994217e+00 1.5096804611496548e-01 -1.0436305555126124e+00 7.4840443889095143e-01 
        </Neuron>
        <Neuron NSynapses="9">
          -1.0864579803870842e+00 -1.6700719989081636e+00 1.1843743696196898e-01 -3.3443458356539141e-01 1.7256362664728286e+00 9.0294641451870417e-01 7.8661183559224981e-02 -2.7182482223895471e-01 1.2904317424065023e-01 
        </Neuron>
        <Neuron NSynapses="9">
          -1.8639507031096594e+00 1.0275320654014581e+00 1.5930757717931435e-01 -1.6187426705818959e+00 8.8942221018532164e-01 -1.6354481275741319e+00 4.5999482878255871e-01 8.9253429688958985e-01 1.7887406367470899e+00 
        </Neuron>
        <Neuron NSynapses="9">
          -2.3717624820888323e+00 -1.7958379728896356e-01 1.0730654912746926e+00 5.8352267827332371e-01 -1.7033067708136074e-01 -1.8231786770850746e+00 -2.3505454721788985e-01 -1.2911739924975247e+00 1.1725093718670561e+00 
        </Neuron>
        <Neuron NSynapses="9">
          8.0071483003971922e-01 -9.9213575665009890e-01 -4.6812697107562973e-01 4.9737235682111064e-01 -1.2964506804167939e+00 -1.3621508694217812e-03 2.5484276664896108e+00 -9.5498729452944542e-01 -6.9480166020689083e-01 
        </Neuron>
        <Neuron NSynapses="9">
          -1.2760579042802972e-01 4.4260412107704988e-01 3.1258799324740871e-01 1.2197750186361117e-01 -1.9647793506482130e+00 1.1046018425884983e+00 5.9303076679430811e-01 1.5306561632857218e-01 3.8966019772786897e-01 
        </Neuron>
        <Neuron NSynapses="9">
          6.3672348473754381e-01 -1.2776712713332112e+00 -5.7984496721387835e-01 1.3794340831389320e+00 -1.2262038186392392e+00 -7.3687603895324605e-01 4.5272257734602883e+00 1.5862180497673362e+00 -4.7625978101076294e-01 
        </Neuron>
        <Neuron NSynapses="9">
          1.2609287459879395e+00 1.5824893083979694e+00 -2.2480119293206768e+00 -7.2675871471415937e-02 2.7540589732495258e-01 -1.4246364242986509e-02 -2.4300771782916946e+00 -1.2124055722366500e+00 8.7483760484579498e-01 
        </Neuron>
        <Neuron NSynapses="9">
          1.2675496719129802e+00 -2.3009314652935231e+00 -6.0582709462620532e-01 -1.2271668890735494e+00 -1.0403567965386298e-02 1.2468093107430278e+00 -1.1843889163728731e+00 -4.6513632844418890e-01 -1.4008990336357188e+00 
        </Neuron>
        <Neuron NSynapses="9">
          9.2654171698851384e-01 1.3432548894956864e+00 9.6087535763680754e-01 -2.3191953078092431e-01 -9.2610651436694713e-01 -2.2185414175967129e+00 2.3248995214372670e+00 7.5663633461419044e-01 -1.5612889232623877e+00 
        </Neuron>
        <Neuron NSynapses="9">
          -1.2752410756472943e+00 -3.3497907155395984e-01 -2.6695349330665435e-01 -2.5475905036235380e+00 1.5103194107538527e+00 2.1348437851551685e-01 -2.9465568643912471e-01 -1.3407065433662990e-01 1.2659674993334358e+00 
        </Neuron>
      </Layer>
      <Layer Index="2" NNeurons="10">
        <Neuron NSynapses="1">
          -1.5179625805669898e-03 
        </Neuron>
        <Neuron NSynapses="1">
          -4.4410741527469105e-01 
        </Neuron>
        <Neuron NSynapses="1">
          -2.8997441694662068e-01 
        </Neuron>
        <Neuron NSynapses="1">
          -4.3367466950960165e-01 
        </Neuron>
        <Neuron NSynapses="1">
          -8.0108112077660931e-01 
        </Neuron>
        <Neuron NSynapses="1">
          4.4316209474825302e-01 
        </Neuron>
        <Neuron NSynapses="1">
          -1.7179675292310592e+00 
        </Neuron>
        <Neuron NSynapses="1">
          7.1234765331348748e-01 
        </Neuron>
        <Neuron NSynapses="1">
          -2.1843797431049580e-01 
        </Neuron>
        <Neuron NSynapses="1">
          1.8363199922324354e+00 
        </Neuron>
      </Layer>
      <Layer Index="3" NNeurons="1">
        <Neuron NSynapses="0"/>
      </Layer>
    </Layout>
  </Weights>
</MethodSetup>
