<?xml version="1.0"?>
<MethodSetup Method="MLP::MLP">
  <GeneralInfo>
    <Info name="TMVA Release" value="4.2.0 [262656]"/>
    <Info name="ROOT Release" value="5.34/32 [336416]"/>
    <Info name="Creator" value="brownd"/>
    <Info name="Date" value="Tue Nov 29 17:36:03 2016"/>
    <Info name="Host" value="Linux buildservice004.fnal.gov 2.6.32-504.23.4.el6.x86_64 #1 SMP Tue Jun 9 11:55:03 CDT 2015 x86_64 x86_64 x86_64 GNU/Linux"/>
    <Info name="Dir" value="/home/online1/brownd/mu2e/Mu2eSim/trktime/Offline"/>
    <Info name="Training events" value="10620"/>
    <Info name="TrainingTime" value="1.05700445e+02"/>
    <Info name="AnalysisType" value="Classification"/>
  </GeneralInfo>
  <Options>
    <Option name="NCycles" modified="No">500</Option>
    <Option name="HiddenLayers" modified="No">N,N-1</Option>
    <Option name="NeuronType" modified="No">sigmoid</Option>
    <Option name="RandomSeed" modified="No">1</Option>
    <Option name="EstimatorType" modified="No">MSE</Option>
    <Option name="NeuronInputType" modified="No">sum</Option>
    <Option name="V" modified="Yes">False</Option>
    <Option name="VerbosityLevel" modified="No">Default</Option>
    <Option name="VarTransform" modified="Yes">N</Option>
    <Option name="H" modified="Yes">False</Option>
    <Option name="CreateMVAPdfs" modified="No">False</Option>
    <Option name="IgnoreNegWeightsInTraining" modified="No">False</Option>
    <Option name="TrainingMethod" modified="No">BP</Option>
    <Option name="LearningRate" modified="No">2.000000e-02</Option>
    <Option name="DecayRate" modified="No">1.000000e-02</Option>
    <Option name="TestRate" modified="No">10</Option>
    <Option name="EpochMonitoring" modified="No">False</Option>
    <Option name="Sampling" modified="No">1.000000e+00</Option>
    <Option name="SamplingEpoch" modified="No">1.000000e+00</Option>
    <Option name="SamplingImportance" modified="No">1.000000e+00</Option>
    <Option name="SamplingTraining" modified="No">True</Option>
    <Option name="SamplingTesting" modified="No">False</Option>
    <Option name="ResetStep" modified="No">50</Option>
    <Option name="Tau" modified="No">3.000000e+00</Option>
    <Option name="BPMode" modified="No">sequential</Option>
    <Option name="BatchSize" modified="No">-1</Option>
    <Option name="ConvergenceImprove" modified="No">1.000000e-30</Option>
    <Option name="ConvergenceTests" modified="No">-1</Option>
    <Option name="UseRegulator" modified="No">False</Option>
    <Option name="UpdateLimit" modified="No">10000</Option>
    <Option name="CalculateErrors" modified="No">False</Option>
    <Option name="WeightRange" modified="No">1.000000e+00</Option>
  </Options>
  <Variables NVar="7">
    <Variable VarIndex="0" Expression="abs(hh._dtrans)" Label="abs(hh._dtrans)" Title="DTrans" Unit="mm" Internal="abs_hh._dtrans_" Type="F" Min="1.69420126e-03" Max="7.79711426e+02"/>
    <Variable VarIndex="1" Expression="abs(hh._dwire)" Label="abs(hh._dwire)" Title="DLong" Unit="mm" Internal="abs_hh._dwire_" Type="F" Min="2.22066970e-04" Max="7.39911865e+02"/>
    <Variable VarIndex="2" Expression="hh._chisq" Label="hh._chisq" Title="Chisq" Unit="mm" Internal="hh._chisq" Type="F" Min="1.32798301e-02" Max="6.50452881e+01"/>
    <Variable VarIndex="3" Expression="abs(hh._dt-25.5)" Label="abs(hh._dt-25.5)" Title="DT" Unit="ns" Internal="abs_hh._dt_M_25.5_" Type="F" Min="1.39427185e-03" Max="6.04185257e+01"/>
    <Variable VarIndex="4" Expression="abs(hh._hrho-rhel._radius)" Label="abs(hh._hrho-rhel._radius)" Title="DeltaRho" Unit="mm" Internal="abs_hh._hrho_M_rhel._radius_" Type="F" Min="0.00000000e+00" Max="3.96765533e+02"/>
    <Variable VarIndex="5" Expression="abs(hh._hhphi-hh._hphi)" Label="abs(hh._hhphi-hh._hphi)" Title="DeltaPhi" Unit="rad" Internal="abs_hh._hhphi_M_hh._hphi_" Type="F" Min="0.00000000e+00" Max="3.14107132e+00"/>
    <Variable VarIndex="6" Expression="sqrt(1.0-hh._whdot*hh._whdot)" Label="sqrt(1.0-hh._whdot*hh._whdot)" Title="WRDot" Unit="F" Internal="sqrt_1.0_M_hh._whdot_T_hh._whdot_" Type="F" Min="0.00000000e+00" Max="9.90673244e-01"/>
  </Variables>
  <Spectators NSpec="0"/>
  <Classes NClass="2">
    <Class Name="Signal" Index="0"/>
    <Class Name="Background" Index="1"/>
  </Classes>
  <Transformations NTransformations="1">
    <Transform Name="Normalize">
      <Selection>
        <Input NInputs="7">
          <Input Type="Variable" Label="abs(hh._dtrans)" Expression="abs(hh._dtrans)"/>
          <Input Type="Variable" Label="abs(hh._dwire)" Expression="abs(hh._dwire)"/>
          <Input Type="Variable" Label="hh._chisq" Expression="hh._chisq"/>
          <Input Type="Variable" Label="abs(hh._dt-25.5)" Expression="abs(hh._dt-25.5)"/>
          <Input Type="Variable" Label="abs(hh._hrho-rhel._radius)" Expression="abs(hh._hrho-rhel._radius)"/>
          <Input Type="Variable" Label="abs(hh._hhphi-hh._hphi)" Expression="abs(hh._hhphi-hh._hphi)"/>
          <Input Type="Variable" Label="sqrt(1.0-hh._whdot*hh._whdot)" Expression="sqrt(1.0-hh._whdot*hh._whdot)"/>
        </Input>
        <Output NOutputs="7">
          <Output Type="Variable" Label="abs(hh._dtrans)" Expression="abs(hh._dtrans)"/>
          <Output Type="Variable" Label="abs(hh._dwire)" Expression="abs(hh._dwire)"/>
          <Output Type="Variable" Label="hh._chisq" Expression="hh._chisq"/>
          <Output Type="Variable" Label="abs(hh._dt-25.5)" Expression="abs(hh._dt-25.5)"/>
          <Output Type="Variable" Label="abs(hh._hrho-rhel._radius)" Expression="abs(hh._hrho-rhel._radius)"/>
          <Output Type="Variable" Label="abs(hh._hhphi-hh._hphi)" Expression="abs(hh._hhphi-hh._hphi)"/>
          <Output Type="Variable" Label="sqrt(1.0-hh._whdot*hh._whdot)" Expression="sqrt(1.0-hh._whdot*hh._whdot)"/>
        </Output>
      </Selection>
      <Class ClassIndex="0">
        <Ranges>
          <Range Index="0" Min="1.6942012589424849e-03" Max="5.6544415283203125e+02"/>
          <Range Index="1" Min="2.2206697030924261e-04" Max="5.0170214843750000e+02"/>
          <Range Index="2" Min="1.3279830105602741e-02" Max="4.7037334442138672e+01"/>
          <Range Index="3" Min="1.3083724975585938e+00" Max="4.8477775573730469e+01"/>
          <Range Index="4" Min="3.3569335937500000e-04" Max="7.4551834106445312e+01"/>
          <Range Index="5" Min="0.0000000000000000e+00" Max="3.1238336563110352e+00"/>
          <Range Index="6" Min="4.8828122089616954e-04" Max="9.8409795761108398e-01"/>
        </Ranges>
      </Class>
      <Class ClassIndex="1">
        <Ranges>
          <Range Index="0" Min="1.5980305150151253e-02" Max="7.7971142578125000e+02"/>
          <Range Index="1" Min="1.3579013757407665e-02" Max="7.3991186523437500e+02"/>
          <Range Index="2" Min="3.8575202226638794e-02" Max="6.5045288085937500e+01"/>
          <Range Index="3" Min="1.3942718505859375e-03" Max="6.0418525695800781e+01"/>
          <Range Index="4" Min="0.0000000000000000e+00" Max="3.9676553344726562e+02"/>
          <Range Index="5" Min="0.0000000000000000e+00" Max="3.1410713195800781e+00"/>
          <Range Index="6" Min="0.0000000000000000e+00" Max="9.9067324399948120e-01"/>
        </Ranges>
      </Class>
      <Class ClassIndex="2">
        <Ranges>
          <Range Index="0" Min="1.6942012589424849e-03" Max="7.7971142578125000e+02"/>
          <Range Index="1" Min="2.2206697030924261e-04" Max="7.3991186523437500e+02"/>
          <Range Index="2" Min="1.3279830105602741e-02" Max="6.5045288085937500e+01"/>
          <Range Index="3" Min="1.3942718505859375e-03" Max="6.0418525695800781e+01"/>
          <Range Index="4" Min="0.0000000000000000e+00" Max="3.9676553344726562e+02"/>
          <Range Index="5" Min="0.0000000000000000e+00" Max="3.1410713195800781e+00"/>
          <Range Index="6" Min="0.0000000000000000e+00" Max="9.9067324399948120e-01"/>
        </Ranges>
      </Class>
    </Transform>
  </Transformations>
  <MVAPdfs/>
  <Weights>
    <Layout NLayers="4">
      <Layer Index="0" NNeurons="8">
        <Neuron NSynapses="7">
          3.4375622427081798e-01 1.7387597148486826e+00 3.2525837771217270e+00 1.7530858521576922e+00 -2.0108937716280830e+00 -8.5165639545231486e-01 -4.7167107266247033e-01 
        </Neuron>
        <Neuron NSynapses="7">
          2.3411122086835392e+00 -1.6854283488002382e+00 -4.7872430845960151e-01 -1.6891866850036852e+00 -6.3955542417143885e-01 -9.6435414230904615e-01 9.8196811871191048e-01 
        </Neuron>
        <Neuron NSynapses="7">
          2.5226155001058834e-02 3.8907137908987227e-01 2.3299466318879563e+00 1.8380443715233676e+00 7.8510217993758985e-02 2.0577827109066993e+00 3.5387469877561684e-01 
        </Neuron>
        <Neuron NSynapses="7">
          -3.1235412203796281e-01 6.2145068183377461e-01 6.6259637522209286e-02 -1.5386744309343876e+00 -4.8181607547688859e-01 3.7178960096167444e+00 -2.7377162002425095e+00 
        </Neuron>
        <Neuron NSynapses="7">
          -1.5352725911377174e+00 -1.2683540020254520e+00 3.4051422826999334e+00 1.5717663941279665e+00 -2.7161185281373901e-01 9.5169117203737452e-01 3.7292589807381562e+00 
        </Neuron>
        <Neuron NSynapses="7">
          1.8548650432620115e-01 -1.2753305377220725e+00 8.7967790784530464e-01 -1.2075092552017421e+00 1.0776594190346942e+00 5.8923768853382097e-01 -6.1182618561397983e-01 
        </Neuron>
        <Neuron NSynapses="7">
          1.9175847321351720e+00 -9.0844950995030815e-02 -6.8994112103033245e-01 -1.0038605222241004e+00 4.3538666527568382e-01 5.6488896496612129e-01 4.8547646559524776e-01 
        </Neuron>
        <Neuron NSynapses="7">
          1.8319143884599052e+00 1.1964244468996075e+00 7.7749322130148801e+00 -4.8502498851109777e-01 8.6460631302753155e-01 -7.4540119860197684e-01 8.0655220426275809e-01 
        </Neuron>
      </Layer>
      <Layer Index="1" NNeurons="8">
        <Neuron NSynapses="6">
          -1.3077343561266528e+00 -8.3519596746072122e-01 7.0353152258770135e-01 3.8131166511632097e-01 -1.6661110316060324e+00 5.9410494028810146e-01 
        </Neuron>
        <Neuron NSynapses="6">
          4.1049747483857468e-01 9.5510964288860090e-01 1.3266394630253378e+00 -5.1962817933354766e-01 8.7010451783773746e-03 -1.7615540861674230e+00 
        </Neuron>
        <Neuron NSynapses="6">
          1.9655206631351012e+00 -7.5893190420948260e+00 -1.9356162236715815e+00 -1.5149581390949891e+00 7.2642159669033779e-01 3.1736411319004052e+00 
        </Neuron>
        <Neuron NSynapses="6">
          1.8009362155439901e+00 -1.0873185253355235e+00 -1.9457681426509947e+00 -1.8194758252509931e+00 9.1276056853028265e-01 4.8738054674665870e-01 
        </Neuron>
        <Neuron NSynapses="6">
          2.3358017602923526e+00 2.6060686196962508e+00 4.8310632596632869e-01 -1.0703026031046410e+00 -1.0101606586056227e+00 -4.5454166763918302e-01 
        </Neuron>
        <Neuron NSynapses="6">
          1.4045611915978848e+00 -2.9706118516393869e+00 -1.8742247954179587e+00 -1.7447594448859136e+00 -2.4112724249292464e-01 2.6402901878728297e-01 
        </Neuron>
        <Neuron NSynapses="6">
          1.5808268568224821e+00 -3.5944471673220977e+00 -1.4870016358872857e+00 1.4409110488693029e+00 -8.9084929834077697e-01 5.3593046568881875e-01 
        </Neuron>
        <Neuron NSynapses="6">
          -8.1044940638527474e-01 1.2707469926055424e+00 -2.5195294855247128e+00 -1.9198773134436353e+00 5.7184319443369813e-01 1.4637234853109762e+00 
        </Neuron>
      </Layer>
      <Layer Index="2" NNeurons="7">
        <Neuron NSynapses="1">
          -3.1101022509904547e-01 
        </Neuron>
        <Neuron NSynapses="1">
          1.9324052723921072e+00 
        </Neuron>
        <Neuron NSynapses="1">
          -9.7188620864119046e-01 
        </Neuron>
        <Neuron NSynapses="1">
          -3.0500025011683574e-01 
        </Neuron>
        <Neuron NSynapses="1">
          -4.6129522893969844e-04 
        </Neuron>
        <Neuron NSynapses="1">
          1.4915554111135054e+00 
        </Neuron>
        <Neuron NSynapses="1">
          -1.1241649430253080e+00 
        </Neuron>
      </Layer>
      <Layer Index="3" NNeurons="1">
        <Neuron NSynapses="0"/>
      </Layer>
    </Layout>
  </Weights>
</MethodSetup>
