<?xml version="1.0"?>
<MethodSetup Method="MLP::MLP">
  <GeneralInfo>
    <Info name="TMVA Release" value="4.1.4 [262404]"/>
    <Info name="ROOT Release" value="5.34/09 [336393]"/>
    <Info name="Creator" value="brownd"/>
    <Info name="Date" value="Wed Apr 30 13:04:43 2014"/>
    <Info name="Host" value="Linux patdskmf.fnal.gov 2.6.18-308.20.1.el5 #1 SMP Tue Nov 13 11:54:02 EST 2012 x86_64 x86_64 x86_64 GNU/Linux"/>
    <Info name="Dir" value="/home/online1/brownd/mu2e/Mu2eSim/art6/Offline"/>
    <Info name="Training events" value="16986"/>
    <Info name="TrainingTime" value="2.40495207e+02"/>
    <Info name="AnalysisType" value="Classification"/>
  </GeneralInfo>
  <Options>
    <Option name="NCycles" modified="No">500</Option>
    <Option name="HiddenLayers" modified="No">N,N-1</Option>
    <Option name="NeuronType" modified="No">sigmoid</Option>
    <Option name="RandomSeed" modified="No">1</Option>
    <Option name="EstimatorType" modified="No">MSE</Option>
    <Option name="NeuronInputType" modified="No">sum</Option>
    <Option name="V" modified="Yes">False</Option>
    <Option name="VerbosityLevel" modified="No">Default</Option>
    <Option name="VarTransform" modified="Yes">N</Option>
    <Option name="H" modified="Yes">True</Option>
    <Option name="CreateMVAPdfs" modified="No">False</Option>
    <Option name="IgnoreNegWeightsInTraining" modified="No">False</Option>
    <Option name="TrainingMethod" modified="No">BP</Option>
    <Option name="LearningRate" modified="No">2.000000e-02</Option>
    <Option name="DecayRate" modified="No">1.000000e-02</Option>
    <Option name="TestRate" modified="No">10</Option>
    <Option name="EpochMonitoring" modified="No">False</Option>
    <Option name="Sampling" modified="No">1.000000e+00</Option>
    <Option name="SamplingEpoch" modified="No">1.000000e+00</Option>
    <Option name="SamplingImportance" modified="No">1.000000e+00</Option>
    <Option name="SamplingTraining" modified="No">True</Option>
    <Option name="SamplingTesting" modified="No">False</Option>
    <Option name="ResetStep" modified="No">50</Option>
    <Option name="Tau" modified="No">3.000000e+00</Option>
    <Option name="BPMode" modified="No">sequential</Option>
    <Option name="BatchSize" modified="No">-1</Option>
    <Option name="ConvergenceImprove" modified="No">1.000000e-30</Option>
    <Option name="ConvergenceTests" modified="No">-1</Option>
    <Option name="UseRegulator" modified="No">False</Option>
    <Option name="UpdateLimit" modified="No">10000</Option>
    <Option name="CalculateErrors" modified="No">False</Option>
    <Option name="WeightRange" modified="No">1.000000e+00</Option>
  </Options>
  <Variables NVar="9">
    <Variable VarIndex="0" Expression="prho" Label="prho" Title="Transverse radius" Unit="F" Internal="prho" Type="F" Min="3.77386566e+02" Max="6.52528198e+02"/>
    <Variable VarIndex="1" Expression="srho" Label="srho" Title="rho RMS" Unit="F" Internal="srho" Type="F" Min="1.00964598e-01" Max="4.96107330e+01"/>
    <Variable VarIndex="2" Expression="zmin" Label="zmin" Title="z of first hit" Unit="F" Internal="zmin" Type="F" Min="-1.51623633e+03" Max="1.37537634e+03"/>
    <Variable VarIndex="3" Expression="zmax" Label="zmax" Title="z of last hit" Unit="F" Internal="zmax" Type="F" Min="-1.37537634e+03" Max="1.51623633e+03"/>
    <Variable VarIndex="4" Expression="zgap" Label="zgap" Title="Biggest z gap between hits" Unit="F" Internal="zgap" Type="F" Min="6.64472656e+01" Max="2.94826636e+03"/>
    <Variable VarIndex="5" Expression="ns" Label="ns" Title="Number of Stations" Unit="F" Internal="ns" Type="F" Min="2.00000000e+00" Max="2.20000000e+01"/>
    <Variable VarIndex="6" Expression="nsmiss" Label="nsmiss" Title="Number of Stations Missed" Unit="F" Internal="nsmiss" Type="F" Min="0.00000000e+00" Max="2.00000000e+01"/>
    <Variable VarIndex="7" Expression="sphi" Label="sphi" Title="Phi RMS" Unit="F" Internal="sphi" Type="F" Min="7.55508372e-04" Max="2.44492829e-01"/>
    <Variable VarIndex="8" Expression="ngdhits" Label="ngdhits" Title="Number of good hits" Unit="F" Internal="ngdhits" Type="F" Min="2.00000000e+00" Max="1.83000000e+02"/>
  </Variables>
  <Spectators NSpec="0"/>
  <Classes NClass="2">
    <Class Name="Signal" Index="0"/>
    <Class Name="Background" Index="1"/>
  </Classes>
  <Transformations NTransformations="1">
    <Transform Name="Normalize">
      <Selection>
        <Input NInputs="9">
          <Input Type="Variable" Label="prho" Expression="prho"/>
          <Input Type="Variable" Label="srho" Expression="srho"/>
          <Input Type="Variable" Label="zmin" Expression="zmin"/>
          <Input Type="Variable" Label="zmax" Expression="zmax"/>
          <Input Type="Variable" Label="zgap" Expression="zgap"/>
          <Input Type="Variable" Label="ns" Expression="ns"/>
          <Input Type="Variable" Label="nsmiss" Expression="nsmiss"/>
          <Input Type="Variable" Label="sphi" Expression="sphi"/>
          <Input Type="Variable" Label="ngdhits" Expression="ngdhits"/>
        </Input>
        <Output NOutputs="9">
          <Output Type="Variable" Label="prho" Expression="prho"/>
          <Output Type="Variable" Label="srho" Expression="srho"/>
          <Output Type="Variable" Label="zmin" Expression="zmin"/>
          <Output Type="Variable" Label="zmax" Expression="zmax"/>
          <Output Type="Variable" Label="zgap" Expression="zgap"/>
          <Output Type="Variable" Label="ns" Expression="ns"/>
          <Output Type="Variable" Label="nsmiss" Expression="nsmiss"/>
          <Output Type="Variable" Label="sphi" Expression="sphi"/>
          <Output Type="Variable" Label="ngdhits" Expression="ngdhits"/>
        </Output>
      </Selection>
      <Class ClassIndex="0">
        <Ranges>
          <Range Index="0" Min="3.7738656616210938e+02" Max="6.5252819824218750e+02"/>
          <Range Index="1" Min="1.0096459835767746e-01" Max="4.9610733032226562e+01"/>
          <Range Index="2" Min="-1.5162363281250000e+03" Max="1.3753763427734375e+03"/>
          <Range Index="3" Min="-1.3753763427734375e+03" Max="1.5162363281250000e+03"/>
          <Range Index="4" Min="6.6447265625000000e+01" Max="2.9482663574218750e+03"/>
          <Range Index="5" Min="2.0000000000000000e+00" Max="2.2000000000000000e+01"/>
          <Range Index="6" Min="0.0000000000000000e+00" Max="2.0000000000000000e+01"/>
          <Range Index="7" Min="7.5550837209448218e-04" Max="2.4449282884597778e-01"/>
          <Range Index="8" Min="2.0000000000000000e+00" Max="1.8300000000000000e+02"/>
        </Ranges>
      </Class>
      <Class ClassIndex="1">
        <Ranges>
          <Range Index="0" Min="3.9903775024414062e+02" Max="6.3491784667968750e+02"/>
          <Range Index="1" Min="7.5067061185836792e-01" Max="3.7433635711669922e+01"/>
          <Range Index="2" Min="-1.5162363281250000e+03" Max="7.9552368164062500e+02"/>
          <Range Index="3" Min="-1.3009636230468750e+03" Max="1.5162363281250000e+03"/>
          <Range Index="4" Min="8.0153686523437500e+01" Max="2.8946474609375000e+03"/>
          <Range Index="5" Min="2.0000000000000000e+00" Max="2.2000000000000000e+01"/>
          <Range Index="6" Min="0.0000000000000000e+00" Max="2.0000000000000000e+01"/>
          <Range Index="7" Min="2.4223006330430508e-03" Max="2.1227210760116577e-01"/>
          <Range Index="8" Min="2.0000000000000000e+00" Max="2.1000000000000000e+01"/>
        </Ranges>
      </Class>
      <Class ClassIndex="2">
        <Ranges>
          <Range Index="0" Min="3.7738656616210938e+02" Max="6.5252819824218750e+02"/>
          <Range Index="1" Min="1.0096459835767746e-01" Max="4.9610733032226562e+01"/>
          <Range Index="2" Min="-1.5162363281250000e+03" Max="1.3753763427734375e+03"/>
          <Range Index="3" Min="-1.3753763427734375e+03" Max="1.5162363281250000e+03"/>
          <Range Index="4" Min="6.6447265625000000e+01" Max="2.9482663574218750e+03"/>
          <Range Index="5" Min="2.0000000000000000e+00" Max="2.2000000000000000e+01"/>
          <Range Index="6" Min="0.0000000000000000e+00" Max="2.0000000000000000e+01"/>
          <Range Index="7" Min="7.5550837209448218e-04" Max="2.4449282884597778e-01"/>
          <Range Index="8" Min="2.0000000000000000e+00" Max="1.8300000000000000e+02"/>
        </Ranges>
      </Class>
    </Transform>
  </Transformations>
  <MVAPdfs/>
  <Weights>
    <Layout NLayers="4">
      <Layer Index="0" NNeurons="10">
        <Neuron NSynapses="9">
          -3.0711244035132346e-01 2.7544062738511657e+00 7.6874220615090172e-01 2.4601362148232259e-01 -2.0058189436691900e+00 7.5009327395571630e-03 -9.6710214699676689e-01 1.4704392735781107e+00 -1.5081358880764058e+00 
        </Neuron>
        <Neuron NSynapses="9">
          -4.5538848128363435e-01 3.4208469060835606e-02 -4.1140512683458974e-01 3.0666133602963698e-02 -3.2180393551018072e-01 1.1602622471452893e-01 -6.2069839255981163e-01 -6.0769169368015385e-01 1.7530367718156150e+00 
        </Neuron>
        <Neuron NSynapses="9">
          -1.5880784465511469e-01 6.3754050458227507e-01 -1.0644933895486577e+00 -7.1736995544960147e-01 5.9199351403836409e-01 1.0679695528561173e-01 -6.9332682603823670e-01 -9.7370967256944080e-02 1.6729572779540169e+00 
        </Neuron>
        <Neuron NSynapses="9">
          -3.1958536955561651e-01 -2.0498418887199490e+00 4.3090121086762462e-01 3.2657846174019450e-01 1.4918342038527395e+00 -3.8916471596148994e-01 2.9872360827514416e-01 3.5126889267380607e-01 -3.0055667207421716e-01 
        </Neuron>
        <Neuron NSynapses="9">
          -1.9807119275194118e+00 2.3450383489646396e+00 -1.4083761791510130e+00 -2.8631885525907286e-01 9.5650260386886699e-01 4.7121058947367436e+00 6.9952466836813421e-01 1.0884150794646141e+00 -6.9645144065902076e-01 
        </Neuron>
        <Neuron NSynapses="9">
          -7.5718375487711431e-01 1.2508996594594572e+00 5.8914754919651391e-01 2.7808583079248348e+00 1.5121405060244411e+00 2.0812379357482247e-01 2.8669031276472707e+00 -2.0968479293182507e+00 1.2316266160469527e+00 
        </Neuron>
        <Neuron NSynapses="9">
          -2.6331159671491995e+00 -5.1048288782024387e-01 -1.2110195387219040e+00 -3.9161899798134221e+00 1.2902034905179438e+00 1.6495996407160394e+00 -3.1871721121550962e+00 7.3875553195524649e-02 -2.2746541131017156e-01 
        </Neuron>
        <Neuron NSynapses="9">
          1.1061119301036513e+00 1.6867856589872985e+00 -5.6850937322564410e-01 6.5807225537732228e-01 -1.1839985937233257e+00 -5.6923332388851144e-01 -1.2802911550380101e+00 -1.0225141632799639e+00 -1.3129176833719611e+00 
        </Neuron>
        <Neuron NSynapses="9">
          1.5497732023256563e+00 6.2038328460822867e-01 1.6744235629485873e+00 -1.4763447105026912e+00 -1.7160731009634957e+00 -9.1797049294494115e-01 7.2625975710301915e-01 -6.2403037854558696e-02 1.8464685440453230e+00 
        </Neuron>
        <Neuron NSynapses="9">
          7.8873302224635444e-01 1.2225140477866234e+00 -3.9171037345746484e-01 -1.8809937947581858e+00 -2.7718114832324581e-01 1.8745746233652478e+00 -2.2704281795961663e+00 -1.1575487758180907e+00 -1.7963119855327196e+00 
        </Neuron>
      </Layer>
      <Layer Index="1" NNeurons="10">
        <Neuron NSynapses="8">
          -1.1922717033490127e-01 -1.1234562532270547e+00 2.2572136132706060e+00 -1.6491200895202005e+00 -1.1458301158477442e+00 1.9967931910715926e+00 -9.1739968389709536e-01 -1.2953602702553217e+00 
        </Neuron>
        <Neuron NSynapses="8">
          -1.7416750672815153e+00 1.1867529250772779e+00 -2.0862058664886107e+00 -1.6614165402822612e+00 8.8461220600660095e-01 1.5804452835694118e+00 -1.1385803438877211e+00 1.7154103770599118e+00 
        </Neuron>
        <Neuron NSynapses="8">
          -1.3313301665917490e+00 -3.9613448244434052e-01 7.6602813062778441e-01 1.1264265220523149e-01 -1.9664207513148912e+00 8.4445759562991973e-01 2.2177600808855202e-01 6.6705103280635802e-01 
        </Neuron>
        <Neuron NSynapses="8">
          -2.1333727501571755e+00 4.3160108425812833e+00 3.5473800879771172e-01 -1.3869836501063690e+00 5.9527530156406450e-01 -3.6410512071724482e-01 -1.6891604478208733e+00 8.0098180167676961e-02 
        </Neuron>
        <Neuron NSynapses="8">
          -3.1708661570511959e-01 1.0878639508588785e-01 3.0170477840969451e-01 -4.6576339779129100e-01 -5.2614029846168064e-01 6.0097378383384692e-01 -1.9175916575403327e+00 6.4021629284979098e-01 
        </Neuron>
        <Neuron NSynapses="8">
          6.0416925530749443e-01 -4.1311027588300160e+00 -3.3067917755464654e-01 -1.6074988086709010e+00 2.2569263486214361e-01 7.8473736293737106e-01 1.7305501035965005e+00 -1.9835030933007112e+00 
        </Neuron>
        <Neuron NSynapses="8">
          1.1558075009714983e-01 3.3750439145171329e+00 1.9936831964741788e+00 -1.2544851953836475e-01 -1.7588444972892701e+00 3.5164758842277055e-01 -1.4302192771870850e+00 1.6547768654040358e+00 
        </Neuron>
        <Neuron NSynapses="8">
          1.0645309376404064e+00 5.7564517427045914e-01 -4.6599041871012858e-01 1.1059248197590360e-01 -1.2321995280782505e+00 5.8762281624677526e-01 1.5864796310896019e+00 -5.3855973433163173e-01 
        </Neuron>
        <Neuron NSynapses="8">
          -6.3578895472359787e-01 5.2378267765632658e-01 9.8649208949722589e-01 4.9951955496180644e-01 8.9528247012393380e-01 -1.3175675048671147e+00 1.5420889011038381e+00 7.7674495749436523e-01 
        </Neuron>
        <Neuron NSynapses="8">
          -1.2331640260177693e-02 3.6064670181434871e-01 8.4639575379691845e-01 -1.0940635350120405e+00 -7.8565926869348768e-01 1.8113511628294654e+00 -1.0819369548547546e+00 -6.2248472119527076e-01 
        </Neuron>
      </Layer>
      <Layer Index="2" NNeurons="9">
        <Neuron NSynapses="1">
          1.3731546837273789e+00 
        </Neuron>
        <Neuron NSynapses="1">
          2.4024414615318195e+00 
        </Neuron>
        <Neuron NSynapses="1">
          -1.2625051709242332e+00 
        </Neuron>
        <Neuron NSynapses="1">
          1.1150140783522493e+00 
        </Neuron>
        <Neuron NSynapses="1">
          1.7880400878648863e+00 
        </Neuron>
        <Neuron NSynapses="1">
          -1.0433906347284303e+00 
        </Neuron>
        <Neuron NSynapses="1">
          2.5575773061502832e-01 
        </Neuron>
        <Neuron NSynapses="1">
          1.6177088603504031e-01 
        </Neuron>
        <Neuron NSynapses="1">
          7.2115255457477234e-01 
        </Neuron>
      </Layer>
      <Layer Index="3" NNeurons="1">
        <Neuron NSynapses="0"/>
      </Layer>
    </Layout>
  </Weights>
</MethodSetup>
