<?xml version="1.0"?>
<MethodSetup Method="MLP::MLP">
  <GeneralInfo>
    <Info name="TMVA Release" value="4.1.4 [262404]"/>
    <Info name="ROOT Release" value="5.34/09 [336393]"/>
    <Info name="Creator" value="dding"/>
    <Info name="Date" value="Sun Feb 23 19:22:23 2014"/>
    <Info name="Host" value="Linux patdskmf.fnal.gov 2.6.18-308.20.1.el5 #1 SMP Tue Nov 13 11:54:02 EST 2012 x86_64 x86_64 x86_64 GNU/Linux"/>
    <Info name="Dir" value="/home/online1/dding/DeltaRemovalCode/trainMacro"/>
    <Info name="Training events" value="79185"/>
    <Info name="TrainingTime" value="9.74139334e+02"/>
    <Info name="AnalysisType" value="Classification"/>
  </GeneralInfo>
  <Options>
    <Option name="NCycles" modified="No">500</Option>
    <Option name="HiddenLayers" modified="No">N,N-1</Option>
    <Option name="NeuronType" modified="No">sigmoid</Option>
    <Option name="RandomSeed" modified="No">1</Option>
    <Option name="EstimatorType" modified="No">MSE</Option>
    <Option name="NeuronInputType" modified="No">sum</Option>
    <Option name="V" modified="Yes">False</Option>
    <Option name="VerbosityLevel" modified="No">Default</Option>
    <Option name="VarTransform" modified="Yes">N</Option>
    <Option name="H" modified="Yes">True</Option>
    <Option name="CreateMVAPdfs" modified="No">False</Option>
    <Option name="IgnoreNegWeightsInTraining" modified="No">False</Option>
    <Option name="TrainingMethod" modified="No">BP</Option>
    <Option name="LearningRate" modified="No">2.000000e-02</Option>
    <Option name="DecayRate" modified="No">1.000000e-02</Option>
    <Option name="TestRate" modified="No">10</Option>
    <Option name="EpochMonitoring" modified="No">False</Option>
    <Option name="Sampling" modified="No">1.000000e+00</Option>
    <Option name="SamplingEpoch" modified="No">1.000000e+00</Option>
    <Option name="SamplingImportance" modified="No">1.000000e+00</Option>
    <Option name="SamplingTraining" modified="No">True</Option>
    <Option name="SamplingTesting" modified="No">False</Option>
    <Option name="ResetStep" modified="No">50</Option>
    <Option name="Tau" modified="No">3.000000e+00</Option>
    <Option name="BPMode" modified="No">sequential</Option>
    <Option name="BatchSize" modified="No">-1</Option>
    <Option name="ConvergenceImprove" modified="No">1.000000e-30</Option>
    <Option name="ConvergenceTests" modified="No">-1</Option>
    <Option name="UseRegulator" modified="No">False</Option>
    <Option name="UpdateLimit" modified="No">10000</Option>
    <Option name="CalculateErrors" modified="No">False</Option>
    <Option name="WeightRange" modified="No">1.000000e+00</Option>
  </Options>
  <Variables NVar="8">
    <Variable VarIndex="0" Expression="prho" Label="prho" Title="Transverse radius" Unit="F" Internal="prho" Type="F" Min="3.74592255e+02" Max="1.21850073e+03"/>
    <Variable VarIndex="1" Expression="srho" Label="srho" Title="RMS of rho" Unit="F" Internal="srho" Type="F" Min="0.00000000e+00" Max="9.08877945e+01"/>
    <Variable VarIndex="2" Expression="zmin" Label="zmin" Title="z of first hit" Unit="F" Internal="zmin" Type="F" Min="-1.51623633e+03" Max="1.37537634e+03"/>
    <Variable VarIndex="3" Expression="zmax" Label="zmax" Title="z of last hit" Unit="F" Internal="zmax" Type="F" Min="-1.37537634e+03" Max="1.51623633e+03"/>
    <Variable VarIndex="4" Expression="zgap" Label="zgap" Title="Biggest z gap between hits" Unit="F" Internal="zgap" Type="F" Min="6.64472656e+01" Max="3.01047266e+03"/>
    <Variable VarIndex="5" Expression="nsmiss" Label="nsmiss" Title="Number of Stations Missed" Unit="F" Internal="nsmiss" Type="F" Min="0.00000000e+00" Max="2.00000000e+01"/>
    <Variable VarIndex="6" Expression="sphi" Label="sphi" Title="RMS of phi" Unit="F" Internal="sphi" Type="F" Min="0.00000000e+00" Max="2.30559826e-01"/>
    <Variable VarIndex="7" Expression="ngdhits" Label="ngdhits" Title="Number of hits in core" Unit="F" Internal="ngdhits" Type="F" Min="2.00000000e+00" Max="1.52000000e+02"/>
  </Variables>
  <Spectators NSpec="0"/>
  <Classes NClass="2">
    <Class Name="Signal" Index="0"/>
    <Class Name="Background" Index="1"/>
  </Classes>
  <Transformations NTransformations="1">
    <Transform Name="Normalize">
      <Selection>
        <Input NInputs="8">
          <Input Type="Variable" Label="prho" Expression="prho"/>
          <Input Type="Variable" Label="srho" Expression="srho"/>
          <Input Type="Variable" Label="zmin" Expression="zmin"/>
          <Input Type="Variable" Label="zmax" Expression="zmax"/>
          <Input Type="Variable" Label="zgap" Expression="zgap"/>
          <Input Type="Variable" Label="nsmiss" Expression="nsmiss"/>
          <Input Type="Variable" Label="sphi" Expression="sphi"/>
          <Input Type="Variable" Label="ngdhits" Expression="ngdhits"/>
        </Input>
        <Output NOutputs="8">
          <Output Type="Variable" Label="prho" Expression="prho"/>
          <Output Type="Variable" Label="srho" Expression="srho"/>
          <Output Type="Variable" Label="zmin" Expression="zmin"/>
          <Output Type="Variable" Label="zmax" Expression="zmax"/>
          <Output Type="Variable" Label="zgap" Expression="zgap"/>
          <Output Type="Variable" Label="nsmiss" Expression="nsmiss"/>
          <Output Type="Variable" Label="sphi" Expression="sphi"/>
          <Output Type="Variable" Label="ngdhits" Expression="ngdhits"/>
        </Output>
      </Selection>
      <Class ClassIndex="0">
        <Ranges>
          <Range Index="0" Min="3.7459225463867188e+02" Max="1.2185007324218750e+03"/>
          <Range Index="1" Min="0.0000000000000000e+00" Max="9.0887794494628906e+01"/>
          <Range Index="2" Min="-1.5162363281250000e+03" Max="1.3753763427734375e+03"/>
          <Range Index="3" Min="-1.3753763427734375e+03" Max="1.5162363281250000e+03"/>
          <Range Index="4" Min="6.6447265625000000e+01" Max="3.0104726562500000e+03"/>
          <Range Index="5" Min="0.0000000000000000e+00" Max="2.0000000000000000e+01"/>
          <Range Index="6" Min="0.0000000000000000e+00" Max="2.3055982589721680e-01"/>
          <Range Index="7" Min="2.0000000000000000e+00" Max="1.5200000000000000e+02"/>
        </Ranges>
      </Class>
      <Class ClassIndex="1">
        <Ranges>
          <Range Index="0" Min="3.8312500000000000e+02" Max="7.8695123291015625e+02"/>
          <Range Index="1" Min="0.0000000000000000e+00" Max="7.9281906127929688e+01"/>
          <Range Index="2" Min="-1.5162363281250000e+03" Max="1.3753763427734375e+03"/>
          <Range Index="3" Min="-1.3753763427734375e+03" Max="1.5162363281250000e+03"/>
          <Range Index="4" Min="6.6447265625000000e+01" Max="3.0050600585937500e+03"/>
          <Range Index="5" Min="0.0000000000000000e+00" Max="2.0000000000000000e+01"/>
          <Range Index="6" Min="1.8812468624673784e-04" Max="2.2055272758007050e-01"/>
          <Range Index="7" Min="2.0000000000000000e+00" Max="4.4000000000000000e+01"/>
        </Ranges>
      </Class>
      <Class ClassIndex="2">
        <Ranges>
          <Range Index="0" Min="3.7459225463867188e+02" Max="1.2185007324218750e+03"/>
          <Range Index="1" Min="0.0000000000000000e+00" Max="9.0887794494628906e+01"/>
          <Range Index="2" Min="-1.5162363281250000e+03" Max="1.3753763427734375e+03"/>
          <Range Index="3" Min="-1.3753763427734375e+03" Max="1.5162363281250000e+03"/>
          <Range Index="4" Min="6.6447265625000000e+01" Max="3.0104726562500000e+03"/>
          <Range Index="5" Min="0.0000000000000000e+00" Max="2.0000000000000000e+01"/>
          <Range Index="6" Min="0.0000000000000000e+00" Max="2.3055982589721680e-01"/>
          <Range Index="7" Min="2.0000000000000000e+00" Max="1.5200000000000000e+02"/>
        </Ranges>
      </Class>
    </Transform>
  </Transformations>
  <MVAPdfs/>
  <Weights>
    <Layout NLayers="4">
      <Layer Index="0" NNeurons="9">
        <Neuron NSynapses="8">
          5.2954782290572466e-01 2.4485886463487758e-01 4.0403428777574080e-01 1.4195609285042534e+00 -3.0675056456798009e+00 1.6826952303812354e-01 2.8170429477886666e-01 2.3376212909780074e+00 
        </Neuron>
        <Neuron NSynapses="8">
          -9.9725930334279667e-01 1.4213213609937983e-01 2.7931731586826836e-01 3.6742060478436778e-01 -1.6969274352964110e+00 -6.4015009865304798e-02 8.4482295906388405e-01 3.6503134022853545e-01 
        </Neuron>
        <Neuron NSynapses="8">
          2.0140685180687704e-01 1.3733560461411570e-01 3.8026876520090553e+00 1.3551619652616782e+00 5.7290667099358172e-01 7.6154303895743669e-01 1.5337850863998695e-01 -2.7756528031314391e+00 
        </Neuron>
        <Neuron NSynapses="8">
          -1.9082833886947106e-01 -6.8661326680551457e-02 -3.6678390313563471e+00 -7.7738986809019728e-01 -1.8341764646554908e+00 -7.7941147887843210e-01 1.1585599593947281e-01 3.5234745634001352e+00 
        </Neuron>
        <Neuron NSynapses="8">
          -1.0439335675662718e+00 1.6445176561060424e+00 7.2868066683188433e+00 4.3980549917596631e-02 -2.0852812220788772e+00 5.9495294104723637e+00 -1.7545271522755117e+00 2.6104944659033920e+00 
        </Neuron>
        <Neuron NSynapses="8">
          5.7296989588053004e-01 6.7674980194462053e-01 4.4426170423904532e+00 4.9517234133051184e+00 -1.8521898171771831e+00 -2.8415306490094348e+00 2.2482088556197932e+00 -2.3530559470055967e-01 
        </Neuron>
        <Neuron NSynapses="8">
          1.6261999955648199e+00 -3.2150427221993634e-02 1.5589711499917674e-01 3.7467651667014090e-01 -6.1141680222790762e-01 9.1762107088445399e-02 -1.0130912432003925e+00 1.3807510238467333e-01 
        </Neuron>
        <Neuron NSynapses="8">
          -1.6249220444893706e+00 -7.0763075005278964e+00 8.8928722626333290e-01 1.6948521518580990e+00 -1.1481800250835292e+00 1.1162572584778601e+00 1.1015879019524244e+00 -2.8451195751375613e-01 
        </Neuron>
        <Neuron NSynapses="8">
          1.8377891871506371e+00 -7.0748732580234259e+00 8.5010130309927128e+00 2.5880979066895957e+00 9.5264620129509736e-01 1.4314319517219607e+00 -1.6664355273163884e+00 -2.2489026319653922e+00 
        </Neuron>
      </Layer>
      <Layer Index="1" NNeurons="9">
        <Neuron NSynapses="7">
          7.1528888632256116e-01 2.1606088772232748e+00 2.0319889636855351e+00 1.9586162412899648e+00 -2.2890391797252705e+00 -2.7143928125959147e+00 2.3754439063963914e-01 
        </Neuron>
        <Neuron NSynapses="7">
          4.0790657308859402e+00 4.0831970572010325e+00 6.1601438015424204e-01 2.0474281147483202e+00 -7.5894692605086245e-01 -5.0972153883311233e-01 -3.9953272282785901e-01 
        </Neuron>
        <Neuron NSynapses="7">
          4.2707916437156790e+00 -5.9982435448688607e+00 -1.0704782878531369e+00 -5.6449626525738150e+00 -1.1187560656183422e-01 -5.3735479853527390e-01 1.2031095538642176e+00 
        </Neuron>
        <Neuron NSynapses="7">
          -3.2742476157319165e+00 -2.1099910834354985e+00 1.6300419495169747e+00 -1.4252198176452426e+00 -1.4437914857876544e+00 -1.4636186389074604e+00 -1.6473818286988159e-01 
        </Neuron>
        <Neuron NSynapses="7">
          -2.8216489656298842e+00 -1.2302721895192679e+00 1.4211146868222326e+00 3.1547030537740310e+00 -1.8068332126906035e+00 9.7364784512502200e-01 -1.6961632395641513e+00 
        </Neuron>
        <Neuron NSynapses="7">
          -1.3006559526038228e+00 -2.7550317308643785e-01 -1.2969257157813843e-01 -4.2141641829745842e+00 1.5738979590162872e+00 1.1527252856605383e+00 4.1911971607395448e-01 
        </Neuron>
        <Neuron NSynapses="7">
          -2.1838065741037971e+00 1.7297244032053987e+00 3.4202915037594345e-01 -9.5529886968219868e-01 1.1293510319027289e+00 -1.5101212094879635e+00 -1.9369227496135923e+00 
        </Neuron>
        <Neuron NSynapses="7">
          -7.0004146813298240e-01 2.2779551155654407e+00 2.1108282762506931e+00 3.8316743483380171e+00 -1.1434065403259439e+00 -1.9334392325218499e+00 -8.7464118855557216e-02 
        </Neuron>
        <Neuron NSynapses="7">
          -2.0790289847876795e+00 2.4723049187326414e+00 8.2765057883206206e-01 1.2031519958048982e-01 -5.1377746524307356e-02 -2.2749518926099608e+00 -7.6115650063834583e-01 
        </Neuron>
      </Layer>
      <Layer Index="2" NNeurons="8">
        <Neuron NSynapses="1">
          3.3416539489206714e+00 
        </Neuron>
        <Neuron NSynapses="1">
          1.6416827225187753e+00 
        </Neuron>
        <Neuron NSynapses="1">
          -1.1375517417226255e+00 
        </Neuron>
        <Neuron NSynapses="1">
          2.3117713379398319e+00 
        </Neuron>
        <Neuron NSynapses="1">
          9.1146029847147625e-01 
        </Neuron>
        <Neuron NSynapses="1">
          5.0894154618084086e-01 
        </Neuron>
        <Neuron NSynapses="1">
          -3.2090749575883086e-02 
        </Neuron>
        <Neuron NSynapses="1">
          -1.8479801058108529e+00 
        </Neuron>
      </Layer>
      <Layer Index="3" NNeurons="1">
        <Neuron NSynapses="0"/>
      </Layer>
    </Layout>
  </Weights>
</MethodSetup>
