<?xml version="1.0"?>
<MethodSetup Method="MLP::MLP">
  <GeneralInfo>
    <Info name="TMVA Release" value="4.1.4 [262404]"/>
    <Info name="ROOT Release" value="5.34/09 [336393]"/>
    <Info name="Creator" value="brownd"/>
    <Info name="Date" value="Sat May  3 17:25:15 2014"/>
    <Info name="Host" value="Linux patdskmf.fnal.gov 2.6.18-308.20.1.el5 #1 SMP Tue Nov 13 11:54:02 EST 2012 x86_64 x86_64 x86_64 GNU/Linux"/>
    <Info name="Dir" value="/home/online1/brownd/mu2e/Mu2eSim/art6/Offline"/>
    <Info name="Training events" value="17217"/>
    <Info name="TrainingTime" value="2.64152491e+02"/>
    <Info name="AnalysisType" value="Classification"/>
  </GeneralInfo>
  <Options>
    <Option name="NCycles" modified="No">500</Option>
    <Option name="HiddenLayers" modified="No">N,N-1</Option>
    <Option name="NeuronType" modified="No">sigmoid</Option>
    <Option name="RandomSeed" modified="No">1</Option>
    <Option name="EstimatorType" modified="No">MSE</Option>
    <Option name="NeuronInputType" modified="No">sum</Option>
    <Option name="V" modified="Yes">False</Option>
    <Option name="VerbosityLevel" modified="No">Default</Option>
    <Option name="VarTransform" modified="Yes">N</Option>
    <Option name="H" modified="Yes">True</Option>
    <Option name="CreateMVAPdfs" modified="No">False</Option>
    <Option name="IgnoreNegWeightsInTraining" modified="No">False</Option>
    <Option name="TrainingMethod" modified="No">BP</Option>
    <Option name="LearningRate" modified="No">2.000000e-02</Option>
    <Option name="DecayRate" modified="No">1.000000e-02</Option>
    <Option name="TestRate" modified="No">10</Option>
    <Option name="EpochMonitoring" modified="No">False</Option>
    <Option name="Sampling" modified="No">1.000000e+00</Option>
    <Option name="SamplingEpoch" modified="No">1.000000e+00</Option>
    <Option name="SamplingImportance" modified="No">1.000000e+00</Option>
    <Option name="SamplingTraining" modified="No">True</Option>
    <Option name="SamplingTesting" modified="No">False</Option>
    <Option name="ResetStep" modified="No">50</Option>
    <Option name="Tau" modified="No">3.000000e+00</Option>
    <Option name="BPMode" modified="No">sequential</Option>
    <Option name="BatchSize" modified="No">-1</Option>
    <Option name="ConvergenceImprove" modified="No">1.000000e-30</Option>
    <Option name="ConvergenceTests" modified="No">-1</Option>
    <Option name="UseRegulator" modified="No">False</Option>
    <Option name="UpdateLimit" modified="No">10000</Option>
    <Option name="CalculateErrors" modified="No">False</Option>
    <Option name="WeightRange" modified="No">1.000000e+00</Option>
  </Options>
  <Variables NVar="9">
    <Variable VarIndex="0" Expression="prho" Label="prho" Title="Transverse radius" Unit="F" Internal="prho" Type="F" Min="3.85298981e+02" Max="6.50560181e+02"/>
    <Variable VarIndex="1" Expression="srho" Label="srho" Title="rho RMS" Unit="F" Internal="srho" Type="F" Min="0.00000000e+00" Max="5.33456116e+01"/>
    <Variable VarIndex="2" Expression="zmin" Label="zmin" Title="z of first hit" Unit="F" Internal="zmin" Type="F" Min="-1.51623633e+03" Max="1.37537634e+03"/>
    <Variable VarIndex="3" Expression="zmax" Label="zmax" Title="z of last hit" Unit="F" Internal="zmax" Type="F" Min="-1.37537634e+03" Max="1.51623633e+03"/>
    <Variable VarIndex="4" Expression="zgap" Label="zgap" Title="Biggest z gap between hits" Unit="F" Internal="zgap" Type="F" Min="6.64472656e+01" Max="2.99526636e+03"/>
    <Variable VarIndex="5" Expression="ns" Label="ns" Title="Number of Stations" Unit="F" Internal="ns" Type="F" Min="2.00000000e+00" Max="2.20000000e+01"/>
    <Variable VarIndex="6" Expression="nsmiss" Label="nsmiss" Title="Number of Stations Missed" Unit="F" Internal="nsmiss" Type="F" Min="0.00000000e+00" Max="2.00000000e+01"/>
    <Variable VarIndex="7" Expression="sphi" Label="sphi" Title="Phi RMS" Unit="F" Internal="sphi" Type="F" Min="7.39264593e-04" Max="2.74856806e-01"/>
    <Variable VarIndex="8" Expression="ngdhits" Label="ngdhits" Title="Number of good hits" Unit="F" Internal="ngdhits" Type="F" Min="2.00000000e+00" Max="1.61000000e+02"/>
  </Variables>
  <Spectators NSpec="0"/>
  <Classes NClass="2">
    <Class Name="Signal" Index="0"/>
    <Class Name="Background" Index="1"/>
  </Classes>
  <Transformations NTransformations="1">
    <Transform Name="Normalize">
      <Selection>
        <Input NInputs="9">
          <Input Type="Variable" Label="prho" Expression="prho"/>
          <Input Type="Variable" Label="srho" Expression="srho"/>
          <Input Type="Variable" Label="zmin" Expression="zmin"/>
          <Input Type="Variable" Label="zmax" Expression="zmax"/>
          <Input Type="Variable" Label="zgap" Expression="zgap"/>
          <Input Type="Variable" Label="ns" Expression="ns"/>
          <Input Type="Variable" Label="nsmiss" Expression="nsmiss"/>
          <Input Type="Variable" Label="sphi" Expression="sphi"/>
          <Input Type="Variable" Label="ngdhits" Expression="ngdhits"/>
        </Input>
        <Output NOutputs="9">
          <Output Type="Variable" Label="prho" Expression="prho"/>
          <Output Type="Variable" Label="srho" Expression="srho"/>
          <Output Type="Variable" Label="zmin" Expression="zmin"/>
          <Output Type="Variable" Label="zmax" Expression="zmax"/>
          <Output Type="Variable" Label="zgap" Expression="zgap"/>
          <Output Type="Variable" Label="ns" Expression="ns"/>
          <Output Type="Variable" Label="nsmiss" Expression="nsmiss"/>
          <Output Type="Variable" Label="sphi" Expression="sphi"/>
          <Output Type="Variable" Label="ngdhits" Expression="ngdhits"/>
        </Output>
      </Selection>
      <Class ClassIndex="0">
        <Ranges>
          <Range Index="0" Min="3.8529898071289062e+02" Max="6.5056018066406250e+02"/>
          <Range Index="1" Min="0.0000000000000000e+00" Max="5.2590881347656250e+01"/>
          <Range Index="2" Min="-1.5162363281250000e+03" Max="1.3753763427734375e+03"/>
          <Range Index="3" Min="-1.3753763427734375e+03" Max="1.5162363281250000e+03"/>
          <Range Index="4" Min="6.6447265625000000e+01" Max="2.8392001953125000e+03"/>
          <Range Index="5" Min="2.0000000000000000e+00" Max="2.2000000000000000e+01"/>
          <Range Index="6" Min="0.0000000000000000e+00" Max="1.9000000000000000e+01"/>
          <Range Index="7" Min="7.3926459299400449e-04" Max="2.7485680580139160e-01"/>
          <Range Index="8" Min="2.0000000000000000e+00" Max="1.6100000000000000e+02"/>
        </Ranges>
      </Class>
      <Class ClassIndex="1">
        <Ranges>
          <Range Index="0" Min="3.9795355224609375e+02" Max="6.3697564697265625e+02"/>
          <Range Index="1" Min="3.2763135433197021e-01" Max="5.3345611572265625e+01"/>
          <Range Index="2" Min="-1.5162363281250000e+03" Max="1.3119636230468750e+03"/>
          <Range Index="3" Min="-1.2208100585937500e+03" Max="1.5162363281250000e+03"/>
          <Range Index="4" Min="6.6447341918945312e+01" Max="2.9952663574218750e+03"/>
          <Range Index="5" Min="2.0000000000000000e+00" Max="2.2000000000000000e+01"/>
          <Range Index="6" Min="0.0000000000000000e+00" Max="2.0000000000000000e+01"/>
          <Range Index="7" Min="4.2254650034010410e-03" Max="1.9061894714832306e-01"/>
          <Range Index="8" Min="2.0000000000000000e+00" Max="3.5000000000000000e+01"/>
        </Ranges>
      </Class>
      <Class ClassIndex="2">
        <Ranges>
          <Range Index="0" Min="3.8529898071289062e+02" Max="6.5056018066406250e+02"/>
          <Range Index="1" Min="0.0000000000000000e+00" Max="5.3345611572265625e+01"/>
          <Range Index="2" Min="-1.5162363281250000e+03" Max="1.3753763427734375e+03"/>
          <Range Index="3" Min="-1.3753763427734375e+03" Max="1.5162363281250000e+03"/>
          <Range Index="4" Min="6.6447265625000000e+01" Max="2.9952663574218750e+03"/>
          <Range Index="5" Min="2.0000000000000000e+00" Max="2.2000000000000000e+01"/>
          <Range Index="6" Min="0.0000000000000000e+00" Max="2.0000000000000000e+01"/>
          <Range Index="7" Min="7.3926459299400449e-04" Max="2.7485680580139160e-01"/>
          <Range Index="8" Min="2.0000000000000000e+00" Max="1.6100000000000000e+02"/>
        </Ranges>
      </Class>
    </Transform>
  </Transformations>
  <MVAPdfs/>
  <Weights>
    <Layout NLayers="4">
      <Layer Index="0" NNeurons="10">
        <Neuron NSynapses="9">
          -1.3192020201744842e-01 2.3899400888744706e+00 4.6469204286729010e-01 6.9344997632035110e-01 -1.8848431172746025e+00 7.4611271478619096e-02 -1.9545975247723351e+00 1.6114101827979443e+00 -1.4853726064066293e+00 
        </Neuron>
        <Neuron NSynapses="9">
          -7.3523250638835158e-01 -2.1913566978791102e-01 -4.9731422321343804e-01 8.5068035552711349e-02 -2.3367116070892033e-01 2.5396563906230213e-01 -7.6748092952481128e-01 -7.3178161279291387e-01 1.7294847050499249e+00 
        </Neuron>
        <Neuron NSynapses="9">
          5.1696747690647762e-02 4.9511685805182881e-01 -6.2521801145303757e-01 -8.7305238936312202e-01 8.6859759268347869e-01 9.5199479298825381e-03 -5.0242461459127086e-01 -1.5038218182631352e-01 1.6775205983128518e+00 
        </Neuron>
        <Neuron NSynapses="9">
          9.1869341888622572e-02 -1.7802880759643225e+00 5.6485139092034109e-01 4.9360458410521219e-01 1.5360969735866679e+00 -5.0661868518297759e-01 5.1807519601013208e-01 2.0135026842404605e-01 -3.1257113309838991e-01 
        </Neuron>
        <Neuron NSynapses="9">
          -1.9463074812672860e+00 2.5998263047392620e+00 -1.4044553263656059e+00 2.4101522005301512e-01 1.0930116789320674e+00 4.3293740875975688e+00 2.9746246678935734e-01 8.2772084701257687e-01 -6.9271948181846199e-01 
        </Neuron>
        <Neuron NSynapses="9">
          -3.5520761332880812e-01 1.3870114729544889e+00 4.1781250980872792e-01 3.0704795451076961e+00 1.6242325080512650e+00 4.8549054315885021e-02 3.1839822315991175e+00 -2.0342558225592904e+00 1.2446515723139475e+00 
        </Neuron>
        <Neuron NSynapses="9">
          -2.2186105554356419e+00 -8.1081268046602106e-01 -1.2523272772437088e+00 -4.3664095282468640e+00 1.4120510294837654e+00 1.8874128837521140e+00 -3.3904256097926075e+00 5.3346638193904825e-02 -2.4677064612379290e-01 
        </Neuron>
        <Neuron NSynapses="9">
          1.0662877082372730e+00 2.0287711980188852e+00 -4.0697459810735093e-01 6.0583702290770824e-01 -1.0956016641052764e+00 -2.6305144777659706e-01 -7.1613811384976733e-01 -1.0993296464600470e+00 -1.3140181800954978e+00 
        </Neuron>
        <Neuron NSynapses="9">
          1.8713997699968825e+00 6.0055398077281996e-01 1.6666991779872382e+00 -1.1418115253584364e+00 -1.3572437744106114e+00 -1.2482877721458363e+00 1.2385098274014987e+00 2.3611687484721575e-02 1.8297213215055017e+00 
        </Neuron>
        <Neuron NSynapses="9">
          5.3323105302619034e-01 1.5429655144851995e+00 -4.8771603476756881e-01 -1.8604520247372731e+00 -6.1423521948892579e-01 2.0324255059551977e+00 -2.6769021147017389e+00 -1.2937639282875684e+00 -1.8313001991144984e+00 
        </Neuron>
      </Layer>
      <Layer Index="1" NNeurons="10">
        <Neuron NSynapses="8">
          -2.0427538947432958e-01 -6.1192966512895930e-01 2.2766488298468861e+00 -1.6746552541519284e+00 -1.1105010622620612e+00 1.8417299401574756e+00 -8.2867016114887826e-01 -1.2507969615190961e+00 
        </Neuron>
        <Neuron NSynapses="8">
          -2.3424730303791046e+00 9.7626272017627325e-01 -2.1120827588106041e+00 -1.6932794667638216e+00 8.9137144251953393e-01 1.6148463242930882e+00 -1.2364322067981177e+00 1.7435401844029670e+00 
        </Neuron>
        <Neuron NSynapses="8">
          -1.1497854642150354e+00 -9.1779688977124699e-02 6.2404652965821661e-01 2.2878531385581458e-01 -1.8679819759015408e+00 6.6751194728444152e-01 3.2243184940828007e-01 6.9632260060226303e-01 
        </Neuron>
        <Neuron NSynapses="8">
          -2.3922901168458854e+00 4.5059260137216439e+00 -2.4741347492642913e-02 -1.3133218857998195e+00 9.0896746435935205e-01 -4.5996429923386173e-01 -1.6683282996328985e+00 2.3876633546780487e-01 
        </Neuron>
        <Neuron NSynapses="8">
          -1.1993669448591951e-01 6.4396004106321314e-01 4.2395882550009345e-01 -4.4914266914708595e-01 -6.0342023524104493e-01 7.3029179952180645e-01 -1.9009419480143124e+00 3.8625125634368490e-01 
        </Neuron>
        <Neuron NSynapses="8">
          8.1786472709487290e-01 -4.2287915996616299e+00 -1.8003597999034873e-01 -1.5615260095048660e+00 1.4071480004594411e-01 9.5243256833430889e-01 1.7284037123440381e+00 -2.1691702539820463e+00 
        </Neuron>
        <Neuron NSynapses="8">
          -3.3021460040778877e-01 3.9574872864968120e+00 1.8584669536879632e+00 -1.7483953194706234e-01 -1.8780056211929692e+00 3.5698437873031930e-01 -1.4645861412565340e+00 1.5718437528653000e+00 
        </Neuron>
        <Neuron NSynapses="8">
          1.0829147079497243e+00 5.8955005361032131e-01 -1.7461226138818023e-01 2.1943301948423727e-01 -1.3241351518077666e+00 5.9337209558541337e-01 1.6003046632202431e+00 -4.4044961896583879e-01 
        </Neuron>
        <Neuron NSynapses="8">
          -8.2626605331510705e-01 4.7011776147164774e-01 1.0066278270801148e+00 4.3644031389087107e-01 8.6776732826766545e-01 -1.2477756457313871e+00 1.5319027001057948e+00 6.8989103712355748e-01 
        </Neuron>
        <Neuron NSynapses="8">
          -1.8842683849565811e-01 -2.3609246471326831e-01 9.9778315170302156e-01 -1.0741941304808651e+00 -9.1145330853358764e-01 1.7969325718795701e+00 -1.0329340962832272e+00 -7.4523470179483509e-01 
        </Neuron>
      </Layer>
      <Layer Index="2" NNeurons="9">
        <Neuron NSynapses="1">
          1.6078860416421286e+00 
        </Neuron>
        <Neuron NSynapses="1">
          2.2351054376065815e+00 
        </Neuron>
        <Neuron NSynapses="1">
          -9.3371664675209332e-01 
        </Neuron>
        <Neuron NSynapses="1">
          1.1293366921011092e+00 
        </Neuron>
        <Neuron NSynapses="1">
          1.7512834881081962e+00 
        </Neuron>
        <Neuron NSynapses="1">
          -1.1302751493405463e+00 
        </Neuron>
        <Neuron NSynapses="1">
          3.4466929627620768e-01 
        </Neuron>
        <Neuron NSynapses="1">
          2.3098606239418240e-01 
        </Neuron>
        <Neuron NSynapses="1">
          6.0562449549641872e-01 
        </Neuron>
      </Layer>
      <Layer Index="3" NNeurons="1">
        <Neuron NSynapses="0"/>
      </Layer>
    </Layout>
  </Weights>
</MethodSetup>
