<?xml version="1.0"?>
<MethodSetup Method="MLP::MLP">
  <GeneralInfo>
    <Info name="TMVA Release" value="4.1.4 [262404]"/>
    <Info name="ROOT Release" value="5.34/09 [336393]"/>
    <Info name="Creator" value="brownd"/>
    <Info name="Date" value="Sun Apr 27 12:33:52 2014"/>
    <Info name="Host" value="Linux patdskmf.fnal.gov 2.6.18-308.20.1.el5 #1 SMP Tue Nov 13 11:54:02 EST 2012 x86_64 x86_64 x86_64 GNU/Linux"/>
    <Info name="Dir" value="/home/online1/brownd/mu2e/Mu2eSim/art6/Offline"/>
    <Info name="Training events" value="11474"/>
    <Info name="TrainingTime" value="1.70962311e+02"/>
    <Info name="AnalysisType" value="Classification"/>
  </GeneralInfo>
  <Options>
    <Option name="NCycles" modified="No">500</Option>
    <Option name="HiddenLayers" modified="No">N,N-1</Option>
    <Option name="NeuronType" modified="No">sigmoid</Option>
    <Option name="RandomSeed" modified="No">1</Option>
    <Option name="EstimatorType" modified="No">MSE</Option>
    <Option name="NeuronInputType" modified="No">sum</Option>
    <Option name="V" modified="Yes">False</Option>
    <Option name="VerbosityLevel" modified="No">Default</Option>
    <Option name="VarTransform" modified="Yes">N</Option>
    <Option name="H" modified="Yes">True</Option>
    <Option name="CreateMVAPdfs" modified="No">False</Option>
    <Option name="IgnoreNegWeightsInTraining" modified="No">False</Option>
    <Option name="TrainingMethod" modified="No">BP</Option>
    <Option name="LearningRate" modified="No">2.000000e-02</Option>
    <Option name="DecayRate" modified="No">1.000000e-02</Option>
    <Option name="TestRate" modified="No">10</Option>
    <Option name="EpochMonitoring" modified="No">False</Option>
    <Option name="Sampling" modified="No">1.000000e+00</Option>
    <Option name="SamplingEpoch" modified="No">1.000000e+00</Option>
    <Option name="SamplingImportance" modified="No">1.000000e+00</Option>
    <Option name="SamplingTraining" modified="No">True</Option>
    <Option name="SamplingTesting" modified="No">False</Option>
    <Option name="ResetStep" modified="No">50</Option>
    <Option name="Tau" modified="No">3.000000e+00</Option>
    <Option name="BPMode" modified="No">sequential</Option>
    <Option name="BatchSize" modified="No">-1</Option>
    <Option name="ConvergenceImprove" modified="No">1.000000e-30</Option>
    <Option name="ConvergenceTests" modified="No">-1</Option>
    <Option name="UseRegulator" modified="No">False</Option>
    <Option name="UpdateLimit" modified="No">10000</Option>
    <Option name="CalculateErrors" modified="No">False</Option>
    <Option name="WeightRange" modified="No">1.000000e+00</Option>
  </Options>
  <Variables NVar="9">
    <Variable VarIndex="0" Expression="prho" Label="prho" Title="Transverse radius" Unit="F" Internal="prho" Type="F" Min="3.77199036e+02" Max="6.51930176e+02"/>
    <Variable VarIndex="1" Expression="srho" Label="srho" Title="rho RMS" Unit="F" Internal="srho" Type="F" Min="5.36224395e-02" Max="5.23035812e+01"/>
    <Variable VarIndex="2" Expression="zmin" Label="zmin" Title="z of first hit" Unit="F" Internal="zmin" Type="F" Min="-1.51623633e+03" Max="1.37537634e+03"/>
    <Variable VarIndex="3" Expression="zmax" Label="zmax" Title="z of last hit" Unit="F" Internal="zmax" Type="F" Min="-1.37537634e+03" Max="1.51623633e+03"/>
    <Variable VarIndex="4" Expression="zgap" Label="zgap" Title="Biggest z gap between hits" Unit="F" Internal="zgap" Type="F" Min="6.64472656e+01" Max="2.82261279e+03"/>
    <Variable VarIndex="5" Expression="ns" Label="ns" Title="Number of Stations" Unit="F" Internal="ns" Type="F" Min="2.00000000e+00" Max="2.20000000e+01"/>
    <Variable VarIndex="6" Expression="nsmiss" Label="nsmiss" Title="Number of Stations Missed" Unit="F" Internal="nsmiss" Type="F" Min="0.00000000e+00" Max="1.90000000e+01"/>
    <Variable VarIndex="7" Expression="sphi" Label="sphi" Title="Phi RMS" Unit="F" Internal="sphi" Type="F" Min="8.29262775e-04" Max="2.50568241e-01"/>
    <Variable VarIndex="8" Expression="ngdhits" Label="ngdhits" Title="Number of good hits" Unit="F" Internal="ngdhits" Type="F" Min="2.00000000e+00" Max="1.30000000e+02"/>
  </Variables>
  <Spectators NSpec="0"/>
  <Classes NClass="2">
    <Class Name="Signal" Index="0"/>
    <Class Name="Background" Index="1"/>
  </Classes>
  <Transformations NTransformations="1">
    <Transform Name="Normalize">
      <Selection>
        <Input NInputs="9">
          <Input Type="Variable" Label="prho" Expression="prho"/>
          <Input Type="Variable" Label="srho" Expression="srho"/>
          <Input Type="Variable" Label="zmin" Expression="zmin"/>
          <Input Type="Variable" Label="zmax" Expression="zmax"/>
          <Input Type="Variable" Label="zgap" Expression="zgap"/>
          <Input Type="Variable" Label="ns" Expression="ns"/>
          <Input Type="Variable" Label="nsmiss" Expression="nsmiss"/>
          <Input Type="Variable" Label="sphi" Expression="sphi"/>
          <Input Type="Variable" Label="ngdhits" Expression="ngdhits"/>
        </Input>
        <Output NOutputs="9">
          <Output Type="Variable" Label="prho" Expression="prho"/>
          <Output Type="Variable" Label="srho" Expression="srho"/>
          <Output Type="Variable" Label="zmin" Expression="zmin"/>
          <Output Type="Variable" Label="zmax" Expression="zmax"/>
          <Output Type="Variable" Label="zgap" Expression="zgap"/>
          <Output Type="Variable" Label="ns" Expression="ns"/>
          <Output Type="Variable" Label="nsmiss" Expression="nsmiss"/>
          <Output Type="Variable" Label="sphi" Expression="sphi"/>
          <Output Type="Variable" Label="ngdhits" Expression="ngdhits"/>
        </Output>
      </Selection>
      <Class ClassIndex="0">
        <Ranges>
          <Range Index="0" Min="3.7719903564453125e+02" Max="6.5193017578125000e+02"/>
          <Range Index="1" Min="5.3622439503669739e-02" Max="5.2303581237792969e+01"/>
          <Range Index="2" Min="-1.5162363281250000e+03" Max="1.3753763427734375e+03"/>
          <Range Index="3" Min="-1.3753763427734375e+03" Max="1.5162363281250000e+03"/>
          <Range Index="4" Min="6.6447265625000000e+01" Max="2.7564936523437500e+03"/>
          <Range Index="5" Min="2.0000000000000000e+00" Max="2.2000000000000000e+01"/>
          <Range Index="6" Min="0.0000000000000000e+00" Max="1.9000000000000000e+01"/>
          <Range Index="7" Min="8.2926277536898851e-04" Max="2.5056824088096619e-01"/>
          <Range Index="8" Min="2.0000000000000000e+00" Max="1.3000000000000000e+02"/>
        </Ranges>
      </Class>
      <Class ClassIndex="1">
        <Ranges>
          <Range Index="0" Min="3.9648852539062500e+02" Max="6.3679858398437500e+02"/>
          <Range Index="1" Min="9.0715628862380981e-01" Max="3.5183341979980469e+01"/>
          <Range Index="2" Min="-1.5162363281250000e+03" Max="9.5279632568359375e+02"/>
          <Range Index="3" Min="-1.0564499511718750e+03" Max="1.5162363281250000e+03"/>
          <Range Index="4" Min="8.0153686523437500e+01" Max="2.8226127929687500e+03"/>
          <Range Index="5" Min="2.0000000000000000e+00" Max="2.2000000000000000e+01"/>
          <Range Index="6" Min="0.0000000000000000e+00" Max="1.9000000000000000e+01"/>
          <Range Index="7" Min="2.5544329546391964e-03" Max="1.8189732730388641e-01"/>
          <Range Index="8" Min="2.0000000000000000e+00" Max="2.1000000000000000e+01"/>
        </Ranges>
      </Class>
      <Class ClassIndex="2">
        <Ranges>
          <Range Index="0" Min="3.7719903564453125e+02" Max="6.5193017578125000e+02"/>
          <Range Index="1" Min="5.3622439503669739e-02" Max="5.2303581237792969e+01"/>
          <Range Index="2" Min="-1.5162363281250000e+03" Max="1.3753763427734375e+03"/>
          <Range Index="3" Min="-1.3753763427734375e+03" Max="1.5162363281250000e+03"/>
          <Range Index="4" Min="6.6447265625000000e+01" Max="2.8226127929687500e+03"/>
          <Range Index="5" Min="2.0000000000000000e+00" Max="2.2000000000000000e+01"/>
          <Range Index="6" Min="0.0000000000000000e+00" Max="1.9000000000000000e+01"/>
          <Range Index="7" Min="8.2926277536898851e-04" Max="2.5056824088096619e-01"/>
          <Range Index="8" Min="2.0000000000000000e+00" Max="1.3000000000000000e+02"/>
        </Ranges>
      </Class>
    </Transform>
  </Transformations>
  <MVAPdfs/>
  <Weights>
    <Layout NLayers="4">
      <Layer Index="0" NNeurons="10">
        <Neuron NSynapses="9">
          -5.9505217575245528e-01 1.9015480444619808e+00 5.8564265348677724e-01 4.4887156433739617e-01 -2.1528827558873838e+00 -4.8710596181661614e-01 -1.5711232556626324e+00 1.8731639719861592e+00 -1.4959801479827919e+00 
        </Neuron>
        <Neuron NSynapses="9">
          -1.1476017036416259e+00 -1.0025015141070508e+00 -2.4562669971230081e-01 -4.8141959920286781e-01 -3.9304792221445756e-01 -3.2023603103730497e-01 -5.3991828854260723e-02 -7.9975791240073479e-01 1.7507676752742602e+00 
        </Neuron>
        <Neuron NSynapses="9">
          -1.4772879320360002e-01 8.0875063514658663e-01 -7.2146598025479924e-01 -6.8497311878134604e-01 5.6427128522336278e-01 7.6040071006391052e-01 -3.4299786865188547e-01 -3.4874609028513182e-01 1.5872690951521014e+00 
        </Neuron>
        <Neuron NSynapses="9">
          -2.8487550518879873e-02 -1.5504452486105564e+00 4.7638793127845591e-01 4.5069227522882183e-01 1.4537811458495997e+00 -2.9880355390128494e-01 6.4642122650697065e-01 2.4648560763376698e-01 -3.0306764186969248e-01 
        </Neuron>
        <Neuron NSynapses="9">
          -2.0401024590754990e+00 2.8677396560589310e+00 -1.2333319855301488e+00 1.2667681355658081e-01 9.5691043401391185e-01 3.9782233064607682e+00 8.0097884344560610e-02 9.5477787307178819e-01 -7.2232935189447689e-01 
        </Neuron>
        <Neuron NSynapses="9">
          -6.3379099743042855e-01 9.6770440557027615e-01 2.3917694344708348e-01 2.5644325687960818e+00 1.4726458852465256e+00 -1.0468572365297563e-01 2.8866601267031347e+00 -1.9714369503100997e+00 1.2726815255412565e+00 
        </Neuron>
        <Neuron NSynapses="9">
          -2.0356641601352581e+00 -1.9221616489281390e-01 -1.1993971655908666e+00 -3.9597755282559404e+00 1.2683672877626471e+00 1.4671139626789202e+00 -2.9468828828852582e+00 1.2465664882875475e-01 -2.5508372628990578e-01 
        </Neuron>
        <Neuron NSynapses="9">
          7.5469469846439829e-01 1.4800681391062076e+00 -5.9880251977012811e-01 5.8053236647994710e-01 -1.1894280089220672e+00 1.9288441861051941e-02 -3.7384648452005853e-01 -1.0673065187967756e+00 -1.3382565915854034e+00 
        </Neuron>
        <Neuron NSynapses="9">
          1.4186148594594745e+00 7.2940528259921300e-01 1.4395309680182400e+00 -1.4214038412735797e+00 -1.6677767598711621e+00 -1.1562777896312990e+00 2.0656163833958574e-01 -1.3954910360852496e-01 1.7888340880403004e+00 
        </Neuron>
        <Neuron NSynapses="9">
          9.2050129299313743e-01 1.6992228406152374e+00 -3.0546053056825251e-01 -1.5281698151552763e+00 -2.4661846774886362e-01 1.7793134063259755e+00 -2.2499982295611871e+00 -1.1062361461279462e+00 -1.7572812914144755e+00 
        </Neuron>
      </Layer>
      <Layer Index="1" NNeurons="10">
        <Neuron NSynapses="8">
          9.1116492311738725e-02 -6.4571680648438223e-01 2.3289771046902996e+00 -1.7941582298470142e+00 -9.4560089831004002e-01 1.9901321138775681e+00 -8.5767730935837372e-01 -1.4060459625011339e+00 
        </Neuron>
        <Neuron NSynapses="8">
          -2.0223031039365895e+00 -1.7763214146833062e-01 -2.4154162110676669e+00 -1.6961853501750099e+00 7.0566630365731997e-01 1.6492125060380465e+00 -1.1642187101096542e+00 1.6734503542228825e+00 
        </Neuron>
        <Neuron NSynapses="8">
          -1.2639702242202056e+00 -3.1068487294184366e-01 4.2264256498281350e-01 1.6460972010362815e-01 -1.7890742655886134e+00 7.2874763698818001e-01 2.9413417152584875e-01 5.5925449328556265e-01 
        </Neuron>
        <Neuron NSynapses="8">
          -1.7673268899080254e+00 4.1718897526332483e+00 8.0939846189327744e-02 -1.2464248625835892e+00 5.1843488017186479e-01 -4.9351693426102533e-01 -1.6837394234988674e+00 3.4296860936764151e-02 
        </Neuron>
        <Neuron NSynapses="8">
          -2.2708989153477821e-01 4.1272966196681626e-01 4.1327790406444526e-01 -3.0625089856149929e-01 -9.5765690306902695e-01 4.2806729035149316e-01 -1.9920255258927837e+00 5.7093071931309214e-01 
        </Neuron>
        <Neuron NSynapses="8">
          9.1631743780407249e-01 -3.3887624926106668e+00 4.9220782526704244e-03 -1.5161613004621590e+00 -4.1705694312935521e-01 7.8877559467685066e-01 1.6394182186750921e+00 -2.2046138171141969e+00 
        </Neuron>
        <Neuron NSynapses="8">
          1.3131499589568219e-01 3.2797771676152232e+00 1.8533119771525830e+00 -8.5425995902974436e-02 -1.5907067610731884e+00 2.7091270862830658e-01 -1.4642396528411281e+00 1.4676356013636689e+00 
        </Neuron>
        <Neuron NSynapses="8">
          1.0713597969526230e+00 3.6819803492135594e-01 -6.9725605993814699e-01 1.1961506125395743e-01 -1.3522784525589320e+00 6.2772349402359817e-01 1.6243470948177783e+00 -5.0740692733017800e-01 
        </Neuron>
        <Neuron NSynapses="8">
          -9.1814689048911358e-01 3.9653955223065290e-01 9.9864382044478284e-01 4.3660632006916117e-01 8.7680737648469886e-01 -1.1903889353854160e+00 1.5277053867037216e+00 7.3832844440967327e-01 
        </Neuron>
        <Neuron NSynapses="8">
          -6.1782724395004519e-02 4.5991596068219634e-02 8.8701085033966798e-01 -1.0444629727890673e+00 -1.2210704383062794e+00 1.6903167579253882e+00 -1.1058909012692066e+00 -8.0977955441956240e-01 
        </Neuron>
      </Layer>
      <Layer Index="2" NNeurons="9">
        <Neuron NSynapses="1">
          1.4539997892260956e+00 
        </Neuron>
        <Neuron NSynapses="1">
          2.8418506675072366e+00 
        </Neuron>
        <Neuron NSynapses="1">
          -1.4628894517541251e+00 
        </Neuron>
        <Neuron NSynapses="1">
          1.1573940274054531e+00 
        </Neuron>
        <Neuron NSynapses="1">
          1.4284092505962895e+00 
        </Neuron>
        <Neuron NSynapses="1">
          -1.2319009878565741e+00 
        </Neuron>
        <Neuron NSynapses="1">
          1.8168624146293935e-01 
        </Neuron>
        <Neuron NSynapses="1">
          2.4275864868336181e-01 
        </Neuron>
        <Neuron NSynapses="1">
          6.1028163350126008e-01 
        </Neuron>
      </Layer>
      <Layer Index="3" NNeurons="1">
        <Neuron NSynapses="0"/>
      </Layer>
    </Layout>
  </Weights>
</MethodSetup>
