<?xml version="1.0"?>
<MethodSetup Method="MLP::MLP">
  <GeneralInfo>
    <Info name="TMVA Release" value="4.1.4 [262404]"/>
    <Info name="ROOT Release" value="5.34/09 [336393]"/>
    <Info name="Creator" value="brownd"/>
    <Info name="Date" value="Mon Apr  7 06:45:44 2014"/>
    <Info name="Host" value="Linux patdskmf.fnal.gov 2.6.18-308.20.1.el5 #1 SMP Tue Nov 13 11:54:02 EST 2012 x86_64 x86_64 x86_64 GNU/Linux"/>
    <Info name="Dir" value="/home/online1/brownd/mu2e/Mu2eSim/art5/Offline"/>
    <Info name="Training events" value="38412"/>
    <Info name="TrainingTime" value="5.64781865e+02"/>
    <Info name="AnalysisType" value="Classification"/>
  </GeneralInfo>
  <Options>
    <Option name="NCycles" modified="No">500</Option>
    <Option name="HiddenLayers" modified="No">N,N-1</Option>
    <Option name="NeuronType" modified="No">sigmoid</Option>
    <Option name="RandomSeed" modified="No">1</Option>
    <Option name="EstimatorType" modified="No">MSE</Option>
    <Option name="NeuronInputType" modified="No">sum</Option>
    <Option name="V" modified="Yes">False</Option>
    <Option name="VerbosityLevel" modified="No">Default</Option>
    <Option name="VarTransform" modified="Yes">N</Option>
    <Option name="H" modified="Yes">True</Option>
    <Option name="CreateMVAPdfs" modified="No">False</Option>
    <Option name="IgnoreNegWeightsInTraining" modified="No">False</Option>
    <Option name="TrainingMethod" modified="No">BP</Option>
    <Option name="LearningRate" modified="No">2.000000e-02</Option>
    <Option name="DecayRate" modified="No">1.000000e-02</Option>
    <Option name="TestRate" modified="No">10</Option>
    <Option name="EpochMonitoring" modified="No">False</Option>
    <Option name="Sampling" modified="No">1.000000e+00</Option>
    <Option name="SamplingEpoch" modified="No">1.000000e+00</Option>
    <Option name="SamplingImportance" modified="No">1.000000e+00</Option>
    <Option name="SamplingTraining" modified="No">True</Option>
    <Option name="SamplingTesting" modified="No">False</Option>
    <Option name="ResetStep" modified="No">50</Option>
    <Option name="Tau" modified="No">3.000000e+00</Option>
    <Option name="BPMode" modified="No">sequential</Option>
    <Option name="BatchSize" modified="No">-1</Option>
    <Option name="ConvergenceImprove" modified="No">1.000000e-30</Option>
    <Option name="ConvergenceTests" modified="No">-1</Option>
    <Option name="UseRegulator" modified="No">False</Option>
    <Option name="UpdateLimit" modified="No">10000</Option>
    <Option name="CalculateErrors" modified="No">False</Option>
    <Option name="WeightRange" modified="No">1.000000e+00</Option>
  </Options>
  <Variables NVar="9">
    <Variable VarIndex="0" Expression="prho" Label="prho" Title="Transverse radius" Unit="F" Internal="prho" Type="F" Min="3.72750763e+02" Max="6.52509949e+02"/>
    <Variable VarIndex="1" Expression="srho" Label="srho" Title="RMS of rho" Unit="F" Internal="srho" Type="F" Min="5.71627393e-02" Max="5.54348106e+01"/>
    <Variable VarIndex="2" Expression="zmin" Label="zmin" Title="z of first hit" Unit="F" Internal="zmin" Type="F" Min="-1.51623633e+03" Max="1.37537634e+03"/>
    <Variable VarIndex="3" Expression="zmax" Label="zmax" Title="z of last hit" Unit="F" Internal="zmax" Type="F" Min="-1.37537634e+03" Max="1.51623633e+03"/>
    <Variable VarIndex="4" Expression="zgap" Label="zgap" Title="Biggest z gap between hits" Unit="F" Internal="zgap" Type="F" Min="6.64472656e+01" Max="2.99256006e+03"/>
    <Variable VarIndex="5" Expression="ns" Label="ns" Title="Number of Stations" Unit="F" Internal="ns" Type="F" Min="2.00000000e+00" Max="2.20000000e+01"/>
    <Variable VarIndex="6" Expression="nsmiss" Label="nsmiss" Title="Number of Stations Missed" Unit="F" Internal="nsmiss" Type="F" Min="0.00000000e+00" Max="2.00000000e+01"/>
    <Variable VarIndex="7" Expression="sphi" Label="sphi" Title="RMS of phi" Unit="F" Internal="sphi" Type="F" Min="1.24633778e-03" Max="2.68840343e-01"/>
    <Variable VarIndex="8" Expression="ngdhits" Label="ngdhits" Title="Number of hits in core" Unit="F" Internal="ngdhits" Type="F" Min="2.00000000e+00" Max="1.78000000e+02"/>
  </Variables>
  <Spectators NSpec="0"/>
  <Classes NClass="2">
    <Class Name="Signal" Index="0"/>
    <Class Name="Background" Index="1"/>
  </Classes>
  <Transformations NTransformations="1">
    <Transform Name="Normalize">
      <Selection>
        <Input NInputs="9">
          <Input Type="Variable" Label="prho" Expression="prho"/>
          <Input Type="Variable" Label="srho" Expression="srho"/>
          <Input Type="Variable" Label="zmin" Expression="zmin"/>
          <Input Type="Variable" Label="zmax" Expression="zmax"/>
          <Input Type="Variable" Label="zgap" Expression="zgap"/>
          <Input Type="Variable" Label="ns" Expression="ns"/>
          <Input Type="Variable" Label="nsmiss" Expression="nsmiss"/>
          <Input Type="Variable" Label="sphi" Expression="sphi"/>
          <Input Type="Variable" Label="ngdhits" Expression="ngdhits"/>
        </Input>
        <Output NOutputs="9">
          <Output Type="Variable" Label="prho" Expression="prho"/>
          <Output Type="Variable" Label="srho" Expression="srho"/>
          <Output Type="Variable" Label="zmin" Expression="zmin"/>
          <Output Type="Variable" Label="zmax" Expression="zmax"/>
          <Output Type="Variable" Label="zgap" Expression="zgap"/>
          <Output Type="Variable" Label="ns" Expression="ns"/>
          <Output Type="Variable" Label="nsmiss" Expression="nsmiss"/>
          <Output Type="Variable" Label="sphi" Expression="sphi"/>
          <Output Type="Variable" Label="ngdhits" Expression="ngdhits"/>
        </Output>
      </Selection>
      <Class ClassIndex="0">
        <Ranges>
          <Range Index="0" Min="3.7275076293945312e+02" Max="6.5250994873046875e+02"/>
          <Range Index="1" Min="5.7162739336490631e-02" Max="5.5434810638427734e+01"/>
          <Range Index="2" Min="-1.5162363281250000e+03" Max="1.3753763427734375e+03"/>
          <Range Index="3" Min="-1.3753763427734375e+03" Max="1.5162363281250000e+03"/>
          <Range Index="4" Min="6.6447265625000000e+01" Max="2.8807873535156250e+03"/>
          <Range Index="5" Min="2.0000000000000000e+00" Max="2.2000000000000000e+01"/>
          <Range Index="6" Min="0.0000000000000000e+00" Max="1.9000000000000000e+01"/>
          <Range Index="7" Min="1.2463377788662910e-03" Max="2.6884034276008606e-01"/>
          <Range Index="8" Min="2.0000000000000000e+00" Max="1.7800000000000000e+02"/>
        </Ranges>
      </Class>
      <Class ClassIndex="1">
        <Ranges>
          <Range Index="0" Min="3.9633428955078125e+02" Max="6.2852313232421875e+02"/>
          <Range Index="1" Min="1.2940165400505066e-01" Max="4.5219406127929688e+01"/>
          <Range Index="2" Min="-1.5162363281250000e+03" Max="1.3616700439453125e+03"/>
          <Range Index="3" Min="-1.3753763427734375e+03" Max="1.5162363281250000e+03"/>
          <Range Index="4" Min="6.6447326660156250e+01" Max="2.9925600585937500e+03"/>
          <Range Index="5" Min="2.0000000000000000e+00" Max="2.2000000000000000e+01"/>
          <Range Index="6" Min="0.0000000000000000e+00" Max="2.0000000000000000e+01"/>
          <Range Index="7" Min="1.4212531968951225e-03" Max="1.8977281451225281e-01"/>
          <Range Index="8" Min="3.0000000000000000e+00" Max="7.8000000000000000e+01"/>
        </Ranges>
      </Class>
      <Class ClassIndex="2">
        <Ranges>
          <Range Index="0" Min="3.7275076293945312e+02" Max="6.5250994873046875e+02"/>
          <Range Index="1" Min="5.7162739336490631e-02" Max="5.5434810638427734e+01"/>
          <Range Index="2" Min="-1.5162363281250000e+03" Max="1.3753763427734375e+03"/>
          <Range Index="3" Min="-1.3753763427734375e+03" Max="1.5162363281250000e+03"/>
          <Range Index="4" Min="6.6447265625000000e+01" Max="2.9925600585937500e+03"/>
          <Range Index="5" Min="2.0000000000000000e+00" Max="2.2000000000000000e+01"/>
          <Range Index="6" Min="0.0000000000000000e+00" Max="2.0000000000000000e+01"/>
          <Range Index="7" Min="1.2463377788662910e-03" Max="2.6884034276008606e-01"/>
          <Range Index="8" Min="2.0000000000000000e+00" Max="1.7800000000000000e+02"/>
        </Ranges>
      </Class>
    </Transform>
  </Transformations>
  <MVAPdfs/>
  <Weights>
    <Layout NLayers="4">
      <Layer Index="0" NNeurons="10">
        <Neuron NSynapses="9">
          -2.3854701687746727e-01 2.3800523864360343e+00 2.8024486086961919e-01 5.7367281285370209e-01 -1.9795392499067097e+00 3.7732524344310725e-01 -2.6084345062169128e+00 2.3584232178878124e+00 -1.8098847832582230e+00 
        </Neuron>
        <Neuron NSynapses="9">
          -9.5328456772812198e-01 1.6072928659642060e-02 -7.0605039386996138e-01 -5.5861253743342283e-02 -5.7254215400411823e-01 4.1228280436921072e-01 -5.0729710534849770e-01 -9.4799132843691036e-01 1.4926696087718243e+00 
        </Neuron>
        <Neuron NSynapses="9">
          -5.8926748382858574e-01 9.0272826767639247e-01 -8.3985989772263270e-01 -9.3763837622212443e-01 4.4518536518383595e-01 4.7500984788051820e-01 6.4711932350764237e-02 -6.5152091877609397e-01 1.3969364839946434e+00 
        </Neuron>
        <Neuron NSynapses="9">
          1.6565992054627621e-01 -1.2190102334956667e+00 1.0353359733309024e+00 7.8562551727126306e-01 1.3610708690614166e+00 -4.9553015032758947e-02 7.5897826709108596e-01 4.0622328150551018e-01 -3.6570662134853893e-01 
        </Neuron>
        <Neuron NSynapses="9">
          -2.8916928389625465e+00 3.6880709141626915e+00 -9.1771473076667920e-01 1.6466900021880768e-01 8.6970916573381829e-01 6.0798109682336170e+00 -2.9793356923647572e-02 4.9092660120618248e-01 -7.2511386243757181e-01 
        </Neuron>
        <Neuron NSynapses="9">
          3.4129901984004218e-01 1.1475039449397395e+00 4.2068576340094216e-01 4.1127252145729720e+00 1.4247416363315670e+00 -8.2178193968243107e-01 3.8385927158412851e+00 -1.7913377046274372e+00 1.2803202157863862e+00 
        </Neuron>
        <Neuron NSynapses="9">
          -1.6149438706723642e+00 -5.4598143769030283e-01 -1.6389834678149697e+00 -5.6364505063522765e+00 1.2760698496843055e+00 1.8201246619230029e+00 -3.5437041194110304e+00 2.1281303335665214e-01 -1.2784366384854273e-01 
        </Neuron>
        <Neuron NSynapses="9">
          9.6481565614731868e-01 1.3817837151036623e+00 -1.3360842565367290e+00 4.9151794072582244e-01 -1.3605169267630821e+00 3.1738541887575335e-02 -1.1898553835975703e+00 -1.1108760838288905e+00 -1.7311662488694672e+00 
        </Neuron>
        <Neuron NSynapses="9">
          1.7983807601184212e+00 5.6009790103074775e-01 1.8843141238967411e+00 -1.9797885594706928e+00 -1.8397437719388190e+00 -9.5218511370987780e-01 3.6556898013219863e-01 -9.6134065504565144e-02 1.6384984733639250e+00 
        </Neuron>
        <Neuron NSynapses="9">
          7.2475790913405258e-01 1.9029885267798614e+00 4.4046731287518781e-01 -2.5241544931277380e+00 -1.6120368477748270e-01 2.7398712756132824e+00 -3.7501374487743462e+00 -1.0088466549621886e+00 -1.6149140960561996e+00 
        </Neuron>
      </Layer>
      <Layer Index="1" NNeurons="10">
        <Neuron NSynapses="8">
          7.2467886612791377e-01 -1.3742155958719429e+00 2.4687826343317050e+00 -1.7641274406381768e+00 -9.6659211245201204e-01 1.8363379349639357e+00 -8.7901258784810454e-01 -8.0221838315764027e-01 
        </Neuron>
        <Neuron NSynapses="8">
          -3.1900877537883581e+00 1.1149998724777435e+00 -1.6644780275776700e+00 -1.6537854624990225e+00 5.5157711600959991e-01 1.5982505297624170e+00 -1.1419618402727392e+00 1.4751775171113817e+00 
        </Neuron>
        <Neuron NSynapses="8">
          -2.1025251353682139e+00 -6.8221905505840508e-01 5.6129139986936771e-01 8.2821783215000860e-02 -1.8770497354506346e+00 7.4820576226072899e-01 2.6325033169783063e-01 9.0682827188795434e-01 
        </Neuron>
        <Neuron NSynapses="8">
          -2.5692827111304428e+00 6.1230715975734169e+00 -2.2592374834399262e-01 -1.1808628065634286e+00 6.3476720379663032e-01 -6.0958160216189949e-01 -1.6758298339459525e+00 7.1543883045323187e-01 
        </Neuron>
        <Neuron NSynapses="8">
          1.7571764235329493e-01 4.3641277005649820e-02 -4.3766779151816992e-01 -5.9573385986435723e-01 -7.8080526027669261e-01 5.1731886324352550e-01 -1.9676189924835561e+00 -2.1614389859899652e-01 
        </Neuron>
        <Neuron NSynapses="8">
          1.9596052748191495e+00 -4.9131941720023757e+00 -6.6631858907655439e-01 -1.7126084238035832e+00 -2.7955949950686937e-01 1.0649846216377761e+00 1.6545657822030229e+00 -2.8360179777882526e+00 
        </Neuron>
        <Neuron NSynapses="8">
          -2.7050230937769787e-01 4.4806944484521880e+00 2.5820083818115345e+00 -5.3339194511390797e-02 -1.6897078016041180e+00 2.8280834581000097e-01 -1.4717386984242764e+00 1.4421011363786309e+00 
        </Neuron>
        <Neuron NSynapses="8">
          8.8269603891811066e-01 1.0501115963514294e+00 -5.4914155086563310e-01 8.8699163892714622e-02 -1.4605846881463465e+00 5.5371919755814980e-01 1.6599516492866837e+00 -1.8276828769189205e-01 
        </Neuron>
        <Neuron NSynapses="8">
          -1.3712009583463680e+00 2.3524809199125979e-01 1.0270551223749746e+00 3.8237081310086779e-01 8.7362552748962774e-01 -1.1873968363538234e+00 1.5284746028442935e+00 3.4403403005781136e-01 
        </Neuron>
        <Neuron NSynapses="8">
          -7.5670980712084099e-02 -3.8661880687984174e-01 6.9117867622913698e-01 -1.2357011499357577e+00 -1.1182270847531961e+00 1.7138261848762861e+00 -1.1299832525109008e+00 -8.2482801421433005e-01 
        </Neuron>
      </Layer>
      <Layer Index="2" NNeurons="9">
        <Neuron NSynapses="1">
          2.8066060457397750e+00 
        </Neuron>
        <Neuron NSynapses="1">
          2.4141945662711000e+00 
        </Neuron>
        <Neuron NSynapses="1">
          -1.1299743537577132e+00 
        </Neuron>
        <Neuron NSynapses="1">
          9.6946531152497273e-01 
        </Neuron>
        <Neuron NSynapses="1">
          1.5132653187280589e+00 
        </Neuron>
        <Neuron NSynapses="1">
          -1.2208354002051813e+00 
        </Neuron>
        <Neuron NSynapses="1">
          -5.5370900025205810e-02 
        </Neuron>
        <Neuron NSynapses="1">
          3.5125141540885119e-01 
        </Neuron>
        <Neuron NSynapses="1">
          5.8901679034625321e-01 
        </Neuron>
      </Layer>
      <Layer Index="3" NNeurons="1">
        <Neuron NSynapses="0"/>
      </Layer>
    </Layout>
  </Weights>
</MethodSetup>
