<?xml version="1.0"?>
<MethodSetup Method="MLP::MLP">
  <GeneralInfo>
    <Info name="TMVA Release" value="4.1.2 [262402]"/>
    <Info name="ROOT Release" value="5.30/06 [335366]"/>
    <Info name="Creator" value="dding"/>
    <Info name="Date" value="Fri Sep 20 11:13:00 2013"/>
    <Info name="Host" value="Linux patvm7.fnal.gov 2.6.18-238.19.1.el5 #1 SMP Fri Jul 15 00:48:58 EDT 2011 x86_64 x86_64 x86_64 GNU/Linux"/>
    <Info name="Dir" value="/home/online1/dding/tmva/test"/>
    <Info name="Training events" value="13645"/>
    <Info name="TrainingTime" value="1.56467802e+02"/>
    <Info name="AnalysisType" value="Classification"/>
  </GeneralInfo>
  <Options>
    <Option name="NCycles" modified="No">500</Option>
    <Option name="HiddenLayers" modified="No">N,N-1</Option>
    <Option name="NeuronType" modified="No">sigmoid</Option>
    <Option name="RandomSeed" modified="No">1</Option>
    <Option name="EstimatorType" modified="No">MSE</Option>
    <Option name="NeuronInputType" modified="No">sum</Option>
    <Option name="V" modified="Yes">False</Option>
    <Option name="VerbosityLevel" modified="No">Default</Option>
    <Option name="VarTransform" modified="Yes">N</Option>
    <Option name="H" modified="Yes">True</Option>
    <Option name="CreateMVAPdfs" modified="No">False</Option>
    <Option name="IgnoreNegWeightsInTraining" modified="No">False</Option>
    <Option name="TrainingMethod" modified="No">BP</Option>
    <Option name="LearningRate" modified="No">2.000000e-02</Option>
    <Option name="DecayRate" modified="No">1.000000e-02</Option>
    <Option name="TestRate" modified="No">10</Option>
    <Option name="EpochMonitoring" modified="No">False</Option>
    <Option name="Sampling" modified="No">1.000000e+00</Option>
    <Option name="SamplingEpoch" modified="No">1.000000e+00</Option>
    <Option name="SamplingImportance" modified="No">1.000000e+00</Option>
    <Option name="SamplingTraining" modified="No">True</Option>
    <Option name="SamplingTesting" modified="No">False</Option>
    <Option name="ResetStep" modified="No">50</Option>
    <Option name="Tau" modified="No">3.000000e+00</Option>
    <Option name="BPMode" modified="No">sequential</Option>
    <Option name="BatchSize" modified="No">-1</Option>
    <Option name="ConvergenceImprove" modified="No">1.000000e-30</Option>
    <Option name="ConvergenceTests" modified="No">-1</Option>
    <Option name="UseRegulator" modified="No">False</Option>
    <Option name="UpdateLimit" modified="No">10000</Option>
    <Option name="CalculateErrors" modified="No">False</Option>
    <Option name="WeightRange" modified="No">1.000000e+00</Option>
  </Options>
  <Variables NVar="8">
    <Variable VarIndex="0" Expression="prho" Label="prho" Title="Transverse radius" Unit="F" Internal="prho" Type="F" Min="3.72182312e+02" Max="7.44239197e+02"/>
    <Variable VarIndex="1" Expression="srho" Label="srho" Title="RMS of rho" Unit="F" Internal="srho" Type="F" Min="2.16021761e-01" Max="5.13350334e+01"/>
    <Variable VarIndex="2" Expression="zmin" Label="zmin" Title="z of first hit" Unit="F" Internal="zmin" Type="F" Min="-1.51134631e+03" Max="1.50593372e+03"/>
    <Variable VarIndex="3" Expression="zmax" Label="zmax" Title="z of last hit" Unit="F" Internal="zmax" Type="F" Min="-1.50593372e+03" Max="1.51134631e+03"/>
    <Variable VarIndex="4" Expression="zgap" Label="zgap" Title="Biggest z gap between hits" Unit="F" Internal="zgap" Type="F" Min="0.00000000e+00" Max="2.94225732e+03"/>
    <Variable VarIndex="5" Expression="nsmiss" Label="nsmiss" Title="Number of Stations Missed" Unit="F" Internal="nsmiss" Type="F" Min="0.00000000e+00" Max="2.00000000e+01"/>
    <Variable VarIndex="6" Expression="sphi" Label="sphi" Title="RMS of phi" Unit="F" Internal="sphi" Type="F" Min="1.50097720e-03" Max="2.32761845e-01"/>
    <Variable VarIndex="7" Expression="ngdhits" Label="ngdhits" Title="Number of hits in core" Unit="F" Internal="ngdhits" Type="F" Min="6.00000000e+00" Max="8.50000000e+01"/>
  </Variables>
  <Spectators NSpec="0"/>
  <Classes NClass="2">
    <Class Name="Signal" Index="0"/>
    <Class Name="Background" Index="1"/>
  </Classes>
  <Transformations NTransformations="1">
    <Transform Name="Normalize">
      <Selection>
        <Input NInputs="8">
          <Input Type="Variable" Label="prho" Expression="prho"/>
          <Input Type="Variable" Label="srho" Expression="srho"/>
          <Input Type="Variable" Label="zmin" Expression="zmin"/>
          <Input Type="Variable" Label="zmax" Expression="zmax"/>
          <Input Type="Variable" Label="zgap" Expression="zgap"/>
          <Input Type="Variable" Label="nsmiss" Expression="nsmiss"/>
          <Input Type="Variable" Label="sphi" Expression="sphi"/>
          <Input Type="Variable" Label="ngdhits" Expression="ngdhits"/>
        </Input>
        <Output NOutputs="8">
          <Output Type="Variable" Label="prho" Expression="prho"/>
          <Output Type="Variable" Label="srho" Expression="srho"/>
          <Output Type="Variable" Label="zmin" Expression="zmin"/>
          <Output Type="Variable" Label="zmax" Expression="zmax"/>
          <Output Type="Variable" Label="zgap" Expression="zgap"/>
          <Output Type="Variable" Label="nsmiss" Expression="nsmiss"/>
          <Output Type="Variable" Label="sphi" Expression="sphi"/>
          <Output Type="Variable" Label="ngdhits" Expression="ngdhits"/>
        </Output>
      </Selection>
      <Class ClassIndex="0">
        <Ranges>
          <Range Index="0" Min="3.7218231201171875e+02" Max="7.4423919677734375e+02"/>
          <Range Index="1" Min="2.1602176129817963e-01" Max="5.1335033416748047e+01"/>
          <Range Index="2" Min="-1.5113463134765625e+03" Max="1.5059337158203125e+03"/>
          <Range Index="3" Min="-1.5059337158203125e+03" Max="1.5113463134765625e+03"/>
          <Range Index="4" Min="0.0000000000000000e+00" Max="2.5300673828125000e+03"/>
          <Range Index="5" Min="0.0000000000000000e+00" Max="1.7000000000000000e+01"/>
          <Range Index="6" Min="1.5009772032499313e-03" Max="1.6477379202842712e-01"/>
          <Range Index="7" Min="6.0000000000000000e+00" Max="8.5000000000000000e+01"/>
        </Ranges>
      </Class>
      <Class ClassIndex="1">
        <Ranges>
          <Range Index="0" Min="3.8585626220703125e+02" Max="6.3341662597656250e+02"/>
          <Range Index="1" Min="7.6492333412170410e-01" Max="4.1983272552490234e+01"/>
          <Range Index="2" Min="-1.5113463134765625e+03" Max="9.1288366699218750e+02"/>
          <Range Index="3" Min="-9.4249365234375000e+02" Max="1.5113463134765625e+03"/>
          <Range Index="4" Min="7.6227355957031250e+01" Max="2.9422573242187500e+03"/>
          <Range Index="5" Min="0.0000000000000000e+00" Max="2.0000000000000000e+01"/>
          <Range Index="6" Min="4.9942261539399624e-03" Max="2.3276184499263763e-01"/>
          <Range Index="7" Min="6.0000000000000000e+00" Max="1.5000000000000000e+01"/>
        </Ranges>
      </Class>
      <Class ClassIndex="2">
        <Ranges>
          <Range Index="0" Min="3.7218231201171875e+02" Max="7.4423919677734375e+02"/>
          <Range Index="1" Min="2.1602176129817963e-01" Max="5.1335033416748047e+01"/>
          <Range Index="2" Min="-1.5113463134765625e+03" Max="1.5059337158203125e+03"/>
          <Range Index="3" Min="-1.5059337158203125e+03" Max="1.5113463134765625e+03"/>
          <Range Index="4" Min="0.0000000000000000e+00" Max="2.9422573242187500e+03"/>
          <Range Index="5" Min="0.0000000000000000e+00" Max="2.0000000000000000e+01"/>
          <Range Index="6" Min="1.5009772032499313e-03" Max="2.3276184499263763e-01"/>
          <Range Index="7" Min="6.0000000000000000e+00" Max="8.5000000000000000e+01"/>
        </Ranges>
      </Class>
    </Transform>
  </Transformations>
  <MVAPdfs/>
  <Weights>
    <Layout NLayers="4">
      <Layer Index="0" NNeurons="9">
        <Neuron NSynapses="8">
          -8.0166398172310438e-01 1.8297073322420438e+00 5.6138773957017307e-01 4.8327852944923744e-01 -2.2682407412149943e+00 -1.9419964771644036e+00 -1.4634117260259303e+00 1.7210236075954171e+00 
        </Neuron>
        <Neuron NSynapses="8">
          -1.6772695004708056e+00 -4.8742610808656495e-01 -1.0301950720731441e+00 -8.9834456329439805e-01 -1.1009906900158102e+00 -1.2746967982739350e+00 -1.0323882153662294e+00 5.6509303287072865e-01 
        </Neuron>
        <Neuron NSynapses="8">
          -2.2977272258601814e-02 1.4816911960804198e+00 1.1035773263517825e+00 1.2721421959711676e+00 -2.4076948732294967e-01 -1.0489002439992499e+00 -1.6943579869283742e+00 4.9642420944420625e-02 
        </Neuron>
        <Neuron NSynapses="8">
          -7.2646384779292875e-02 -1.3137095003297636e+00 8.0623050960806941e-01 -9.9082849646170290e-01 -1.5078193498307495e+00 8.7130455865229861e-01 1.9246581867643242e+00 1.0532843875872788e+00 
        </Neuron>
        <Neuron NSynapses="8">
          -3.4751241251084336e-01 -3.5312201410822769e-01 1.6068667679684900e+00 -2.8616074003992870e-01 -1.9459145234144315e+00 1.3234786826214249e+00 -4.3545597804667882e+00 9.8064680853596586e-01 
        </Neuron>
        <Neuron NSynapses="8">
          1.0049671352016734e+00 7.8847146916491828e-01 2.3751002220830451e+00 1.5813383856117889e+00 -9.4410841344350627e-01 -2.3052190350799044e+00 -2.1060184144635170e+00 5.0306426515181923e-01 
        </Neuron>
        <Neuron NSynapses="8">
          1.2452808680085006e+00 1.8940357951237297e+00 9.1876229888399275e-01 1.3048978705589613e+00 -1.3824297593060684e+00 1.4431241824597552e+00 -6.1974647920846650e-02 -1.2802257409269524e+00 
        </Neuron>
        <Neuron NSynapses="8">
          -1.1093723783958616e+00 -2.3953872459636343e+00 -1.8040314075189368e-01 6.5202583938015790e-01 -1.8677810351523230e+00 6.9819942119296097e-01 1.6553074751404497e+00 7.6434470317819003e-01 
        </Neuron>
        <Neuron NSynapses="8">
          2.2397504181071568e+00 3.7016335597860661e-01 -3.0612913232468641e-01 -3.6077173505283877e-01 1.2342954976192373e+00 -1.5336365208104397e+00 -3.2385036337667019e+00 -7.7734150688180559e-01 
        </Neuron>
      </Layer>
      <Layer Index="1" NNeurons="9">
        <Neuron NSynapses="7">
          7.1470526420685154e-01 -1.2489864760726235e-01 1.4187583264790178e+00 1.0363176177477136e-01 -1.7773457995141733e+00 -1.5637199711605336e+00 9.4095998315763874e-01 
        </Neuron>
        <Neuron NSynapses="7">
          5.7331884011723422e-01 2.5469584032384347e+00 6.8485854844239502e-01 1.7303190512174838e+00 -2.6559333051134062e+00 -6.0497109980014596e-01 1.8745010968590567e-01 
        </Neuron>
        <Neuron NSynapses="7">
          1.0967929321185517e+00 -4.5554038044733097e-01 -2.1358477716643018e+00 -1.6297630461326300e+00 9.4077005076399189e-01 1.4444054089315561e-01 1.6962632937453082e+00 
        </Neuron>
        <Neuron NSynapses="7">
          -1.6090527461434614e+00 -8.6732566439457393e-01 1.8317507645357711e+00 -6.0943392697900323e-01 -1.9713664672203555e+00 -1.4968508459224026e+00 1.2239476270489566e-01 
        </Neuron>
        <Neuron NSynapses="7">
          -1.9155529813005525e+00 -2.5537810898994491e+00 8.7171216769231441e-01 2.2057359330221638e+00 -1.3963212426093607e+00 1.9499526937605434e+00 -8.3181719247239849e-01 
        </Neuron>
        <Neuron NSynapses="7">
          -6.5834368337017901e-01 -1.7766362424928825e+00 -3.9461079432021795e-01 -1.7511886844926594e+00 2.1137312757584743e+00 8.4726115444692129e-01 4.6791216784882006e-01 
        </Neuron>
        <Neuron NSynapses="7">
          -1.5066847263137146e+00 2.0836276113738679e+00 5.7755360699644355e-02 -1.4676223412310969e+00 3.7638348168027091e+00 -1.3384245279788305e+00 -1.6382736011076713e+00 
        </Neuron>
        <Neuron NSynapses="7">
          2.2976577375689086e-01 -3.6807424108589448e-01 1.5374391102004328e+00 5.8186051385266724e-01 -5.0034061851655165e-01 -5.7162508976643456e-01 2.5651825853458132e-01 
        </Neuron>
        <Neuron NSynapses="7">
          -1.8081153540100359e+00 -7.3557947423797843e-02 3.2377502683981452e-01 -1.3372816049144836e+00 2.4948028489526392e-01 -1.1922715530611112e+00 1.1794175576672540e-01 
        </Neuron>
      </Layer>
      <Layer Index="2" NNeurons="8">
        <Neuron NSynapses="1">
          1.1649772010394002e+00 
        </Neuron>
        <Neuron NSynapses="1">
          2.3337640609521548e+00 
        </Neuron>
        <Neuron NSynapses="1">
          -1.8717567163185493e+00 
        </Neuron>
        <Neuron NSynapses="1">
          1.7033865506662460e+00 
        </Neuron>
        <Neuron NSynapses="1">
          2.6890263476876162e+00 
        </Neuron>
        <Neuron NSynapses="1">
          1.8967623288674704e+00 
        </Neuron>
        <Neuron NSynapses="1">
          9.0522100221100521e-01 
        </Neuron>
        <Neuron NSynapses="1">
          -8.5944729106536577e-01 
        </Neuron>
      </Layer>
      <Layer Index="3" NNeurons="1">
        <Neuron NSynapses="0"/>
      </Layer>
    </Layout>
  </Weights>
</MethodSetup>
