<?xml version="1.0"?>
<MethodSetup Method="MLP::MLP">
  <GeneralInfo>
    <Info name="TMVA Release" value="4.1.4 [262404]"/>
    <Info name="ROOT Release" value="5.34/09 [336393]"/>
    <Info name="Creator" value="brownd"/>
    <Info name="Date" value="Mon Apr  7 20:39:24 2014"/>
    <Info name="Host" value="Linux patdskmf.fnal.gov 2.6.18-308.20.1.el5 #1 SMP Tue Nov 13 11:54:02 EST 2012 x86_64 x86_64 x86_64 GNU/Linux"/>
    <Info name="Dir" value="/home/online1/brownd/mu2e/Mu2eSim/art5/Offline"/>
    <Info name="Training events" value="38026"/>
    <Info name="TrainingTime" value="5.33210616e+02"/>
    <Info name="AnalysisType" value="Classification"/>
  </GeneralInfo>
  <Options>
    <Option name="NCycles" modified="No">500</Option>
    <Option name="HiddenLayers" modified="No">N,N-1</Option>
    <Option name="NeuronType" modified="No">sigmoid</Option>
    <Option name="RandomSeed" modified="No">1</Option>
    <Option name="EstimatorType" modified="No">MSE</Option>
    <Option name="NeuronInputType" modified="No">sum</Option>
    <Option name="V" modified="Yes">False</Option>
    <Option name="VerbosityLevel" modified="No">Default</Option>
    <Option name="VarTransform" modified="Yes">N</Option>
    <Option name="H" modified="Yes">True</Option>
    <Option name="CreateMVAPdfs" modified="No">False</Option>
    <Option name="IgnoreNegWeightsInTraining" modified="No">False</Option>
    <Option name="TrainingMethod" modified="No">BP</Option>
    <Option name="LearningRate" modified="No">2.000000e-02</Option>
    <Option name="DecayRate" modified="No">1.000000e-02</Option>
    <Option name="TestRate" modified="No">10</Option>
    <Option name="EpochMonitoring" modified="No">False</Option>
    <Option name="Sampling" modified="No">1.000000e+00</Option>
    <Option name="SamplingEpoch" modified="No">1.000000e+00</Option>
    <Option name="SamplingImportance" modified="No">1.000000e+00</Option>
    <Option name="SamplingTraining" modified="No">True</Option>
    <Option name="SamplingTesting" modified="No">False</Option>
    <Option name="ResetStep" modified="No">50</Option>
    <Option name="Tau" modified="No">3.000000e+00</Option>
    <Option name="BPMode" modified="No">sequential</Option>
    <Option name="BatchSize" modified="No">-1</Option>
    <Option name="ConvergenceImprove" modified="No">1.000000e-30</Option>
    <Option name="ConvergenceTests" modified="No">-1</Option>
    <Option name="UseRegulator" modified="No">False</Option>
    <Option name="UpdateLimit" modified="No">10000</Option>
    <Option name="CalculateErrors" modified="No">False</Option>
    <Option name="WeightRange" modified="No">1.000000e+00</Option>
  </Options>
  <Variables NVar="9">
    <Variable VarIndex="0" Expression="prho" Label="prho" Title="Transverse radius" Unit="F" Internal="prho" Type="F" Min="3.77083954e+02" Max="6.52509949e+02"/>
    <Variable VarIndex="1" Expression="srho" Label="srho" Title="RMS of rho" Unit="F" Internal="srho" Type="F" Min="5.71627393e-02" Max="5.68269463e+01"/>
    <Variable VarIndex="2" Expression="zmin" Label="zmin" Title="z of first hit" Unit="F" Internal="zmin" Type="F" Min="-1.51623633e+03" Max="1.37537634e+03"/>
    <Variable VarIndex="3" Expression="zmax" Label="zmax" Title="z of last hit" Unit="F" Internal="zmax" Type="F" Min="-1.37537634e+03" Max="1.51623633e+03"/>
    <Variable VarIndex="4" Expression="zgap" Label="zgap" Title="Biggest z gap between hits" Unit="F" Internal="zgap" Type="F" Min="6.64472656e+01" Max="2.96364746e+03"/>
    <Variable VarIndex="5" Expression="ns" Label="ns" Title="Number of Stations" Unit="F" Internal="ns" Type="F" Min="2.00000000e+00" Max="2.20000000e+01"/>
    <Variable VarIndex="6" Expression="nsmiss" Label="nsmiss" Title="Number of Stations Missed" Unit="F" Internal="nsmiss" Type="F" Min="0.00000000e+00" Max="2.00000000e+01"/>
    <Variable VarIndex="7" Expression="sphi" Label="sphi" Title="RMS of phi" Unit="F" Internal="sphi" Type="F" Min="1.88806490e-03" Max="2.72395313e-01"/>
    <Variable VarIndex="8" Expression="ngdhits" Label="ngdhits" Title="Number of hits in core" Unit="F" Internal="ngdhits" Type="F" Min="2.00000000e+00" Max="1.76000000e+02"/>
  </Variables>
  <Spectators NSpec="0"/>
  <Classes NClass="2">
    <Class Name="Signal" Index="0"/>
    <Class Name="Background" Index="1"/>
  </Classes>
  <Transformations NTransformations="1">
    <Transform Name="Normalize">
      <Selection>
        <Input NInputs="9">
          <Input Type="Variable" Label="prho" Expression="prho"/>
          <Input Type="Variable" Label="srho" Expression="srho"/>
          <Input Type="Variable" Label="zmin" Expression="zmin"/>
          <Input Type="Variable" Label="zmax" Expression="zmax"/>
          <Input Type="Variable" Label="zgap" Expression="zgap"/>
          <Input Type="Variable" Label="ns" Expression="ns"/>
          <Input Type="Variable" Label="nsmiss" Expression="nsmiss"/>
          <Input Type="Variable" Label="sphi" Expression="sphi"/>
          <Input Type="Variable" Label="ngdhits" Expression="ngdhits"/>
        </Input>
        <Output NOutputs="9">
          <Output Type="Variable" Label="prho" Expression="prho"/>
          <Output Type="Variable" Label="srho" Expression="srho"/>
          <Output Type="Variable" Label="zmin" Expression="zmin"/>
          <Output Type="Variable" Label="zmax" Expression="zmax"/>
          <Output Type="Variable" Label="zgap" Expression="zgap"/>
          <Output Type="Variable" Label="ns" Expression="ns"/>
          <Output Type="Variable" Label="nsmiss" Expression="nsmiss"/>
          <Output Type="Variable" Label="sphi" Expression="sphi"/>
          <Output Type="Variable" Label="ngdhits" Expression="ngdhits"/>
        </Output>
      </Selection>
      <Class ClassIndex="0">
        <Ranges>
          <Range Index="0" Min="3.7708395385742188e+02" Max="6.5250994873046875e+02"/>
          <Range Index="1" Min="5.7162739336490631e-02" Max="5.6826946258544922e+01"/>
          <Range Index="2" Min="-1.5162363281250000e+03" Max="1.3753763427734375e+03"/>
          <Range Index="3" Min="-1.3753763427734375e+03" Max="1.5162363281250000e+03"/>
          <Range Index="4" Min="6.6447265625000000e+01" Max="2.8226127929687500e+03"/>
          <Range Index="5" Min="2.0000000000000000e+00" Max="2.2000000000000000e+01"/>
          <Range Index="6" Min="0.0000000000000000e+00" Max="1.9000000000000000e+01"/>
          <Range Index="7" Min="1.8880649004131556e-03" Max="2.7239531278610229e-01"/>
          <Range Index="8" Min="2.0000000000000000e+00" Max="1.7600000000000000e+02"/>
        </Ranges>
      </Class>
      <Class ClassIndex="1">
        <Ranges>
          <Range Index="0" Min="3.9830355834960938e+02" Max="6.4026885986328125e+02"/>
          <Range Index="1" Min="1.2940165400505066e-01" Max="3.9996524810791016e+01"/>
          <Range Index="2" Min="-1.5162363281250000e+03" Max="1.3616700439453125e+03"/>
          <Range Index="3" Min="-1.3479636230468750e+03" Max="1.5162363281250000e+03"/>
          <Range Index="4" Min="7.7447326660156250e+01" Max="2.9636474609375000e+03"/>
          <Range Index="5" Min="2.0000000000000000e+00" Max="2.2000000000000000e+01"/>
          <Range Index="6" Min="0.0000000000000000e+00" Max="2.0000000000000000e+01"/>
          <Range Index="7" Min="1.9737735856324434e-03" Max="2.2387014329433441e-01"/>
          <Range Index="8" Min="2.0000000000000000e+00" Max="7.4000000000000000e+01"/>
        </Ranges>
      </Class>
      <Class ClassIndex="2">
        <Ranges>
          <Range Index="0" Min="3.7708395385742188e+02" Max="6.5250994873046875e+02"/>
          <Range Index="1" Min="5.7162739336490631e-02" Max="5.6826946258544922e+01"/>
          <Range Index="2" Min="-1.5162363281250000e+03" Max="1.3753763427734375e+03"/>
          <Range Index="3" Min="-1.3753763427734375e+03" Max="1.5162363281250000e+03"/>
          <Range Index="4" Min="6.6447265625000000e+01" Max="2.9636474609375000e+03"/>
          <Range Index="5" Min="2.0000000000000000e+00" Max="2.2000000000000000e+01"/>
          <Range Index="6" Min="0.0000000000000000e+00" Max="2.0000000000000000e+01"/>
          <Range Index="7" Min="1.8880649004131556e-03" Max="2.7239531278610229e-01"/>
          <Range Index="8" Min="2.0000000000000000e+00" Max="1.7600000000000000e+02"/>
        </Ranges>
      </Class>
    </Transform>
  </Transformations>
  <MVAPdfs/>
  <Weights>
    <Layout NLayers="4">
      <Layer Index="0" NNeurons="10">
        <Neuron NSynapses="9">
          -1.4100657505746406e-01 2.3129839637154088e+00 7.3157065404718627e-02 6.6067538686856608e-01 -2.0618508593828127e+00 1.0243316117362383e-01 -2.9207629487677242e+00 9.4536622229643474e-01 -1.7987619195349747e+00 
        </Neuron>
        <Neuron NSynapses="9">
          -8.4235832809578248e-01 -2.0291239406072867e-01 -3.8872876178736804e-02 -1.6001571220777355e-01 -3.4926477791794014e-01 1.8595482080171630e-01 -2.0998848415493529e-01 -5.1581059284900288e-01 1.5562803848496454e+00 
        </Neuron>
        <Neuron NSynapses="9">
          -5.7462814399620221e-01 8.7411512229030253e-01 -6.5586892221056048e-01 -7.8456216233664544e-01 8.8014143260242553e-02 4.5162872773071466e-01 2.1245760417867252e-01 2.4246383447419478e-01 1.3577728457895242e+00 
        </Neuron>
        <Neuron NSynapses="9">
          3.5769528443541698e-01 -1.3248487676704814e+00 8.0935340681625090e-01 6.2412536543872832e-01 1.2238610111940706e+00 -1.5661013752927641e-01 7.0354804152998340e-01 2.0634349897368873e-03 -2.8802307935172716e-01 
        </Neuron>
        <Neuron NSynapses="9">
          -3.0104167250323131e+00 3.8392467655656350e+00 -1.5892561302687345e+00 1.9680941963206938e-01 9.2778399740541628e-01 5.5370686704892105e+00 -4.4385932266151262e-01 9.8500859639446159e-01 -7.5798096225811529e-01 
        </Neuron>
        <Neuron NSynapses="9">
          7.4843798113968452e-01 1.1800082381982413e+00 3.2015394521798179e-01 3.5420657204429262e+00 2.0948982326182470e+00 -7.4486817642478853e-01 4.1822740569623571e+00 -2.3460799315335485e+00 1.3671082110592470e+00 
        </Neuron>
        <Neuron NSynapses="9">
          -1.9735389484128387e+00 1.3898314967966360e-02 -1.3925201054575749e+00 -5.1441245223384762e+00 1.7792911743611881e+00 2.0255204052419145e+00 -3.1972960007333104e+00 1.5472001143869890e-01 -5.0505235407986945e-02 
        </Neuron>
        <Neuron NSynapses="9">
          1.3241277138796563e+00 1.1008469333858091e+00 -8.6130836614346196e-01 5.2367652394269104e-01 -9.8586868281920947e-01 2.6657585685807027e-02 -9.6779271321724258e-01 -5.3274311930667817e-01 -1.7258037673304569e+00 
        </Neuron>
        <Neuron NSynapses="9">
          1.9702482338263929e+00 6.3700385687371175e-01 1.4878865920959710e+00 -2.1799433616826196e+00 -1.3261144513454681e+00 -7.4690784206193339e-01 4.6017706216686988e-01 6.5459724490281479e-01 1.5652653899143547e+00 
        </Neuron>
        <Neuron NSynapses="9">
          6.8490445554702251e-01 1.6930385070489102e+00 1.6776031377029349e-02 -2.2945776952310406e+00 -6.0065290805813032e-01 2.5453735750401854e+00 -3.9780048976304072e+00 -1.6999104740806086e+00 -1.5787682535723411e+00 
        </Neuron>
      </Layer>
      <Layer Index="1" NNeurons="10">
        <Neuron NSynapses="8">
          6.4896637530389845e-01 -1.2215873177743037e+00 2.8928726159899312e+00 -1.7661794527732890e+00 -9.8403287566849018e-01 1.8847443199780365e+00 -6.9299982038663976e-01 -1.2224358466340945e+00 
        </Neuron>
        <Neuron NSynapses="8">
          -3.1790255686525537e+00 9.0157214047102263e-01 -2.0212567208578260e+00 -1.6526197026720779e+00 6.6412102646710436e-01 1.5298650425868250e+00 -1.1930122389988285e+00 1.5708204167659576e+00 
        </Neuron>
        <Neuron NSynapses="8">
          -1.3807623629631469e+00 4.7950591335525657e-02 2.9631803534679124e-01 2.3985978169817196e-01 -1.5859245783053104e+00 4.4548058088942283e-01 3.8352169596682728e-01 8.9544941876970907e-01 
        </Neuron>
        <Neuron NSynapses="8">
          -2.5638166110758744e+00 5.4594333828700679e+00 1.6328459647828955e-01 -1.1758575030562810e+00 7.5904854134670519e-01 -7.7564833579614956e-01 -1.6678251552165289e+00 5.2215398411453351e-01 
        </Neuron>
        <Neuron NSynapses="8">
          1.0552673368082249e-02 5.3402911231316863e-01 -7.0554934742708142e-01 -6.2293970962438960e-01 -1.2093989745648599e+00 7.6117749793610290e-01 -2.0765725539663902e+00 1.0216559456479878e-01 
        </Neuron>
        <Neuron NSynapses="8">
          1.6737321587029266e+00 -5.0182288170750766e+00 -6.9900068642177948e-01 -1.6860898558432018e+00 -4.8534782100490803e-01 1.2097657059578004e+00 1.5164256217083121e+00 -2.4691165830488178e+00 
        </Neuron>
        <Neuron NSynapses="8">
          -6.1657691433172146e-01 3.9832285505834912e+00 2.9278473765811657e+00 -9.3968011159056175e-02 -1.8288218986475058e+00 2.5189796049663626e-01 -1.4866012882662283e+00 1.5550310162861960e+00 
        </Neuron>
        <Neuron NSynapses="8">
          1.1008218546883195e+00 -4.9364278336873785e-01 -3.3006815791295369e-01 1.9340395751963493e-01 -1.2993232150226912e+00 5.4363990064154788e-01 1.6272169780665779e+00 -4.7395154908930592e-01 
        </Neuron>
        <Neuron NSynapses="8">
          -1.4854702302172522e+00 1.9251253192797785e-01 1.1469886562757929e+00 3.1102099332577049e-01 8.2504721548430593e-01 -1.0299732519891573e+00 1.5317059376286819e+00 2.6554639538496067e-01 
        </Neuron>
        <Neuron NSynapses="8">
          -5.2825002579651323e-02 -2.4003442241827264e-01 3.3259401024158458e-01 -1.1806846397443196e+00 -1.3259528930241731e+00 1.7891952071848933e+00 -1.1065058243733517e+00 -8.9810534052633417e-01 
        </Neuron>
      </Layer>
      <Layer Index="2" NNeurons="9">
        <Neuron NSynapses="1">
          2.4336192000407815e+00 
        </Neuron>
        <Neuron NSynapses="1">
          2.6916367214958710e+00 
        </Neuron>
        <Neuron NSynapses="1">
          -1.3395283915762004e+00 
        </Neuron>
        <Neuron NSynapses="1">
          1.0298774991515789e+00 
        </Neuron>
        <Neuron NSynapses="1">
          1.3564992622786505e+00 
        </Neuron>
        <Neuron NSynapses="1">
          -1.1887189560132712e+00 
        </Neuron>
        <Neuron NSynapses="1">
          1.3225820256068452e-01 
        </Neuron>
        <Neuron NSynapses="1">
          3.0210258289993996e-01 
        </Neuron>
        <Neuron NSynapses="1">
          5.4259710395046179e-01 
        </Neuron>
      </Layer>
      <Layer Index="3" NNeurons="1">
        <Neuron NSynapses="0"/>
      </Layer>
    </Layout>
  </Weights>
</MethodSetup>
