<?xml version="1.0"?>
<MethodSetup Method="MLP::MLP">
  <GeneralInfo>
    <Info name="TMVA Release" value="4.2.0 [262656]"/>
    <Info name="ROOT Release" value="5.34/32 [336416]"/>
    <Info name="Creator" value="brownd"/>
    <Info name="Date" value="Thu Mar 17 11:56:51 2016"/>
    <Info name="Host" value="Linux buildservice004.fnal.gov 2.6.32-504.23.4.el6.x86_64 #1 SMP Tue Jun 9 11:55:03 CDT 2015 x86_64 x86_64 x86_64 GNU/Linux"/>
    <Info name="Dir" value="/mu2e/app/users/brownd/art22/Offline"/>
    <Info name="Training events" value="13736"/>
    <Info name="TrainingTime" value="1.91060332e+02"/>
    <Info name="AnalysisType" value="Classification"/>
  </GeneralInfo>
  <Options>
    <Option name="NCycles" modified="No">500</Option>
    <Option name="HiddenLayers" modified="No">N,N-1</Option>
    <Option name="NeuronType" modified="No">sigmoid</Option>
    <Option name="RandomSeed" modified="No">1</Option>
    <Option name="EstimatorType" modified="No">MSE</Option>
    <Option name="NeuronInputType" modified="No">sum</Option>
    <Option name="V" modified="Yes">False</Option>
    <Option name="VerbosityLevel" modified="No">Default</Option>
    <Option name="VarTransform" modified="Yes">N</Option>
    <Option name="H" modified="Yes">True</Option>
    <Option name="CreateMVAPdfs" modified="No">False</Option>
    <Option name="IgnoreNegWeightsInTraining" modified="No">False</Option>
    <Option name="TrainingMethod" modified="No">BP</Option>
    <Option name="LearningRate" modified="No">2.000000e-02</Option>
    <Option name="DecayRate" modified="No">1.000000e-02</Option>
    <Option name="TestRate" modified="No">10</Option>
    <Option name="EpochMonitoring" modified="No">False</Option>
    <Option name="Sampling" modified="No">1.000000e+00</Option>
    <Option name="SamplingEpoch" modified="No">1.000000e+00</Option>
    <Option name="SamplingImportance" modified="No">1.000000e+00</Option>
    <Option name="SamplingTraining" modified="No">True</Option>
    <Option name="SamplingTesting" modified="No">False</Option>
    <Option name="ResetStep" modified="No">50</Option>
    <Option name="Tau" modified="No">3.000000e+00</Option>
    <Option name="BPMode" modified="No">sequential</Option>
    <Option name="BatchSize" modified="No">-1</Option>
    <Option name="ConvergenceImprove" modified="No">1.000000e-30</Option>
    <Option name="ConvergenceTests" modified="No">-1</Option>
    <Option name="UseRegulator" modified="No">False</Option>
    <Option name="UpdateLimit" modified="No">10000</Option>
    <Option name="CalculateErrors" modified="No">False</Option>
    <Option name="WeightRange" modified="No">1.000000e+00</Option>
  </Options>
  <Variables NVar="9">
    <Variable VarIndex="0" Expression="prho" Label="prho" Title="Transverse radius" Unit="F" Internal="prho" Type="F" Min="3.74198517e+02" Max="7.48937927e+02"/>
    <Variable VarIndex="1" Expression="srho" Label="srho" Title="rho RMS" Unit="F" Internal="srho" Type="F" Min="0.00000000e+00" Max="3.54004555e+01"/>
    <Variable VarIndex="2" Expression="zmin" Label="zmin" Title="z of first hit" Unit="F" Internal="zmin" Type="F" Min="-1.51847034e+03" Max="1.36277039e+03"/>
    <Variable VarIndex="3" Expression="zmax" Label="zmax" Title="z of last hit" Unit="F" Internal="zmax" Type="F" Min="-1.36277039e+03" Max="1.51847034e+03"/>
    <Variable VarIndex="4" Expression="zgap" Label="zgap" Title="Biggest z gap between hits" Unit="F" Internal="zgap" Type="F" Min="7.70593262e+01" Max="2.95830005e+03"/>
    <Variable VarIndex="5" Expression="ns" Label="ns" Title="Number of Stations" Unit="F" Internal="ns" Type="F" Min="2.00000000e+00" Max="2.00000000e+01"/>
    <Variable VarIndex="6" Expression="nsmiss" Label="nsmiss" Title="Number of Stations Missed" Unit="F" Internal="nsmiss" Type="F" Min="0.00000000e+00" Max="1.80000000e+01"/>
    <Variable VarIndex="7" Expression="sphi" Label="sphi" Title="Phi RMS" Unit="F" Internal="sphi" Type="F" Min="0.00000000e+00" Max="1.87456116e-01"/>
    <Variable VarIndex="8" Expression="ngdhits" Label="ngdhits" Title="Number of good hits" Unit="F" Internal="ngdhits" Type="F" Min="2.00000000e+00" Max="5.20000000e+01"/>
  </Variables>
  <Spectators NSpec="0"/>
  <Classes NClass="2">
    <Class Name="Signal" Index="0"/>
    <Class Name="Background" Index="1"/>
  </Classes>
  <Transformations NTransformations="1">
    <Transform Name="Normalize">
      <Selection>
        <Input NInputs="9">
          <Input Type="Variable" Label="prho" Expression="prho"/>
          <Input Type="Variable" Label="srho" Expression="srho"/>
          <Input Type="Variable" Label="zmin" Expression="zmin"/>
          <Input Type="Variable" Label="zmax" Expression="zmax"/>
          <Input Type="Variable" Label="zgap" Expression="zgap"/>
          <Input Type="Variable" Label="ns" Expression="ns"/>
          <Input Type="Variable" Label="nsmiss" Expression="nsmiss"/>
          <Input Type="Variable" Label="sphi" Expression="sphi"/>
          <Input Type="Variable" Label="ngdhits" Expression="ngdhits"/>
        </Input>
        <Output NOutputs="9">
          <Output Type="Variable" Label="prho" Expression="prho"/>
          <Output Type="Variable" Label="srho" Expression="srho"/>
          <Output Type="Variable" Label="zmin" Expression="zmin"/>
          <Output Type="Variable" Label="zmax" Expression="zmax"/>
          <Output Type="Variable" Label="zgap" Expression="zgap"/>
          <Output Type="Variable" Label="ns" Expression="ns"/>
          <Output Type="Variable" Label="nsmiss" Expression="nsmiss"/>
          <Output Type="Variable" Label="sphi" Expression="sphi"/>
          <Output Type="Variable" Label="ngdhits" Expression="ngdhits"/>
        </Output>
      </Selection>
      <Class ClassIndex="0">
        <Ranges>
          <Range Index="0" Min="3.7419851684570312e+02" Max="7.4893792724609375e+02"/>
          <Range Index="1" Min="0.0000000000000000e+00" Max="3.5400455474853516e+01"/>
          <Range Index="2" Min="-1.5184703369140625e+03" Max="1.3627703857421875e+03"/>
          <Range Index="3" Min="-1.3627703857421875e+03" Max="1.5184703369140625e+03"/>
          <Range Index="4" Min="7.7059326171875000e+01" Max="2.8080126953125000e+03"/>
          <Range Index="5" Min="2.0000000000000000e+00" Max="2.0000000000000000e+01"/>
          <Range Index="6" Min="0.0000000000000000e+00" Max="1.7000000000000000e+01"/>
          <Range Index="7" Min="0.0000000000000000e+00" Max="1.8745611608028412e-01"/>
          <Range Index="8" Min="2.0000000000000000e+00" Max="5.2000000000000000e+01"/>
        </Ranges>
      </Class>
      <Class ClassIndex="1">
        <Ranges>
          <Range Index="0" Min="3.8775454711914062e+02" Max="6.7431976318359375e+02"/>
          <Range Index="1" Min="1.2166000604629517e+00" Max="3.2210941314697266e+01"/>
          <Range Index="2" Min="-1.5184703369140625e+03" Max="1.1509636230468750e+03"/>
          <Range Index="3" Min="-1.1509636230468750e+03" Max="1.5184703369140625e+03"/>
          <Range Index="4" Min="7.7059326171875000e+01" Max="2.9583000488281250e+03"/>
          <Range Index="5" Min="2.0000000000000000e+00" Max="2.0000000000000000e+01"/>
          <Range Index="6" Min="0.0000000000000000e+00" Max="1.8000000000000000e+01"/>
          <Range Index="7" Min="1.9575855694711208e-03" Max="1.2474538385868073e-01"/>
          <Range Index="8" Min="2.0000000000000000e+00" Max="8.0000000000000000e+00"/>
        </Ranges>
      </Class>
      <Class ClassIndex="2">
        <Ranges>
          <Range Index="0" Min="3.7419851684570312e+02" Max="7.4893792724609375e+02"/>
          <Range Index="1" Min="0.0000000000000000e+00" Max="3.5400455474853516e+01"/>
          <Range Index="2" Min="-1.5184703369140625e+03" Max="1.3627703857421875e+03"/>
          <Range Index="3" Min="-1.3627703857421875e+03" Max="1.5184703369140625e+03"/>
          <Range Index="4" Min="7.7059326171875000e+01" Max="2.9583000488281250e+03"/>
          <Range Index="5" Min="2.0000000000000000e+00" Max="2.0000000000000000e+01"/>
          <Range Index="6" Min="0.0000000000000000e+00" Max="1.8000000000000000e+01"/>
          <Range Index="7" Min="0.0000000000000000e+00" Max="1.8745611608028412e-01"/>
          <Range Index="8" Min="2.0000000000000000e+00" Max="5.2000000000000000e+01"/>
        </Ranges>
      </Class>
    </Transform>
  </Transformations>
  <MVAPdfs/>
  <Weights>
    <Layout NLayers="4">
      <Layer Index="0" NNeurons="10">
        <Neuron NSynapses="9">
          -1.1024049975795622e+00 8.0271748531503151e-01 1.0035789359054288e+00 8.4013187691558588e-01 -3.9925299969764256e+00 -4.4433158218832469e+00 -9.8080981537909950e-01 4.1655890019903685e+00 -5.7042235221758526e+00 
        </Neuron>
        <Neuron NSynapses="9">
          -5.3147328597563048e-02 -2.6918207744829732e+00 -5.7318957779372548e-01 -2.2627454279055921e+00 5.6148576924661020e-01 -1.2735961326325256e+00 1.8784346754259382e+00 -6.2693930920417040e-01 -2.4126430264538792e+00 
        </Neuron>
        <Neuron NSynapses="9">
          1.9081959458177358e-01 2.0933756841983571e+00 -8.0757488283352086e-01 -2.0203940365101550e-01 1.9030255455775131e+00 7.0980515440139536e-01 -4.1011598605882096e+00 -1.2808413813594293e+00 5.4633148784998709e-01 
        </Neuron>
        <Neuron NSynapses="9">
          -1.7983393804128167e+00 -1.7872926002013863e+00 5.5230170776081444e-01 1.9591552686995648e+00 1.4817477976273301e+00 -1.3320378725086222e+00 -9.6496034526421970e-01 -2.6276889386729080e-01 9.9956524488847420e-01 
        </Neuron>
        <Neuron NSynapses="9">
          -3.4094643953761683e-01 1.6604289341414289e+00 -1.2749765497171759e+00 -3.7612526045691315e+00 -5.8821957784324624e-03 4.1865180376478195e+00 2.0515941628374064e+00 3.3421228013821054e+00 -1.2813137505086034e+00 
        </Neuron>
        <Neuron NSynapses="9">
          -3.8228072905903150e+00 2.6174134072150097e-02 1.4887992108561563e+00 4.3115510169941356e+00 -1.6170332214046981e-01 -2.3126571633289839e+00 3.4079821273523256e+00 -3.3218906339857385e-01 4.8835100533054883e+00 
        </Neuron>
        <Neuron NSynapses="9">
          -2.9350929635045979e+00 -1.2817970660421814e+00 -1.9533423919982458e+00 -6.9340684229596263e+00 2.3594378939769642e+00 4.8033081333768273e+00 -3.4873268448060011e+00 9.5042021117189979e-01 -6.0825803923897670e+00 
        </Neuron>
        <Neuron NSynapses="9">
          1.0704570520428687e+00 2.4550261112737970e+00 -1.0906726721055038e+00 1.8416012225334961e+00 -1.9143943718104268e+00 4.9233324327300529e+00 1.5517826216088975e+00 -7.3459742713877696e-01 -1.4328241608125762e+00 
        </Neuron>
        <Neuron NSynapses="9">
          1.1039269337789186e+00 1.2520027141370533e+00 2.3367452909970083e+00 9.5449423637811759e-01 -8.3811200522630691e-02 -5.5002982356304324e+00 7.3439296167692614e-01 -5.7666765227886652e-01 4.1655337365997598e+00 
        </Neuron>
        <Neuron NSynapses="9">
          1.5051013742345551e+00 1.0496357926283211e+00 -1.1682484987950958e+00 -2.3244123063770341e+00 -6.4573481215635120e-01 2.5264239929116252e+00 -8.3901553132219120e-01 -1.8452607604296420e+00 -3.3017370883273980e+00 
        </Neuron>
      </Layer>
      <Layer Index="1" NNeurons="10">
        <Neuron NSynapses="8">
          -1.0005906679718011e+00 -1.7770384559123262e+00 -2.4922912504497513e-01 -1.6853741551123778e+00 -6.7235411741790307e-01 -1.8690940489545596e-01 -2.4274930027443640e+00 -1.5396287507746755e+00 
        </Neuron>
        <Neuron NSynapses="8">
          -1.3658194442067522e+00 -2.2836144357530581e+00 -2.1654102169983411e+00 -1.6849803152316418e+00 8.2823151699596406e-02 1.3060246173141068e+00 -7.9628378189830684e-01 1.6282660517434799e+00 
        </Neuron>
        <Neuron NSynapses="8">
          -1.1033206678382588e+00 1.5496963162341355e+00 -1.6843964265496876e+00 -6.2361639276487239e-02 -2.5166870280878908e+00 -1.6863968023869225e+00 -4.3930836969899395e-01 2.2033894429712550e-01 
        </Neuron>
        <Neuron NSynapses="8">
          -2.0217979607869752e+00 6.7126669395059944e+00 -4.7695339824265143e-01 -1.4429492844074883e+00 6.1446560689146312e-01 -1.9098752843273938e+00 -2.1948754989281891e+00 -2.3486297850576640e-01 
        </Neuron>
        <Neuron NSynapses="8">
          -2.0452664581601012e+00 -1.3981209581069844e+00 -4.6482475160335074e-01 -5.1765182623595107e-01 -9.1598771764776188e-01 -5.8396170361944566e-01 -4.4860645575785458e+00 1.5673548473999232e-03 
        </Neuron>
        <Neuron NSynapses="8">
          -7.2398128291548303e-01 -7.3483466665651216e+00 -5.4039033590717411e-01 -1.8717745876072973e+00 8.1817510751685640e-02 1.2934527711584143e-01 2.3563587163212119e+00 -2.4671856817669697e+00 
        </Neuron>
        <Neuron NSynapses="8">
          -7.9157177854895261e-02 5.7218468659938591e+00 1.1175639426564972e+00 -1.4466950225941308e-01 -1.7936348990882569e+00 -6.1824471147728477e-01 -1.4716875695505607e+00 1.0522981505644387e+00 
        </Neuron>
        <Neuron NSynapses="8">
          1.5510294078642270e+00 2.5105539784441673e+00 -8.3404160176706843e-01 3.9195293101463927e-02 -1.7165913789905765e+00 -3.3487386579916112e-01 2.6016145194576881e+00 -4.2301000379593462e-01 
        </Neuron>
        <Neuron NSynapses="8">
          -1.1175511411696619e+00 9.0131653601740567e+00 -4.8349567171411789e-01 3.8347179727325192e-01 -4.8618852570685836e-02 -2.0554667013569801e+00 7.0342265724081465e-01 2.8717197404743361e-01 
        </Neuron>
        <Neuron NSynapses="8">
          -9.7902236857253144e-01 -1.2349217585668817e+00 -1.3247192309933056e+00 -1.6996569641459993e+00 -1.5936230329360619e+00 -1.0515700817104228e+00 -2.7614147983088313e+00 -1.1749372361118120e+00 
        </Neuron>
      </Layer>
      <Layer Index="2" NNeurons="9">
        <Neuron NSynapses="1">
          -4.9733297136337123e-01 
        </Neuron>
        <Neuron NSynapses="1">
          1.0774200635303997e+00 
        </Neuron>
        <Neuron NSynapses="1">
          5.7167533399362513e-01 
        </Neuron>
        <Neuron NSynapses="1">
          -2.3228680634971532e-01 
        </Neuron>
        <Neuron NSynapses="1">
          1.2630195350681785e+00 
        </Neuron>
        <Neuron NSynapses="1">
          3.3562181617424436e-01 
        </Neuron>
        <Neuron NSynapses="1">
          1.9609679767885591e+00 
        </Neuron>
        <Neuron NSynapses="1">
          1.5230739439684586e-02 
        </Neuron>
        <Neuron NSynapses="1">
          -1.0524962734493505e-01 
        </Neuron>
      </Layer>
      <Layer Index="3" NNeurons="1">
        <Neuron NSynapses="0"/>
      </Layer>
    </Layout>
  </Weights>
</MethodSetup>
