<?xml version="1.0"?>
<MethodSetup Method="MLP::MLP">
  <GeneralInfo>
    <Info name="TMVA Release" value="4.1.4 [262404]"/>
    <Info name="ROOT Release" value="5.34/09 [336393]"/>
    <Info name="Creator" value="brownd"/>
    <Info name="Date" value="Sat May  3 17:24:00 2014"/>
    <Info name="Host" value="Linux patdskmf.fnal.gov 2.6.18-308.20.1.el5 #1 SMP Tue Nov 13 11:54:02 EST 2012 x86_64 x86_64 x86_64 GNU/Linux"/>
    <Info name="Dir" value="/home/online1/brownd/mu2e/Mu2eSim/art6/Offline"/>
    <Info name="Training events" value="13585"/>
    <Info name="TrainingTime" value="2.01539022e+02"/>
    <Info name="AnalysisType" value="Classification"/>
  </GeneralInfo>
  <Options>
    <Option name="NCycles" modified="No">500</Option>
    <Option name="HiddenLayers" modified="No">N,N-1</Option>
    <Option name="NeuronType" modified="No">sigmoid</Option>
    <Option name="RandomSeed" modified="No">1</Option>
    <Option name="EstimatorType" modified="No">MSE</Option>
    <Option name="NeuronInputType" modified="No">sum</Option>
    <Option name="V" modified="Yes">False</Option>
    <Option name="VerbosityLevel" modified="No">Default</Option>
    <Option name="VarTransform" modified="Yes">N</Option>
    <Option name="H" modified="Yes">True</Option>
    <Option name="CreateMVAPdfs" modified="No">False</Option>
    <Option name="IgnoreNegWeightsInTraining" modified="No">False</Option>
    <Option name="TrainingMethod" modified="No">BP</Option>
    <Option name="LearningRate" modified="No">2.000000e-02</Option>
    <Option name="DecayRate" modified="No">1.000000e-02</Option>
    <Option name="TestRate" modified="No">10</Option>
    <Option name="EpochMonitoring" modified="No">False</Option>
    <Option name="Sampling" modified="No">1.000000e+00</Option>
    <Option name="SamplingEpoch" modified="No">1.000000e+00</Option>
    <Option name="SamplingImportance" modified="No">1.000000e+00</Option>
    <Option name="SamplingTraining" modified="No">True</Option>
    <Option name="SamplingTesting" modified="No">False</Option>
    <Option name="ResetStep" modified="No">50</Option>
    <Option name="Tau" modified="No">3.000000e+00</Option>
    <Option name="BPMode" modified="No">sequential</Option>
    <Option name="BatchSize" modified="No">-1</Option>
    <Option name="ConvergenceImprove" modified="No">1.000000e-30</Option>
    <Option name="ConvergenceTests" modified="No">-1</Option>
    <Option name="UseRegulator" modified="No">False</Option>
    <Option name="UpdateLimit" modified="No">10000</Option>
    <Option name="CalculateErrors" modified="No">False</Option>
    <Option name="WeightRange" modified="No">1.000000e+00</Option>
  </Options>
  <Variables NVar="9">
    <Variable VarIndex="0" Expression="prho" Label="prho" Title="Transverse radius" Unit="F" Internal="prho" Type="F" Min="3.96640198e+02" Max="6.50922607e+02"/>
    <Variable VarIndex="1" Expression="srho" Label="srho" Title="rho RMS" Unit="F" Internal="srho" Type="F" Min="0.00000000e+00" Max="3.07257843e+01"/>
    <Variable VarIndex="2" Expression="zmin" Label="zmin" Title="z of first hit" Unit="F" Internal="zmin" Type="F" Min="-1.51623633e+03" Max="1.37537634e+03"/>
    <Variable VarIndex="3" Expression="zmax" Label="zmax" Title="z of last hit" Unit="F" Internal="zmax" Type="F" Min="-1.37537634e+03" Max="1.51623633e+03"/>
    <Variable VarIndex="4" Expression="zgap" Label="zgap" Title="Biggest z gap between hits" Unit="F" Internal="zgap" Type="F" Min="6.64473267e+01" Max="2.91106006e+03"/>
    <Variable VarIndex="5" Expression="ns" Label="ns" Title="Number of Stations" Unit="F" Internal="ns" Type="F" Min="2.00000000e+00" Max="2.20000000e+01"/>
    <Variable VarIndex="6" Expression="nsmiss" Label="nsmiss" Title="Number of Stations Missed" Unit="F" Internal="nsmiss" Type="F" Min="0.00000000e+00" Max="2.00000000e+01"/>
    <Variable VarIndex="7" Expression="sphi" Label="sphi" Title="Phi RMS" Unit="F" Internal="sphi" Type="F" Min="9.12653559e-05" Max="1.25023335e-01"/>
    <Variable VarIndex="8" Expression="ngdhits" Label="ngdhits" Title="Number of good hits" Unit="F" Internal="ngdhits" Type="F" Min="3.00000000e+00" Max="1.85000000e+02"/>
  </Variables>
  <Spectators NSpec="0"/>
  <Classes NClass="2">
    <Class Name="Signal" Index="0"/>
    <Class Name="Background" Index="1"/>
  </Classes>
  <Transformations NTransformations="1">
    <Transform Name="Normalize">
      <Selection>
        <Input NInputs="9">
          <Input Type="Variable" Label="prho" Expression="prho"/>
          <Input Type="Variable" Label="srho" Expression="srho"/>
          <Input Type="Variable" Label="zmin" Expression="zmin"/>
          <Input Type="Variable" Label="zmax" Expression="zmax"/>
          <Input Type="Variable" Label="zgap" Expression="zgap"/>
          <Input Type="Variable" Label="ns" Expression="ns"/>
          <Input Type="Variable" Label="nsmiss" Expression="nsmiss"/>
          <Input Type="Variable" Label="sphi" Expression="sphi"/>
          <Input Type="Variable" Label="ngdhits" Expression="ngdhits"/>
        </Input>
        <Output NOutputs="9">
          <Output Type="Variable" Label="prho" Expression="prho"/>
          <Output Type="Variable" Label="srho" Expression="srho"/>
          <Output Type="Variable" Label="zmin" Expression="zmin"/>
          <Output Type="Variable" Label="zmax" Expression="zmax"/>
          <Output Type="Variable" Label="zgap" Expression="zgap"/>
          <Output Type="Variable" Label="ns" Expression="ns"/>
          <Output Type="Variable" Label="nsmiss" Expression="nsmiss"/>
          <Output Type="Variable" Label="sphi" Expression="sphi"/>
          <Output Type="Variable" Label="ngdhits" Expression="ngdhits"/>
        </Output>
      </Selection>
      <Class ClassIndex="0">
        <Ranges>
          <Range Index="0" Min="3.9664019775390625e+02" Max="6.5092260742187500e+02"/>
          <Range Index="1" Min="3.0441250652074814e-02" Max="2.9905061721801758e+01"/>
          <Range Index="2" Min="-1.5162363281250000e+03" Max="1.3753763427734375e+03"/>
          <Range Index="3" Min="-1.3753763427734375e+03" Max="1.5162363281250000e+03"/>
          <Range Index="4" Min="6.6447326660156250e+01" Max="2.8254936523437500e+03"/>
          <Range Index="5" Min="2.0000000000000000e+00" Max="2.2000000000000000e+01"/>
          <Range Index="6" Min="0.0000000000000000e+00" Max="1.9000000000000000e+01"/>
          <Range Index="7" Min="1.3489551201928407e-04" Max="1.2008652836084366e-01"/>
          <Range Index="8" Min="4.0000000000000000e+00" Max="1.8500000000000000e+02"/>
        </Ranges>
      </Class>
      <Class ClassIndex="1">
        <Ranges>
          <Range Index="0" Min="3.9837390136718750e+02" Max="6.4662341308593750e+02"/>
          <Range Index="1" Min="0.0000000000000000e+00" Max="3.0725784301757812e+01"/>
          <Range Index="2" Min="-1.5162363281250000e+03" Max="7.5122998046875000e+02"/>
          <Range Index="3" Min="-1.0772436523437500e+03" Max="1.5162363281250000e+03"/>
          <Range Index="4" Min="7.7447265625000000e+01" Max="2.9110600585937500e+03"/>
          <Range Index="5" Min="2.0000000000000000e+00" Max="2.2000000000000000e+01"/>
          <Range Index="6" Min="0.0000000000000000e+00" Max="2.0000000000000000e+01"/>
          <Range Index="7" Min="9.1265355877112597e-05" Max="1.2502333521842957e-01"/>
          <Range Index="8" Min="3.0000000000000000e+00" Max="4.2000000000000000e+01"/>
        </Ranges>
      </Class>
      <Class ClassIndex="2">
        <Ranges>
          <Range Index="0" Min="3.9664019775390625e+02" Max="6.5092260742187500e+02"/>
          <Range Index="1" Min="0.0000000000000000e+00" Max="3.0725784301757812e+01"/>
          <Range Index="2" Min="-1.5162363281250000e+03" Max="1.3753763427734375e+03"/>
          <Range Index="3" Min="-1.3753763427734375e+03" Max="1.5162363281250000e+03"/>
          <Range Index="4" Min="6.6447326660156250e+01" Max="2.9110600585937500e+03"/>
          <Range Index="5" Min="2.0000000000000000e+00" Max="2.2000000000000000e+01"/>
          <Range Index="6" Min="0.0000000000000000e+00" Max="2.0000000000000000e+01"/>
          <Range Index="7" Min="9.1265355877112597e-05" Max="1.2502333521842957e-01"/>
          <Range Index="8" Min="3.0000000000000000e+00" Max="1.8500000000000000e+02"/>
        </Ranges>
      </Class>
    </Transform>
  </Transformations>
  <MVAPdfs/>
  <Weights>
    <Layout NLayers="4">
      <Layer Index="0" NNeurons="10">
        <Neuron NSynapses="9">
          -8.7887597046485619e-02 2.1324635227104181e+00 9.4397300613288038e-01 1.1604749987054703e+00 -1.8885957816831178e+00 -4.4119359452210916e-01 -7.5596716875933434e-01 1.7508124427280189e+00 -1.5713819155614350e+00 
        </Neuron>
        <Neuron NSynapses="9">
          -7.0419698896866134e-01 -7.4601262250111910e-01 -1.1711401008798640e-01 -4.1272049776442588e-01 1.5608133640572430e-01 2.9973718592185378e-01 5.9521078872059166e-02 -6.9434780371414773e-01 1.6632485977417431e+00 
        </Neuron>
        <Neuron NSynapses="9">
          -8.6706623734368118e-02 1.0377082361131822e+00 -4.7728886164494855e-01 -8.4831260552049792e-01 4.5756836573903381e-01 6.3981993784688340e-01 -1.0065573114970678e+00 -2.2737680158869109e-01 1.7086959287752421e+00 
        </Neuron>
        <Neuron NSynapses="9">
          -5.6638430518213223e-01 -1.6550035911420262e+00 3.5459427238107250e-01 5.3531666842306558e-01 1.7199333701243471e+00 -7.7528842016829813e-01 5.8449528647383719e-01 1.4973008643225516e-01 -4.4541360951549386e-01 
        </Neuron>
        <Neuron NSynapses="9">
          -2.0922679945758493e+00 1.9644398985499023e+00 -1.0881355686764205e+00 5.7522097493989577e-01 1.3554149244418023e+00 2.1154171609853858e+00 7.7203183583037593e-01 1.2956616884083156e+00 -6.0351716631902697e-01 
        </Neuron>
        <Neuron NSynapses="9">
          -9.5651865558311544e-01 1.2826854311171727e+00 2.9194686396773994e-01 1.8665296406129521e+00 2.0297032170679090e+00 1.6104622791657208e-01 1.6195705914186409e+00 -1.7759199459593187e+00 1.1321084383701117e+00 
        </Neuron>
        <Neuron NSynapses="9">
          -1.9424454265691669e+00 -1.0242513495615944e+00 -1.0726552065586852e+00 -3.6189734791408248e+00 1.5682359563007624e+00 3.0563989155572782e+00 -3.0029296032059567e+00 7.3958655757166991e-01 -2.1928317153836413e-01 
        </Neuron>
        <Neuron NSynapses="9">
          5.1263874440884127e-01 1.7249439023878381e+00 -3.7052063519491713e-01 5.2567133021660761e-01 -9.5351562784160726e-01 3.9871522435624107e-01 -7.8213996717872669e-01 -8.6024298838356750e-01 -1.3061302734332838e+00 
        </Neuron>
        <Neuron NSynapses="9">
          1.2516174659812296e+00 1.4143185293725407e+00 1.3549067843013125e+00 8.0420867204577040e-01 -1.3160953522442893e+00 -2.9524713126114128e+00 1.0946218012687214e+00 3.0509943853006244e-01 1.8469671870693678e+00 
        </Neuron>
        <Neuron NSynapses="9">
          6.7390009802813045e-01 1.1005001356074573e+00 -6.6817404711407935e-01 -1.1033104746847298e+00 -4.1477564899588781e-01 1.2927098767482343e+00 -6.3059893429767921e-01 -1.6218565586636187e+00 -1.8821312722810006e+00 
        </Neuron>
      </Layer>
      <Layer Index="1" NNeurons="10">
        <Neuron NSynapses="8">
          9.9805261687813271e-02 -7.9916498387634691e-02 1.9096598500899240e+00 -1.6137184088618655e+00 -8.6173951090524825e-01 1.5874342519222333e+00 -7.9906582647390989e-01 -1.5328470987565894e+00 
        </Neuron>
        <Neuron NSynapses="8">
          -1.6391299359538767e+00 8.7525376681745826e-01 -2.1468215058579005e+00 -1.7064539581579103e+00 8.4668257001291036e-01 1.6419547521387983e+00 -1.1636872628521353e+00 1.7917762654468534e+00 
        </Neuron>
        <Neuron NSynapses="8">
          -9.2900608689270447e-01 5.3660969560951843e-01 1.4932639857148203e-01 1.2336773686181820e-02 -1.7996077363871206e+00 5.8603251323939631e-01 3.6081550936918055e-01 5.0311344483000653e-01 
        </Neuron>
        <Neuron NSynapses="8">
          -2.3811690037223969e+00 3.1841235093970082e+00 2.0300504207488379e-01 -1.4881162281184777e+00 6.2272321370407901e-01 -5.3291628895589671e-01 -1.7032368165408793e+00 4.7500482275614953e-01 
        </Neuron>
        <Neuron NSynapses="8">
          -9.5988613084073915e-01 9.8220981235639360e-01 5.1885146521810810e-01 -2.8861677503026267e-01 -5.6978154057163122e-01 4.7813978748526631e-01 -2.0391564279225491e+00 1.5079658536051757e+00 
        </Neuron>
        <Neuron NSynapses="8">
          -7.2353246103173463e-01 -3.7492114642492562e+00 1.6142910574102408e-02 -1.4425432322995013e+00 4.6758777525530475e-02 1.1493960678674320e+00 1.5487881570508986e+00 -1.3585208230234942e+00 
        </Neuron>
        <Neuron NSynapses="8">
          -7.9655246980705752e-01 2.4603786613230709e+00 1.6393823519723654e+00 -4.5695622877859493e-01 -1.5109838493022794e+00 5.2753658714448426e-01 -1.4903666371843072e+00 1.9034153721389531e+00 
        </Neuron>
        <Neuron NSynapses="8">
          9.8225082812519582e-01 -1.0696505267042107e+00 -5.6840522701058627e-01 1.2054271373179030e-01 -1.2796533566499093e+00 6.4836013053561414e-01 1.6215335398582715e+00 -5.4384269245847427e-01 
        </Neuron>
        <Neuron NSynapses="8">
          -7.9471962141584107e-01 3.6066423464964670e-01 1.0329663745693447e+00 4.2905925944840001e-01 8.5003951993375781e-01 -1.2816779435964321e+00 1.5246309759712386e+00 7.0313840501842095e-01 
        </Neuron>
        <Neuron NSynapses="8">
          -2.9813441689746439e-01 6.9726354665406254e-01 8.8110499636581074e-01 -1.0252494211013121e+00 -8.4259674896186476e-01 1.7430915099031838e+00 -1.0229848413333535e+00 -2.8798724899735378e-01 
        </Neuron>
      </Layer>
      <Layer Index="2" NNeurons="9">
        <Neuron NSynapses="1">
          1.4686480603048113e+00 
        </Neuron>
        <Neuron NSynapses="1">
          2.0039579134567123e+00 
        </Neuron>
        <Neuron NSynapses="1">
          -8.2135586380585635e-01 
        </Neuron>
        <Neuron NSynapses="1">
          1.1730138216747839e+00 
        </Neuron>
        <Neuron NSynapses="1">
          1.6867582763259750e+00 
        </Neuron>
        <Neuron NSynapses="1">
          -1.0969435191965176e+00 
        </Neuron>
        <Neuron NSynapses="1">
          4.7972551441678152e-01 
        </Neuron>
        <Neuron NSynapses="1">
          2.0487555309012964e-01 
        </Neuron>
        <Neuron NSynapses="1">
          6.5880493258557327e-01 
        </Neuron>
      </Layer>
      <Layer Index="3" NNeurons="1">
        <Neuron NSynapses="0"/>
      </Layer>
    </Layout>
  </Weights>
</MethodSetup>
