<?xml version="1.0"?>
<MethodSetup Method="MLP::MLP">
  <GeneralInfo>
    <Info name="TMVA Release" value="4.1.4 [262404]"/>
    <Info name="ROOT Release" value="5.34/05 [336389]"/>
    <Info name="Creator" value="dding"/>
    <Info name="Date" value="Sun Apr 21 22:51:36 2013"/>
    <Info name="Host" value="Linux patdskmf.fnal.gov 2.6.18-308.20.1.el5 #1 SMP Tue Nov 13 11:54:02 EST 2012 x86_64 x86_64 x86_64 GNU/Linux"/>
    <Info name="Dir" value="/home/online1/dding/tmva/test"/>
    <Info name="Training events" value="69672"/>
    <Info name="TrainingTime" value="3.08423370e+03"/>
    <Info name="AnalysisType" value="Classification"/>
  </GeneralInfo>
  <Options>
    <Option name="NCycles" modified="No">500</Option>
    <Option name="HiddenLayers" modified="No">N,N-1</Option>
    <Option name="NeuronType" modified="No">sigmoid</Option>
    <Option name="RandomSeed" modified="No">1</Option>
    <Option name="EstimatorType" modified="No">MSE</Option>
    <Option name="NeuronInputType" modified="No">sum</Option>
    <Option name="V" modified="Yes">False</Option>
    <Option name="VerbosityLevel" modified="No">Default</Option>
    <Option name="VarTransform" modified="Yes">N</Option>
    <Option name="H" modified="Yes">True</Option>
    <Option name="CreateMVAPdfs" modified="No">False</Option>
    <Option name="IgnoreNegWeightsInTraining" modified="No">False</Option>
    <Option name="TrainingMethod" modified="No">BP</Option>
    <Option name="LearningRate" modified="No">2.000000e-02</Option>
    <Option name="DecayRate" modified="No">1.000000e-02</Option>
    <Option name="TestRate" modified="No">10</Option>
    <Option name="EpochMonitoring" modified="No">False</Option>
    <Option name="Sampling" modified="No">1.000000e+00</Option>
    <Option name="SamplingEpoch" modified="No">1.000000e+00</Option>
    <Option name="SamplingImportance" modified="No">1.000000e+00</Option>
    <Option name="SamplingTraining" modified="No">True</Option>
    <Option name="SamplingTesting" modified="No">False</Option>
    <Option name="ResetStep" modified="No">50</Option>
    <Option name="Tau" modified="No">3.000000e+00</Option>
    <Option name="BPMode" modified="No">sequential</Option>
    <Option name="BatchSize" modified="No">-1</Option>
    <Option name="ConvergenceImprove" modified="No">1.000000e-30</Option>
    <Option name="ConvergenceTests" modified="No">-1</Option>
    <Option name="UseRegulator" modified="No">False</Option>
    <Option name="UpdateLimit" modified="No">10000</Option>
    <Option name="CalculateErrors" modified="No">False</Option>
    <Option name="WeightRange" modified="No">1.000000e+00</Option>
  </Options>
  <Variables NVar="9">
    <Variable VarIndex="0" Expression="prho" Label="prho" Title="Transverse radius" Unit="F" Internal="prho" Type="F" Min="3.70942505e+02" Max="7.37962097e+02"/>
    <Variable VarIndex="1" Expression="srho" Label="srho" Title="RMS of rho" Unit="F" Internal="srho" Type="F" Min="0.00000000e+00" Max="2.18988571e+01"/>
    <Variable VarIndex="2" Expression="zmin" Label="zmin" Title="z of first hit" Unit="F" Internal="zmin" Type="F" Min="-1.47709802e+03" Max="1.47190198e+03"/>
    <Variable VarIndex="3" Expression="zmax" Label="zmax" Title="z of last hit" Unit="F" Internal="zmax" Type="F" Min="-1.47190198e+03" Max="1.47709802e+03"/>
    <Variable VarIndex="4" Expression="zgap" Label="zgap" Title="Biggest z gap between hits" Unit="F" Internal="zgap" Type="F" Min="0.00000000e+00" Max="2.89950000e+03"/>
    <Variable VarIndex="5" Expression="nsmiss" Label="nsmiss" Title="Station Gap" Unit="F" Internal="nsmiss" Type="F" Min="0.00000000e+00" Max="1.60000000e+01"/>
    <Variable VarIndex="6" Expression="sphi" Label="sphi" Title="RMS of phi" Unit="F" Internal="sphi" Type="F" Min="0.00000000e+00" Max="1.56704262e-01"/>
    <Variable VarIndex="7" Expression="ncore" Label="ncore" Title="Number of hits in core" Unit="F" Internal="ncore" Type="F" Min="1.00000000e+00" Max="2.61000000e+02"/>
    <Variable VarIndex="8" Expression="nhalo" Label="nhalo" Title="Number of hits in halo" Unit="F" Internal="nwide_M_ncore" Type="F" Min="0.00000000e+00" Max="6.20000000e+01"/>
  </Variables>
  <Spectators NSpec="0"/>
  <Classes NClass="2">
    <Class Name="Signal" Index="0"/>
    <Class Name="Background" Index="1"/>
  </Classes>
  <Transformations NTransformations="1">
    <Transform Name="Normalize">
      <Selection>
        <Input NInputs="9">
          <Input Type="Variable" Label="prho" Expression="prho"/>
          <Input Type="Variable" Label="srho" Expression="srho"/>
          <Input Type="Variable" Label="zmin" Expression="zmin"/>
          <Input Type="Variable" Label="zmax" Expression="zmax"/>
          <Input Type="Variable" Label="zgap" Expression="zgap"/>
          <Input Type="Variable" Label="nsmiss" Expression="nsmiss"/>
          <Input Type="Variable" Label="sphi" Expression="sphi"/>
          <Input Type="Variable" Label="ncore" Expression="ncore"/>
          <Input Type="Variable" Label="nhalo" Expression="nhalo"/>
        </Input>
        <Output NOutputs="9">
          <Output Type="Variable" Label="prho" Expression="prho"/>
          <Output Type="Variable" Label="srho" Expression="srho"/>
          <Output Type="Variable" Label="zmin" Expression="zmin"/>
          <Output Type="Variable" Label="zmax" Expression="zmax"/>
          <Output Type="Variable" Label="zgap" Expression="zgap"/>
          <Output Type="Variable" Label="nsmiss" Expression="nsmiss"/>
          <Output Type="Variable" Label="sphi" Expression="sphi"/>
          <Output Type="Variable" Label="ncore" Expression="ncore"/>
          <Output Type="Variable" Label="nhalo" Expression="nhalo"/>
        </Output>
      </Selection>
      <Class ClassIndex="0">
        <Ranges>
          <Range Index="0" Min="3.7094250488281250e+02" Max="7.3796209716796875e+02"/>
          <Range Index="1" Min="0.0000000000000000e+00" Max="1.9196226119995117e+01"/>
          <Range Index="2" Min="-1.4770980224609375e+03" Max="1.4719019775390625e+03"/>
          <Range Index="3" Min="-1.4719019775390625e+03" Max="1.4770980224609375e+03"/>
          <Range Index="4" Min="0.0000000000000000e+00" Max="2.5448039550781250e+03"/>
          <Range Index="5" Min="0.0000000000000000e+00" Max="1.4000000000000000e+01"/>
          <Range Index="6" Min="0.0000000000000000e+00" Max="1.4991816878318787e-01"/>
          <Range Index="7" Min="1.0000000000000000e+00" Max="2.6100000000000000e+02"/>
          <Range Index="8" Min="0.0000000000000000e+00" Max="6.2000000000000000e+01"/>
        </Ranges>
      </Class>
      <Class ClassIndex="1">
        <Ranges>
          <Range Index="0" Min="3.8636309814453125e+02" Max="6.7538220214843750e+02"/>
          <Range Index="1" Min="3.7830033898353577e-01" Max="2.1898857116699219e+01"/>
          <Range Index="2" Min="-1.4770980224609375e+03" Max="1.4450000000000000e+03"/>
          <Range Index="3" Min="-1.4450000000000000e+03" Max="1.4770980224609375e+03"/>
          <Range Index="4" Min="2.5980224609375000e+00" Max="2.8995000000000000e+03"/>
          <Range Index="5" Min="0.0000000000000000e+00" Max="1.6000000000000000e+01"/>
          <Range Index="6" Min="2.5419718585908413e-03" Max="1.5670426189899445e-01"/>
          <Range Index="7" Min="1.0000000000000000e+00" Max="1.2800000000000000e+02"/>
          <Range Index="8" Min="0.0000000000000000e+00" Max="1.7000000000000000e+01"/>
        </Ranges>
      </Class>
      <Class ClassIndex="2">
        <Ranges>
          <Range Index="0" Min="3.7094250488281250e+02" Max="7.3796209716796875e+02"/>
          <Range Index="1" Min="0.0000000000000000e+00" Max="2.1898857116699219e+01"/>
          <Range Index="2" Min="-1.4770980224609375e+03" Max="1.4719019775390625e+03"/>
          <Range Index="3" Min="-1.4719019775390625e+03" Max="1.4770980224609375e+03"/>
          <Range Index="4" Min="0.0000000000000000e+00" Max="2.8995000000000000e+03"/>
          <Range Index="5" Min="0.0000000000000000e+00" Max="1.6000000000000000e+01"/>
          <Range Index="6" Min="0.0000000000000000e+00" Max="1.5670426189899445e-01"/>
          <Range Index="7" Min="1.0000000000000000e+00" Max="2.6100000000000000e+02"/>
          <Range Index="8" Min="0.0000000000000000e+00" Max="6.2000000000000000e+01"/>
        </Ranges>
      </Class>
    </Transform>
  </Transformations>
  <MVAPdfs/>
  <Weights>
    <Layout NLayers="4">
      <Layer Index="0" NNeurons="10">
        <Neuron NSynapses="9">
          -8.6449355048247023e-01 1.4239804137178038e+00 3.4927629629876105e+00 1.8607557954744316e+00 -1.4456059419308613e+00 -1.3125146785405866e+00 1.4743730502927064e+00 3.1585380248129251e+00 -1.6444820309224142e+00 
        </Neuron>
        <Neuron NSynapses="9">
          -9.7140808238339960e-01 -8.6794923308720717e-01 -2.8901346969992258e-02 -2.2695553158200710e+00 5.1266284146667296e-01 -6.2903000136496401e-01 6.1060134059220905e-01 -8.9868386264997782e-02 1.5963243209026241e+00 
        </Neuron>
        <Neuron NSynapses="9">
          5.7884570246766326e-02 1.7505999725462560e+00 2.2149505120012716e+00 -1.3479299067150887e+00 3.0002815191824622e-01 1.3538766867116103e+00 3.8688088474733751e+00 1.8552068703363094e+00 1.5900194338877622e+00 
        </Neuron>
        <Neuron NSynapses="9">
          -1.0173560682222031e+00 -1.6801851348107015e+00 -1.9001759925360222e+00 1.1576145655330772e+00 1.1476004700027604e+00 5.2236662865797945e-01 -3.5006195593919256e+00 -1.6082749759437689e+00 -3.4514855894698349e-01 
        </Neuron>
        <Neuron NSynapses="9">
          -3.0811495913055187e+00 2.1549132262853670e+00 -5.3572528391718546e+00 5.6993374639252909e+00 3.3446428296322424e+00 -1.2157539572097162e+00 3.2302398788163833e+00 5.1166984500544093e+00 -5.1457156976217855e-01 
        </Neuron>
        <Neuron NSynapses="9">
          -2.8756360119186986e+00 1.3746651194238411e+00 2.9511415966461900e+00 -1.4559973468684928e+00 5.4623100956837900e-01 2.2989721726179786e+00 4.4172792162521670e+00 -4.3825444769722433e+00 1.0627402936402184e+00 
        </Neuron>
        <Neuron NSynapses="9">
          4.0046151857373768e-01 -1.1235739030733226e-01 -6.6623701171380656e-01 -2.1053970376321631e+00 1.6269036260919914e+00 3.7893699247338303e-01 -2.4632358142006350e-01 -6.9681236047244710e-01 -2.0878774973968592e-01 
        </Neuron>
        <Neuron NSynapses="9">
          1.8528925991085841e+00 2.2733862174728263e+00 -1.5202942571595159e+00 1.3245145433342462e+00 -1.3709984017233416e+00 4.5421098039165064e-01 -2.8141249677386138e+00 -1.1159975383533223e+00 -1.3260378888606750e+00 
        </Neuron>
        <Neuron NSynapses="9">
          1.0371606604745096e+00 1.6637236671208824e+00 1.0967033952207961e+00 -7.6962342718040444e-01 -2.4356583168798625e+00 -1.7396234557819970e+00 -1.2425036629498845e+00 5.7146781491753851e-01 2.0798860563953521e+00 
        </Neuron>
        <Neuron NSynapses="9">
          5.4823054719218800e-01 4.4683924141461040e-01 -2.1238327903855345e+00 5.0669271333034127e-01 9.6013275786548435e-01 7.3259879011223927e-01 1.5631711425755783e+00 5.9786822428449524e-03 -1.8617772657999347e+00 
        </Neuron>
      </Layer>
      <Layer Index="1" NNeurons="10">
        <Neuron NSynapses="8">
          -6.3729760400834182e-02 3.7677681740902630e-01 1.4774902449045937e+00 -2.0025384478641790e+00 -1.1390250756093943e+00 2.6169873999613533e+00 -9.3331999269305710e-01 -1.8520973479252376e+00 
        </Neuron>
        <Neuron NSynapses="8">
          -1.2729213100682406e+00 3.3064777084419716e-01 -1.9598123417033435e+00 -1.5988172306427011e+00 7.3960015915802002e-01 1.5001650625602021e+00 -1.0116740447147092e+00 1.6270977024656192e+00 
        </Neuron>
        <Neuron NSynapses="8">
          -1.4470006142598180e+00 -5.0514242171837083e+00 -8.8468224649196930e-02 3.1603014800775853e-01 -1.3081568384720623e+00 4.3588867237504436e-01 -9.4349839824600060e-02 -9.4917803777282428e-01 
        </Neuron>
        <Neuron NSynapses="8">
          -4.3641373879199872e+00 5.6028647553714066e+00 4.9102893058184272e-01 -9.5003545096260134e-01 2.9586265886237700e-01 -1.1795415000496723e+00 -2.8915798748974040e+00 3.0877645630806660e-01 
        </Neuron>
        <Neuron NSynapses="8">
          -6.5157703526624311e-01 3.2498267708380970e+00 2.0625076106354426e-01 -1.4004073674241963e-02 1.0662188245279818e+00 -2.5978815107662429e-01 -1.8557744535154492e+00 1.6119849316453321e+00 
        </Neuron>
        <Neuron NSynapses="8">
          -2.3067798736724993e-01 -2.4287639676531856e+00 1.6100368872083190e-01 -1.5854669501488101e+00 -1.6227075334081137e-01 1.0635102713745543e+00 2.0256817386925401e+00 -9.8025721545850808e-01 
        </Neuron>
        <Neuron NSynapses="8">
          -1.1408528852125732e+00 3.1322711113490502e+00 1.2676530620197040e+00 7.5090667007198159e-02 -3.4727477877082880e+00 -3.1682900906770001e-01 -8.0425836200079137e-01 2.7751311975757007e+00 
        </Neuron>
        <Neuron NSynapses="8">
          2.7609221059635161e+00 3.1538904326365311e+00 -5.1381384173802870e-02 4.9764903754072901e-02 -1.3585434532264813e+00 -2.9730873806776456e-02 2.1933382148809502e+00 -9.0065662205664088e-01 
        </Neuron>
        <Neuron NSynapses="8">
          -9.0601009776372055e-01 2.1967763308287558e-01 9.7228166364329349e-01 4.5386206343585195e-01 6.5601652831570678e-01 -1.3338369822338434e+00 1.5446363910184531e+00 8.5177968789199543e-01 
        </Neuron>
        <Neuron NSynapses="8">
          -1.6927793867137253e+00 1.3214200826783244e+00 7.9065517418547782e-01 -1.1099763388731354e+00 -1.1797745966815887e+00 1.3946609184194223e+00 -1.8850228635687551e+00 -4.1097263476951257e-01 
        </Neuron>
      </Layer>
      <Layer Index="2" NNeurons="9">
        <Neuron NSynapses="1">
          3.0110165083295883e+00 
        </Neuron>
        <Neuron NSynapses="1">
          4.4025984095072115e+00 
        </Neuron>
        <Neuron NSynapses="1">
          -7.0492028717055244e-01 
        </Neuron>
        <Neuron NSynapses="1">
          1.1065374682783102e+00 
        </Neuron>
        <Neuron NSynapses="1">
          1.8952431953034670e+00 
        </Neuron>
        <Neuron NSynapses="1">
          -2.4623968636256679e+00 
        </Neuron>
        <Neuron NSynapses="1">
          1.8353569974333959e+00 
        </Neuron>
        <Neuron NSynapses="1">
          -1.8821426215307584e+00 
        </Neuron>
        <Neuron NSynapses="1">
          -4.1152464093247659e-01 
        </Neuron>
      </Layer>
      <Layer Index="3" NNeurons="1">
        <Neuron NSynapses="0"/>
      </Layer>
    </Layout>
  </Weights>
</MethodSetup>
