<?xml version="1.0"?>
<MethodSetup Method="MLP::MLP">
  <GeneralInfo>
    <Info name="TMVA Release" value="4.1.4 [262404]"/>
    <Info name="ROOT Release" value="5.34/09 [336393]"/>
    <Info name="Creator" value="dding"/>
    <Info name="Date" value="Tue Feb 25 18:12:16 2014"/>
    <Info name="Host" value="Linux patdskmf.fnal.gov 2.6.18-308.20.1.el5 #1 SMP Tue Nov 13 11:54:02 EST 2012 x86_64 x86_64 x86_64 GNU/Linux"/>
    <Info name="Dir" value="/home/online1/dding/DeltaRemovalCode/trainMacro"/>
    <Info name="Training events" value="36275"/>
    <Info name="TrainingTime" value="4.36557875e+02"/>
    <Info name="AnalysisType" value="Classification"/>
  </GeneralInfo>
  <Options>
    <Option name="NCycles" modified="No">500</Option>
    <Option name="HiddenLayers" modified="No">N,N-1</Option>
    <Option name="NeuronType" modified="No">sigmoid</Option>
    <Option name="RandomSeed" modified="No">1</Option>
    <Option name="EstimatorType" modified="No">MSE</Option>
    <Option name="NeuronInputType" modified="No">sum</Option>
    <Option name="V" modified="Yes">False</Option>
    <Option name="VerbosityLevel" modified="No">Default</Option>
    <Option name="VarTransform" modified="Yes">N</Option>
    <Option name="H" modified="Yes">True</Option>
    <Option name="CreateMVAPdfs" modified="No">False</Option>
    <Option name="IgnoreNegWeightsInTraining" modified="No">False</Option>
    <Option name="TrainingMethod" modified="No">BP</Option>
    <Option name="LearningRate" modified="No">2.000000e-02</Option>
    <Option name="DecayRate" modified="No">1.000000e-02</Option>
    <Option name="TestRate" modified="No">10</Option>
    <Option name="EpochMonitoring" modified="No">False</Option>
    <Option name="Sampling" modified="No">1.000000e+00</Option>
    <Option name="SamplingEpoch" modified="No">1.000000e+00</Option>
    <Option name="SamplingImportance" modified="No">1.000000e+00</Option>
    <Option name="SamplingTraining" modified="No">True</Option>
    <Option name="SamplingTesting" modified="No">False</Option>
    <Option name="ResetStep" modified="No">50</Option>
    <Option name="Tau" modified="No">3.000000e+00</Option>
    <Option name="BPMode" modified="No">sequential</Option>
    <Option name="BatchSize" modified="No">-1</Option>
    <Option name="ConvergenceImprove" modified="No">1.000000e-30</Option>
    <Option name="ConvergenceTests" modified="No">-1</Option>
    <Option name="UseRegulator" modified="No">False</Option>
    <Option name="UpdateLimit" modified="No">10000</Option>
    <Option name="CalculateErrors" modified="No">False</Option>
    <Option name="WeightRange" modified="No">1.000000e+00</Option>
  </Options>
  <Variables NVar="8">
    <Variable VarIndex="0" Expression="prho" Label="prho" Title="Transverse radius" Unit="F" Internal="prho" Type="F" Min="3.96406738e+02" Max="7.01010376e+02"/>
    <Variable VarIndex="1" Expression="srho" Label="srho" Title="RMS of rho" Unit="F" Internal="srho" Type="F" Min="0.00000000e+00" Max="5.09412956e+01"/>
    <Variable VarIndex="2" Expression="zmin" Label="zmin" Title="z of first hit" Unit="F" Internal="zmin" Type="F" Min="-1.51623633e+03" Max="1.37537634e+03"/>
    <Variable VarIndex="3" Expression="zmax" Label="zmax" Title="z of last hit" Unit="F" Internal="zmax" Type="F" Min="-1.37537634e+03" Max="1.51623633e+03"/>
    <Variable VarIndex="4" Expression="zgap" Label="zgap" Title="Biggest z gap between hits" Unit="F" Internal="zgap" Type="F" Min="6.64472656e+01" Max="2.99256006e+03"/>
    <Variable VarIndex="5" Expression="nsmiss" Label="nsmiss" Title="Number of Stations Missed" Unit="F" Internal="nsmiss" Type="F" Min="0.00000000e+00" Max="2.00000000e+01"/>
    <Variable VarIndex="6" Expression="sphi" Label="sphi" Title="RMS of phi" Unit="F" Internal="sphi" Type="F" Min="0.00000000e+00" Max="1.41802937e-01"/>
    <Variable VarIndex="7" Expression="ngdhits" Label="ngdhits" Title="Number of hits in core" Unit="F" Internal="ngdhits" Type="F" Min="2.00000000e+00" Max="2.13000000e+02"/>
  </Variables>
  <Spectators NSpec="0"/>
  <Classes NClass="2">
    <Class Name="Signal" Index="0"/>
    <Class Name="Background" Index="1"/>
  </Classes>
  <Transformations NTransformations="1">
    <Transform Name="Normalize">
      <Selection>
        <Input NInputs="8">
          <Input Type="Variable" Label="prho" Expression="prho"/>
          <Input Type="Variable" Label="srho" Expression="srho"/>
          <Input Type="Variable" Label="zmin" Expression="zmin"/>
          <Input Type="Variable" Label="zmax" Expression="zmax"/>
          <Input Type="Variable" Label="zgap" Expression="zgap"/>
          <Input Type="Variable" Label="nsmiss" Expression="nsmiss"/>
          <Input Type="Variable" Label="sphi" Expression="sphi"/>
          <Input Type="Variable" Label="ngdhits" Expression="ngdhits"/>
        </Input>
        <Output NOutputs="8">
          <Output Type="Variable" Label="prho" Expression="prho"/>
          <Output Type="Variable" Label="srho" Expression="srho"/>
          <Output Type="Variable" Label="zmin" Expression="zmin"/>
          <Output Type="Variable" Label="zmax" Expression="zmax"/>
          <Output Type="Variable" Label="zgap" Expression="zgap"/>
          <Output Type="Variable" Label="nsmiss" Expression="nsmiss"/>
          <Output Type="Variable" Label="sphi" Expression="sphi"/>
          <Output Type="Variable" Label="ngdhits" Expression="ngdhits"/>
        </Output>
      </Selection>
      <Class ClassIndex="0">
        <Ranges>
          <Range Index="0" Min="3.9640673828125000e+02" Max="7.0101037597656250e+02"/>
          <Range Index="1" Min="0.0000000000000000e+00" Max="4.9498775482177734e+01"/>
          <Range Index="2" Min="-1.5162363281250000e+03" Max="1.3753763427734375e+03"/>
          <Range Index="3" Min="-1.3753763427734375e+03" Max="1.5162363281250000e+03"/>
          <Range Index="4" Min="6.6447265625000000e+01" Max="2.9607663574218750e+03"/>
          <Range Index="5" Min="0.0000000000000000e+00" Max="2.0000000000000000e+01"/>
          <Range Index="6" Min="0.0000000000000000e+00" Max="1.4180293679237366e-01"/>
          <Range Index="7" Min="2.0000000000000000e+00" Max="2.1300000000000000e+02"/>
        </Ranges>
      </Class>
      <Class ClassIndex="1">
        <Ranges>
          <Range Index="0" Min="3.9987542724609375e+02" Max="6.6145751953125000e+02"/>
          <Range Index="1" Min="0.0000000000000000e+00" Max="5.0941295623779297e+01"/>
          <Range Index="2" Min="-1.5162363281250000e+03" Max="7.9552368164062500e+02"/>
          <Range Index="3" Min="-9.3079632568359375e+02" Max="1.5162363281250000e+03"/>
          <Range Index="4" Min="8.2859985351562500e+01" Max="2.9925600585937500e+03"/>
          <Range Index="5" Min="0.0000000000000000e+00" Max="2.0000000000000000e+01"/>
          <Range Index="6" Min="0.0000000000000000e+00" Max="1.3733498752117157e-01"/>
          <Range Index="7" Min="2.0000000000000000e+00" Max="5.7000000000000000e+01"/>
        </Ranges>
      </Class>
      <Class ClassIndex="2">
        <Ranges>
          <Range Index="0" Min="3.9640673828125000e+02" Max="7.0101037597656250e+02"/>
          <Range Index="1" Min="0.0000000000000000e+00" Max="5.0941295623779297e+01"/>
          <Range Index="2" Min="-1.5162363281250000e+03" Max="1.3753763427734375e+03"/>
          <Range Index="3" Min="-1.3753763427734375e+03" Max="1.5162363281250000e+03"/>
          <Range Index="4" Min="6.6447265625000000e+01" Max="2.9925600585937500e+03"/>
          <Range Index="5" Min="0.0000000000000000e+00" Max="2.0000000000000000e+01"/>
          <Range Index="6" Min="0.0000000000000000e+00" Max="1.4180293679237366e-01"/>
          <Range Index="7" Min="2.0000000000000000e+00" Max="2.1300000000000000e+02"/>
        </Ranges>
      </Class>
    </Transform>
  </Transformations>
  <MVAPdfs/>
  <Weights>
    <Layout NLayers="4">
      <Layer Index="0" NNeurons="9">
        <Neuron NSynapses="8">
          -1.7711305723405665e-02 3.2165695575966873e+00 -1.9606650199493833e-01 1.4444589521600451e+00 -2.1067272099105105e+00 -9.5855911776726366e-01 -3.6044057666113832e-01 2.0088724223407248e+00 
        </Neuron>
        <Neuron NSynapses="8">
          -3.2863844042702345e-01 -6.9802593961363990e-01 1.5251326996609271e-01 -3.4237177397518731e-01 -1.0714004144249549e+00 -5.1245922156124524e-01 -3.9636646383279928e-01 3.5707844583940146e-01 
        </Neuron>
        <Neuron NSynapses="8">
          6.8757680021723791e-02 5.7374551219716452e-01 2.1096130755498312e+00 1.1264289909762222e+00 -3.0479370911233561e-01 -8.1386611463440739e-01 1.7824192135594263e-01 -2.8407044433246559e-01 
        </Neuron>
        <Neuron NSynapses="8">
          -1.1045881866301308e+00 -7.4299486171643458e-01 -1.6150158217422570e+00 -1.4740541465092789e+00 -1.1900135954803217e+00 8.8036945470230121e-01 1.1218289923305493e+00 1.2235757642563809e+00 
        </Neuron>
        <Neuron NSynapses="8">
          -2.5289142676866072e-01 -5.4231407768833129e-01 5.6118341352491958e+00 8.2977765501015807e-02 -1.5850254199471334e+00 2.7972616934757388e+00 -9.4152451131530468e-01 1.1924431114548071e+00 
        </Neuron>
        <Neuron NSynapses="8">
          1.2818199112670825e+00 9.4896190472527087e-01 3.1335374160873428e+00 1.4843194008639049e+00 -4.6475844028686436e-01 -7.7732900981182995e-01 1.3409970233695643e+00 4.4783396250301630e-02 
        </Neuron>
        <Neuron NSynapses="8">
          1.0472029254886832e+00 1.7033766292761490e+00 1.2932283158593828e-02 1.3245907994778929e+00 -1.4694847571082505e+00 8.4277654885010322e-01 -1.3702801101447994e+00 -1.2398898494591570e+00 
        </Neuron>
        <Neuron NSynapses="8">
          -1.3534678639801112e+00 -5.0537679803160673e-01 -2.3213064018704936e+00 9.4393918363873619e-01 -2.0821363743416628e+00 -4.6103682915548660e-01 -1.3865227756488607e-01 7.7022224003453221e-01 
        </Neuron>
        <Neuron NSynapses="8">
          2.0335203744415757e+00 -1.2461486691833161e+00 2.5493062172440637e+00 -1.5159897340980280e+00 1.2223981521862308e+00 -2.6293578996787420e-01 -8.0787136170232643e-01 -1.4768276538511984e+00 
        </Neuron>
      </Layer>
      <Layer Index="1" NNeurons="9">
        <Neuron NSynapses="7">
          8.2126322013937936e-01 1.2658686470605069e+00 1.5289262580097316e+00 7.8847031143080959e-01 -8.7924333511449726e-01 -1.1600046956935466e+00 8.2111225577533609e-01 
        </Neuron>
        <Neuron NSynapses="7">
          4.8708538059670464e-01 1.2072365393263886e+00 8.7639043326264832e-01 1.7685377030651801e+00 -1.3981263280700493e+00 -1.4183697844668810e+00 -2.6880761947149390e-01 
        </Neuron>
        <Neuron NSynapses="7">
          1.4978241728531263e+00 -1.0647834232531490e+00 -1.3037346887068340e+00 -4.0868218838577537e+00 -1.7884668069343530e-02 -6.1400750170913376e-01 1.6132912330330371e+00 
        </Neuron>
        <Neuron NSynapses="7">
          -1.5886723022922429e+00 -7.3836136400746200e-01 1.6123019414717670e+00 -7.4131830515489716e-01 -1.4676110166697409e+00 -1.4267069571739381e+00 1.0728026934755096e-01 
        </Neuron>
        <Neuron NSynapses="7">
          -1.8642117908476341e+00 -1.8642996845276507e+00 9.1179196325127754e-01 2.1634678997425159e+00 -1.0358748110976821e+00 1.6496222643408698e+00 -1.0742141021020213e+00 
        </Neuron>
        <Neuron NSynapses="7">
          -5.5694078740460562e-01 2.7417955687455275e-01 3.2805354135395315e-01 -1.5261934243184569e+00 7.6645747241215667e-01 4.6989007344687550e-01 3.9372091035179391e-01 
        </Neuron>
        <Neuron NSynapses="7">
          -1.2300573459949984e+00 1.3985662993753776e+00 5.2723365748785944e-01 -6.5572314653643979e-02 6.4073682331604054e-01 -1.2902060673309164e+00 -1.5671932747563084e+00 
        </Neuron>
        <Neuron NSynapses="7">
          5.3603736649548261e-01 6.2309233640622030e-01 1.7920800888655382e+00 8.9598666098730828e-01 -7.5894689139958271e-01 -6.9737033528432413e-01 2.5217853501757720e-01 
        </Neuron>
        <Neuron NSynapses="7">
          -1.7971020449417976e+00 9.4838085006383355e-01 3.5843800390092589e-01 -1.2046701621460574e+00 6.4084637944738121e-01 -1.3180723297299852e+00 -1.3881175499495887e-01 
        </Neuron>
      </Layer>
      <Layer Index="2" NNeurons="8">
        <Neuron NSynapses="1">
          1.1845251464002722e+00 
        </Neuron>
        <Neuron NSynapses="1">
          1.5868565218269353e+00 
        </Neuron>
        <Neuron NSynapses="1">
          -1.1433329768281926e+00 
        </Neuron>
        <Neuron NSynapses="1">
          1.4044510983027465e+00 
        </Neuron>
        <Neuron NSynapses="1">
          9.9915112463787648e-01 
        </Neuron>
        <Neuron NSynapses="1">
          1.5493420475894359e+00 
        </Neuron>
        <Neuron NSynapses="1">
          4.2161693596947447e-01 
        </Neuron>
        <Neuron NSynapses="1">
          -9.5316241986365569e-01 
        </Neuron>
      </Layer>
      <Layer Index="3" NNeurons="1">
        <Neuron NSynapses="0"/>
      </Layer>
    </Layout>
  </Weights>
</MethodSetup>
