<?xml version="1.0"?>
<MethodSetup Method="MLP::MLP">
  <GeneralInfo>
    <Info name="TMVA Release" value="4.1.4 [262404]"/>
    <Info name="ROOT Release" value="5.34/09 [336393]"/>
    <Info name="Creator" value="brownd"/>
    <Info name="Date" value="Mon Apr  7 06:49:36 2014"/>
    <Info name="Host" value="Linux patdskmf.fnal.gov 2.6.18-308.20.1.el5 #1 SMP Tue Nov 13 11:54:02 EST 2012 x86_64 x86_64 x86_64 GNU/Linux"/>
    <Info name="Dir" value="/home/online1/brownd/mu2e/Mu2eSim/art5/Offline"/>
    <Info name="Training events" value="58266"/>
    <Info name="TrainingTime" value="8.29260479e+02"/>
    <Info name="AnalysisType" value="Classification"/>
  </GeneralInfo>
  <Options>
    <Option name="NCycles" modified="No">500</Option>
    <Option name="HiddenLayers" modified="No">N,N-1</Option>
    <Option name="NeuronType" modified="No">sigmoid</Option>
    <Option name="RandomSeed" modified="No">1</Option>
    <Option name="EstimatorType" modified="No">MSE</Option>
    <Option name="NeuronInputType" modified="No">sum</Option>
    <Option name="V" modified="Yes">False</Option>
    <Option name="VerbosityLevel" modified="No">Default</Option>
    <Option name="VarTransform" modified="Yes">N</Option>
    <Option name="H" modified="Yes">True</Option>
    <Option name="CreateMVAPdfs" modified="No">False</Option>
    <Option name="IgnoreNegWeightsInTraining" modified="No">False</Option>
    <Option name="TrainingMethod" modified="No">BP</Option>
    <Option name="LearningRate" modified="No">2.000000e-02</Option>
    <Option name="DecayRate" modified="No">1.000000e-02</Option>
    <Option name="TestRate" modified="No">10</Option>
    <Option name="EpochMonitoring" modified="No">False</Option>
    <Option name="Sampling" modified="No">1.000000e+00</Option>
    <Option name="SamplingEpoch" modified="No">1.000000e+00</Option>
    <Option name="SamplingImportance" modified="No">1.000000e+00</Option>
    <Option name="SamplingTraining" modified="No">True</Option>
    <Option name="SamplingTesting" modified="No">False</Option>
    <Option name="ResetStep" modified="No">50</Option>
    <Option name="Tau" modified="No">3.000000e+00</Option>
    <Option name="BPMode" modified="No">sequential</Option>
    <Option name="BatchSize" modified="No">-1</Option>
    <Option name="ConvergenceImprove" modified="No">1.000000e-30</Option>
    <Option name="ConvergenceTests" modified="No">-1</Option>
    <Option name="UseRegulator" modified="No">False</Option>
    <Option name="UpdateLimit" modified="No">10000</Option>
    <Option name="CalculateErrors" modified="No">False</Option>
    <Option name="WeightRange" modified="No">1.000000e+00</Option>
  </Options>
  <Variables NVar="9">
    <Variable VarIndex="0" Expression="prho" Label="prho" Title="Transverse radius" Unit="F" Internal="prho" Type="F" Min="3.96321533e+02" Max="6.52065735e+02"/>
    <Variable VarIndex="1" Expression="srho" Label="srho" Title="RMS of rho" Unit="F" Internal="srho" Type="F" Min="0.00000000e+00" Max="3.76391296e+01"/>
    <Variable VarIndex="2" Expression="zmin" Label="zmin" Title="z of first hit" Unit="F" Internal="zmin" Type="F" Min="-1.51623633e+03" Max="1.50253003e+03"/>
    <Variable VarIndex="3" Expression="zmax" Label="zmax" Title="z of last hit" Unit="F" Internal="zmax" Type="F" Min="-1.50253003e+03" Max="1.51623633e+03"/>
    <Variable VarIndex="4" Expression="zgap" Label="zgap" Title="Biggest z gap between hits" Unit="F" Internal="zgap" Type="F" Min="0.00000000e+00" Max="3.00506006e+03"/>
    <Variable VarIndex="5" Expression="ns" Label="ns" Title="Number of Stations" Unit="F" Internal="ns" Type="F" Min="1.00000000e+00" Max="2.20000000e+01"/>
    <Variable VarIndex="6" Expression="nsmiss" Label="nsmiss" Title="Number of Stations Missed" Unit="F" Internal="nsmiss" Type="F" Min="0.00000000e+00" Max="2.00000000e+01"/>
    <Variable VarIndex="7" Expression="sphi" Label="sphi" Title="RMS of phi" Unit="F" Internal="sphi" Type="F" Min="0.00000000e+00" Max="1.33976772e-01"/>
    <Variable VarIndex="8" Expression="ngdhits" Label="ngdhits" Title="Number of hits in core" Unit="F" Internal="ngdhits" Type="F" Min="1.00000000e+00" Max="2.55000000e+02"/>
  </Variables>
  <Spectators NSpec="0"/>
  <Classes NClass="2">
    <Class Name="Signal" Index="0"/>
    <Class Name="Background" Index="1"/>
  </Classes>
  <Transformations NTransformations="1">
    <Transform Name="Normalize">
      <Selection>
        <Input NInputs="9">
          <Input Type="Variable" Label="prho" Expression="prho"/>
          <Input Type="Variable" Label="srho" Expression="srho"/>
          <Input Type="Variable" Label="zmin" Expression="zmin"/>
          <Input Type="Variable" Label="zmax" Expression="zmax"/>
          <Input Type="Variable" Label="zgap" Expression="zgap"/>
          <Input Type="Variable" Label="ns" Expression="ns"/>
          <Input Type="Variable" Label="nsmiss" Expression="nsmiss"/>
          <Input Type="Variable" Label="sphi" Expression="sphi"/>
          <Input Type="Variable" Label="ngdhits" Expression="ngdhits"/>
        </Input>
        <Output NOutputs="9">
          <Output Type="Variable" Label="prho" Expression="prho"/>
          <Output Type="Variable" Label="srho" Expression="srho"/>
          <Output Type="Variable" Label="zmin" Expression="zmin"/>
          <Output Type="Variable" Label="zmax" Expression="zmax"/>
          <Output Type="Variable" Label="zgap" Expression="zgap"/>
          <Output Type="Variable" Label="ns" Expression="ns"/>
          <Output Type="Variable" Label="nsmiss" Expression="nsmiss"/>
          <Output Type="Variable" Label="sphi" Expression="sphi"/>
          <Output Type="Variable" Label="ngdhits" Expression="ngdhits"/>
        </Output>
      </Selection>
      <Class ClassIndex="0">
        <Ranges>
          <Range Index="0" Min="3.9632153320312500e+02" Max="6.5206573486328125e+02"/>
          <Range Index="1" Min="0.0000000000000000e+00" Max="3.4676090240478516e+01"/>
          <Range Index="2" Min="-1.5162363281250000e+03" Max="1.5025300292968750e+03"/>
          <Range Index="3" Min="-1.5025300292968750e+03" Max="1.5162363281250000e+03"/>
          <Range Index="4" Min="0.0000000000000000e+00" Max="2.9690600585937500e+03"/>
          <Range Index="5" Min="1.0000000000000000e+00" Max="2.2000000000000000e+01"/>
          <Range Index="6" Min="0.0000000000000000e+00" Max="2.0000000000000000e+01"/>
          <Range Index="7" Min="0.0000000000000000e+00" Max="1.2954649329185486e-01"/>
          <Range Index="8" Min="1.0000000000000000e+00" Max="2.5500000000000000e+02"/>
        </Ranges>
      </Class>
      <Class ClassIndex="1">
        <Ranges>
          <Range Index="0" Min="3.9830355834960938e+02" Max="6.4876989746093750e+02"/>
          <Range Index="1" Min="4.5586682856082916e-02" Max="3.7639129638671875e+01"/>
          <Range Index="2" Min="-1.5162363281250000e+03" Max="1.5025300292968750e+03"/>
          <Range Index="3" Min="-1.5025300292968750e+03" Max="1.5162363281250000e+03"/>
          <Range Index="4" Min="0.0000000000000000e+00" Max="3.0050600585937500e+03"/>
          <Range Index="5" Min="1.0000000000000000e+00" Max="2.2000000000000000e+01"/>
          <Range Index="6" Min="0.0000000000000000e+00" Max="2.0000000000000000e+01"/>
          <Range Index="7" Min="5.5981706827878952e-04" Max="1.3397677242755890e-01"/>
          <Range Index="8" Min="2.0000000000000000e+00" Max="7.9000000000000000e+01"/>
        </Ranges>
      </Class>
      <Class ClassIndex="2">
        <Ranges>
          <Range Index="0" Min="3.9632153320312500e+02" Max="6.5206573486328125e+02"/>
          <Range Index="1" Min="0.0000000000000000e+00" Max="3.7639129638671875e+01"/>
          <Range Index="2" Min="-1.5162363281250000e+03" Max="1.5025300292968750e+03"/>
          <Range Index="3" Min="-1.5025300292968750e+03" Max="1.5162363281250000e+03"/>
          <Range Index="4" Min="0.0000000000000000e+00" Max="3.0050600585937500e+03"/>
          <Range Index="5" Min="1.0000000000000000e+00" Max="2.2000000000000000e+01"/>
          <Range Index="6" Min="0.0000000000000000e+00" Max="2.0000000000000000e+01"/>
          <Range Index="7" Min="0.0000000000000000e+00" Max="1.3397677242755890e-01"/>
          <Range Index="8" Min="1.0000000000000000e+00" Max="2.5500000000000000e+02"/>
        </Ranges>
      </Class>
    </Transform>
  </Transformations>
  <MVAPdfs/>
  <Weights>
    <Layout NLayers="4">
      <Layer Index="0" NNeurons="10">
        <Neuron NSynapses="9">
          -3.7590100102883794e-01 2.7283574759796005e+00 8.8631503722328109e-01 3.1926264324938264e-01 -2.3423868033868955e+00 -8.0161168567387586e-01 -7.3410301212742557e-01 1.1965730800525867e+00 -1.5649073001077711e+00 
        </Neuron>
        <Neuron NSynapses="9">
          -1.0538466319818713e+00 -7.6621100362411365e-01 -2.4408612380896488e-01 -6.2385125708779843e-01 3.9916643280302938e-01 5.6468635198630968e-01 6.0305104477211569e-01 -9.8292776072989430e-01 1.4215578011770047e+00 
        </Neuron>
        <Neuron NSynapses="9">
          -5.4684433309685365e-01 1.1737136211091910e+00 -3.3123139718709610e-01 -1.2248399601428921e+00 1.2382884139144179e+00 7.5160225711039030e-01 -2.0159130414479658e+00 -2.3040224694908275e-02 2.0765310503356358e+00 
        </Neuron>
        <Neuron NSynapses="9">
          -2.3647358286507866e-01 -1.3664904070606196e+00 1.1236573190455321e-01 1.0245803055358391e+00 1.4288925620088726e+00 -9.6402563355691406e-01 1.5996792605675403e+00 1.1107937200840229e-01 3.8773310711409353e-02 
        </Neuron>
        <Neuron NSynapses="9">
          -2.3016789087036766e+00 1.6596168305436581e+00 -1.4094007617919724e+00 6.4290653031321854e-01 1.1440323825372678e+00 1.2264972688286540e+00 1.2856373607894940e+00 1.0006546294300669e+00 -7.5583377757255599e-01 
        </Neuron>
        <Neuron NSynapses="9">
          -7.7631210291504016e-01 1.2726950005126219e+00 1.9293666357974699e-02 3.9178591992751328e+00 1.6100425102491054e+00 -1.6589290329816351e+00 3.2603390850024847e+00 -2.3978940389566632e+00 1.0320723276264243e+00 
        </Neuron>
        <Neuron NSynapses="9">
          -2.3199170347306852e+00 -1.5231489636957150e+00 -1.5648698572774407e+00 -6.6384742040005991e+00 1.1641247287820933e+00 5.6919575822379223e+00 -3.3119195686979679e+00 8.1444559978661701e-01 -3.9015343574677175e-01 
        </Neuron>
        <Neuron NSynapses="9">
          3.4149192764317760e-01 1.5908918096953764e+00 -5.1997120639626426e-01 -3.4381370394062111e-01 -7.0055293252000295e-01 4.5779789218812414e-03 -6.3511819864203933e-01 -8.8949737734808543e-01 -1.4763319214479695e+00 
        </Neuron>
        <Neuron NSynapses="9">
          5.9924378843215698e-01 1.5091591088609666e+00 1.6202543918912131e+00 1.5026908545933524e+00 -8.7922417651502383e-01 -3.5246622735956135e+00 -2.2256068177632093e-01 -3.1829354392713699e-01 1.6255430778887043e+00 
        </Neuron>
        <Neuron NSynapses="9">
          1.3207752440821081e+00 1.2860557361154210e+00 -8.8626464490356183e-01 -1.3661210934693995e+00 -1.0134556298735518e+00 2.0145196967529784e+00 4.8722808929016942e-01 -1.2560339913262319e+00 -1.6526570493126909e+00 
        </Neuron>
      </Layer>
      <Layer Index="1" NNeurons="10">
        <Neuron NSynapses="8">
          9.1717536560520341e-01 -9.8318464981384446e-01 1.9432778378542792e+00 -1.6727481916034246e+00 -9.0276897099788977e-01 1.4605801219358456e+00 -7.0254221021496888e-01 -1.3372804987671303e+00 
        </Neuron>
        <Neuron NSynapses="8">
          -1.0012896301903009e+00 2.1186193455838001e+00 -2.0199824867287579e+00 -1.6339976887444267e+00 6.6940684721200105e-01 1.5980961877118491e+00 -9.8731437975285463e-01 1.8390659148584845e+00 
        </Neuron>
        <Neuron NSynapses="8">
          -1.3267577272309414e+00 6.2251965773786455e-01 2.4231929068729116e-01 1.2980058674967956e-01 -2.0924891841806903e+00 3.9738933363537771e-01 3.8945484295323651e-01 6.8526712700812398e-01 
        </Neuron>
        <Neuron NSynapses="8">
          -3.1195784541972320e+00 6.5722012237552301e+00 5.7022987496008026e-01 -1.3017258187962621e+00 3.0725259273733846e-01 -6.2506045146366762e-01 -1.6003854009947738e+00 4.5087451123905381e-01 
        </Neuron>
        <Neuron NSynapses="8">
          -4.0139353107751974e-01 1.0464747555910237e+00 5.4705295288736300e-01 -3.8716177536987550e-01 -8.8818510818770968e-01 6.0168636414298604e-01 -1.8666601576396533e+00 2.8900180910098017e-01 
        </Neuron>
        <Neuron NSynapses="8">
          1.0413093099665049e+00 -6.6516941561553908e+00 2.3412132659840327e-02 -1.6678172315819373e+00 -9.0927527732680841e-02 1.3930563350592560e+00 1.8524482809302460e+00 -2.3474936411963245e+00 
        </Neuron>
        <Neuron NSynapses="8">
          2.0026466396792276e-02 3.6528442124720488e+00 1.4754895408803197e+00 -3.4795003415158143e-01 -1.5995588654787811e+00 4.4921917350904639e-01 -1.2556750265831649e+00 2.1260680015085449e+00 
        </Neuron>
        <Neuron NSynapses="8">
          8.1726325260963995e-01 -1.4279878548951099e+00 -5.3576960608160074e-01 1.0098604676125240e-01 -1.3979935344319461e+00 5.1371865607727252e-01 1.8773979699997787e+00 -6.8340664993264733e-01 
        </Neuron>
        <Neuron NSynapses="8">
          -5.7502685256109121e-01 8.1629333319179898e-01 1.0230351085331024e+00 4.9631235252606881e-01 8.5354105379240941e-01 -1.3506730368234008e+00 1.5336816018235351e+00 7.3133094494052153e-01 
        </Neuron>
        <Neuron NSynapses="8">
          -1.7414351454375546e-01 -3.3112362867430833e-01 9.4886606394724737e-01 -1.1843166452991520e+00 -1.1217269059131598e+00 1.6833992126859205e+00 -9.4616705269314827e-01 -7.4587869727688871e-01 
        </Neuron>
      </Layer>
      <Layer Index="2" NNeurons="9">
        <Neuron NSynapses="1">
          2.2294348698730229e+00 
        </Neuron>
        <Neuron NSynapses="1">
          2.4065885264739011e+00 
        </Neuron>
        <Neuron NSynapses="1">
          -4.9357960108656829e-01 
        </Neuron>
        <Neuron NSynapses="1">
          1.0161711764987162e+00 
        </Neuron>
        <Neuron NSynapses="1">
          1.5168466166921055e+00 
        </Neuron>
        <Neuron NSynapses="1">
          -1.5747855676839833e+00 
        </Neuron>
        <Neuron NSynapses="1">
          3.9133206935425890e-01 
        </Neuron>
        <Neuron NSynapses="1">
          3.9166049487000831e-01 
        </Neuron>
        <Neuron NSynapses="1">
          2.2231866753638402e-01 
        </Neuron>
      </Layer>
      <Layer Index="3" NNeurons="1">
        <Neuron NSynapses="0"/>
      </Layer>
    </Layout>
  </Weights>
</MethodSetup>
