<?xml version="1.0"?>
<MethodSetup Method="MLP::MLP">
  <GeneralInfo>
    <Info name="TMVA Release" value="4.2.0 [262656]"/>
    <Info name="ROOT Release" value="5.34/32 [336416]"/>
    <Info name="Creator" value="brownd"/>
    <Info name="Date" value="Thu Mar 17 12:06:14 2016"/>
    <Info name="Host" value="Linux buildservice004.fnal.gov 2.6.32-504.23.4.el6.x86_64 #1 SMP Tue Jun 9 11:55:03 CDT 2015 x86_64 x86_64 x86_64 GNU/Linux"/>
    <Info name="Dir" value="/mu2e/app/users/brownd/art22/Offline"/>
    <Info name="Training events" value="55057"/>
    <Info name="TrainingTime" value="7.50691410e+02"/>
    <Info name="AnalysisType" value="Classification"/>
  </GeneralInfo>
  <Options>
    <Option name="NCycles" modified="No">500</Option>
    <Option name="HiddenLayers" modified="No">N,N-1</Option>
    <Option name="NeuronType" modified="No">sigmoid</Option>
    <Option name="RandomSeed" modified="No">1</Option>
    <Option name="EstimatorType" modified="No">MSE</Option>
    <Option name="NeuronInputType" modified="No">sum</Option>
    <Option name="V" modified="Yes">False</Option>
    <Option name="VerbosityLevel" modified="No">Default</Option>
    <Option name="VarTransform" modified="Yes">N</Option>
    <Option name="H" modified="Yes">True</Option>
    <Option name="CreateMVAPdfs" modified="No">False</Option>
    <Option name="IgnoreNegWeightsInTraining" modified="No">False</Option>
    <Option name="TrainingMethod" modified="No">BP</Option>
    <Option name="LearningRate" modified="No">2.000000e-02</Option>
    <Option name="DecayRate" modified="No">1.000000e-02</Option>
    <Option name="TestRate" modified="No">10</Option>
    <Option name="EpochMonitoring" modified="No">False</Option>
    <Option name="Sampling" modified="No">1.000000e+00</Option>
    <Option name="SamplingEpoch" modified="No">1.000000e+00</Option>
    <Option name="SamplingImportance" modified="No">1.000000e+00</Option>
    <Option name="SamplingTraining" modified="No">True</Option>
    <Option name="SamplingTesting" modified="No">False</Option>
    <Option name="ResetStep" modified="No">50</Option>
    <Option name="Tau" modified="No">3.000000e+00</Option>
    <Option name="BPMode" modified="No">sequential</Option>
    <Option name="BatchSize" modified="No">-1</Option>
    <Option name="ConvergenceImprove" modified="No">1.000000e-30</Option>
    <Option name="ConvergenceTests" modified="No">-1</Option>
    <Option name="UseRegulator" modified="No">False</Option>
    <Option name="UpdateLimit" modified="No">10000</Option>
    <Option name="CalculateErrors" modified="No">False</Option>
    <Option name="WeightRange" modified="No">1.000000e+00</Option>
  </Options>
  <Variables NVar="9">
    <Variable VarIndex="0" Expression="prho" Label="prho" Title="Transverse radius" Unit="F" Internal="prho" Type="F" Min="3.93230255e+02" Max="7.12370483e+02"/>
    <Variable VarIndex="1" Expression="srho" Label="srho" Title="rho RMS" Unit="F" Internal="srho" Type="F" Min="0.00000000e+00" Max="2.95690060e+01"/>
    <Variable VarIndex="2" Expression="zmin" Label="zmin" Title="z of first hit" Unit="F" Internal="zmin" Type="F" Min="-1.51847034e+03" Max="1.36277039e+03"/>
    <Variable VarIndex="3" Expression="zmax" Label="zmax" Title="z of last hit" Unit="F" Internal="zmax" Type="F" Min="-1.36277039e+03" Max="1.51847034e+03"/>
    <Variable VarIndex="4" Expression="zgap" Label="zgap" Title="Biggest z gap between hits" Unit="F" Internal="zgap" Type="F" Min="7.70593262e+01" Max="2.94422021e+03"/>
    <Variable VarIndex="5" Expression="ns" Label="ns" Title="Number of Stations" Unit="F" Internal="ns" Type="F" Min="2.00000000e+00" Max="2.00000000e+01"/>
    <Variable VarIndex="6" Expression="nsmiss" Label="nsmiss" Title="Number of Stations Missed" Unit="F" Internal="nsmiss" Type="F" Min="0.00000000e+00" Max="1.80000000e+01"/>
    <Variable VarIndex="7" Expression="sphi" Label="sphi" Title="Phi RMS" Unit="F" Internal="sphi" Type="F" Min="0.00000000e+00" Max="1.18885241e-01"/>
    <Variable VarIndex="8" Expression="ngdhits" Label="ngdhits" Title="Number of good hits" Unit="F" Internal="ngdhits" Type="F" Min="2.00000000e+00" Max="1.08000000e+02"/>
  </Variables>
  <Spectators NSpec="0"/>
  <Classes NClass="2">
    <Class Name="Signal" Index="0"/>
    <Class Name="Background" Index="1"/>
  </Classes>
  <Transformations NTransformations="1">
    <Transform Name="Normalize">
      <Selection>
        <Input NInputs="9">
          <Input Type="Variable" Label="prho" Expression="prho"/>
          <Input Type="Variable" Label="srho" Expression="srho"/>
          <Input Type="Variable" Label="zmin" Expression="zmin"/>
          <Input Type="Variable" Label="zmax" Expression="zmax"/>
          <Input Type="Variable" Label="zgap" Expression="zgap"/>
          <Input Type="Variable" Label="ns" Expression="ns"/>
          <Input Type="Variable" Label="nsmiss" Expression="nsmiss"/>
          <Input Type="Variable" Label="sphi" Expression="sphi"/>
          <Input Type="Variable" Label="ngdhits" Expression="ngdhits"/>
        </Input>
        <Output NOutputs="9">
          <Output Type="Variable" Label="prho" Expression="prho"/>
          <Output Type="Variable" Label="srho" Expression="srho"/>
          <Output Type="Variable" Label="zmin" Expression="zmin"/>
          <Output Type="Variable" Label="zmax" Expression="zmax"/>
          <Output Type="Variable" Label="zgap" Expression="zgap"/>
          <Output Type="Variable" Label="ns" Expression="ns"/>
          <Output Type="Variable" Label="nsmiss" Expression="nsmiss"/>
          <Output Type="Variable" Label="sphi" Expression="sphi"/>
          <Output Type="Variable" Label="ngdhits" Expression="ngdhits"/>
        </Output>
      </Selection>
      <Class ClassIndex="0">
        <Ranges>
          <Range Index="0" Min="3.9323025512695312e+02" Max="7.1237048339843750e+02"/>
          <Range Index="1" Min="0.0000000000000000e+00" Max="2.3472536087036133e+01"/>
          <Range Index="2" Min="-1.5184703369140625e+03" Max="1.3627703857421875e+03"/>
          <Range Index="3" Min="-1.3627703857421875e+03" Max="1.5184703369140625e+03"/>
          <Range Index="4" Min="7.7059326171875000e+01" Max="2.7940393066406250e+03"/>
          <Range Index="5" Min="2.0000000000000000e+00" Max="2.0000000000000000e+01"/>
          <Range Index="6" Min="0.0000000000000000e+00" Max="1.7000000000000000e+01"/>
          <Range Index="7" Min="0.0000000000000000e+00" Max="1.1888524144887924e-01"/>
          <Range Index="8" Min="2.0000000000000000e+00" Max="1.0800000000000000e+02"/>
        </Ranges>
      </Class>
      <Class ClassIndex="1">
        <Ranges>
          <Range Index="0" Min="3.9506869506835938e+02" Max="6.6919549560546875e+02"/>
          <Range Index="1" Min="0.0000000000000000e+00" Max="2.9569005966186523e+01"/>
          <Range Index="2" Min="-1.5184703369140625e+03" Max="1.3460906982421875e+03"/>
          <Range Index="3" Min="-1.3573576660156250e+03" Max="1.5184703369140625e+03"/>
          <Range Index="4" Min="8.8326293945312500e+01" Max="2.9442202148437500e+03"/>
          <Range Index="5" Min="2.0000000000000000e+00" Max="2.0000000000000000e+01"/>
          <Range Index="6" Min="0.0000000000000000e+00" Max="1.8000000000000000e+01"/>
          <Range Index="7" Min="0.0000000000000000e+00" Max="1.1464913189411163e-01"/>
          <Range Index="8" Min="2.0000000000000000e+00" Max="1.1000000000000000e+01"/>
        </Ranges>
      </Class>
      <Class ClassIndex="2">
        <Ranges>
          <Range Index="0" Min="3.9323025512695312e+02" Max="7.1237048339843750e+02"/>
          <Range Index="1" Min="0.0000000000000000e+00" Max="2.9569005966186523e+01"/>
          <Range Index="2" Min="-1.5184703369140625e+03" Max="1.3627703857421875e+03"/>
          <Range Index="3" Min="-1.3627703857421875e+03" Max="1.5184703369140625e+03"/>
          <Range Index="4" Min="7.7059326171875000e+01" Max="2.9442202148437500e+03"/>
          <Range Index="5" Min="2.0000000000000000e+00" Max="2.0000000000000000e+01"/>
          <Range Index="6" Min="0.0000000000000000e+00" Max="1.8000000000000000e+01"/>
          <Range Index="7" Min="0.0000000000000000e+00" Max="1.1888524144887924e-01"/>
          <Range Index="8" Min="2.0000000000000000e+00" Max="1.0800000000000000e+02"/>
        </Ranges>
      </Class>
    </Transform>
  </Transformations>
  <MVAPdfs/>
  <Weights>
    <Layout NLayers="4">
      <Layer Index="0" NNeurons="10">
        <Neuron NSynapses="9">
          2.5740649452624059e-01 4.2979828329059684e+00 1.4479536739974157e+00 -7.1200450621320543e-01 -2.6782254248637929e+00 -2.3383139723945128e+00 -8.3004583358115180e-01 1.9045978172487927e+00 -2.7207391085397123e+00 
        </Neuron>
        <Neuron NSynapses="9">
          -9.4446705851445312e-01 -1.4889333166791768e-01 1.6329811652984266e-01 1.2471485430441162e-01 -1.1366887657723757e+00 9.9499729859925001e-01 -1.5914229478926532e+00 -8.7807351737713712e-01 -1.7010647262180811e+00 
        </Neuron>
        <Neuron NSynapses="9">
          2.2365788817856191e-01 1.3321290989366132e+00 -1.0892223247330124e+00 -2.7026764865516286e+00 3.2494366747203263e-01 3.5571996162721815e+00 -3.6576830060875776e+00 -3.2828437679030337e-01 1.2905765054182516e+00 
        </Neuron>
        <Neuron NSynapses="9">
          -1.1312152292763937e+00 -1.5103658437305341e+00 1.7792444006086592e+00 3.3147677713025567e+00 5.9824546074876206e-01 -2.6667794415116632e+00 1.0267294977541484e-01 1.0907196282952001e+00 6.5431700898760570e-01 
        </Neuron>
        <Neuron NSynapses="9">
          -1.4358785549474991e+00 2.2893167569710213e+00 -3.0027849691099989e-01 2.7453468472331916e-01 1.2397897622775307e+00 5.4325876647189961e+00 2.1766464884533372e+00 1.8693972446932847e+00 -2.7159323828968112e+00 
        </Neuron>
        <Neuron NSynapses="9">
          -1.4660289953042172e+00 1.0875982517975771e+00 1.6991480456274179e+00 4.3911038452984856e+00 5.7028189449268618e-01 -3.0902944887774244e+00 3.6131430886073099e+00 -1.6138047852292765e+00 1.8771556702492946e+00 
        </Neuron>
        <Neuron NSynapses="9">
          -1.5945329161758068e+00 -4.3621786858769923e-01 -2.0820260689886942e+00 -8.2796531810890954e+00 1.0591314494788391e+00 6.6647876397493153e+00 -4.6088177523944696e+00 1.4474573629496243e+00 -2.2549976228343094e+00 
        </Neuron>
        <Neuron NSynapses="9">
          4.5680801907841162e-01 1.1766449432323514e+00 -5.5610515553394702e-01 3.0171032947505289e-01 -2.7393561468207230e+00 9.9063998510043316e-01 -3.9985583318769516e-02 -2.0745801306053990e+00 -7.9640486245797693e-01 
        </Neuron>
        <Neuron NSynapses="9">
          1.0333483998038770e+00 1.1351086392211269e+00 2.6742061927648955e+00 5.9060518473773875e+00 -2.6675951132711013e+00 -1.0354250075400349e+01 4.2652052361227657e+00 -1.5542633897862472e+00 4.0982716474106082e+00 
        </Neuron>
        <Neuron NSynapses="9">
          3.4960845430936305e-01 1.2858194495729622e+00 1.7825707267028718e-01 1.1478934254635040e+00 -1.5962578032768007e-01 -4.0178488144548269e-01 -3.3168617142061907e-01 -7.4241513488047761e-01 -1.1732507883833843e+00 
        </Neuron>
      </Layer>
      <Layer Index="1" NNeurons="10">
        <Neuron NSynapses="8">
          -7.1610472127612446e-01 8.5239396621819652e-01 1.3774141200374257e-01 -1.7416007810267036e+00 -1.2482654537134419e+00 8.9219573865198451e-02 -1.0095679565634172e+00 -7.6410197061959551e-01 
        </Neuron>
        <Neuron NSynapses="8">
          -1.3727496078467845e+00 3.6010817437002114e+00 -2.1661667045701858e+00 -1.5233120592601368e+00 6.9904318793724574e-01 1.3028356703480526e+00 -9.8550515038171316e-01 1.3761804395559869e+00 
        </Neuron>
        <Neuron NSynapses="8">
          -1.3327379089204412e+00 3.1520299915183196e+00 -1.5061900760373919e+00 -7.3319412473500045e-02 -2.2186117074330007e+00 -1.5609800755863781e+00 2.0679531216198535e-01 -1.8008355872481555e-01 
        </Neuron>
        <Neuron NSynapses="8">
          -2.0488779890329218e+00 7.5148517641985233e+00 -9.3844518681904643e-01 -1.4879522802687315e+00 3.8775262282697313e-03 -2.9096018772600849e+00 -1.7570384099046923e+00 -5.2203392116371239e-01 
        </Neuron>
        <Neuron NSynapses="8">
          -1.4112045389776715e+00 -2.5013801174054930e+00 -7.6665409178276023e-01 -9.1675832698128945e-01 -1.2251003462898351e+00 -7.5878945576408952e-01 -2.5377044636204893e+00 -1.0390323127769084e-01 
        </Neuron>
        <Neuron NSynapses="8">
          -9.3603410154874445e-01 -8.3509804143324775e+00 -6.6061519648622591e-01 -1.9623165064084616e+00 -6.6720993678848761e-01 8.5903287435141940e-01 1.1562156525022704e+00 -2.4555166320529702e+00 
        </Neuron>
        <Neuron NSynapses="8">
          4.4174411170402904e-02 6.7205041555628497e+00 8.9259606123432755e-01 -1.9527550645572750e-01 -1.5525904121618885e+00 -1.3393369892538081e+00 -1.4455503793711286e+00 -1.4978374958885110e-01 
        </Neuron>
        <Neuron NSynapses="8">
          1.1433015406498004e+00 -2.0966973437227598e+00 -9.6596189662993737e-01 -2.4722442444374458e-02 -1.6211836567626563e+00 1.2787028440748166e-01 1.6226127873564407e+00 -5.1336903179875748e-01 
        </Neuron>
        <Neuron NSynapses="8">
          -7.2308797089803811e-01 5.0370903039220307e+00 6.0079025573294476e-01 3.2785591615388943e-01 8.4615408538796111e-01 -2.0561288264202613e+00 1.4073897409797944e+00 -5.6977986531946578e-02 
        </Neuron>
        <Neuron NSynapses="8">
          -8.3288081503532885e-01 3.3600982262125156e-01 -1.3041012468831017e+00 -1.6681119671948026e+00 -1.7529835276684973e+00 -1.3171693357419008e+00 -1.6329167346459146e+00 -1.0234499805045745e+00 
        </Neuron>
      </Layer>
      <Layer Index="2" NNeurons="9">
        <Neuron NSynapses="1">
          2.2845327859697834e-01 
        </Neuron>
        <Neuron NSynapses="1">
          1.0452963131428317e+00 
        </Neuron>
        <Neuron NSynapses="1">
          -7.9688467770668167e-02 
        </Neuron>
        <Neuron NSynapses="1">
          3.1175608945131361e-01 
        </Neuron>
        <Neuron NSynapses="1">
          9.8979973139784472e-01 
        </Neuron>
        <Neuron NSynapses="1">
          1.6201258940698690e-01 
        </Neuron>
        <Neuron NSynapses="1">
          1.5115389028592530e-01 
        </Neuron>
        <Neuron NSynapses="1">
          -1.3408064549072038e-01 
        </Neuron>
        <Neuron NSynapses="1">
          -3.5847040958115431e-02 
        </Neuron>
      </Layer>
      <Layer Index="3" NNeurons="1">
        <Neuron NSynapses="0"/>
      </Layer>
    </Layout>
  </Weights>
</MethodSetup>
