<?xml version="1.0"?>
<MethodSetup Method="MLP::MLP">
  <GeneralInfo>
    <Info name="TMVA Release" value="4.1.4 [262404]"/>
    <Info name="ROOT Release" value="5.34/09 [336393]"/>
    <Info name="Creator" value="brownd"/>
    <Info name="Date" value="Mon Apr  7 20:44:25 2014"/>
    <Info name="Host" value="Linux patdskmf.fnal.gov 2.6.18-308.20.1.el5 #1 SMP Tue Nov 13 11:54:02 EST 2012 x86_64 x86_64 x86_64 GNU/Linux"/>
    <Info name="Dir" value="/home/online1/brownd/mu2e/Mu2eSim/art5/Offline"/>
    <Info name="Training events" value="58636"/>
    <Info name="TrainingTime" value="8.32440143e+02"/>
    <Info name="AnalysisType" value="Classification"/>
  </GeneralInfo>
  <Options>
    <Option name="NCycles" modified="No">500</Option>
    <Option name="HiddenLayers" modified="No">N,N-1</Option>
    <Option name="NeuronType" modified="No">sigmoid</Option>
    <Option name="RandomSeed" modified="No">1</Option>
    <Option name="EstimatorType" modified="No">MSE</Option>
    <Option name="NeuronInputType" modified="No">sum</Option>
    <Option name="V" modified="Yes">False</Option>
    <Option name="VerbosityLevel" modified="No">Default</Option>
    <Option name="VarTransform" modified="Yes">N</Option>
    <Option name="H" modified="Yes">True</Option>
    <Option name="CreateMVAPdfs" modified="No">False</Option>
    <Option name="IgnoreNegWeightsInTraining" modified="No">False</Option>
    <Option name="TrainingMethod" modified="No">BP</Option>
    <Option name="LearningRate" modified="No">2.000000e-02</Option>
    <Option name="DecayRate" modified="No">1.000000e-02</Option>
    <Option name="TestRate" modified="No">10</Option>
    <Option name="EpochMonitoring" modified="No">False</Option>
    <Option name="Sampling" modified="No">1.000000e+00</Option>
    <Option name="SamplingEpoch" modified="No">1.000000e+00</Option>
    <Option name="SamplingImportance" modified="No">1.000000e+00</Option>
    <Option name="SamplingTraining" modified="No">True</Option>
    <Option name="SamplingTesting" modified="No">False</Option>
    <Option name="ResetStep" modified="No">50</Option>
    <Option name="Tau" modified="No">3.000000e+00</Option>
    <Option name="BPMode" modified="No">sequential</Option>
    <Option name="BatchSize" modified="No">-1</Option>
    <Option name="ConvergenceImprove" modified="No">1.000000e-30</Option>
    <Option name="ConvergenceTests" modified="No">-1</Option>
    <Option name="UseRegulator" modified="No">False</Option>
    <Option name="UpdateLimit" modified="No">10000</Option>
    <Option name="CalculateErrors" modified="No">False</Option>
    <Option name="WeightRange" modified="No">1.000000e+00</Option>
  </Options>
  <Variables NVar="9">
    <Variable VarIndex="0" Expression="prho" Label="prho" Title="Transverse radius" Unit="F" Internal="prho" Type="F" Min="3.96219330e+02" Max="6.51518127e+02"/>
    <Variable VarIndex="1" Expression="srho" Label="srho" Title="RMS of rho" Unit="F" Internal="srho" Type="F" Min="0.00000000e+00" Max="3.39363747e+01"/>
    <Variable VarIndex="2" Expression="zmin" Label="zmin" Title="z of first hit" Unit="F" Internal="zmin" Type="F" Min="-1.51623633e+03" Max="1.50253003e+03"/>
    <Variable VarIndex="3" Expression="zmax" Label="zmax" Title="z of last hit" Unit="F" Internal="zmax" Type="F" Min="-1.50523633e+03" Max="1.51623633e+03"/>
    <Variable VarIndex="4" Expression="zgap" Label="zgap" Title="Biggest z gap between hits" Unit="F" Internal="zgap" Type="F" Min="0.00000000e+00" Max="3.00235376e+03"/>
    <Variable VarIndex="5" Expression="ns" Label="ns" Title="Number of Stations" Unit="F" Internal="ns" Type="F" Min="1.00000000e+00" Max="2.20000000e+01"/>
    <Variable VarIndex="6" Expression="nsmiss" Label="nsmiss" Title="Number of Stations Missed" Unit="F" Internal="nsmiss" Type="F" Min="0.00000000e+00" Max="2.00000000e+01"/>
    <Variable VarIndex="7" Expression="sphi" Label="sphi" Title="RMS of phi" Unit="F" Internal="sphi" Type="F" Min="0.00000000e+00" Max="1.30033538e-01"/>
    <Variable VarIndex="8" Expression="ngdhits" Label="ngdhits" Title="Number of hits in core" Unit="F" Internal="ngdhits" Type="F" Min="1.00000000e+00" Max="2.42000000e+02"/>
  </Variables>
  <Spectators NSpec="0"/>
  <Classes NClass="2">
    <Class Name="Signal" Index="0"/>
    <Class Name="Background" Index="1"/>
  </Classes>
  <Transformations NTransformations="1">
    <Transform Name="Normalize">
      <Selection>
        <Input NInputs="9">
          <Input Type="Variable" Label="prho" Expression="prho"/>
          <Input Type="Variable" Label="srho" Expression="srho"/>
          <Input Type="Variable" Label="zmin" Expression="zmin"/>
          <Input Type="Variable" Label="zmax" Expression="zmax"/>
          <Input Type="Variable" Label="zgap" Expression="zgap"/>
          <Input Type="Variable" Label="ns" Expression="ns"/>
          <Input Type="Variable" Label="nsmiss" Expression="nsmiss"/>
          <Input Type="Variable" Label="sphi" Expression="sphi"/>
          <Input Type="Variable" Label="ngdhits" Expression="ngdhits"/>
        </Input>
        <Output NOutputs="9">
          <Output Type="Variable" Label="prho" Expression="prho"/>
          <Output Type="Variable" Label="srho" Expression="srho"/>
          <Output Type="Variable" Label="zmin" Expression="zmin"/>
          <Output Type="Variable" Label="zmax" Expression="zmax"/>
          <Output Type="Variable" Label="zgap" Expression="zgap"/>
          <Output Type="Variable" Label="ns" Expression="ns"/>
          <Output Type="Variable" Label="nsmiss" Expression="nsmiss"/>
          <Output Type="Variable" Label="sphi" Expression="sphi"/>
          <Output Type="Variable" Label="ngdhits" Expression="ngdhits"/>
        </Output>
      </Selection>
      <Class ClassIndex="0">
        <Ranges>
          <Range Index="0" Min="3.9621932983398438e+02" Max="6.5151812744140625e+02"/>
          <Range Index="1" Min="0.0000000000000000e+00" Max="2.7773162841796875e+01"/>
          <Range Index="2" Min="-1.5162363281250000e+03" Max="1.5025300292968750e+03"/>
          <Range Index="3" Min="-1.5052363281250000e+03" Max="1.5162363281250000e+03"/>
          <Range Index="4" Min="0.0000000000000000e+00" Max="2.9470600585937500e+03"/>
          <Range Index="5" Min="1.0000000000000000e+00" Max="2.2000000000000000e+01"/>
          <Range Index="6" Min="0.0000000000000000e+00" Max="2.0000000000000000e+01"/>
          <Range Index="7" Min="0.0000000000000000e+00" Max="1.2936997413635254e-01"/>
          <Range Index="8" Min="1.0000000000000000e+00" Max="2.4200000000000000e+02"/>
        </Ranges>
      </Class>
      <Class ClassIndex="1">
        <Ranges>
          <Range Index="0" Min="3.9825781250000000e+02" Max="6.4513067626953125e+02"/>
          <Range Index="1" Min="0.0000000000000000e+00" Max="3.3936374664306641e+01"/>
          <Range Index="2" Min="-1.5162363281250000e+03" Max="1.5025300292968750e+03"/>
          <Range Index="3" Min="-1.5025300292968750e+03" Max="1.5162363281250000e+03"/>
          <Range Index="4" Min="0.0000000000000000e+00" Max="3.0023537597656250e+03"/>
          <Range Index="5" Min="1.0000000000000000e+00" Max="2.2000000000000000e+01"/>
          <Range Index="6" Min="0.0000000000000000e+00" Max="2.0000000000000000e+01"/>
          <Range Index="7" Min="1.0943594679702073e-04" Max="1.3003353774547577e-01"/>
          <Range Index="8" Min="2.0000000000000000e+00" Max="9.2000000000000000e+01"/>
        </Ranges>
      </Class>
      <Class ClassIndex="2">
        <Ranges>
          <Range Index="0" Min="3.9621932983398438e+02" Max="6.5151812744140625e+02"/>
          <Range Index="1" Min="0.0000000000000000e+00" Max="3.3936374664306641e+01"/>
          <Range Index="2" Min="-1.5162363281250000e+03" Max="1.5025300292968750e+03"/>
          <Range Index="3" Min="-1.5052363281250000e+03" Max="1.5162363281250000e+03"/>
          <Range Index="4" Min="0.0000000000000000e+00" Max="3.0023537597656250e+03"/>
          <Range Index="5" Min="1.0000000000000000e+00" Max="2.2000000000000000e+01"/>
          <Range Index="6" Min="0.0000000000000000e+00" Max="2.0000000000000000e+01"/>
          <Range Index="7" Min="0.0000000000000000e+00" Max="1.3003353774547577e-01"/>
          <Range Index="8" Min="1.0000000000000000e+00" Max="2.4200000000000000e+02"/>
        </Ranges>
      </Class>
    </Transform>
  </Transformations>
  <MVAPdfs/>
  <Weights>
    <Layout NLayers="4">
      <Layer Index="0" NNeurons="10">
        <Neuron NSynapses="9">
          -2.2234745538197134e-01 2.5375125500473761e+00 1.1336111641001294e+00 3.6938457655486057e-01 -2.0998946528739491e+00 -1.2085325140193990e+00 -1.2338691096705832e+00 7.2056485973361339e-01 -1.5994587927724169e+00 
        </Neuron>
        <Neuron NSynapses="9">
          -8.0799826703537048e-01 -4.8487347277984510e-01 -9.6274964646673025e-02 -6.3404396141850172e-01 4.1207859313073858e-01 7.5616689451164765e-01 8.5867388360300834e-01 -1.2080057961639550e+00 1.5469440626368542e+00 
        </Neuron>
        <Neuron NSynapses="9">
          -4.0028838908832903e-01 1.1423732367231303e+00 -3.7329533934024500e-01 -8.6025038573029611e-01 1.1078440532876721e+00 3.9086285188698300e-01 -2.3459371352906513e+00 -6.9250438388324911e-02 1.9786941210945515e+00 
        </Neuron>
        <Neuron NSynapses="9">
          -4.2332754648470200e-01 -1.5777380311129992e+00 4.5072784262237481e-01 3.2619821318015396e-01 1.5225099273860991e+00 -8.5561307777522677e-01 1.9466691902060498e+00 -3.5972932941829389e-01 -2.4334460586169560e-01 
        </Neuron>
        <Neuron NSynapses="9">
          -2.0212618585712336e+00 1.6221070545639218e+00 -1.3071063614287344e+00 2.4554199696684406e-01 1.0721903901199921e+00 9.8794954483621045e-01 1.5934519073905686e+00 1.4260711423797920e+00 -6.3910911273481574e-01 
        </Neuron>
        <Neuron NSynapses="9">
          -8.1684782007138501e-01 1.1639669583721322e+00 1.2532053826482054e-01 3.7096809988669763e+00 1.3937079750092833e+00 -1.5901877395447761e+00 3.6800202949512744e+00 -2.5619042186888232e+00 1.0236134396718710e+00 
        </Neuron>
        <Neuron NSynapses="9">
          -2.2985494956647745e+00 -1.4497233857913929e+00 -1.1549232910087659e+00 -6.2538338466269847e+00 1.0711619407556141e+00 6.1746851203231898e+00 -3.3849058413606556e+00 7.9020821528933027e-01 -2.1053926857719496e-01 
        </Neuron>
        <Neuron NSynapses="9">
          6.4001037861927501e-01 1.4547514195473952e+00 -4.1053680869211917e-01 -4.6968192979222601e-01 -1.0469192484160668e+00 -1.1907006712565223e-01 -4.2635940696177010e-01 -6.8369768738281589e-01 -1.3674739878320001e+00 
        </Neuron>
        <Neuron NSynapses="9">
          1.0012970510991679e+00 1.4230154886123869e+00 1.4543220691864327e+00 1.9366141330277069e+00 -1.4350426484149441e+00 -4.0358979660606549e+00 -6.5750216232437497e-01 -2.1056859713882201e-02 1.7166393054017060e+00 
        </Neuron>
        <Neuron NSynapses="9">
          9.8133032167321710e-01 1.3177983935110691e+00 -6.9387253500433055e-01 -1.7314303989568640e+00 -4.7322383093569198e-01 2.3374853658918897e+00 1.0254761607106602e+00 -1.6552225083473135e+00 -1.8208785716467732e+00 
        </Neuron>
      </Layer>
      <Layer Index="1" NNeurons="10">
        <Neuron NSynapses="8">
          3.7098909595013779e-01 -1.8307546118088946e-01 1.9377473832783663e+00 -1.7203413162392893e+00 -8.9048541340378395e-01 1.5058379406477327e+00 -7.7184706969248940e-01 -1.4902673337745072e+00 
        </Neuron>
        <Neuron NSynapses="8">
          -1.2788685752758155e+00 1.9244484132898636e+00 -1.9461083479167620e+00 -1.6366360415956065e+00 5.9836756521981305e-01 1.6202746104025425e+00 -9.9899407267177154e-01 1.7643806629118832e+00 
        </Neuron>
        <Neuron NSynapses="8">
          -1.3295724627165786e+00 2.4276641875335961e-01 2.2159492229628486e-01 7.1282033514565010e-02 -2.0772236422158104e+00 5.1125088830891996e-01 3.5288420522556402e-01 5.2576020677457447e-01 
        </Neuron>
        <Neuron NSynapses="8">
          -2.9623446205985937e+00 6.0565379135224191e+00 6.3256539328718919e-01 -1.3210057815994560e+00 3.1281787652289694e-01 -5.4821820213462480e-01 -1.5846341791123888e+00 6.0999479996100225e-01 
        </Neuron>
        <Neuron NSynapses="8">
          -4.4295443728665918e-01 1.0032824715275628e+00 4.8794666458753055e-01 -3.0280304917324680e-01 -8.0793503228906105e-01 5.5219396415057531e-01 -1.7847131350801944e+00 4.5667341983834447e-01 
        </Neuron>
        <Neuron NSynapses="8">
          7.9420278416548906e-01 -6.4181355224267502e+00 2.0599113863393137e-02 -1.5670331520110001e+00 -1.1216960178122257e-01 1.2577395612674658e+00 1.8595577132760055e+00 -2.0835200117510206e+00 
        </Neuron>
        <Neuron NSynapses="8">
          -3.5808442513645589e-01 4.3615561910079768e+00 1.4817866712073722e+00 -2.9579300694569238e-01 -1.5513343180369987e+00 4.8707520160655787e-01 -1.3090220940672062e+00 2.3177982331697753e+00 
        </Neuron>
        <Neuron NSynapses="8">
          1.1376597345762878e+00 -1.3648157609595510e+00 -5.5856498299000823e-01 1.0945311279643448e-01 -1.4466186525846920e+00 5.6994529678412909e-01 1.9076444822444252e+00 -7.0731660832995535e-01 
        </Neuron>
        <Neuron NSynapses="8">
          -7.1995902014823876e-01 5.7329489381854692e-01 1.0311573180950655e+00 4.7974214529029308e-01 8.5245025483618342e-01 -1.3207472987158628e+00 1.5291268407670298e+00 6.4061796802843451e-01 
        </Neuron>
        <Neuron NSynapses="8">
          -2.0726655499839708e-02 3.3459177798320044e-01 9.6371717098778831e-01 -1.1370492877827230e+00 -1.1162218162672235e+00 1.6814029030421258e+00 -9.3850541951822131e-01 -6.4599583649768799e-01 
        </Neuron>
      </Layer>
      <Layer Index="2" NNeurons="9">
        <Neuron NSynapses="1">
          1.8508241990036163e+00 
        </Neuron>
        <Neuron NSynapses="1">
          2.8043938017747716e+00 
        </Neuron>
        <Neuron NSynapses="1">
          -5.3929463598837024e-01 
        </Neuron>
        <Neuron NSynapses="1">
          1.0602671859239259e+00 
        </Neuron>
        <Neuron NSynapses="1">
          1.5116708446540243e+00 
        </Neuron>
        <Neuron NSynapses="1">
          -1.6818449144857446e+00 
        </Neuron>
        <Neuron NSynapses="1">
          3.9840835115991730e-01 
        </Neuron>
        <Neuron NSynapses="1">
          2.7847848322362162e-01 
        </Neuron>
        <Neuron NSynapses="1">
          1.0519667447930978e-01 
        </Neuron>
      </Layer>
      <Layer Index="3" NNeurons="1">
        <Neuron NSynapses="0"/>
      </Layer>
    </Layout>
  </Weights>
</MethodSetup>
