<?xml version="1.0"?>
<MethodSetup Method="MLP::MLP">
  <GeneralInfo>
    <Info name="TMVA Release" value="4.2.1 [262657]"/>
    <Info name="ROOT Release" value="6.26/02 [399874]"/>
    <Info name="Creator" value="brownd"/>
    <Info name="Date" value="Thu Aug 25 08:16:55 2022"/>
    <Info name="Host" value="Darwin macphsft17.dyndns.cern.ch 21.4.0 Darwin Kernel Version 21.4.0: Fri Mar 18 00:45:05 PDT 2022; root:xnu-8020.101.4~15/RELEASE_X86_64 x86_64"/>
    <Info name="Dir" value="/Users/brownd/MDC2020"/>
    <Info name="Training events" value="21000"/>
    <Info name="TrainingTime" value="1.11859788e+02"/>
    <Info name="AnalysisType" value="Classification"/>
  </GeneralInfo>
  <Options>
    <Option name="NCycles" modified="Yes">600</Option>
    <Option name="HiddenLayers" modified="Yes">N+5</Option>
    <Option name="NeuronType" modified="Yes">tanh</Option>
    <Option name="RandomSeed" modified="No">1</Option>
    <Option name="EstimatorType" modified="No">CE</Option>
    <Option name="NeuronInputType" modified="No">sum</Option>
    <Option name="V" modified="Yes">False</Option>
    <Option name="VerbosityLevel" modified="No">Default</Option>
    <Option name="VarTransform" modified="Yes">N</Option>
    <Option name="H" modified="Yes">False</Option>
    <Option name="CreateMVAPdfs" modified="No">False</Option>
    <Option name="IgnoreNegWeightsInTraining" modified="No">False</Option>
    <Option name="TrainingMethod" modified="No">BP</Option>
    <Option name="LearningRate" modified="No">2.000000e-02</Option>
    <Option name="DecayRate" modified="No">1.000000e-02</Option>
    <Option name="TestRate" modified="Yes">5</Option>
    <Option name="EpochMonitoring" modified="No">False</Option>
    <Option name="Sampling" modified="No">1.000000e+00</Option>
    <Option name="SamplingEpoch" modified="No">1.000000e+00</Option>
    <Option name="SamplingImportance" modified="No">1.000000e+00</Option>
    <Option name="SamplingTraining" modified="No">True</Option>
    <Option name="SamplingTesting" modified="No">False</Option>
    <Option name="ResetStep" modified="No">50</Option>
    <Option name="Tau" modified="No">3.000000e+00</Option>
    <Option name="BPMode" modified="No">sequential</Option>
    <Option name="BatchSize" modified="No">-1</Option>
    <Option name="ConvergenceImprove" modified="No">1.000000e-30</Option>
    <Option name="ConvergenceTests" modified="No">-1</Option>
    <Option name="UseRegulator" modified="Yes">False</Option>
    <Option name="UpdateLimit" modified="No">10000</Option>
    <Option name="CalculateErrors" modified="No">False</Option>
    <Option name="WeightRange" modified="No">1.000000e+00</Option>
  </Options>
  <Variables NVar="11">
    <Variable VarIndex="0" Expression="abs(detsh.doca)" Label="udoca" Title="udoca" Unit="F" Internal="udoca" Type="F" Min="5.99034902e-05" Max="7.89663162e+01"/>
    <Variable VarIndex="1" Expression="detsh.rdrift" Label="rdrift" Title="rdrift" Unit="F" Internal="rdrift" Type="F" Min="0.00000000e+00" Max="3.44698334e+00"/>
    <Variable VarIndex="2" Expression="detsh.totdrift" Label="totdrift" Title="totdrift" Unit="F" Internal="totdrift" Type="F" Min="8.79999995e-01" Max="3.60200005e+01"/>
    <Variable VarIndex="3" Expression="1000*detsh.edep" Label="edep" Title="edep" Unit="F" Internal="edep" Type="F" Min="-7.31592774e-01" Max="6.12026310e+00"/>
    <Variable VarIndex="4" Expression="detsh.docavar" Label="dvar" Title="dvar" Unit="F" Internal="dvar" Type="F" Min="1.91513687e-01" Max="9.56392090e+02"/>
    <Variable VarIndex="5" Expression="abs(detsh.wdot)" Label="wdot" Title="wdot" Unit="F" Internal="wdot" Type="F" Min="2.12751508e-01" Max="8.78720164e-01"/>
    <Variable VarIndex="6" Expression="abs(detsh.poca.Z())" Label="zed" Title="zed" Unit="F" Internal="zed" Type="F" Min="4.76796722e+01" Max="1.51832031e+03"/>
    <Variable VarIndex="7" Expression="detsh.poca.Rho()" Label="rho" Title="rho" Unit="F" Internal="rho" Type="F" Min="3.80000000e+02" Max="6.64375061e+02"/>
    <Variable VarIndex="8" Expression="abs(detsh.wdist-detsh.upos)/detsh.werr" Label="dupos" Title="dupos" Unit="F" Internal="dupos" Type="F" Min="1.44342430e-05" Max="1.75162621e+01"/>
    <Variable VarIndex="9" Expression="detsh.werr" Label="duerr" Title="duerr" Unit="F" Internal="duerr" Type="F" Min="2.72798290e+01" Max="2.19377716e+02"/>
    <Variable VarIndex="10" Expression="detsh.lang" Label="lang" Title="lang" Unit="F" Internal="lang" Type="F" Min="3.90901318e-04" Max="1.04176891e+00"/>
  </Variables>
  <Spectators NSpec="0"/>
  <Classes NClass="2">
    <Class Name="Signal" Index="0"/>
    <Class Name="Background" Index="1"/>
  </Classes>
  <Transformations NTransformations="1">
    <Transform Name="Normalize">
      <Selection>
        <Input NInputs="11">
          <Input Type="Variable" Label="udoca" Expression="abs(detsh.doca)"/>
          <Input Type="Variable" Label="rdrift" Expression="detsh.rdrift"/>
          <Input Type="Variable" Label="totdrift" Expression="detsh.totdrift"/>
          <Input Type="Variable" Label="edep" Expression="1000*detsh.edep"/>
          <Input Type="Variable" Label="dvar" Expression="detsh.docavar"/>
          <Input Type="Variable" Label="wdot" Expression="abs(detsh.wdot)"/>
          <Input Type="Variable" Label="zed" Expression="abs(detsh.poca.Z())"/>
          <Input Type="Variable" Label="rho" Expression="detsh.poca.Rho()"/>
          <Input Type="Variable" Label="dupos" Expression="abs(detsh.wdist-detsh.upos)/detsh.werr"/>
          <Input Type="Variable" Label="duerr" Expression="detsh.werr"/>
          <Input Type="Variable" Label="lang" Expression="detsh.lang"/>
        </Input>
        <Output NOutputs="11">
          <Output Type="Variable" Label="udoca" Expression="abs(detsh.doca)"/>
          <Output Type="Variable" Label="rdrift" Expression="detsh.rdrift"/>
          <Output Type="Variable" Label="totdrift" Expression="detsh.totdrift"/>
          <Output Type="Variable" Label="edep" Expression="1000*detsh.edep"/>
          <Output Type="Variable" Label="dvar" Expression="detsh.docavar"/>
          <Output Type="Variable" Label="wdot" Expression="abs(detsh.wdot)"/>
          <Output Type="Variable" Label="zed" Expression="abs(detsh.poca.Z())"/>
          <Output Type="Variable" Label="rho" Expression="detsh.poca.Rho()"/>
          <Output Type="Variable" Label="dupos" Expression="abs(detsh.wdist-detsh.upos)/detsh.werr"/>
          <Output Type="Variable" Label="duerr" Expression="detsh.werr"/>
          <Output Type="Variable" Label="lang" Expression="detsh.lang"/>
        </Output>
      </Selection>
      <Class ClassIndex="0">
        <Ranges>
          <Range Index="0" Min="1.9867820083163679e-04" Max="4.1485317230224609e+01"/>
          <Range Index="1" Min="0.0000000000000000e+00" Max="2.7251644134521484e+00"/>
          <Range Index="2" Min="8.7999999523162842e-01" Max="3.6020000457763672e+01"/>
          <Range Index="3" Min="-7.3159277439117432e-01" Max="5.7872242927551270e+00"/>
          <Range Index="4" Min="1.9151368737220764e-01" Max="2.8839819335937500e+02"/>
          <Range Index="5" Min="2.1275150775909424e-01" Max="8.7872016429901123e-01"/>
          <Range Index="6" Min="4.7679672241210938e+01" Max="1.5183203125000000e+03"/>
          <Range Index="7" Min="3.8000000000000000e+02" Max="6.6437506103515625e+02"/>
          <Range Index="8" Min="1.4434242984862067e-05" Max="1.1538364410400391e+01"/>
          <Range Index="9" Min="3.1515026092529297e+01" Max="2.1783700561523438e+02"/>
          <Range Index="10" Min="3.9090131758712232e-04" Max="1.0417689085006714e+00"/>
        </Ranges>
      </Class>
      <Class ClassIndex="1">
        <Ranges>
          <Range Index="0" Min="5.9903490182477981e-05" Max="7.8966316223144531e+01"/>
          <Range Index="1" Min="0.0000000000000000e+00" Max="3.4469833374023438e+00"/>
          <Range Index="2" Min="8.7999999523162842e-01" Max="3.6020000457763672e+01"/>
          <Range Index="3" Min="1.9290731847286224e-01" Max="6.1202630996704102e+00"/>
          <Range Index="4" Min="2.1603110432624817e-01" Max="9.5639208984375000e+02"/>
          <Range Index="5" Min="2.6205700635910034e-01" Max="8.6780333518981934e-01"/>
          <Range Index="6" Min="4.7679672241210938e+01" Max="1.5183203125000000e+03"/>
          <Range Index="7" Min="3.8000000000000000e+02" Max="6.2687500000000000e+02"/>
          <Range Index="8" Min="1.0088211856782436e-03" Max="1.7516262054443359e+01"/>
          <Range Index="9" Min="2.7279829025268555e+01" Max="2.1937771606445312e+02"/>
          <Range Index="10" Min="3.7194234319031239e-03" Max="1.0272586345672607e+00"/>
        </Ranges>
      </Class>
      <Class ClassIndex="2">
        <Ranges>
          <Range Index="0" Min="5.9903490182477981e-05" Max="7.8966316223144531e+01"/>
          <Range Index="1" Min="0.0000000000000000e+00" Max="3.4469833374023438e+00"/>
          <Range Index="2" Min="8.7999999523162842e-01" Max="3.6020000457763672e+01"/>
          <Range Index="3" Min="-7.3159277439117432e-01" Max="6.1202630996704102e+00"/>
          <Range Index="4" Min="1.9151368737220764e-01" Max="9.5639208984375000e+02"/>
          <Range Index="5" Min="2.1275150775909424e-01" Max="8.7872016429901123e-01"/>
          <Range Index="6" Min="4.7679672241210938e+01" Max="1.5183203125000000e+03"/>
          <Range Index="7" Min="3.8000000000000000e+02" Max="6.6437506103515625e+02"/>
          <Range Index="8" Min="1.4434242984862067e-05" Max="1.7516262054443359e+01"/>
          <Range Index="9" Min="2.7279829025268555e+01" Max="2.1937771606445312e+02"/>
          <Range Index="10" Min="3.9090131758712232e-04" Max="1.0417689085006714e+00"/>
        </Ranges>
      </Class>
    </Transform>
  </Transformations>
  <MVAPdfs/>
  <Weights>
    <Layout NLayers="3">
      <Layer Index="0" NNeurons="12">
        <Neuron NSynapses="16">
          -1.3847372708327466e+00 2.4410829408871448e+00 1.7848861056126692e+00 1.4909205764373452e+00 -2.7369663196097576e+00 -1.2194334130416475e+00 -9.1520243663895895e-01 2.0026172969792397e+00 -1.4641606741060822e+00 -8.8357619436128889e+00 -2.4554322362571113e+00 1.3278584346255245e+01 -2.3676215899188602e+00 -1.8417982155011716e+00 -2.7118027893259593e+00 2.5530132467899209e+00 
        </Neuron>
        <Neuron NSynapses="16">
          1.0980199846719697e-01 1.6848883156083192e+00 -1.7785189496838278e+00 2.2884462825060772e+00 3.3137860340223607e-01 -1.9659772408617640e+00 7.5449097314279678e-01 2.0755940886800688e+00 -6.5797266414595035e-01 4.2474155901939387e-01 1.7605628855592805e+00 -1.4046291171035090e+00 -3.5120635591551506e+00 -1.4085906243089283e+00 1.7329633837122385e+00 5.8002602251623765e+00 
        </Neuron>
        <Neuron NSynapses="16">
          -2.8869702741783942e-01 -1.2754402486900807e-01 9.7037474261704959e-01 -1.5736888551092121e+00 -1.4926621803299744e+00 7.9148354898050244e-01 -2.3826851064876888e+00 1.5499964357499025e+00 2.6128899584312624e+00 -4.3323419933168633e-01 1.4362491072901458e+00 4.1284000894163186e-01 7.9876528172016148e-01 -1.4184116447924675e+00 2.8019449696522196e-02 -3.7909898077119686e+00 
        </Neuron>
        <Neuron NSynapses="16">
          1.3913671134701970e+00 1.2928945624548402e+00 2.2658222854639534e+00 2.5556284102366691e+00 -2.9897770051128070e-01 1.3074416372739970e+00 -1.6175772272620736e+00 3.8008798685880502e-01 -6.1861704250649741e-01 -4.5678520108280260e-02 1.0816597672381212e+00 -1.4838193663768723e-01 -1.9535756029083786e+00 1.6186938220544993e+00 1.9163036346997906e+00 8.5078274925458763e-01 
        </Neuron>
        <Neuron NSynapses="16">
          4.7731476904052936e+00 1.4874356033644590e-01 3.1124700746388451e-01 -3.0595902851595498e+00 -1.3345406289029453e+00 -9.7350945942932199e-01 -7.6075892392760036e-01 -3.1279030252292697e+00 -8.4318928162298266e-03 5.7308102722956100e+00 1.0708114124963903e+00 -2.4361082061244481e+00 -9.6826068188683256e-01 -1.2272089449012951e+00 2.1207088626605808e+00 1.4778466326072934e-01 
        </Neuron>
        <Neuron NSynapses="16">
          1.3542314039898455e+00 3.1732430442019305e-01 5.2513004996894397e-01 -1.0850227778583286e+00 -1.2584496528438835e-02 5.2100861826115931e-02 7.4531322049775162e-01 -1.7136829260324891e+00 -2.0157261219219871e+00 2.7373793082827889e-03 -5.1752269641912929e-01 1.1643898872740419e-01 -2.4182361564232541e-01 -2.2167125267184701e-01 -1.9352817855694596e-01 2.4031107372301438e-01 
        </Neuron>
        <Neuron NSynapses="16">
          -1.2633780784783870e+00 -1.1486199651573548e+00 2.3033722731535128e-01 -6.8101769091048781e-01 -5.3921295095302901e-01 -2.2128497714346862e+00 6.5186302826070819e-01 1.1507832584163358e+00 -1.6228351647909316e+00 3.4630978251891470e-01 -1.1322538991265259e+00 -1.7217011014654862e-01 -8.6916834418205458e-01 -3.6670489202368989e-01 -1.0143350526736747e+00 -2.6101735607603155e-01 
        </Neuron>
        <Neuron NSynapses="16">
          -9.3892888755048309e-02 5.6349177830916208e-01 -1.0437253084604112e+00 4.6652817355590465e-01 2.6374935642351077e-01 2.0991638334568521e-01 8.5946096897149704e-01 -1.6120373304693408e-01 -1.6640681906185260e+00 -4.2773551617890132e-01 -1.0055665197229366e+00 -2.9454616287254176e-01 9.2665277377636568e-01 -1.7774589164133667e-01 -9.2112829620193093e-01 -8.4739098942987173e-02 
        </Neuron>
        <Neuron NSynapses="16">
          -3.4020697088690768e+00 1.3141805241639561e+00 -6.2619586278937944e-01 -1.0706914816479558e+00 3.4454909535024552e+00 -1.6004852235952052e+00 1.8175526671020995e-01 1.2221675090358470e+00 2.4476365871973798e+00 -2.7934061295945511e+00 3.3210983851294618e-01 4.7739260422080576e-01 5.2299140360925744e-01 -1.0199641403343758e+00 -2.9262447904959892e+00 -2.0883102115494462e-01 
        </Neuron>
        <Neuron NSynapses="16">
          -1.6790216822888331e+00 1.8877611556121692e+00 1.3257223343240345e+00 8.4025306983661008e-01 2.9407208053703271e-01 1.1633431673789851e+00 -9.4541851287838008e-01 5.2873425423992604e-01 1.7574986981575464e+00 -9.6424079970303977e-01 -1.3644050285705107e+00 -2.7479015039763803e+00 1.0558975861835285e+00 3.5655900691647174e-02 8.1965807379949251e-01 2.4372484267519914e-01 
        </Neuron>
        <Neuron NSynapses="16">
          5.2823617527694477e-01 5.6771257563529764e-01 -5.4921386698667629e-01 1.7336036234512524e+00 2.1032396702534735e+00 -1.1252827423223026e+00 -1.2545235787259050e+00 1.0610247326031381e+00 -5.8916707880446395e-01 -4.1838248656804922e-01 1.3996456436220026e+00 3.7547878318724380e-02 -1.6903056886731158e-01 2.0973001679528971e+00 2.3350112644490579e+00 -2.7012430527498971e-01 
        </Neuron>
        <Neuron NSynapses="16">
          -1.6799815791745820e+00 -4.9604620003357552e-01 2.4097626522492632e-01 -5.7457741925297223e-01 1.9870212836625786e-01 6.7258289945760741e-01 1.3760473954943613e+00 -7.2565767853423546e-01 2.6899693076038922e-01 -5.1445397542969324e+00 5.9549661948467814e-01 7.3895358794556740e+00 -6.6554490545405554e-01 -1.1622045971682049e+00 -1.2640269026973723e+00 1.7498008055175045e+00 
        </Neuron>
      </Layer>
      <Layer Index="1" NNeurons="17">
        <Neuron NSynapses="1">
          1.2373754247628819e+00 
        </Neuron>
        <Neuron NSynapses="1">
          3.2269358923185179e+00 
        </Neuron>
        <Neuron NSynapses="1">
          -1.8709434070375162e+00 
        </Neuron>
        <Neuron NSynapses="1">
          -1.7371470065318511e+00 
        </Neuron>
        <Neuron NSynapses="1">
          -1.8174049445151321e+00 
        </Neuron>
        <Neuron NSynapses="1">
          1.1360726604221885e+00 
        </Neuron>
        <Neuron NSynapses="1">
          -2.1677292117616886e+00 
        </Neuron>
        <Neuron NSynapses="1">
          -1.2454716934841121e+00 
        </Neuron>
        <Neuron NSynapses="1">
          -3.3017998495847350e-01 
        </Neuron>
        <Neuron NSynapses="1">
          2.6244095291661322e+00 
        </Neuron>
        <Neuron NSynapses="1">
          5.6307344044119956e-01 
        </Neuron>
        <Neuron NSynapses="1">
          -4.1822932203309282e+00 
        </Neuron>
        <Neuron NSynapses="1">
          2.3453655769821655e-01 
        </Neuron>
        <Neuron NSynapses="1">
          1.8697341488909627e+00 
        </Neuron>
        <Neuron NSynapses="1">
          1.3374761544231946e+00 
        </Neuron>
        <Neuron NSynapses="1">
          -2.7628585952369118e+00 
        </Neuron>
        <Neuron NSynapses="1">
          -6.6082446199204592e-01 
        </Neuron>
      </Layer>
      <Layer Index="2" NNeurons="1">
        <Neuron NSynapses="0"/>
      </Layer>
    </Layout>
  </Weights>
</MethodSetup>
