<?xml version="1.0"?>
<MethodSetup Method="MLP::MLP">
  <GeneralInfo>
    <Info name="TMVA Release" value="4.2.1 [262657]"/>
    <Info name="ROOT Release" value="6.24/06 [399366]"/>
    <Info name="Creator" value="brownd"/>
    <Info name="Date" value="Wed Oct  5 16:35:55 2022"/>
    <Info name="Host" value="Darwin macitois19.dyndns.cern.ch 19.6.0 Darwin Kernel Version 19.6.0: Tue Nov 10 00:10:30 PST 2020; root:xnu-6153.141.10~1/RELEASE_X86_64 x86_64"/>
    <Info name="Dir" value="/Users/brownd/mu2e/MDC2020"/>
    <Info name="Training events" value="20000"/>
    <Info name="TrainingTime" value="5.29563549e+01"/>
    <Info name="AnalysisType" value="Classification"/>
  </GeneralInfo>
  <Options>
    <Option name="NCycles" modified="Yes">600</Option>
    <Option name="HiddenLayers" modified="Yes">N+5</Option>
    <Option name="NeuronType" modified="Yes">ReLU</Option>
    <Option name="RandomSeed" modified="No">1</Option>
    <Option name="EstimatorType" modified="No">CE</Option>
    <Option name="NeuronInputType" modified="No">sum</Option>
    <Option name="V" modified="Yes">False</Option>
    <Option name="VerbosityLevel" modified="No">Default</Option>
    <Option name="VarTransform" modified="Yes">N</Option>
    <Option name="H" modified="Yes">False</Option>
    <Option name="CreateMVAPdfs" modified="No">False</Option>
    <Option name="IgnoreNegWeightsInTraining" modified="No">False</Option>
    <Option name="TrainingMethod" modified="No">BP</Option>
    <Option name="LearningRate" modified="No">2.000000e-02</Option>
    <Option name="DecayRate" modified="No">1.000000e-02</Option>
    <Option name="TestRate" modified="Yes">5</Option>
    <Option name="EpochMonitoring" modified="No">False</Option>
    <Option name="Sampling" modified="No">1.000000e+00</Option>
    <Option name="SamplingEpoch" modified="No">1.000000e+00</Option>
    <Option name="SamplingImportance" modified="No">1.000000e+00</Option>
    <Option name="SamplingTraining" modified="No">True</Option>
    <Option name="SamplingTesting" modified="No">False</Option>
    <Option name="ResetStep" modified="No">50</Option>
    <Option name="Tau" modified="No">3.000000e+00</Option>
    <Option name="BPMode" modified="No">sequential</Option>
    <Option name="BatchSize" modified="No">-1</Option>
    <Option name="ConvergenceImprove" modified="No">1.000000e-30</Option>
    <Option name="ConvergenceTests" modified="No">-1</Option>
    <Option name="UseRegulator" modified="Yes">False</Option>
    <Option name="UpdateLimit" modified="No">10000</Option>
    <Option name="CalculateErrors" modified="No">False</Option>
    <Option name="WeightRange" modified="No">1.000000e+00</Option>
  </Options>
  <Variables NVar="8">
    <Variable VarIndex="0" Expression="abs(detsh.udoca)" Label="udoca" Title="udoca" Unit="mm" Internal="udoca" Type="F" Min="3.26837035e-04" Max="3.00696686e+02"/>
    <Variable VarIndex="1" Expression="detsh.rdrift" Label="rdrift" Title="rdrift" Unit="mm" Internal="rdrift" Type="F" Min="-2.20509839e+00" Max="2.99942660e+00"/>
    <Variable VarIndex="2" Expression="(detsh.rdrift-fabs(detsh.udoca))/sqrt(detsh.rerr*detsh.rerr+detsh.udocavar)" Label="udpull" Title="udpull" Unit="mm" Internal="udpull" Type="F" Min="-9.56368179e+01" Max="4.29327583e+00"/>
    <Variable VarIndex="3" Expression="detsh.tottdrift" Label="tottdrift" Title="tottdrift" Unit="ns" Internal="tottdrift" Type="F" Min="8.79999995e-01" Max="3.60200005e+01"/>
    <Variable VarIndex="4" Expression="1000*detsh.edep" Label="edep" Title="edep" Unit="KeV" Internal="edep" Type="F" Min="-3.75987649e+00" Max="8.41513443e+00"/>
    <Variable VarIndex="5" Expression="abs(detsh.wdist-detsh.uupos)/detsh.werr" Label="dupull" Title="dupull" Unit="F" Internal="dupull" Type="F" Min="-7.47887993e+00" Max="1.94268608e+01"/>
    <Variable VarIndex="6" Expression="detsh.werr" Label="duerr" Title="duerr" Unit="mm" Internal="duerr" Type="F" Min="-3.73725128e+02" Max="2.30813629e+02"/>
    <Variable VarIndex="7" Expression="detsh.poca.Rho()" Label="rho" Title="rho" Unit="mm" Internal="rho" Type="F" Min="3.80000000e+02" Max="6.70624939e+02"/>
  </Variables>
  <Spectators NSpec="0"/>
  <Classes NClass="2">
    <Class Name="Signal" Index="0"/>
    <Class Name="Background" Index="1"/>
  </Classes>
  <Transformations NTransformations="1">
    <Transform Name="Normalize">
      <Selection>
        <Input NInputs="8">
          <Input Type="Variable" Label="udoca" Expression="abs(detsh.udoca)"/>
          <Input Type="Variable" Label="rdrift" Expression="detsh.rdrift"/>
          <Input Type="Variable" Label="udpull" Expression="(detsh.rdrift-fabs(detsh.udoca))/sqrt(detsh.rerr*detsh.rerr+detsh.udocavar)"/>
          <Input Type="Variable" Label="tottdrift" Expression="detsh.tottdrift"/>
          <Input Type="Variable" Label="edep" Expression="1000*detsh.edep"/>
          <Input Type="Variable" Label="dupull" Expression="abs(detsh.wdist-detsh.uupos)/detsh.werr"/>
          <Input Type="Variable" Label="duerr" Expression="detsh.werr"/>
          <Input Type="Variable" Label="rho" Expression="detsh.poca.Rho()"/>
        </Input>
        <Output NOutputs="8">
          <Output Type="Variable" Label="udoca" Expression="abs(detsh.udoca)"/>
          <Output Type="Variable" Label="rdrift" Expression="detsh.rdrift"/>
          <Output Type="Variable" Label="udpull" Expression="(detsh.rdrift-fabs(detsh.udoca))/sqrt(detsh.rerr*detsh.rerr+detsh.udocavar)"/>
          <Output Type="Variable" Label="tottdrift" Expression="detsh.tottdrift"/>
          <Output Type="Variable" Label="edep" Expression="1000*detsh.edep"/>
          <Output Type="Variable" Label="dupull" Expression="abs(detsh.wdist-detsh.uupos)/detsh.werr"/>
          <Output Type="Variable" Label="duerr" Expression="detsh.werr"/>
          <Output Type="Variable" Label="rho" Expression="detsh.poca.Rho()"/>
        </Output>
      </Selection>
      <Class ClassIndex="0">
        <Ranges>
          <Range Index="0" Min="3.2683703466318548e-04" Max="7.5762896537780762e+00"/>
          <Range Index="1" Min="-3.1564450263977051e-01" Max="2.8789265155792236e+00"/>
          <Range Index="2" Min="-7.9030184745788574e+00" Max="3.9666078090667725e+00"/>
          <Range Index="3" Min="8.7999999523162842e-01" Max="3.6020000457763672e+01"/>
          <Range Index="4" Min="-5.2048635482788086e-01" Max="6.7772407531738281e+00"/>
          <Range Index="5" Min="-1.8396513462066650e+00" Max="1.1310132026672363e+01"/>
          <Range Index="6" Min="-5.4384204864501953e+01" Max="2.0833622741699219e+02"/>
          <Range Index="7" Min="3.8000000000000000e+02" Max="6.5187500000000000e+02"/>
        </Ranges>
      </Class>
      <Class ClassIndex="1">
        <Ranges>
          <Range Index="0" Min="1.3443963835015893e-03" Max="3.0069668579101562e+02"/>
          <Range Index="1" Min="-2.2050983905792236e+00" Max="2.9994266033172607e+00"/>
          <Range Index="2" Min="-9.5636817932128906e+01" Max="4.2932758331298828e+00"/>
          <Range Index="3" Min="8.7999999523162842e-01" Max="3.6020000457763672e+01"/>
          <Range Index="4" Min="-3.7598764896392822e+00" Max="8.4151344299316406e+00"/>
          <Range Index="5" Min="-7.4788799285888672e+00" Max="1.9426860809326172e+01"/>
          <Range Index="6" Min="-3.7372512817382812e+02" Max="2.3081362915039062e+02"/>
          <Range Index="7" Min="3.8000000000000000e+02" Max="6.7062493896484375e+02"/>
        </Ranges>
      </Class>
      <Class ClassIndex="2">
        <Ranges>
          <Range Index="0" Min="3.2683703466318548e-04" Max="3.0069668579101562e+02"/>
          <Range Index="1" Min="-2.2050983905792236e+00" Max="2.9994266033172607e+00"/>
          <Range Index="2" Min="-9.5636817932128906e+01" Max="4.2932758331298828e+00"/>
          <Range Index="3" Min="8.7999999523162842e-01" Max="3.6020000457763672e+01"/>
          <Range Index="4" Min="-3.7598764896392822e+00" Max="8.4151344299316406e+00"/>
          <Range Index="5" Min="-7.4788799285888672e+00" Max="1.9426860809326172e+01"/>
          <Range Index="6" Min="-3.7372512817382812e+02" Max="2.3081362915039062e+02"/>
          <Range Index="7" Min="3.8000000000000000e+02" Max="6.7062493896484375e+02"/>
        </Ranges>
      </Class>
    </Transform>
  </Transformations>
  <MVAPdfs/>
  <Weights>
    <Layout NLayers="3">
      <Layer Index="0" NNeurons="9">
        <Neuron NSynapses="13">
          -3.6624293288777399e-01 1.9473662220029822e+00 -6.4055290060619469e-02 1.7883846885131445e+00 -6.9272839022357239e-03 5.8805647551793339e-01 2.0347049069771340e-02 2.0030546404176484e+00 -5.1432625817118565e+00 -3.4834852838733559e+00 -1.3286639337508031e+00 2.8841643271085143e-01 -1.1349062645945198e+00 
        </Neuron>
        <Neuron NSynapses="13">
          1.2751217376045004e-01 -2.5494569604261735e-01 -2.5172093687221925e-01 -7.4405748297149521e-01 -2.1134753440363006e+00 -2.4629894031090367e+00 1.2490627770656797e+00 -3.2437595391769886e-01 -7.0301601461178969e+00 6.1249243724803337e+00 4.2793651509546471e-01 -4.2242624755881980e-01 -7.2061538803896985e-01 
        </Neuron>
        <Neuron NSynapses="13">
          6.4547039403646278e-01 -9.8344713903716852e-01 -5.9247232454258567e+00 -7.8196471655605518e-02 4.9315141556295456e+00 1.0620872743584437e+01 -9.8506994759301392e-01 -1.7705518042723217e-01 -1.0769720954705193e+01 -7.7368583839897997e+00 -9.1300696989756147e-01 2.1430425738675979e-01 -9.3682819674956430e-01 
        </Neuron>
        <Neuron NSynapses="13">
          1.9814167260434605e+00 1.0096157688989456e+00 -3.8044609792070881e-02 1.7788696649771001e+00 1.8227225730416681e+00 3.2226920378559027e+00 -9.1757553217280463e-01 7.6749291019680432e-01 3.0671747414256769e+00 1.2148696300271662e-01 1.5894564621424527e+00 -8.0237684335841597e-01 7.4962134091003441e-01 
        </Neuron>
        <Neuron NSynapses="13">
          -1.6905511042086274e+00 1.4883999288073013e+00 -5.6036042768428962e-01 -8.8515499055321012e-01 -2.1585514117755999e-01 -2.8761834971715956e+00 8.8887200924895238e-01 6.8058632219380899e-01 7.6413752018087022e-01 -3.0809886763350830e-01 8.1580809600219781e-02 2.1612261750324082e+00 1.6915084741153121e+00 
        </Neuron>
        <Neuron NSynapses="13">
          3.8981338355344830e+00 2.6315583746191068e-01 -2.3479784118455789e+00 8.7108343175313985e-01 -5.2870091902864127e+00 -4.6756687639999530e+00 -1.1981919993605776e+00 7.4344912815335806e-01 -8.1303482529942184e-01 9.3918243987291550e-01 -4.7799975085585544e-01 -4.9930773111412842e-02 -5.6149603080534680e+00 
        </Neuron>
        <Neuron NSynapses="13">
          1.1995760253801990e+00 3.9841896421196749e-01 6.2587852703456974e+00 5.7207865006587089e-01 4.9759587694530327e-01 2.0571266245642086e+00 -1.0240741465953216e+00 -2.1827795450687637e-01 -3.3801538017136465e+00 -5.2173282483605004e+00 -2.2704084480862741e+00 -1.8285805759472249e+00 -1.3451631965962547e+00 
        </Neuron>
        <Neuron NSynapses="13">
          1.3088725130820928e+00 2.0065617533897133e+00 2.5574271304059859e-01 -5.9134220539004390e-01 6.4925335770298986e-01 9.1767999382715970e-01 -9.1378399130431098e-01 -1.4730805298526106e+00 -1.6926563261628749e-01 -1.5081817240967396e-01 -1.3378564610378187e+00 1.9792155761973542e+00 3.2558764683664448e-01 
        </Neuron>
        <Neuron NSynapses="13">
          -4.6534469590077515e-01 1.6744464377942883e+00 2.0583207882460322e+00 -8.1659275847235113e-01 -4.2633673562026217e+00 -5.7084677199144664e+00 -2.6305110164048098e+00 2.5650691810907622e-01 8.6512156881817681e+00 6.4716167627527357e+00 -1.9050777214928143e+00 1.3546410710021124e+00 -2.9534879902113814e-02 
        </Neuron>
      </Layer>
      <Layer Index="1" NNeurons="14">
        <Neuron NSynapses="1">
          -1.4000214273425360e+00 
        </Neuron>
        <Neuron NSynapses="1">
          1.1814159560278028e+00 
        </Neuron>
        <Neuron NSynapses="1">
          -2.9564686527920609e+00 
        </Neuron>
        <Neuron NSynapses="1">
          -1.4430863464911814e+00 
        </Neuron>
        <Neuron NSynapses="1">
          3.4741647801271131e-01 
        </Neuron>
        <Neuron NSynapses="1">
          1.7105600420167890e+00 
        </Neuron>
        <Neuron NSynapses="1">
          1.2504402409944360e+00 
        </Neuron>
        <Neuron NSynapses="1">
          7.7703066396740628e-01 
        </Neuron>
        <Neuron NSynapses="1">
          -2.6475935639007395e+00 
        </Neuron>
        <Neuron NSynapses="1">
          -1.8093156296985271e+00 
        </Neuron>
        <Neuron NSynapses="1">
          -7.5839234427295121e-01 
        </Neuron>
        <Neuron NSynapses="1">
          -7.2743909436525589e-01 
        </Neuron>
        <Neuron NSynapses="1">
          1.7123756862059851e+00 
        </Neuron>
        <Neuron NSynapses="1">
          -9.6414380764877405e-02 
        </Neuron>
      </Layer>
      <Layer Index="2" NNeurons="1">
        <Neuron NSynapses="0"/>
      </Layer>
    </Layout>
  </Weights>
</MethodSetup>
