<?xml version="1.0"?>
<MethodSetup Method="MLP::MLP">
  <GeneralInfo>
    <Info name="TMVA Release" value="4.2.1 [262657]"/>
    <Info name="ROOT Release" value="6.24/06 [399366]"/>
    <Info name="Creator" value="brownd"/>
    <Info name="Date" value="Tue Aug 16 17:22:52 2022"/>
    <Info name="Host" value="Darwin macitois19.dyndns.cern.ch 19.6.0 Darwin Kernel Version 19.6.0: Tue Nov 10 00:10:30 PST 2020; root:xnu-6153.141.10~1/RELEASE_X86_64 x86_64"/>
    <Info name="Dir" value="/Users/brownd/mu2e/MDC2020"/>
    <Info name="Training events" value="20000"/>
    <Info name="TrainingTime" value="4.17846329e+01"/>
    <Info name="AnalysisType" value="Classification"/>
  </GeneralInfo>
  <Options>
    <Option name="NCycles" modified="Yes">600</Option>
    <Option name="HiddenLayers" modified="Yes">N+5</Option>
    <Option name="NeuronType" modified="Yes">tanh</Option>
    <Option name="RandomSeed" modified="No">1</Option>
    <Option name="EstimatorType" modified="No">CE</Option>
    <Option name="NeuronInputType" modified="No">sum</Option>
    <Option name="V" modified="Yes">False</Option>
    <Option name="VerbosityLevel" modified="No">Default</Option>
    <Option name="VarTransform" modified="Yes">N</Option>
    <Option name="H" modified="Yes">False</Option>
    <Option name="CreateMVAPdfs" modified="No">False</Option>
    <Option name="IgnoreNegWeightsInTraining" modified="No">False</Option>
    <Option name="TrainingMethod" modified="No">BP</Option>
    <Option name="LearningRate" modified="No">2.000000e-02</Option>
    <Option name="DecayRate" modified="No">1.000000e-02</Option>
    <Option name="TestRate" modified="Yes">5</Option>
    <Option name="EpochMonitoring" modified="No">False</Option>
    <Option name="Sampling" modified="No">1.000000e+00</Option>
    <Option name="SamplingEpoch" modified="No">1.000000e+00</Option>
    <Option name="SamplingImportance" modified="No">1.000000e+00</Option>
    <Option name="SamplingTraining" modified="No">True</Option>
    <Option name="SamplingTesting" modified="No">False</Option>
    <Option name="ResetStep" modified="No">50</Option>
    <Option name="Tau" modified="No">3.000000e+00</Option>
    <Option name="BPMode" modified="No">sequential</Option>
    <Option name="BatchSize" modified="No">-1</Option>
    <Option name="ConvergenceImprove" modified="No">1.000000e-30</Option>
    <Option name="ConvergenceTests" modified="No">-1</Option>
    <Option name="UseRegulator" modified="Yes">False</Option>
    <Option name="UpdateLimit" modified="No">10000</Option>
    <Option name="CalculateErrors" modified="No">False</Option>
    <Option name="WeightRange" modified="No">1.000000e+00</Option>
  </Options>
  <Variables NVar="5">
    <Variable VarIndex="0" Expression="abs(detsh.doca)" Label="doca" Title="doca" Unit="F" Internal="doca" Type="F" Min="5.22225855e-05" Max="9.96757603e+00"/>
    <Variable VarIndex="1" Expression="detsh.rdrift" Label="rdrift" Title="rdrift" Unit="F" Internal="rdrift" Type="F" Min="0.00000000e+00" Max="2.75405431e+00"/>
    <Variable VarIndex="2" Expression="detsh.totdrift" Label="totdrift" Title="totdrift" Unit="F" Internal="totdrift" Type="F" Min="8.79999995e-01" Max="3.60200005e+01"/>
    <Variable VarIndex="3" Expression="1000*detsh.edep" Label="edep" Title="edep" Unit="F" Internal="edep" Type="F" Min="1.98367029e-01" Max="5.78904486e+00"/>
    <Variable VarIndex="4" Expression="detsh.docavar" Label="dvar" Title="dvar" Unit="F" Internal="dvar" Type="F" Min="1.60704732e-01" Max="2.40225487e+01"/>
  </Variables>
  <Spectators NSpec="0"/>
  <Classes NClass="2">
    <Class Name="Signal" Index="0"/>
    <Class Name="Background" Index="1"/>
  </Classes>
  <Transformations NTransformations="1">
    <Transform Name="Normalize">
      <Selection>
        <Input NInputs="5">
          <Input Type="Variable" Label="doca" Expression="abs(detsh.doca)"/>
          <Input Type="Variable" Label="rdrift" Expression="detsh.rdrift"/>
          <Input Type="Variable" Label="totdrift" Expression="detsh.totdrift"/>
          <Input Type="Variable" Label="edep" Expression="1000*detsh.edep"/>
          <Input Type="Variable" Label="dvar" Expression="detsh.docavar"/>
        </Input>
        <Output NOutputs="5">
          <Output Type="Variable" Label="doca" Expression="abs(detsh.doca)"/>
          <Output Type="Variable" Label="rdrift" Expression="detsh.rdrift"/>
          <Output Type="Variable" Label="totdrift" Expression="detsh.totdrift"/>
          <Output Type="Variable" Label="edep" Expression="1000*detsh.edep"/>
          <Output Type="Variable" Label="dvar" Expression="detsh.docavar"/>
        </Output>
      </Selection>
      <Class ClassIndex="0">
        <Ranges>
          <Range Index="0" Min="2.0613323431462049e-04" Max="8.8793907165527344e+00"/>
          <Range Index="1" Min="0.0000000000000000e+00" Max="2.5601117610931396e+00"/>
          <Range Index="2" Min="8.7999999523162842e-01" Max="3.6020000457763672e+01"/>
          <Range Index="3" Min="1.9836702942848206e-01" Max="5.7854046821594238e+00"/>
          <Range Index="4" Min="1.6070473194122314e-01" Max="1.4457856178283691e+01"/>
        </Ranges>
      </Class>
      <Class ClassIndex="1">
        <Ranges>
          <Range Index="0" Min="5.2222585509298369e-05" Max="9.9675760269165039e+00"/>
          <Range Index="1" Min="0.0000000000000000e+00" Max="2.7540543079376221e+00"/>
          <Range Index="2" Min="8.7999999523162842e-01" Max="3.6020000457763672e+01"/>
          <Range Index="3" Min="2.0382672548294067e-01" Max="5.7890448570251465e+00"/>
          <Range Index="4" Min="1.6306206583976746e-01" Max="2.4022548675537109e+01"/>
        </Ranges>
      </Class>
      <Class ClassIndex="2">
        <Ranges>
          <Range Index="0" Min="5.2222585509298369e-05" Max="9.9675760269165039e+00"/>
          <Range Index="1" Min="0.0000000000000000e+00" Max="2.7540543079376221e+00"/>
          <Range Index="2" Min="8.7999999523162842e-01" Max="3.6020000457763672e+01"/>
          <Range Index="3" Min="1.9836702942848206e-01" Max="5.7890448570251465e+00"/>
          <Range Index="4" Min="1.6070473194122314e-01" Max="2.4022548675537109e+01"/>
        </Ranges>
      </Class>
    </Transform>
  </Transformations>
  <MVAPdfs/>
  <Weights>
    <Layout NLayers="3">
      <Layer Index="0" NNeurons="6">
        <Neuron NSynapses="10">
          -1.0802055110005253e+00 7.8339016361360947e-01 -1.0185986863140541e-01 1.0293353491609182e+01 -6.0618009604684833e+00 -1.2944759562191241e+00 -7.0022676319621380e-01 3.9011036803423211e+00 -9.0903556962774512e-01 -5.9733450440220794e+00 
        </Neuron>
        <Neuron NSynapses="10">
          -2.6069391654488894e+00 -1.0013264180079440e-01 -1.0537991330290419e+00 -1.4246348929857353e+00 1.4076229892910945e+00 1.3882132746754599e+00 -2.7928695114637714e-01 -1.1796413077176291e+00 2.3789891218988366e+00 4.1439614943861958e-01 
        </Neuron>
        <Neuron NSynapses="10">
          5.6527309163713635e-01 -2.6311142865095422e-02 8.9231568131003169e-01 4.4463538285070714e-01 8.6394383542290465e-01 7.8167685358980910e-01 3.4067367902835188e-01 -4.5407974383269750e-01 -2.2267528966960187e-02 6.5957330105605436e-02 
        </Neuron>
        <Neuron NSynapses="10">
          1.0920651607376348e-01 8.0503185484545658e-02 -6.8207068291459261e-01 1.3283693541812969e-01 7.7020659403552694e-01 4.3497826455074673e-01 -3.9010609890856363e-01 -1.0070884739401441e-01 -3.6131924480660255e-01 6.8311717205852163e-02 
        </Neuron>
        <Neuron NSynapses="10">
          1.1322902956006837e+01 1.7677356405679128e+00 7.9879681661099688e-01 -5.2030240796941438e+00 -3.5726539927072309e+00 -5.2594051632884362e+00 5.8563245905644812e-01 -3.3458930495601855e+00 3.0107293842269329e+00 1.4073645826940073e+01 
        </Neuron>
        <Neuron NSynapses="10">
          9.8381116203249359e+00 2.3279519297190090e+00 -2.6834574908424397e-01 4.5974146681258299e+00 -6.5198828514190188e+00 -4.0734752903119311e+00 -2.8718255889659827e-01 -2.7320680405400180e+00 1.2709907057576186e+00 9.3504127178096752e+00 
        </Neuron>
      </Layer>
      <Layer Index="1" NNeurons="11">
        <Neuron NSynapses="1">
          -1.3421791797995710e+00 
        </Neuron>
        <Neuron NSynapses="1">
          2.5640903633186891e-02 
        </Neuron>
        <Neuron NSynapses="1">
          2.1141586212722954e-01 
        </Neuron>
        <Neuron NSynapses="1">
          1.3737953808516556e+00 
        </Neuron>
        <Neuron NSynapses="1">
          1.6058287506598954e+00 
        </Neuron>
        <Neuron NSynapses="1">
          -2.2574897945855428e+00 
        </Neuron>
        <Neuron NSynapses="1">
          1.1769021173333416e-01 
        </Neuron>
        <Neuron NSynapses="1">
          -2.7221173788182651e+00 
        </Neuron>
        <Neuron NSynapses="1">
          -4.8569076455692911e-01 
        </Neuron>
        <Neuron NSynapses="1">
          -2.2192254273657488e+00 
        </Neuron>
        <Neuron NSynapses="1">
          -1.7618952323070023e+00 
        </Neuron>
      </Layer>
      <Layer Index="2" NNeurons="1">
        <Neuron NSynapses="0"/>
      </Layer>
    </Layout>
  </Weights>
</MethodSetup>
