<?xml version="1.0"?>
<MethodSetup Method="MLP::MLP">
  <GeneralInfo>
    <Info name="TMVA Release" value="4.2.1 [262657]"/>
    <Info name="ROOT Release" value="6.26/02 [399874]"/>
    <Info name="Creator" value="brownd"/>
    <Info name="Date" value="Wed Aug 24 07:59:57 2022"/>
    <Info name="Host" value="Darwin macphsft17.dyndns.cern.ch 21.4.0 Darwin Kernel Version 21.4.0: Fri Mar 18 00:45:05 PDT 2022; root:xnu-8020.101.4~15/RELEASE_X86_64 x86_64"/>
    <Info name="Dir" value="/Users/brownd/MDC2020"/>
    <Info name="Training events" value="40000"/>
    <Info name="TrainingTime" value="1.63077148e+02"/>
    <Info name="AnalysisType" value="Classification"/>
  </GeneralInfo>
  <Options>
    <Option name="NCycles" modified="Yes">600</Option>
    <Option name="HiddenLayers" modified="Yes">N+5</Option>
    <Option name="NeuronType" modified="Yes">tanh</Option>
    <Option name="RandomSeed" modified="No">1</Option>
    <Option name="EstimatorType" modified="No">CE</Option>
    <Option name="NeuronInputType" modified="No">sum</Option>
    <Option name="V" modified="Yes">False</Option>
    <Option name="VerbosityLevel" modified="No">Default</Option>
    <Option name="VarTransform" modified="Yes">N</Option>
    <Option name="H" modified="Yes">False</Option>
    <Option name="CreateMVAPdfs" modified="No">False</Option>
    <Option name="IgnoreNegWeightsInTraining" modified="No">False</Option>
    <Option name="TrainingMethod" modified="No">BP</Option>
    <Option name="LearningRate" modified="No">2.000000e-02</Option>
    <Option name="DecayRate" modified="No">1.000000e-02</Option>
    <Option name="TestRate" modified="Yes">5</Option>
    <Option name="EpochMonitoring" modified="No">False</Option>
    <Option name="Sampling" modified="No">1.000000e+00</Option>
    <Option name="SamplingEpoch" modified="No">1.000000e+00</Option>
    <Option name="SamplingImportance" modified="No">1.000000e+00</Option>
    <Option name="SamplingTraining" modified="No">True</Option>
    <Option name="SamplingTesting" modified="No">False</Option>
    <Option name="ResetStep" modified="No">50</Option>
    <Option name="Tau" modified="No">3.000000e+00</Option>
    <Option name="BPMode" modified="No">sequential</Option>
    <Option name="BatchSize" modified="No">-1</Option>
    <Option name="ConvergenceImprove" modified="No">1.000000e-30</Option>
    <Option name="ConvergenceTests" modified="No">-1</Option>
    <Option name="UseRegulator" modified="Yes">False</Option>
    <Option name="UpdateLimit" modified="No">10000</Option>
    <Option name="CalculateErrors" modified="No">False</Option>
    <Option name="WeightRange" modified="No">1.000000e+00</Option>
  </Options>
  <Variables NVar="8">
    <Variable VarIndex="0" Expression="abs(detsh.doca)" Label="udoca" Title="udoca" Unit="F" Internal="udoca" Type="F" Min="5.86148817e-05" Max="8.53220081e+00"/>
    <Variable VarIndex="1" Expression="detsh.rdrift" Label="rdrift" Title="rdrift" Unit="F" Internal="rdrift" Type="F" Min="0.00000000e+00" Max="2.73470235e+00"/>
    <Variable VarIndex="2" Expression="detsh.totdrift" Label="totdrift" Title="totdrift" Unit="F" Internal="totdrift" Type="F" Min="8.79999995e-01" Max="3.60200005e+01"/>
    <Variable VarIndex="3" Expression="1000*detsh.edep" Label="edep" Title="edep" Unit="F" Internal="edep" Type="F" Min="1.81988195e-01" Max="5.78904486e+00"/>
    <Variable VarIndex="4" Expression="detsh.docavar" Label="dvar" Title="dvar" Unit="F" Internal="dvar" Type="F" Min="2.09415153e-01" Max="1.17893140e+03"/>
    <Variable VarIndex="5" Expression="abs(detsh.wdot)" Label="wdot" Title="wdot" Unit="F" Internal="wdot" Type="F" Min="2.22513631e-01" Max="8.96444976e-01"/>
    <Variable VarIndex="6" Expression="abs(detsh.poca.Z())" Label="zed" Title="zed" Unit="F" Internal="zed" Type="F" Min="4.76796722e+01" Max="1.51832031e+03"/>
    <Variable VarIndex="7" Expression="detsh.poca.Rho()" Label="rho" Title="rho" Unit="F" Internal="rho" Type="F" Min="3.80000000e+02" Max="6.61250000e+02"/>
  </Variables>
  <Spectators NSpec="0"/>
  <Classes NClass="2">
    <Class Name="Signal" Index="0"/>
    <Class Name="Background" Index="1"/>
  </Classes>
  <Transformations NTransformations="1">
    <Transform Name="Normalize">
      <Selection>
        <Input NInputs="8">
          <Input Type="Variable" Label="udoca" Expression="abs(detsh.doca)"/>
          <Input Type="Variable" Label="rdrift" Expression="detsh.rdrift"/>
          <Input Type="Variable" Label="totdrift" Expression="detsh.totdrift"/>
          <Input Type="Variable" Label="edep" Expression="1000*detsh.edep"/>
          <Input Type="Variable" Label="dvar" Expression="detsh.docavar"/>
          <Input Type="Variable" Label="wdot" Expression="abs(detsh.wdot)"/>
          <Input Type="Variable" Label="zed" Expression="abs(detsh.poca.Z())"/>
          <Input Type="Variable" Label="rho" Expression="detsh.poca.Rho()"/>
        </Input>
        <Output NOutputs="8">
          <Output Type="Variable" Label="udoca" Expression="abs(detsh.doca)"/>
          <Output Type="Variable" Label="rdrift" Expression="detsh.rdrift"/>
          <Output Type="Variable" Label="totdrift" Expression="detsh.totdrift"/>
          <Output Type="Variable" Label="edep" Expression="1000*detsh.edep"/>
          <Output Type="Variable" Label="dvar" Expression="detsh.docavar"/>
          <Output Type="Variable" Label="wdot" Expression="abs(detsh.wdot)"/>
          <Output Type="Variable" Label="zed" Expression="abs(detsh.poca.Z())"/>
          <Output Type="Variable" Label="rho" Expression="detsh.poca.Rho()"/>
        </Output>
      </Selection>
      <Class ClassIndex="0">
        <Ranges>
          <Range Index="0" Min="1.3123611279297620e-04" Max="8.5322008132934570e+00"/>
          <Range Index="1" Min="0.0000000000000000e+00" Max="2.7347023487091064e+00"/>
          <Range Index="2" Min="8.7999999523162842e-01" Max="3.6020000457763672e+01"/>
          <Range Index="3" Min="1.8198819458484650e-01" Max="5.7890448570251465e+00"/>
          <Range Index="4" Min="2.0941515266895294e-01" Max="2.6731050491333008e+01"/>
          <Range Index="5" Min="2.2251363098621368e-01" Max="8.9644497632980347e-01"/>
          <Range Index="6" Min="4.7679672241210938e+01" Max="1.5183203125000000e+03"/>
          <Range Index="7" Min="3.8000000000000000e+02" Max="6.6125000000000000e+02"/>
        </Ranges>
      </Class>
      <Class ClassIndex="1">
        <Ranges>
          <Range Index="0" Min="5.8614881709218025e-05" Max="7.8218555450439453e+00"/>
          <Range Index="1" Min="0.0000000000000000e+00" Max="2.6547584533691406e+00"/>
          <Range Index="2" Min="8.7999999523162842e-01" Max="3.6020000457763672e+01"/>
          <Range Index="3" Min="2.0382672548294067e-01" Max="5.7872242927551270e+00"/>
          <Range Index="4" Min="2.1088755130767822e-01" Max="1.1789313964843750e+03"/>
          <Range Index="5" Min="2.2650617361068726e-01" Max="8.7804001569747925e-01"/>
          <Range Index="6" Min="4.7679672241210938e+01" Max="1.5183203125000000e+03"/>
          <Range Index="7" Min="3.8000000000000000e+02" Max="6.6125000000000000e+02"/>
        </Ranges>
      </Class>
      <Class ClassIndex="2">
        <Ranges>
          <Range Index="0" Min="5.8614881709218025e-05" Max="8.5322008132934570e+00"/>
          <Range Index="1" Min="0.0000000000000000e+00" Max="2.7347023487091064e+00"/>
          <Range Index="2" Min="8.7999999523162842e-01" Max="3.6020000457763672e+01"/>
          <Range Index="3" Min="1.8198819458484650e-01" Max="5.7890448570251465e+00"/>
          <Range Index="4" Min="2.0941515266895294e-01" Max="1.1789313964843750e+03"/>
          <Range Index="5" Min="2.2251363098621368e-01" Max="8.9644497632980347e-01"/>
          <Range Index="6" Min="4.7679672241210938e+01" Max="1.5183203125000000e+03"/>
          <Range Index="7" Min="3.8000000000000000e+02" Max="6.6125000000000000e+02"/>
        </Ranges>
      </Class>
    </Transform>
  </Transformations>
  <MVAPdfs/>
  <Weights>
    <Layout NLayers="3">
      <Layer Index="0" NNeurons="9">
        <Neuron NSynapses="13">
          -7.6020388941714758e+00 2.1054925940922748e+00 1.0390924103874397e+00 4.6004930164192217e+00 -2.0459003926009736e+00 -2.5703681397181455e-01 1.1379219180119733e+00 8.9324788712827488e+00 -9.6772001619315084e-01 -3.7510190010885675e-01 -4.8963425244182321e+00 -4.9330339431956203e+00 -3.0703120940442230e+00 
        </Neuron>
        <Neuron NSynapses="13">
          -1.8065521803731595e+00 -2.7793870581833553e+00 2.5247564687350899e-01 -1.3579502061666699e+00 3.1631896797420507e+00 -2.7406888924945433e-01 1.1736754322460534e+00 -1.3884376245454855e+00 1.1056188812758173e-01 6.8304295499231971e-01 -1.3382026593873140e+00 -2.7431451316385837e-02 -3.0343058318775240e+00 
        </Neuron>
        <Neuron NSynapses="13">
          -4.2863074012566627e-01 2.8360005542200917e-01 -1.0348204738807747e+00 -2.1375320297333761e-01 8.4345581126277647e-01 -1.4859217698874825e-02 -1.0890335444593258e+00 1.9609041293125462e-02 5.2466450062957648e-01 3.9383685856420780e-01 1.7049219562290233e-01 2.2322870872182507e-01 4.0109798319457401e-01 
        </Neuron>
        <Neuron NSynapses="13">
          -9.4503703551672602e-01 3.9067637814241907e-01 1.6152705398036342e+00 -3.8910897979716794e-02 1.9077731238410660e+00 -8.2754967802704769e-03 -4.6193325523342915e-01 -1.4060785210804377e-01 -3.0358327377772926e-01 4.6708366370609236e+00 -4.4400224316357478e-01 1.4089502995469469e+00 -1.8608513932308079e-01 
        </Neuron>
        <Neuron NSynapses="13">
          3.4810812370368072e+00 1.6378361826791585e+00 -1.4371974505186564e+00 -9.1951171270021392e-01 -1.4998548056883514e+00 -7.8024764683419956e-01 4.3421289884735281e-01 -4.3162418899122343e+00 -4.6805330186843491e-02 -1.5763554447815817e+00 1.6856155595820623e+00 3.4542682009188508e+00 2.5198041234775999e+00 
        </Neuron>
        <Neuron NSynapses="13">
          9.0847003989105424e-01 -4.9713734949818345e-01 3.5015147061435586e-01 -1.5731561029197758e-01 3.4587163861409315e-01 1.0969232015235965e-01 -2.0472144930541285e+00 -3.8849287394252263e-01 -1.9880543482086860e-01 8.3548334524087567e-02 -1.9177085531649071e-01 -2.2757283895305544e-01 -2.2500622606606422e+00 
        </Neuron>
        <Neuron NSynapses="13">
          3.9533718183171457e-01 -4.3460561715928214e-01 7.5930350382233891e-01 -1.4338416192160441e-01 -3.9120279438232763e-01 -3.2298168213752698e-02 3.0373917152895696e-01 4.0645579984951091e-01 5.2596966667893486e-01 -5.8296093371856469e-02 2.2908845775386935e-01 -1.6752280722499566e-01 8.2570529035404350e-02 
        </Neuron>
        <Neuron NSynapses="13">
          -2.0148558888922921e+00 6.8606442246708832e-01 -4.4453859345929903e-01 6.6857848281079013e-01 3.2507460252703857e-01 2.2291981016955287e-01 -1.0717790398552833e-01 -2.2009500983095015e-01 2.1333415885942478e-01 2.4830305625363497e-01 -8.8502964725469913e-01 -1.4379627014577029e-01 8.3399277802583849e-01 
        </Neuron>
        <Neuron NSynapses="13">
          -4.4549634554033846e+00 1.8760428209906099e+00 -8.2249613266273658e-01 4.7148696943434082e-01 -4.5127292701075372e-01 -8.5090909962370775e-01 -1.4376554902976086e+00 3.9219740760521935e+00 -8.6360451939547556e-01 1.4418278110039262e+00 -1.6739055047490252e+00 1.7667450522951933e-01 4.4609479118680007e-01 
        </Neuron>
      </Layer>
      <Layer Index="1" NNeurons="14">
        <Neuron NSynapses="1">
          -6.4029960795732666e-01 
        </Neuron>
        <Neuron NSynapses="1">
          -3.8830533748374296e-01 
        </Neuron>
        <Neuron NSynapses="1">
          -2.9294772653097617e-01 
        </Neuron>
        <Neuron NSynapses="1">
          -1.9562599428756253e+00 
        </Neuron>
        <Neuron NSynapses="1">
          2.9546839357093352e-01 
        </Neuron>
        <Neuron NSynapses="1">
          4.1732054802054253e-01 
        </Neuron>
        <Neuron NSynapses="1">
          1.6926764678018296e+00 
        </Neuron>
        <Neuron NSynapses="1">
          9.9616908142666805e-01 
        </Neuron>
        <Neuron NSynapses="1">
          -4.4896149504375771e-01 
        </Neuron>
        <Neuron NSynapses="1">
          4.2194863888403578e-01 
        </Neuron>
        <Neuron NSynapses="1">
          -1.0385632455974709e+00 
        </Neuron>
        <Neuron NSynapses="1">
          -8.1706696931099287e-01 
        </Neuron>
        <Neuron NSynapses="1">
          -4.4314464557106381e-01 
        </Neuron>
        <Neuron NSynapses="1">
          -3.7345769842192839e-01 
        </Neuron>
      </Layer>
      <Layer Index="2" NNeurons="1">
        <Neuron NSynapses="0"/>
      </Layer>
    </Layout>
  </Weights>
</MethodSetup>
