<?xml version="1.0"?>
<MethodSetup Method="MLP::MLP">
  <GeneralInfo>
    <Info name="TMVA Release" value="4.2.1 [262657]"/>
    <Info name="ROOT Release" value="6.26/02 [399874]"/>
    <Info name="Creator" value="brownd"/>
    <Info name="Date" value="Tue Aug 23 22:02:16 2022"/>
    <Info name="Host" value="Darwin macphsft17.dyndns.cern.ch 21.4.0 Darwin Kernel Version 21.4.0: Fri Mar 18 00:45:05 PDT 2022; root:xnu-8020.101.4~15/RELEASE_X86_64 x86_64"/>
    <Info name="Dir" value="/Users/brownd/MDC2020"/>
    <Info name="Training events" value="40000"/>
    <Info name="TrainingTime" value="1.60591916e+02"/>
    <Info name="AnalysisType" value="Classification"/>
  </GeneralInfo>
  <Options>
    <Option name="NCycles" modified="Yes">600</Option>
    <Option name="HiddenLayers" modified="Yes">N+5</Option>
    <Option name="NeuronType" modified="Yes">tanh</Option>
    <Option name="RandomSeed" modified="No">1</Option>
    <Option name="EstimatorType" modified="No">CE</Option>
    <Option name="NeuronInputType" modified="No">sum</Option>
    <Option name="V" modified="Yes">False</Option>
    <Option name="VerbosityLevel" modified="No">Default</Option>
    <Option name="VarTransform" modified="Yes">N</Option>
    <Option name="H" modified="Yes">False</Option>
    <Option name="CreateMVAPdfs" modified="No">False</Option>
    <Option name="IgnoreNegWeightsInTraining" modified="No">False</Option>
    <Option name="TrainingMethod" modified="No">BP</Option>
    <Option name="LearningRate" modified="No">2.000000e-02</Option>
    <Option name="DecayRate" modified="No">1.000000e-02</Option>
    <Option name="TestRate" modified="Yes">5</Option>
    <Option name="EpochMonitoring" modified="No">False</Option>
    <Option name="Sampling" modified="No">1.000000e+00</Option>
    <Option name="SamplingEpoch" modified="No">1.000000e+00</Option>
    <Option name="SamplingImportance" modified="No">1.000000e+00</Option>
    <Option name="SamplingTraining" modified="No">True</Option>
    <Option name="SamplingTesting" modified="No">False</Option>
    <Option name="ResetStep" modified="No">50</Option>
    <Option name="Tau" modified="No">3.000000e+00</Option>
    <Option name="BPMode" modified="No">sequential</Option>
    <Option name="BatchSize" modified="No">-1</Option>
    <Option name="ConvergenceImprove" modified="No">1.000000e-30</Option>
    <Option name="ConvergenceTests" modified="No">-1</Option>
    <Option name="UseRegulator" modified="Yes">False</Option>
    <Option name="UpdateLimit" modified="No">10000</Option>
    <Option name="CalculateErrors" modified="No">False</Option>
    <Option name="WeightRange" modified="No">1.000000e+00</Option>
  </Options>
  <Variables NVar="8">
    <Variable VarIndex="0" Expression="abs(detsh.doca)" Label="udoca" Title="udoca" Unit="F" Internal="udoca" Type="F" Min="2.00424847e-06" Max="9.45704460e+00"/>
    <Variable VarIndex="1" Expression="detsh.rdrift" Label="rdrift" Title="rdrift" Unit="F" Internal="rdrift" Type="F" Min="0.00000000e+00" Max="2.87315893e+00"/>
    <Variable VarIndex="2" Expression="detsh.totdrift" Label="totdrift" Title="totdrift" Unit="F" Internal="totdrift" Type="F" Min="8.79999995e-01" Max="3.60200005e+01"/>
    <Variable VarIndex="3" Expression="1000*detsh.edep" Label="edep" Title="edep" Unit="F" Internal="edep" Type="F" Min="1.83807924e-01" Max="5.78904486e+00"/>
    <Variable VarIndex="4" Expression="detsh.docavar" Label="dvar" Title="dvar" Unit="F" Internal="dvar" Type="F" Min="1.96195409e-01" Max="1.17893140e+03"/>
    <Variable VarIndex="5" Expression="abs(detsh.wdot)" Label="wdot" Title="wdot" Unit="F" Internal="wdot" Type="F" Min="2.26506174e-01" Max="8.94911349e-01"/>
    <Variable VarIndex="6" Expression="abs(detsh.poca.Z())" Label="zed" Title="zed" Unit="F" Internal="zed" Type="F" Min="4.76796722e+01" Max="1.51832031e+03"/>
    <Variable VarIndex="7" Expression="detsh.poca.Rho()" Label="rho" Title="rho" Unit="F" Internal="rho" Type="F" Min="3.80000000e+02" Max="6.61250000e+02"/>
  </Variables>
  <Spectators NSpec="0"/>
  <Classes NClass="2">
    <Class Name="Signal" Index="0"/>
    <Class Name="Background" Index="1"/>
  </Classes>
  <Transformations NTransformations="1">
    <Transform Name="Normalize">
      <Selection>
        <Input NInputs="8">
          <Input Type="Variable" Label="udoca" Expression="abs(detsh.doca)"/>
          <Input Type="Variable" Label="rdrift" Expression="detsh.rdrift"/>
          <Input Type="Variable" Label="totdrift" Expression="detsh.totdrift"/>
          <Input Type="Variable" Label="edep" Expression="1000*detsh.edep"/>
          <Input Type="Variable" Label="dvar" Expression="detsh.docavar"/>
          <Input Type="Variable" Label="wdot" Expression="abs(detsh.wdot)"/>
          <Input Type="Variable" Label="zed" Expression="abs(detsh.poca.Z())"/>
          <Input Type="Variable" Label="rho" Expression="detsh.poca.Rho()"/>
        </Input>
        <Output NOutputs="8">
          <Output Type="Variable" Label="udoca" Expression="abs(detsh.doca)"/>
          <Output Type="Variable" Label="rdrift" Expression="detsh.rdrift"/>
          <Output Type="Variable" Label="totdrift" Expression="detsh.totdrift"/>
          <Output Type="Variable" Label="edep" Expression="1000*detsh.edep"/>
          <Output Type="Variable" Label="dvar" Expression="detsh.docavar"/>
          <Output Type="Variable" Label="wdot" Expression="abs(detsh.wdot)"/>
          <Output Type="Variable" Label="zed" Expression="abs(detsh.poca.Z())"/>
          <Output Type="Variable" Label="rho" Expression="detsh.poca.Rho()"/>
        </Output>
      </Selection>
      <Class ClassIndex="0">
        <Ranges>
          <Range Index="0" Min="1.0113047028426081e-04" Max="7.4842000007629395e+00"/>
          <Range Index="1" Min="0.0000000000000000e+00" Max="2.7977478504180908e+00"/>
          <Range Index="2" Min="8.7999999523162842e-01" Max="3.6020000457763672e+01"/>
          <Range Index="3" Min="1.8380792438983917e-01" Max="5.7872242927551270e+00"/>
          <Range Index="4" Min="1.9619540870189667e-01" Max="2.9949655532836914e+01"/>
          <Range Index="5" Min="2.2873544692993164e-01" Max="8.9491134881973267e-01"/>
          <Range Index="6" Min="4.7679672241210938e+01" Max="1.5183203125000000e+03"/>
          <Range Index="7" Min="3.8000000000000000e+02" Max="6.5187500000000000e+02"/>
        </Ranges>
      </Class>
      <Class ClassIndex="1">
        <Ranges>
          <Range Index="0" Min="2.0042484720761422e-06" Max="9.4570446014404297e+00"/>
          <Range Index="1" Min="0.0000000000000000e+00" Max="2.8731589317321777e+00"/>
          <Range Index="2" Min="8.7999999523162842e-01" Max="3.6020000457763672e+01"/>
          <Range Index="3" Min="2.0382672548294067e-01" Max="5.7890448570251465e+00"/>
          <Range Index="4" Min="2.0656009018421173e-01" Max="1.1789313964843750e+03"/>
          <Range Index="5" Min="2.2650617361068726e-01" Max="8.7644255161285400e-01"/>
          <Range Index="6" Min="4.7679672241210938e+01" Max="1.5183203125000000e+03"/>
          <Range Index="7" Min="3.8000000000000000e+02" Max="6.6125000000000000e+02"/>
        </Ranges>
      </Class>
      <Class ClassIndex="2">
        <Ranges>
          <Range Index="0" Min="2.0042484720761422e-06" Max="9.4570446014404297e+00"/>
          <Range Index="1" Min="0.0000000000000000e+00" Max="2.8731589317321777e+00"/>
          <Range Index="2" Min="8.7999999523162842e-01" Max="3.6020000457763672e+01"/>
          <Range Index="3" Min="1.8380792438983917e-01" Max="5.7890448570251465e+00"/>
          <Range Index="4" Min="1.9619540870189667e-01" Max="1.1789313964843750e+03"/>
          <Range Index="5" Min="2.2650617361068726e-01" Max="8.9491134881973267e-01"/>
          <Range Index="6" Min="4.7679672241210938e+01" Max="1.5183203125000000e+03"/>
          <Range Index="7" Min="3.8000000000000000e+02" Max="6.6125000000000000e+02"/>
        </Ranges>
      </Class>
    </Transform>
  </Transformations>
  <MVAPdfs/>
  <Weights>
    <Layout NLayers="3">
      <Layer Index="0" NNeurons="9">
        <Neuron NSynapses="13">
          -7.7427784388503218e+00 2.5942593987207574e+00 1.7174010456767980e-01 3.7567419600678358e+00 -2.8266679161681476e+00 -2.7092789241072848e+00 -3.3892421913967524e-01 1.0171862838876022e+01 -1.4796236673908321e+00 -1.5428059154331122e-01 -6.5307805864737611e+00 -3.1543949761957757e+00 -3.0325127457749392e+00 
        </Neuron>
        <Neuron NSynapses="13">
          9.9014301697814958e-02 -3.7023370363318806e+00 -8.8500170140517961e-02 -1.3695656830966592e+00 2.1534324379529370e+00 1.5091164051441868e+00 -1.0039625395768441e+00 -1.5371517593486834e+00 -4.8989249735926810e-01 -7.3032271919845682e-02 7.6904887472149730e-01 -3.2238805149726315e+00 -1.3621020587574453e+00 
        </Neuron>
        <Neuron NSynapses="13">
          1.4101188417386401e-01 7.2721857828321723e-01 4.5936038425977310e-01 5.9702526532018041e-01 4.2350294596558152e-01 3.5215566636286066e-01 -4.4420854887373878e-01 5.6625407489529378e-02 3.9375660089161035e-01 -1.9834668182014182e-03 1.0164662536621525e+00 8.0221925989541332e-01 -1.1688665040565120e+00 
        </Neuron>
        <Neuron NSynapses="13">
          1.4607841131485880e-01 5.9646126678294653e-01 -4.4016066739640108e-01 5.3359875094899190e-01 3.7131607300960501e+00 2.3195144962254918e-01 -2.3861819161091491e+00 4.1580075844818723e-02 -1.0647996321396815e+00 1.9417849602950930e+00 8.2355515082049868e-01 -1.0570402767628585e-01 -9.0959620513537032e-01 
        </Neuron>
        <Neuron NSynapses="13">
          2.6766085671320474e+00 1.3876662059063662e+00 -1.6239010558239027e+00 -9.2002951200523042e-02 -1.8674250385093720e+00 -7.9911009916762454e-01 1.0137060575202390e+00 -4.9680644170116208e+00 -1.2830334055858539e+00 -3.3812272080798084e-01 2.1529251422686131e+00 3.7623079481579573e+00 2.9420246164811874e+00 
        </Neuron>
        <Neuron NSynapses="13">
          3.1116799771465209e-01 -1.2929967939897316e+00 1.1471681203647238e-01 1.6430124276770894e-01 1.6532306397217614e-01 1.9551208677329834e-01 -1.2546665172348617e+00 -2.8540245974184847e-01 1.9009605342568239e+00 7.3997824126134515e-01 -9.6323108476265384e-01 6.9176868984683204e-01 -1.1975188078698973e+00 
        </Neuron>
        <Neuron NSynapses="13">
          3.9563585543890983e-01 5.7065042259726106e-01 -3.2854049164920818e-01 7.1938911672254735e-01 -6.0759684840775052e-01 5.0380555398487059e-01 3.2959771227964668e-01 1.5141803922456834e-01 5.5124025379667740e-01 -2.8348701819896877e-01 9.1368094046028178e-02 2.6555181771917119e-01 -6.0194889711675992e-01 
        </Neuron>
        <Neuron NSynapses="13">
          -5.2552738746250804e-01 4.2827003992748608e-01 -1.9815051763611016e-01 1.6625430239808242e-01 1.8548863590325235e-01 -3.6478639582233324e-01 -3.8857449710134266e-02 -2.7209732642544665e-01 -5.5294546825756918e-01 2.7414078022843152e-02 -1.4218650953548835e+00 -1.0421429725863860e+00 2.5614611879204452e-01 
        </Neuron>
        <Neuron NSynapses="13">
          -3.4838793569683610e+00 2.7962864334566819e+00 -1.3675768134041468e+00 7.2936265810425660e-01 -4.6241286149343536e-01 -1.3893439463897432e+00 -1.7888383334201634e+00 4.5201884352568564e+00 1.4494647987618670e-01 5.4407061272850743e-01 -2.5662602823350746e+00 3.1708815459159066e-02 4.6754360097291670e-02 
        </Neuron>
      </Layer>
      <Layer Index="1" NNeurons="14">
        <Neuron NSynapses="1">
          -8.4582303062686970e-01 
        </Neuron>
        <Neuron NSynapses="1">
          -3.0846625328370292e-01 
        </Neuron>
        <Neuron NSynapses="1">
          6.1490429941437441e-01 
        </Neuron>
        <Neuron NSynapses="1">
          -1.1437302217279712e+00 
        </Neuron>
        <Neuron NSynapses="1">
          3.6386864207951664e-01 
        </Neuron>
        <Neuron NSynapses="1">
          1.3054940472066030e+00 
        </Neuron>
        <Neuron NSynapses="1">
          4.8162549771268831e-01 
        </Neuron>
        <Neuron NSynapses="1">
          1.4454503384440178e+00 
        </Neuron>
        <Neuron NSynapses="1">
          -1.2050299770891291e+00 
        </Neuron>
        <Neuron NSynapses="1">
          3.5135857038926421e-01 
        </Neuron>
        <Neuron NSynapses="1">
          -4.5842433310738973e-01 
        </Neuron>
        <Neuron NSynapses="1">
          -6.8693413937458325e-01 
        </Neuron>
        <Neuron NSynapses="1">
          -5.5541987946735027e-01 
        </Neuron>
        <Neuron NSynapses="1">
          -1.3548966132058728e+00 
        </Neuron>
      </Layer>
      <Layer Index="2" NNeurons="1">
        <Neuron NSynapses="0"/>
      </Layer>
    </Layout>
  </Weights>
</MethodSetup>
