<?xml version="1.0"?>
<MethodSetup Method="MLP::MLP">
  <GeneralInfo>
    <Info name="TMVA Release" value="4.2.1 [262657]"/>
    <Info name="ROOT Release" value="6.24/06 [399366]"/>
    <Info name="Creator" value="brownd"/>
    <Info name="Date" value="Thu Aug 25 13:19:12 2022"/>
    <Info name="Host" value="Darwin macitois19.dyndns.cern.ch 19.6.0 Darwin Kernel Version 19.6.0: Tue Nov 10 00:10:30 PST 2020; root:xnu-6153.141.10~1/RELEASE_X86_64 x86_64"/>
    <Info name="Dir" value="/Users/brownd/mu2e/MDC2020"/>
    <Info name="Training events" value="20000"/>
    <Info name="TrainingTime" value="5.17039630e+01"/>
    <Info name="AnalysisType" value="Classification"/>
  </GeneralInfo>
  <Options>
    <Option name="NCycles" modified="Yes">600</Option>
    <Option name="HiddenLayers" modified="Yes">N+5</Option>
    <Option name="NeuronType" modified="Yes">tanh</Option>
    <Option name="RandomSeed" modified="No">1</Option>
    <Option name="EstimatorType" modified="No">CE</Option>
    <Option name="NeuronInputType" modified="No">sum</Option>
    <Option name="V" modified="Yes">False</Option>
    <Option name="VerbosityLevel" modified="No">Default</Option>
    <Option name="VarTransform" modified="Yes">N</Option>
    <Option name="H" modified="Yes">False</Option>
    <Option name="CreateMVAPdfs" modified="No">False</Option>
    <Option name="IgnoreNegWeightsInTraining" modified="No">False</Option>
    <Option name="TrainingMethod" modified="No">BP</Option>
    <Option name="LearningRate" modified="No">2.000000e-02</Option>
    <Option name="DecayRate" modified="No">1.000000e-02</Option>
    <Option name="TestRate" modified="Yes">5</Option>
    <Option name="EpochMonitoring" modified="No">False</Option>
    <Option name="Sampling" modified="No">1.000000e+00</Option>
    <Option name="SamplingEpoch" modified="No">1.000000e+00</Option>
    <Option name="SamplingImportance" modified="No">1.000000e+00</Option>
    <Option name="SamplingTraining" modified="No">True</Option>
    <Option name="SamplingTesting" modified="No">False</Option>
    <Option name="ResetStep" modified="No">50</Option>
    <Option name="Tau" modified="No">3.000000e+00</Option>
    <Option name="BPMode" modified="No">sequential</Option>
    <Option name="BatchSize" modified="No">-1</Option>
    <Option name="ConvergenceImprove" modified="No">1.000000e-30</Option>
    <Option name="ConvergenceTests" modified="No">-1</Option>
    <Option name="UseRegulator" modified="Yes">False</Option>
    <Option name="UpdateLimit" modified="No">10000</Option>
    <Option name="CalculateErrors" modified="No">False</Option>
    <Option name="WeightRange" modified="No">1.000000e+00</Option>
  </Options>
  <Variables NVar="8">
    <Variable VarIndex="0" Expression="abs(detsh.udoca)" Label="udoca" Title="udoca" Unit="F" Internal="udoca" Type="F" Min="3.62474602e-05" Max="2.15271606e+01"/>
    <Variable VarIndex="1" Expression="detsh.rdrift" Label="rdrift" Title="rdrift" Unit="F" Internal="rdrift" Type="F" Min="-1.50570745e+01" Max="2.80720925e+00"/>
    <Variable VarIndex="2" Expression="detsh.tottdrift" Label="tottdrift" Title="tottdrift" Unit="F" Internal="tottdrift" Type="F" Min="8.79999995e-01" Max="3.60200005e+01"/>
    <Variable VarIndex="3" Expression="1000*detsh.edep" Label="edep" Title="edep" Unit="F" Internal="edep" Type="F" Min="1.94727331e-01" Max="5.78904486e+00"/>
    <Variable VarIndex="4" Expression="detsh.udocavar" Label="dvar" Title="dvar" Unit="F" Internal="dvar" Type="F" Min="2.09342048e-01" Max="3.94054718e+01"/>
    <Variable VarIndex="5" Expression="abs(detsh.wdot)" Label="wdot" Title="wdot" Unit="F" Internal="wdot" Type="F" Min="2.33487755e-01" Max="8.92569959e-01"/>
    <Variable VarIndex="6" Expression="abs(detsh.poca.Z())" Label="zed" Title="zed" Unit="F" Internal="zed" Type="F" Min="4.76796722e+01" Max="1.51832031e+03"/>
    <Variable VarIndex="7" Expression="detsh.poca.Rho()" Label="rho" Title="rho" Unit="F" Internal="rho" Type="F" Min="3.80000000e+02" Max="6.58125000e+02"/>
  </Variables>
  <Spectators NSpec="0"/>
  <Classes NClass="2">
    <Class Name="Signal" Index="0"/>
    <Class Name="Background" Index="1"/>
  </Classes>
  <Transformations NTransformations="1">
    <Transform Name="Normalize">
      <Selection>
        <Input NInputs="8">
          <Input Type="Variable" Label="udoca" Expression="abs(detsh.udoca)"/>
          <Input Type="Variable" Label="rdrift" Expression="detsh.rdrift"/>
          <Input Type="Variable" Label="tottdrift" Expression="detsh.tottdrift"/>
          <Input Type="Variable" Label="edep" Expression="1000*detsh.edep"/>
          <Input Type="Variable" Label="dvar" Expression="detsh.udocavar"/>
          <Input Type="Variable" Label="wdot" Expression="abs(detsh.wdot)"/>
          <Input Type="Variable" Label="zed" Expression="abs(detsh.poca.Z())"/>
          <Input Type="Variable" Label="rho" Expression="detsh.poca.Rho()"/>
        </Input>
        <Output NOutputs="8">
          <Output Type="Variable" Label="udoca" Expression="abs(detsh.udoca)"/>
          <Output Type="Variable" Label="rdrift" Expression="detsh.rdrift"/>
          <Output Type="Variable" Label="tottdrift" Expression="detsh.tottdrift"/>
          <Output Type="Variable" Label="edep" Expression="1000*detsh.edep"/>
          <Output Type="Variable" Label="dvar" Expression="detsh.udocavar"/>
          <Output Type="Variable" Label="wdot" Expression="abs(detsh.wdot)"/>
          <Output Type="Variable" Label="zed" Expression="abs(detsh.poca.Z())"/>
          <Output Type="Variable" Label="rho" Expression="detsh.poca.Rho()"/>
        </Output>
      </Selection>
      <Class ClassIndex="0">
        <Ranges>
          <Range Index="0" Min="2.6291317772120237e-04" Max="1.1140138626098633e+01"/>
          <Range Index="1" Min="-1.4929594993591309e+01" Max="2.8072092533111572e+00"/>
          <Range Index="2" Min="8.7999999523162842e-01" Max="3.6020000457763672e+01"/>
          <Range Index="3" Min="1.9472733139991760e-01" Max="5.7872242927551270e+00"/>
          <Range Index="4" Min="2.0934204757213593e-01" Max="3.9405471801757812e+01"/>
          <Range Index="5" Min="2.4447783827781677e-01" Max="8.9256995916366577e-01"/>
          <Range Index="6" Min="4.7679672241210938e+01" Max="1.5183203125000000e+03"/>
          <Range Index="7" Min="3.8000000000000000e+02" Max="6.4562500000000000e+02"/>
        </Ranges>
      </Class>
      <Class ClassIndex="1">
        <Ranges>
          <Range Index="0" Min="3.6247460229787976e-05" Max="2.1527160644531250e+01"/>
          <Range Index="1" Min="-1.5057074546813965e+01" Max="2.6229050159454346e+00"/>
          <Range Index="2" Min="8.7999999523162842e-01" Max="3.6020000457763672e+01"/>
          <Range Index="3" Min="2.0382672548294067e-01" Max="5.7890448570251465e+00"/>
          <Range Index="4" Min="2.1114660799503326e-01" Max="3.1501607894897461e+01"/>
          <Range Index="5" Min="2.3348775506019592e-01" Max="8.7804001569747925e-01"/>
          <Range Index="6" Min="4.7679672241210938e+01" Max="1.5183203125000000e+03"/>
          <Range Index="7" Min="3.8000000000000000e+02" Max="6.5812500000000000e+02"/>
        </Ranges>
      </Class>
      <Class ClassIndex="2">
        <Ranges>
          <Range Index="0" Min="3.6247460229787976e-05" Max="2.1527160644531250e+01"/>
          <Range Index="1" Min="-1.5057074546813965e+01" Max="2.8072092533111572e+00"/>
          <Range Index="2" Min="8.7999999523162842e-01" Max="3.6020000457763672e+01"/>
          <Range Index="3" Min="1.9472733139991760e-01" Max="5.7890448570251465e+00"/>
          <Range Index="4" Min="2.0934204757213593e-01" Max="3.9405471801757812e+01"/>
          <Range Index="5" Min="2.3348775506019592e-01" Max="8.9256995916366577e-01"/>
          <Range Index="6" Min="4.7679672241210938e+01" Max="1.5183203125000000e+03"/>
          <Range Index="7" Min="3.8000000000000000e+02" Max="6.5812500000000000e+02"/>
        </Ranges>
      </Class>
    </Transform>
  </Transformations>
  <MVAPdfs/>
  <Weights>
    <Layout NLayers="3">
      <Layer Index="0" NNeurons="9">
        <Neuron NSynapses="13">
          -5.0977698623222191e-02 8.8249101940869301e-01 8.9171315934572988e+00 9.6235953624953972e+00 -7.6328935491083938e-01 -5.0821575542579911e-01 1.8442086035760252e-01 8.4041334215000649e+00 -3.2569043723167673e-01 -2.2003921241484523e+00 -7.1881164441099807e+00 -6.3609493105809933e-01 -8.9272014356483331e-01 
        </Neuron>
        <Neuron NSynapses="13">
          -4.8512834353812812e-01 2.3511092077621498e-01 1.0265928583502093e+00 1.0245973428535775e+00 3.9260778817991699e+00 -4.8529924835430421e-01 1.8390712360395745e+00 7.7107171864657493e+00 -9.5820249656154244e-01 -8.2559762161095840e-01 -3.5197063573882890e+00 -1.6785119626494560e+00 -9.9814612131194336e-01 
        </Neuron>
        <Neuron NSynapses="13">
          8.5116976141195744e-01 -7.6441794061734591e-01 -4.6750031109924267e-01 -7.4266568269130795e-01 1.2512350258015562e-02 1.0785296785995342e+00 1.1486919285990906e+00 -4.9882260960206692e-01 2.0567196521574571e-01 5.4877742550829878e-01 -9.0927746189763481e-01 1.6447483430477019e+00 -6.1661025377913536e-01 
        </Neuron>
        <Neuron NSynapses="13">
          1.1998904357360130e+00 1.6784797621847793e+00 9.1395519199671774e-02 6.7824529800553257e-02 2.7249880426109086e-02 -3.6795580280662499e-01 1.7843753865076115e-01 1.9961016517701352e-01 2.4340544084452254e-01 2.7341027089358683e+00 -9.8037206074300609e-02 8.8035747486791616e-01 1.2078753756753726e+00 
        </Neuron>
        <Neuron NSynapses="13">
          -2.9140702125509192e+00 4.4147287421571607e-01 -8.4178013833826082e+00 -2.8840687704366346e+00 1.0607885240437023e+00 -8.5976530454927524e-01 3.0642583608073646e+00 -1.4868390584317916e+01 -1.6634940281751336e+00 1.5059187180704270e+00 5.1713898358759920e+00 1.0603953711616361e+00 2.6920062178419260e+00 
        </Neuron>
        <Neuron NSynapses="13">
          6.5158692209096913e-01 3.6622671330115597e-01 -5.0879930279505559e-01 3.4179358263483360e-02 -2.3912697867107791e+00 -8.5614257791780210e-02 -6.0276327322715384e-01 -1.6468362693009025e-02 1.6528101317764232e-01 3.0999121877430219e-01 -1.0813998958348274e-01 -1.6452219079946833e+00 -1.5672393894696235e+00 
        </Neuron>
        <Neuron NSynapses="13">
          6.5733428525623153e-02 1.5501798129019939e-01 1.5527329367831635e-01 -1.1708114755071937e-01 5.3936420679553132e-01 -2.1463532451948261e-01 8.1687455690854915e-01 -4.5784563171898343e-02 -8.2785618518549668e-04 -1.0004374633107325e-01 -5.4466672372294453e-02 -9.7729530760608307e-01 -4.8691913236435025e-01 
        </Neuron>
        <Neuron NSynapses="13">
          3.0007768262402323e-01 -1.0421366550538964e-01 -4.3392543430181496e-01 3.9058783397615443e-01 2.2172233971103855e-01 6.1737233834074250e-02 -7.6761068534877297e-01 1.7834793260461387e-01 -1.2791537891948340e-01 -1.4827179695468481e-01 -2.8712390887296918e-01 1.2803959762980708e+00 1.4991714055101046e+00 
        </Neuron>
        <Neuron NSynapses="13">
          -2.0763682705473663e+00 3.0520911222067260e+00 -1.4010346823336517e-01 3.6529243660735529e+00 -6.7230988696208827e-01 -7.6926084202041423e-01 -2.5166601124316861e+00 -1.3634044913451463e+01 -9.2084158856956277e-01 3.1249668884033277e-01 1.0437238376213505e+00 1.6772943434575605e+00 7.6668945168250680e-02 
        </Neuron>
      </Layer>
      <Layer Index="1" NNeurons="14">
        <Neuron NSynapses="1">
          5.8752502649494287e-01 
        </Neuron>
        <Neuron NSynapses="1">
          1.0221070787953359e+00 
        </Neuron>
        <Neuron NSynapses="1">
          1.3911990056455668e+00 
        </Neuron>
        <Neuron NSynapses="1">
          -3.5126200817656899e+00 
        </Neuron>
        <Neuron NSynapses="1">
          -6.7698419014991351e-01 
        </Neuron>
        <Neuron NSynapses="1">
          -6.1628923602848870e-02 
        </Neuron>
        <Neuron NSynapses="1">
          2.4650195573566056e+00 
        </Neuron>
        <Neuron NSynapses="1">
          3.7164238093778721e+00 
        </Neuron>
        <Neuron NSynapses="1">
          -2.7327835504398407e-01 
        </Neuron>
        <Neuron NSynapses="1">
          -6.9523455386125277e-01 
        </Neuron>
        <Neuron NSynapses="1">
          -9.7003971750750539e-01 
        </Neuron>
        <Neuron NSynapses="1">
          4.7855234738852015e-01 
        </Neuron>
        <Neuron NSynapses="1">
          2.9075377475759429e-01 
        </Neuron>
        <Neuron NSynapses="1">
          1.3435179713208847e+00 
        </Neuron>
      </Layer>
      <Layer Index="2" NNeurons="1">
        <Neuron NSynapses="0"/>
      </Layer>
    </Layout>
  </Weights>
</MethodSetup>
