<?xml version="1.0"?>
<MethodSetup Method="MLP::MLP">
  <GeneralInfo>
    <Info name="TMVA Release" value="4.2.1 [262657]"/>
    <Info name="ROOT Release" value="6.26/02 [399874]"/>
    <Info name="Creator" value="brownd"/>
    <Info name="Date" value="Mon Sep  5 17:22:54 2022"/>
    <Info name="Host" value="Darwin macphsft17.dyndns.cern.ch 21.4.0 Darwin Kernel Version 21.4.0: Fri Mar 18 00:45:05 PDT 2022; root:xnu-8020.101.4~15/RELEASE_X86_64 x86_64"/>
    <Info name="Dir" value="/Users/brownd/MDC2020"/>
    <Info name="Training events" value="20000"/>
    <Info name="TrainingTime" value="1.33092760e+02"/>
    <Info name="AnalysisType" value="Classification"/>
  </GeneralInfo>
  <Options>
    <Option name="NCycles" modified="Yes">600</Option>
    <Option name="HiddenLayers" modified="Yes">N+5</Option>
    <Option name="NeuronType" modified="Yes">ReLU</Option>
    <Option name="RandomSeed" modified="No">1</Option>
    <Option name="EstimatorType" modified="No">CE</Option>
    <Option name="NeuronInputType" modified="No">sum</Option>
    <Option name="V" modified="Yes">False</Option>
    <Option name="VerbosityLevel" modified="No">Default</Option>
    <Option name="VarTransform" modified="Yes">N</Option>
    <Option name="H" modified="Yes">False</Option>
    <Option name="CreateMVAPdfs" modified="No">False</Option>
    <Option name="IgnoreNegWeightsInTraining" modified="No">False</Option>
    <Option name="TrainingMethod" modified="No">BP</Option>
    <Option name="LearningRate" modified="No">2.000000e-02</Option>
    <Option name="DecayRate" modified="No">1.000000e-02</Option>
    <Option name="TestRate" modified="Yes">5</Option>
    <Option name="EpochMonitoring" modified="No">False</Option>
    <Option name="Sampling" modified="No">1.000000e+00</Option>
    <Option name="SamplingEpoch" modified="No">1.000000e+00</Option>
    <Option name="SamplingImportance" modified="No">1.000000e+00</Option>
    <Option name="SamplingTraining" modified="No">True</Option>
    <Option name="SamplingTesting" modified="No">False</Option>
    <Option name="ResetStep" modified="No">50</Option>
    <Option name="Tau" modified="No">3.000000e+00</Option>
    <Option name="BPMode" modified="No">sequential</Option>
    <Option name="BatchSize" modified="No">-1</Option>
    <Option name="ConvergenceImprove" modified="No">1.000000e-30</Option>
    <Option name="ConvergenceTests" modified="No">-1</Option>
    <Option name="UseRegulator" modified="Yes">False</Option>
    <Option name="UpdateLimit" modified="No">10000</Option>
    <Option name="CalculateErrors" modified="No">False</Option>
    <Option name="WeightRange" modified="No">1.000000e+00</Option>
  </Options>
  <Variables NVar="9">
    <Variable VarIndex="0" Expression="abs(detsh.udoca)" Label="udoca" Title="udoca" Unit="F" Internal="udoca" Type="F" Min="3.24911307e-05" Max="3.31707611e+01"/>
    <Variable VarIndex="1" Expression="detsh.rdrift" Label="rdrift" Title="rdrift" Unit="F" Internal="rdrift" Type="F" Min="-1.24016114e-01" Max="2.70070624e+00"/>
    <Variable VarIndex="2" Expression="detsh.tottdrift" Label="tottdrift" Title="tottdrift" Unit="F" Internal="tottdrift" Type="F" Min="8.79999995e-01" Max="3.60200005e+01"/>
    <Variable VarIndex="3" Expression="1000*detsh.edep" Label="edep" Title="edep" Unit="F" Internal="edep" Type="F" Min="2.00187027e-01" Max="5.78904486e+00"/>
    <Variable VarIndex="4" Expression="(detsh.rdrift-fabs(detsh.udoca))/sqrt(detsh.rerr*detsh.rerr+detsh.udocavar)" Label="udpull" Title="udpull" Unit="F" Internal="udpull" Type="F" Min="-8.29637146e+00" Max="3.51140523e+00"/>
    <Variable VarIndex="5" Expression="sqrt(detsh.udocavar)" Label="uderr" Title="uderr" Unit="F" Internal="uderr" Type="F" Min="4.48896617e-01" Max="4.49162636e+01"/>
    <Variable VarIndex="6" Expression="abs(detsh.wdot)" Label="wdot" Title="wdot" Unit="F" Internal="wdot" Type="F" Min="2.01508522e-01" Max="8.92252207e-01"/>
    <Variable VarIndex="7" Expression="abs(detsh.poca.Z())" Label="zed" Title="zed" Unit="F" Internal="zed" Type="F" Min="4.76796722e+01" Max="1.51832031e+03"/>
    <Variable VarIndex="8" Expression="detsh.poca.Rho()" Label="rho" Title="rho" Unit="F" Internal="rho" Type="F" Min="3.80000000e+02" Max="6.64375061e+02"/>
  </Variables>
  <Spectators NSpec="0"/>
  <Classes NClass="2">
    <Class Name="Signal" Index="0"/>
    <Class Name="Background" Index="1"/>
  </Classes>
  <Transformations NTransformations="1">
    <Transform Name="Normalize">
      <Selection>
        <Input NInputs="9">
          <Input Type="Variable" Label="udoca" Expression="abs(detsh.udoca)"/>
          <Input Type="Variable" Label="rdrift" Expression="detsh.rdrift"/>
          <Input Type="Variable" Label="tottdrift" Expression="detsh.tottdrift"/>
          <Input Type="Variable" Label="edep" Expression="1000*detsh.edep"/>
          <Input Type="Variable" Label="udpull" Expression="(detsh.rdrift-fabs(detsh.udoca))/sqrt(detsh.rerr*detsh.rerr+detsh.udocavar)"/>
          <Input Type="Variable" Label="uderr" Expression="sqrt(detsh.udocavar)"/>
          <Input Type="Variable" Label="wdot" Expression="abs(detsh.wdot)"/>
          <Input Type="Variable" Label="zed" Expression="abs(detsh.poca.Z())"/>
          <Input Type="Variable" Label="rho" Expression="detsh.poca.Rho()"/>
        </Input>
        <Output NOutputs="9">
          <Output Type="Variable" Label="udoca" Expression="abs(detsh.udoca)"/>
          <Output Type="Variable" Label="rdrift" Expression="detsh.rdrift"/>
          <Output Type="Variable" Label="tottdrift" Expression="detsh.tottdrift"/>
          <Output Type="Variable" Label="edep" Expression="1000*detsh.edep"/>
          <Output Type="Variable" Label="udpull" Expression="(detsh.rdrift-fabs(detsh.udoca))/sqrt(detsh.rerr*detsh.rerr+detsh.udocavar)"/>
          <Output Type="Variable" Label="uderr" Expression="sqrt(detsh.udocavar)"/>
          <Output Type="Variable" Label="wdot" Expression="abs(detsh.wdot)"/>
          <Output Type="Variable" Label="zed" Expression="abs(detsh.poca.Z())"/>
          <Output Type="Variable" Label="rho" Expression="detsh.poca.Rho()"/>
        </Output>
      </Selection>
      <Class ClassIndex="0">
        <Ranges>
          <Range Index="0" Min="3.4166770637966692e-04" Max="5.7276759147644043e+00"/>
          <Range Index="1" Min="-1.2401611357927322e-01" Max="2.7007062435150146e+00"/>
          <Range Index="2" Min="8.7999999523162842e-01" Max="3.6020000457763672e+01"/>
          <Range Index="3" Min="2.0018702745437622e-01" Max="5.7872242927551270e+00"/>
          <Range Index="4" Min="-5.5089015960693359e+00" Max="3.5114052295684814e+00"/>
          <Range Index="5" Min="4.5296296477317810e-01" Max="1.0681340217590332e+01"/>
          <Range Index="6" Min="2.2868511080741882e-01" Max="8.7499827146530151e-01"/>
          <Range Index="7" Min="4.7679672241210938e+01" Max="1.5183203125000000e+03"/>
          <Range Index="8" Min="3.8000000000000000e+02" Max="6.5812500000000000e+02"/>
        </Ranges>
      </Class>
      <Class ClassIndex="1">
        <Ranges>
          <Range Index="0" Min="3.2491130696143955e-05" Max="3.3170761108398438e+01"/>
          <Range Index="1" Min="-1.1933837085962296e-01" Max="2.6162087917327881e+00"/>
          <Range Index="2" Min="8.7999999523162842e-01" Max="3.6020000457763672e+01"/>
          <Range Index="3" Min="2.2202555835247040e-01" Max="5.7890448570251465e+00"/>
          <Range Index="4" Min="-8.2963714599609375e+00" Max="3.3929140567779541e+00"/>
          <Range Index="5" Min="4.4889661669731140e-01" Max="4.4916263580322266e+01"/>
          <Range Index="6" Min="2.0150852203369141e-01" Max="8.9225220680236816e-01"/>
          <Range Index="7" Min="4.7679672241210938e+01" Max="1.5183203125000000e+03"/>
          <Range Index="8" Min="3.8000000000000000e+02" Max="6.6437506103515625e+02"/>
        </Ranges>
      </Class>
      <Class ClassIndex="2">
        <Ranges>
          <Range Index="0" Min="3.2491130696143955e-05" Max="3.3170761108398438e+01"/>
          <Range Index="1" Min="-1.2401611357927322e-01" Max="2.7007062435150146e+00"/>
          <Range Index="2" Min="8.7999999523162842e-01" Max="3.6020000457763672e+01"/>
          <Range Index="3" Min="2.0018702745437622e-01" Max="5.7890448570251465e+00"/>
          <Range Index="4" Min="-8.2963714599609375e+00" Max="3.5114052295684814e+00"/>
          <Range Index="5" Min="4.4889661669731140e-01" Max="4.4916263580322266e+01"/>
          <Range Index="6" Min="2.0150852203369141e-01" Max="8.9225220680236816e-01"/>
          <Range Index="7" Min="4.7679672241210938e+01" Max="1.5183203125000000e+03"/>
          <Range Index="8" Min="3.8000000000000000e+02" Max="6.6437506103515625e+02"/>
        </Ranges>
      </Class>
    </Transform>
  </Transformations>
  <MVAPdfs/>
  <Weights>
    <Layout NLayers="3">
      <Layer Index="0" NNeurons="10">
        <Neuron NSynapses="14">
          5.1936759115735631e-01 5.1034462625091557e+00 1.1639178680653397e+00 2.6257606570450416e+00 2.8174041191498227e+00 -1.1752202411237533e+00 3.0880775339456807e+00 3.6400492402628051e+00 -4.2286630018642857e+00 1.2247279813333002e-01 -1.3002896370814305e+01 -4.0995496051281749e-01 -3.8707488069230228e-01 -1.4747856686887836e-01 
        </Neuron>
        <Neuron NSynapses="14">
          -1.4022059044846225e-01 -5.8371245513339154e-01 -6.2520505774007096e-01 1.9555124913906001e+00 9.6491384296607016e-02 9.0389909957439052e-01 4.1568107468300924e-01 5.2422740944941548e-01 1.1255499101337985e+00 4.2655596634753747e-02 -1.0754562436183461e+00 -2.5666887263089877e-01 4.2523903038346775e+00 -1.3612371355038748e+00 
        </Neuron>
        <Neuron NSynapses="14">
          -1.3483581693532156e+00 -8.9097879623030157e-03 4.9411917517693460e-01 1.6962385830409272e+00 -8.2398297251786101e-01 7.2829258815002379e-02 -1.0347493094347633e-01 8.1083901087746502e-01 -8.9576442875538531e-01 1.8498924912995580e+00 1.3874437072007850e-01 1.3285971462230168e+00 -1.5533695029401602e+00 4.9172177336857908e-01 
        </Neuron>
        <Neuron NSynapses="14">
          1.4906337528298557e+00 7.2365536888952386e-01 -4.1098478135067873e-01 -1.5082383252933977e+00 -2.0012350077064713e+00 1.2843665425068647e+00 -4.7724843647620318e-03 1.6520286723229503e+00 -5.3407843200782379e-01 2.0866588631627661e+00 -8.8826215017570251e-02 1.2568315070057028e+00 -9.0216256472765832e-01 3.8482984470688453e-01 
        </Neuron>
        <Neuron NSynapses="14">
          -1.5847085168785244e+00 -9.3587894637763713e-01 1.6098837531949250e+00 5.9155998110455033e-01 -4.0300730199907315e+00 -1.7109561621795003e-01 -3.6506814539195620e-01 -4.4861236659204268e-01 4.2416180198171451e+00 -1.0146740431071835e+00 1.5997884168150792e-01 -1.2532451612128670e+00 -1.5245396390985575e+00 -7.5271884840565351e-01 
        </Neuron>
        <Neuron NSynapses="14">
          1.6166654144834849e-01 -1.6203303360317010e+00 1.1467392955742557e+00 1.9657883166450056e+00 1.5583707787117058e+00 -1.2775712616331401e+00 -1.2896929911884275e+01 -2.8893106249327560e-01 6.4546590952419516e+00 2.3017022789319608e+00 2.1137543520490489e+01 6.3142017713254661e-01 2.5817664308215411e+00 -7.4886554759540536e-01 
        </Neuron>
        <Neuron NSynapses="14">
          -1.0355732862509905e+00 -2.0170477049799862e-01 7.6922271588982150e-01 -4.9441805373638964e-01 -4.8488722050876432e-01 -1.6789904436828706e+00 -9.8773998137855035e-02 2.4722548495238383e-01 1.5533369941706483e+00 -1.8957024451164308e+00 -6.5783505593447167e-01 1.6326422209734130e+00 7.0396121733496586e-01 -2.4027312552639164e+00 
        </Neuron>
        <Neuron NSynapses="14">
          -6.9885078712953586e-01 2.6554645968052605e-02 -1.5662869389866714e+00 -1.7298699934818906e+00 -1.4178962625564395e-01 1.0052896044809514e-01 -1.4814396497565772e-02 4.2989704894730814e+00 1.2540118148322582e-01 -1.5856116410549677e+00 -7.7364151818211768e-02 1.2144697204940967e-01 -8.3828674878259080e-01 -2.2766909802428473e-01 
        </Neuron>
        <Neuron NSynapses="14">
          7.2541159914309006e-01 5.0559042117981762e-03 -9.1106445094968203e-01 2.3313252165930742e+00 3.7982515297704345e-01 1.5617788961055534e-01 1.1741667332918160e-01 -1.1835152906830813e-01 -3.5107709386866770e-01 -9.6340268211558067e-01 2.2925672709898023e-01 1.7523657287237955e+00 9.0455808590772357e-01 7.7968645675256054e-01 
        </Neuron>
        <Neuron NSynapses="14">
          -1.2627793241050311e+00 3.4095485424666441e+00 -2.1972353051429296e+00 -3.9302925007978035e-01 4.5022016441497481e+00 -1.8757558766863216e+00 -9.3264923716276318e+00 -3.3244247411578234e-02 -1.3503404903197291e+00 2.0295207580161262e-01 9.8846243878149131e+00 -1.8705855578240154e+00 7.3426747672602877e-01 2.6621561936419008e-01 
        </Neuron>
      </Layer>
      <Layer Index="1" NNeurons="15">
        <Neuron NSynapses="1">
          1.6763021477680212e-01 
        </Neuron>
        <Neuron NSynapses="1">
          -2.4226766925962204e+00 
        </Neuron>
        <Neuron NSynapses="1">
          -1.0174870421494266e+00 
        </Neuron>
        <Neuron NSynapses="1">
          2.1052665260787333e+00 
        </Neuron>
        <Neuron NSynapses="1">
          -1.4631230773843256e+00 
        </Neuron>
        <Neuron NSynapses="1">
          4.5283398011155129e-01 
        </Neuron>
        <Neuron NSynapses="1">
          4.7253731144151079e+00 
        </Neuron>
        <Neuron NSynapses="1">
          -8.2077948551032265e-01 
        </Neuron>
        <Neuron NSynapses="1">
          -1.1763797583401630e+00 
        </Neuron>
        <Neuron NSynapses="1">
          -2.3846210038120468e+00 
        </Neuron>
        <Neuron NSynapses="1">
          -1.9153162419116605e+00 
        </Neuron>
        <Neuron NSynapses="1">
          7.5897378578551855e-01 
        </Neuron>
        <Neuron NSynapses="1">
          -1.3308227962774457e+00 
        </Neuron>
        <Neuron NSynapses="1">
          7.6077568201310863e-01 
        </Neuron>
        <Neuron NSynapses="1">
          1.7463313943693124e+00 
        </Neuron>
      </Layer>
      <Layer Index="2" NNeurons="1">
        <Neuron NSynapses="0"/>
      </Layer>
    </Layout>
  </Weights>
</MethodSetup>
