<?xml version="1.0"?>
<MethodSetup Method="MLP::MLP">
  <GeneralInfo>
    <Info name="TMVA Release" value="4.2.1 [262657]"/>
    <Info name="ROOT Release" value="6.24/06 [399366]"/>
    <Info name="Creator" value="brownd"/>
    <Info name="Date" value="Tue Aug 16 17:42:07 2022"/>
    <Info name="Host" value="Darwin macitois19.dyndns.cern.ch 19.6.0 Darwin Kernel Version 19.6.0: Tue Nov 10 00:10:30 PST 2020; root:xnu-6153.141.10~1/RELEASE_X86_64 x86_64"/>
    <Info name="Dir" value="/Users/brownd/mu2e/MDC2020"/>
    <Info name="Training events" value="20000"/>
    <Info name="TrainingTime" value="4.19403830e+01"/>
    <Info name="AnalysisType" value="Classification"/>
  </GeneralInfo>
  <Options>
    <Option name="NCycles" modified="Yes">600</Option>
    <Option name="HiddenLayers" modified="Yes">N+5</Option>
    <Option name="NeuronType" modified="Yes">tanh</Option>
    <Option name="RandomSeed" modified="No">1</Option>
    <Option name="EstimatorType" modified="No">CE</Option>
    <Option name="NeuronInputType" modified="No">sum</Option>
    <Option name="V" modified="Yes">False</Option>
    <Option name="VerbosityLevel" modified="No">Default</Option>
    <Option name="VarTransform" modified="Yes">N</Option>
    <Option name="H" modified="Yes">False</Option>
    <Option name="CreateMVAPdfs" modified="No">False</Option>
    <Option name="IgnoreNegWeightsInTraining" modified="No">False</Option>
    <Option name="TrainingMethod" modified="No">BP</Option>
    <Option name="LearningRate" modified="No">2.000000e-02</Option>
    <Option name="DecayRate" modified="No">1.000000e-02</Option>
    <Option name="TestRate" modified="Yes">5</Option>
    <Option name="EpochMonitoring" modified="No">False</Option>
    <Option name="Sampling" modified="No">1.000000e+00</Option>
    <Option name="SamplingEpoch" modified="No">1.000000e+00</Option>
    <Option name="SamplingImportance" modified="No">1.000000e+00</Option>
    <Option name="SamplingTraining" modified="No">True</Option>
    <Option name="SamplingTesting" modified="No">False</Option>
    <Option name="ResetStep" modified="No">50</Option>
    <Option name="Tau" modified="No">3.000000e+00</Option>
    <Option name="BPMode" modified="No">sequential</Option>
    <Option name="BatchSize" modified="No">-1</Option>
    <Option name="ConvergenceImprove" modified="No">1.000000e-30</Option>
    <Option name="ConvergenceTests" modified="No">-1</Option>
    <Option name="UseRegulator" modified="Yes">False</Option>
    <Option name="UpdateLimit" modified="No">10000</Option>
    <Option name="CalculateErrors" modified="No">False</Option>
    <Option name="WeightRange" modified="No">1.000000e+00</Option>
  </Options>
  <Variables NVar="5">
    <Variable VarIndex="0" Expression="abs(detsh.doca)" Label="doca" Title="doca" Unit="F" Internal="doca" Type="F" Min="5.22225855e-05" Max="9.58264065e+00"/>
    <Variable VarIndex="1" Expression="detsh.rdrift" Label="rdrift" Title="rdrift" Unit="F" Internal="rdrift" Type="F" Min="0.00000000e+00" Max="2.90008020e+00"/>
    <Variable VarIndex="2" Expression="detsh.totdrift" Label="totdrift" Title="totdrift" Unit="F" Internal="totdrift" Type="F" Min="8.79999995e-01" Max="3.60200005e+01"/>
    <Variable VarIndex="3" Expression="1000*detsh.edep" Label="edep" Title="edep" Unit="F" Internal="edep" Type="F" Min="1.89267620e-01" Max="5.78722429e+00"/>
    <Variable VarIndex="4" Expression="detsh.docavar" Label="dvar" Title="dvar" Unit="F" Internal="dvar" Type="F" Min="1.61691248e-01" Max="3.34258270e+01"/>
  </Variables>
  <Spectators NSpec="0"/>
  <Classes NClass="2">
    <Class Name="Signal" Index="0"/>
    <Class Name="Background" Index="1"/>
  </Classes>
  <Transformations NTransformations="1">
    <Transform Name="Normalize">
      <Selection>
        <Input NInputs="5">
          <Input Type="Variable" Label="doca" Expression="abs(detsh.doca)"/>
          <Input Type="Variable" Label="rdrift" Expression="detsh.rdrift"/>
          <Input Type="Variable" Label="totdrift" Expression="detsh.totdrift"/>
          <Input Type="Variable" Label="edep" Expression="1000*detsh.edep"/>
          <Input Type="Variable" Label="dvar" Expression="detsh.docavar"/>
        </Input>
        <Output NOutputs="5">
          <Output Type="Variable" Label="doca" Expression="abs(detsh.doca)"/>
          <Output Type="Variable" Label="rdrift" Expression="detsh.rdrift"/>
          <Output Type="Variable" Label="totdrift" Expression="detsh.totdrift"/>
          <Output Type="Variable" Label="edep" Expression="1000*detsh.edep"/>
          <Output Type="Variable" Label="dvar" Expression="detsh.docavar"/>
        </Output>
      </Selection>
      <Class ClassIndex="0">
        <Ranges>
          <Range Index="0" Min="5.5337743106065318e-05" Max="9.5826406478881836e+00"/>
          <Range Index="1" Min="0.0000000000000000e+00" Max="2.5635702610015869e+00"/>
          <Range Index="2" Min="9.7000002861022949e-01" Max="3.6020000457763672e+01"/>
          <Range Index="3" Min="1.8926762044429779e-01" Max="5.7854046821594238e+00"/>
          <Range Index="4" Min="1.6169124841690063e-01" Max="3.3425827026367188e+01"/>
        </Ranges>
      </Class>
      <Class ClassIndex="1">
        <Ranges>
          <Range Index="0" Min="5.2222585509298369e-05" Max="9.1671600341796875e+00"/>
          <Range Index="1" Min="0.0000000000000000e+00" Max="2.9000802040100098e+00"/>
          <Range Index="2" Min="8.7999999523162842e-01" Max="3.6020000457763672e+01"/>
          <Range Index="3" Min="2.0382672548294067e-01" Max="5.7872242927551270e+00"/>
          <Range Index="4" Min="1.6378308832645416e-01" Max="2.4022548675537109e+01"/>
        </Ranges>
      </Class>
      <Class ClassIndex="2">
        <Ranges>
          <Range Index="0" Min="5.2222585509298369e-05" Max="9.5826406478881836e+00"/>
          <Range Index="1" Min="0.0000000000000000e+00" Max="2.9000802040100098e+00"/>
          <Range Index="2" Min="8.7999999523162842e-01" Max="3.6020000457763672e+01"/>
          <Range Index="3" Min="1.8926762044429779e-01" Max="5.7872242927551270e+00"/>
          <Range Index="4" Min="1.6169124841690063e-01" Max="3.3425827026367188e+01"/>
        </Ranges>
      </Class>
    </Transform>
  </Transformations>
  <MVAPdfs/>
  <Weights>
    <Layout NLayers="3">
      <Layer Index="0" NNeurons="6">
        <Neuron NSynapses="10">
          1.6323132928545521e+00 2.1795478911757882e+00 7.1970515770071616e-02 9.5726324876717399e+00 -5.9531899469633673e+00 1.1418552839065968e-01 -4.5873851013647249e+00 6.7115365217388201e-01 -3.1602604289230913e+00 -4.9969362846088252e+00 
        </Neuron>
        <Neuron NSynapses="10">
          -1.9699037698608950e+00 -1.0768029133022394e+00 -1.9406313731153781e+00 -2.2277260050672867e+00 2.8232472554113897e+00 -8.5951275822529649e-01 -1.5882514913250572e+00 2.2788776999610589e+00 -1.8449359612943370e-01 1.2648145478589086e+00 
        </Neuron>
        <Neuron NSynapses="10">
          6.7287597876663524e-02 -3.5847152265191934e-01 -4.3692095296160575e-02 -1.8965925153512450e-01 3.0327702636796174e-03 -2.4736522122034971e-01 -1.2107006132660833e-01 -3.3092444139541738e-01 6.2508939939524732e-01 5.9919803772183540e-02 
        </Neuron>
        <Neuron NSynapses="10">
          -9.3074054060626399e-01 2.1905242191622718e+00 -3.4707808979221255e-01 2.0692206103034589e-02 1.1450222942895119e+00 1.0223757597636197e-01 8.7615188649547204e-01 3.3862789226953192e+00 1.4433850881312658e+00 -6.7817400461994959e-01 
        </Neuron>
        <Neuron NSynapses="10">
          6.6076373655709792e+00 3.9406315671773431e+00 3.6996098527772143e+00 -7.3522420129594499e+00 -1.1704715380092976e+00 -3.4262112921933645e+00 6.3314924291304351e+00 7.8637029293406235e-01 2.0210569126574818e+00 1.6728123806878777e+01 
        </Neuron>
        <Neuron NSynapses="10">
          7.6587067043832473e+00 5.3553810386222702e+00 1.2214003983309116e+00 1.9718843523583194e+00 -2.7310990245443536e+00 -3.2296065533235514e+00 2.4492076724991838e+00 -1.8198011704451620e+00 2.1389718204643824e+00 1.2749288861763848e+01 
        </Neuron>
      </Layer>
      <Layer Index="1" NNeurons="11">
        <Neuron NSynapses="1">
          -1.2561178737650660e+00 
        </Neuron>
        <Neuron NSynapses="1">
          -1.0858384452480254e+00 
        </Neuron>
        <Neuron NSynapses="1">
          4.5015107109570351e+00 
        </Neuron>
        <Neuron NSynapses="1">
          1.7943239037059204e+00 
        </Neuron>
        <Neuron NSynapses="1">
          1.1259838186851225e+00 
        </Neuron>
        <Neuron NSynapses="1">
          3.1467493793381263e-01 
        </Neuron>
        <Neuron NSynapses="1">
          -8.8517237481722444e-01 
        </Neuron>
        <Neuron NSynapses="1">
          -2.6137633992988878e+00 
        </Neuron>
        <Neuron NSynapses="1">
          1.3179038206266271e+00 
        </Neuron>
        <Neuron NSynapses="1">
          -2.3779291046952498e+00 
        </Neuron>
        <Neuron NSynapses="1">
          -1.3082644243278105e+00 
        </Neuron>
      </Layer>
      <Layer Index="2" NNeurons="1">
        <Neuron NSynapses="0"/>
      </Layer>
    </Layout>
  </Weights>
</MethodSetup>
