<?xml version="1.0"?>
<MethodSetup Method="MLP::MLP">
  <GeneralInfo>
    <Info name="TMVA Release" value="4.2.1 [262657]"/>
    <Info name="ROOT Release" value="6.24/06 [399366]"/>
    <Info name="Creator" value="brownd"/>
    <Info name="Date" value="Tue Aug 16 17:59:48 2022"/>
    <Info name="Host" value="Darwin macitois19.dyndns.cern.ch 19.6.0 Darwin Kernel Version 19.6.0: Tue Nov 10 00:10:30 PST 2020; root:xnu-6153.141.10~1/RELEASE_X86_64 x86_64"/>
    <Info name="Dir" value="/Users/brownd/mu2e/MDC2020"/>
    <Info name="Training events" value="20000"/>
    <Info name="TrainingTime" value="4.12641699e+01"/>
    <Info name="AnalysisType" value="Classification"/>
  </GeneralInfo>
  <Options>
    <Option name="NCycles" modified="Yes">600</Option>
    <Option name="HiddenLayers" modified="Yes">N+5</Option>
    <Option name="NeuronType" modified="Yes">tanh</Option>
    <Option name="RandomSeed" modified="No">1</Option>
    <Option name="EstimatorType" modified="No">CE</Option>
    <Option name="NeuronInputType" modified="No">sum</Option>
    <Option name="V" modified="Yes">False</Option>
    <Option name="VerbosityLevel" modified="No">Default</Option>
    <Option name="VarTransform" modified="Yes">N</Option>
    <Option name="H" modified="Yes">False</Option>
    <Option name="CreateMVAPdfs" modified="No">False</Option>
    <Option name="IgnoreNegWeightsInTraining" modified="No">False</Option>
    <Option name="TrainingMethod" modified="No">BP</Option>
    <Option name="LearningRate" modified="No">2.000000e-02</Option>
    <Option name="DecayRate" modified="No">1.000000e-02</Option>
    <Option name="TestRate" modified="Yes">5</Option>
    <Option name="EpochMonitoring" modified="No">False</Option>
    <Option name="Sampling" modified="No">1.000000e+00</Option>
    <Option name="SamplingEpoch" modified="No">1.000000e+00</Option>
    <Option name="SamplingImportance" modified="No">1.000000e+00</Option>
    <Option name="SamplingTraining" modified="No">True</Option>
    <Option name="SamplingTesting" modified="No">False</Option>
    <Option name="ResetStep" modified="No">50</Option>
    <Option name="Tau" modified="No">3.000000e+00</Option>
    <Option name="BPMode" modified="No">sequential</Option>
    <Option name="BatchSize" modified="No">-1</Option>
    <Option name="ConvergenceImprove" modified="No">1.000000e-30</Option>
    <Option name="ConvergenceTests" modified="No">-1</Option>
    <Option name="UseRegulator" modified="Yes">False</Option>
    <Option name="UpdateLimit" modified="No">10000</Option>
    <Option name="CalculateErrors" modified="No">False</Option>
    <Option name="WeightRange" modified="No">1.000000e+00</Option>
  </Options>
  <Variables NVar="5">
    <Variable VarIndex="0" Expression="abs(detsh.doca)" Label="doca" Title="doca" Unit="F" Internal="doca" Type="F" Min="5.22225855e-05" Max="9.58264065e+00"/>
    <Variable VarIndex="1" Expression="detsh.rdrift" Label="rdrift" Title="rdrift" Unit="F" Internal="rdrift" Type="F" Min="0.00000000e+00" Max="2.90008020e+00"/>
    <Variable VarIndex="2" Expression="detsh.totdrift" Label="totdrift" Title="totdrift" Unit="F" Internal="totdrift" Type="F" Min="8.79999995e-01" Max="3.60200005e+01"/>
    <Variable VarIndex="3" Expression="1000*detsh.edep" Label="edep" Title="edep" Unit="F" Internal="edep" Type="F" Min="1.89267620e-01" Max="5.78722429e+00"/>
    <Variable VarIndex="4" Expression="detsh.docavar" Label="dvar" Title="dvar" Unit="F" Internal="dvar" Type="F" Min="1.61691248e-01" Max="3.34258270e+01"/>
  </Variables>
  <Spectators NSpec="0"/>
  <Classes NClass="2">
    <Class Name="Signal" Index="0"/>
    <Class Name="Background" Index="1"/>
  </Classes>
  <Transformations NTransformations="1">
    <Transform Name="Normalize">
      <Selection>
        <Input NInputs="5">
          <Input Type="Variable" Label="doca" Expression="abs(detsh.doca)"/>
          <Input Type="Variable" Label="rdrift" Expression="detsh.rdrift"/>
          <Input Type="Variable" Label="totdrift" Expression="detsh.totdrift"/>
          <Input Type="Variable" Label="edep" Expression="1000*detsh.edep"/>
          <Input Type="Variable" Label="dvar" Expression="detsh.docavar"/>
        </Input>
        <Output NOutputs="5">
          <Output Type="Variable" Label="doca" Expression="abs(detsh.doca)"/>
          <Output Type="Variable" Label="rdrift" Expression="detsh.rdrift"/>
          <Output Type="Variable" Label="totdrift" Expression="detsh.totdrift"/>
          <Output Type="Variable" Label="edep" Expression="1000*detsh.edep"/>
          <Output Type="Variable" Label="dvar" Expression="detsh.docavar"/>
        </Output>
      </Selection>
      <Class ClassIndex="0">
        <Ranges>
          <Range Index="0" Min="5.5337743106065318e-05" Max="9.5826406478881836e+00"/>
          <Range Index="1" Min="0.0000000000000000e+00" Max="2.5635702610015869e+00"/>
          <Range Index="2" Min="9.7000002861022949e-01" Max="3.6020000457763672e+01"/>
          <Range Index="3" Min="1.8926762044429779e-01" Max="5.7854046821594238e+00"/>
          <Range Index="4" Min="1.6169124841690063e-01" Max="3.3425827026367188e+01"/>
        </Ranges>
      </Class>
      <Class ClassIndex="1">
        <Ranges>
          <Range Index="0" Min="5.2222585509298369e-05" Max="9.1671600341796875e+00"/>
          <Range Index="1" Min="0.0000000000000000e+00" Max="2.9000802040100098e+00"/>
          <Range Index="2" Min="8.7999999523162842e-01" Max="3.6020000457763672e+01"/>
          <Range Index="3" Min="2.0382672548294067e-01" Max="5.7872242927551270e+00"/>
          <Range Index="4" Min="1.6378308832645416e-01" Max="2.4022548675537109e+01"/>
        </Ranges>
      </Class>
      <Class ClassIndex="2">
        <Ranges>
          <Range Index="0" Min="5.2222585509298369e-05" Max="9.5826406478881836e+00"/>
          <Range Index="1" Min="0.0000000000000000e+00" Max="2.9000802040100098e+00"/>
          <Range Index="2" Min="8.7999999523162842e-01" Max="3.6020000457763672e+01"/>
          <Range Index="3" Min="1.8926762044429779e-01" Max="5.7872242927551270e+00"/>
          <Range Index="4" Min="1.6169124841690063e-01" Max="3.3425827026367188e+01"/>
        </Ranges>
      </Class>
    </Transform>
  </Transformations>
  <MVAPdfs/>
  <Weights>
    <Layout NLayers="3">
      <Layer Index="0" NNeurons="6">
        <Neuron NSynapses="10">
          -4.8250046215703826e+00 3.4531712971964945e-01 1.0054322720180455e+00 3.7763972620295387e+00 -7.1390554020244839e+00 -4.8817634636221424e-01 -4.7208527758943258e-01 3.1168252414866608e+00 -1.0678537334394200e+00 -3.7257977415873946e+00 
        </Neuron>
        <Neuron NSynapses="10">
          -3.6178752481714033e-01 -3.3912818932503708e-01 -5.2538325974146138e-01 -8.1634309175611375e-01 2.2266249965428178e+00 -7.2153295593785038e-01 -1.2685884695035408e+00 2.7781836268972042e+00 2.7561663974187511e+00 2.3554413177469744e+00 
        </Neuron>
        <Neuron NSynapses="10">
          7.0001194137539802e-02 -3.5632583239604032e-01 1.0158007156058910e+00 -3.7783101772423122e-01 2.9464661546089416e-01 5.7227006559153182e-01 -2.9612451601027312e-01 -3.1965192030401783e+00 -3.2495417601844370e+00 -3.3195669299180997e-01 
        </Neuron>
        <Neuron NSynapses="10">
          -4.5043086159787610e-01 4.2255747307162732e+00 -1.5111347566587963e-01 7.0773697820394582e-02 2.7639633564329913e-01 5.6778105919141786e-01 -7.0357011442409805e+00 -1.4559002566468926e+00 5.5130620083639381e-01 -2.2521991214590975e+00 
        </Neuron>
        <Neuron NSynapses="10">
          1.2059571320616683e+01 2.9532357495432620e+00 2.6157808530337476e+00 7.9279018825182899e+00 2.4879168006859265e-01 -3.8001874925695223e+00 5.1550965977257874e+00 -1.9079351800706779e+00 2.8799475024473004e-01 5.7488223085905279e+00 
        </Neuron>
        <Neuron NSynapses="10">
          8.4880718103203918e+00 4.8124050432363559e+00 -1.7914055302854044e+00 1.0175141891261555e+01 -1.5033952498125664e+00 -2.9036653189431041e+00 1.5122822379817030e-01 -2.7716466931081083e+00 2.1151054564367979e+00 1.7105040966542187e+00 
        </Neuron>
      </Layer>
      <Layer Index="1" NNeurons="11">
        <Neuron NSynapses="1">
          -2.1169575172367603e+00 
        </Neuron>
        <Neuron NSynapses="1">
          -8.9987841227431387e-01 
        </Neuron>
        <Neuron NSynapses="1">
          2.5368394439199147e+00 
        </Neuron>
        <Neuron NSynapses="1">
          -2.0085626483013046e+00 
        </Neuron>
        <Neuron NSynapses="1">
          1.7433029529904807e+00 
        </Neuron>
        <Neuron NSynapses="1">
          -2.7730216720266432e+00 
        </Neuron>
        <Neuron NSynapses="1">
          -7.7081090347390913e-01 
        </Neuron>
        <Neuron NSynapses="1">
          -1.9973571649306165e+00 
        </Neuron>
        <Neuron NSynapses="1">
          4.1715114829910477e-01 
        </Neuron>
        <Neuron NSynapses="1">
          -1.0792561912801497e+00 
        </Neuron>
        <Neuron NSynapses="1">
          9.9610361831210892e-01 
        </Neuron>
      </Layer>
      <Layer Index="2" NNeurons="1">
        <Neuron NSynapses="0"/>
      </Layer>
    </Layout>
  </Weights>
</MethodSetup>
