<?xml version="1.0"?>
<MethodSetup Method="MLP::MLP">
  <GeneralInfo>
    <Info name="TMVA Release" value="4.2.1 [262657]"/>
    <Info name="ROOT Release" value="6.24/06 [399366]"/>
    <Info name="Creator" value="brownd"/>
    <Info name="Date" value="Thu Aug 18 17:05:32 2022"/>
    <Info name="Host" value="Darwin macitois19.dyndns.cern.ch 19.6.0 Darwin Kernel Version 19.6.0: Tue Nov 10 00:10:30 PST 2020; root:xnu-6153.141.10~1/RELEASE_X86_64 x86_64"/>
    <Info name="Dir" value="/Users/brownd/mu2e/MDC2020"/>
    <Info name="Training events" value="40000"/>
    <Info name="TrainingTime" value="1.07608540e+02"/>
    <Info name="AnalysisType" value="Classification"/>
  </GeneralInfo>
  <Options>
    <Option name="NCycles" modified="Yes">600</Option>
    <Option name="HiddenLayers" modified="Yes">N+5</Option>
    <Option name="NeuronType" modified="Yes">tanh</Option>
    <Option name="RandomSeed" modified="No">1</Option>
    <Option name="EstimatorType" modified="No">CE</Option>
    <Option name="NeuronInputType" modified="No">sum</Option>
    <Option name="V" modified="Yes">False</Option>
    <Option name="VerbosityLevel" modified="No">Default</Option>
    <Option name="VarTransform" modified="Yes">N</Option>
    <Option name="H" modified="Yes">False</Option>
    <Option name="CreateMVAPdfs" modified="No">False</Option>
    <Option name="IgnoreNegWeightsInTraining" modified="No">False</Option>
    <Option name="TrainingMethod" modified="No">BP</Option>
    <Option name="LearningRate" modified="No">2.000000e-02</Option>
    <Option name="DecayRate" modified="No">1.000000e-02</Option>
    <Option name="TestRate" modified="Yes">5</Option>
    <Option name="EpochMonitoring" modified="No">False</Option>
    <Option name="Sampling" modified="No">1.000000e+00</Option>
    <Option name="SamplingEpoch" modified="No">1.000000e+00</Option>
    <Option name="SamplingImportance" modified="No">1.000000e+00</Option>
    <Option name="SamplingTraining" modified="No">True</Option>
    <Option name="SamplingTesting" modified="No">False</Option>
    <Option name="ResetStep" modified="No">50</Option>
    <Option name="Tau" modified="No">3.000000e+00</Option>
    <Option name="BPMode" modified="No">sequential</Option>
    <Option name="BatchSize" modified="No">-1</Option>
    <Option name="ConvergenceImprove" modified="No">1.000000e-30</Option>
    <Option name="ConvergenceTests" modified="No">-1</Option>
    <Option name="UseRegulator" modified="Yes">False</Option>
    <Option name="UpdateLimit" modified="No">10000</Option>
    <Option name="CalculateErrors" modified="No">False</Option>
    <Option name="WeightRange" modified="No">1.000000e+00</Option>
  </Options>
  <Variables NVar="8">
    <Variable VarIndex="0" Expression="abs(detsh.doca)" Label="udoca" Title="udoca" Unit="F" Internal="udoca" Type="F" Min="4.83060830e-05" Max="9.96757603e+00"/>
    <Variable VarIndex="1" Expression="detsh.rdrift" Label="rdrift" Title="rdrift" Unit="F" Internal="rdrift" Type="F" Min="0.00000000e+00" Max="3.04490209e+00"/>
    <Variable VarIndex="2" Expression="detsh.totdrift" Label="totdrift" Title="totdrift" Unit="F" Internal="totdrift" Type="F" Min="8.79999995e-01" Max="3.60200005e+01"/>
    <Variable VarIndex="3" Expression="1000*detsh.edep" Label="edep" Title="edep" Unit="F" Internal="edep" Type="F" Min="1.87447906e-01" Max="5.78722429e+00"/>
    <Variable VarIndex="4" Expression="detsh.docavar" Label="dvar" Title="dvar" Unit="F" Internal="dvar" Type="F" Min="1.55056998e-01" Max="3.32310982e+01"/>
    <Variable VarIndex="5" Expression="abs(detsh.wdot)" Label="wdot" Title="wdot" Unit="F" Internal="wdot" Type="F" Min="8.63929242e-02" Max="9.40905988e-01"/>
    <Variable VarIndex="6" Expression="abs(detsh.poca.Z())" Label="zed" Title="zed" Unit="F" Internal="zed" Type="F" Min="4.76796722e+01" Max="1.51832031e+03"/>
    <Variable VarIndex="7" Expression="detsh.poca.Rho()" Label="rho" Title="rho" Unit="F" Internal="rho" Type="F" Min="3.80000000e+02" Max="6.67500000e+02"/>
  </Variables>
  <Spectators NSpec="0"/>
  <Classes NClass="2">
    <Class Name="Signal" Index="0"/>
    <Class Name="Background" Index="1"/>
  </Classes>
  <Transformations NTransformations="1">
    <Transform Name="Normalize">
      <Selection>
        <Input NInputs="8">
          <Input Type="Variable" Label="udoca" Expression="abs(detsh.doca)"/>
          <Input Type="Variable" Label="rdrift" Expression="detsh.rdrift"/>
          <Input Type="Variable" Label="totdrift" Expression="detsh.totdrift"/>
          <Input Type="Variable" Label="edep" Expression="1000*detsh.edep"/>
          <Input Type="Variable" Label="dvar" Expression="detsh.docavar"/>
          <Input Type="Variable" Label="wdot" Expression="abs(detsh.wdot)"/>
          <Input Type="Variable" Label="zed" Expression="abs(detsh.poca.Z())"/>
          <Input Type="Variable" Label="rho" Expression="detsh.poca.Rho()"/>
        </Input>
        <Output NOutputs="8">
          <Output Type="Variable" Label="udoca" Expression="abs(detsh.doca)"/>
          <Output Type="Variable" Label="rdrift" Expression="detsh.rdrift"/>
          <Output Type="Variable" Label="totdrift" Expression="detsh.totdrift"/>
          <Output Type="Variable" Label="edep" Expression="1000*detsh.edep"/>
          <Output Type="Variable" Label="dvar" Expression="detsh.docavar"/>
          <Output Type="Variable" Label="wdot" Expression="abs(detsh.wdot)"/>
          <Output Type="Variable" Label="zed" Expression="abs(detsh.poca.Z())"/>
          <Output Type="Variable" Label="rho" Expression="detsh.poca.Rho()"/>
        </Output>
      </Selection>
      <Class ClassIndex="0">
        <Ranges>
          <Range Index="0" Min="4.8306083044735715e-05" Max="9.7459573745727539e+00"/>
          <Range Index="1" Min="0.0000000000000000e+00" Max="2.7635934352874756e+00"/>
          <Range Index="2" Min="8.7999999523162842e-01" Max="3.6020000457763672e+01"/>
          <Range Index="3" Min="1.8744790554046631e-01" Max="5.7854046821594238e+00"/>
          <Range Index="4" Min="1.5980194509029388e-01" Max="2.5187705993652344e+01"/>
          <Range Index="5" Min="2.1659645438194275e-01" Max="8.9497697353363037e-01"/>
          <Range Index="6" Min="4.7679672241210938e+01" Max="1.5183203125000000e+03"/>
          <Range Index="7" Min="3.8000000000000000e+02" Max="6.6750000000000000e+02"/>
        </Ranges>
      </Class>
      <Class ClassIndex="1">
        <Ranges>
          <Range Index="0" Min="5.2222585509298369e-05" Max="9.9675760269165039e+00"/>
          <Range Index="1" Min="0.0000000000000000e+00" Max="3.0449020862579346e+00"/>
          <Range Index="2" Min="8.7999999523162842e-01" Max="3.6020000457763672e+01"/>
          <Range Index="3" Min="2.2020554542541504e-01" Max="5.7872242927551270e+00"/>
          <Range Index="4" Min="1.5505699813365936e-01" Max="3.3231098175048828e+01"/>
          <Range Index="5" Min="8.6392924189567566e-02" Max="9.4090598821640015e-01"/>
          <Range Index="6" Min="4.7679672241210938e+01" Max="1.5183203125000000e+03"/>
          <Range Index="7" Min="3.8000000000000000e+02" Max="6.6125000000000000e+02"/>
        </Ranges>
      </Class>
      <Class ClassIndex="2">
        <Ranges>
          <Range Index="0" Min="4.8306083044735715e-05" Max="9.9675760269165039e+00"/>
          <Range Index="1" Min="0.0000000000000000e+00" Max="3.0449020862579346e+00"/>
          <Range Index="2" Min="8.7999999523162842e-01" Max="3.6020000457763672e+01"/>
          <Range Index="3" Min="1.8744790554046631e-01" Max="5.7872242927551270e+00"/>
          <Range Index="4" Min="1.5505699813365936e-01" Max="3.3231098175048828e+01"/>
          <Range Index="5" Min="8.6392924189567566e-02" Max="9.4090598821640015e-01"/>
          <Range Index="6" Min="4.7679672241210938e+01" Max="1.5183203125000000e+03"/>
          <Range Index="7" Min="3.8000000000000000e+02" Max="6.6750000000000000e+02"/>
        </Ranges>
      </Class>
    </Transform>
  </Transformations>
  <MVAPdfs/>
  <Weights>
    <Layout NLayers="3">
      <Layer Index="0" NNeurons="9">
        <Neuron NSynapses="13">
          -9.8174248719274615e-01 2.3923091871800963e+00 -6.0466993961230620e-01 5.5935125409373621e+00 4.5076748753677567e+00 -3.2622203335424671e-01 -1.5272503044611310e+00 7.6579728796393809e+00 -9.9178981545504541e-01 -1.0586124033401270e+00 -9.5397300116953119e+00 -1.0272222349603989e-02 -1.0893519968719654e+00 
        </Neuron>
        <Neuron NSynapses="13">
          -4.1044072307966362e-01 4.9567053972216557e-01 1.9979507675516277e+00 -2.3590279954283044e+00 4.0914923931368868e-01 1.3365703946929472e-01 1.4389407254929198e+00 8.9316636596888288e-01 4.7484321824503593e-02 -1.1833425017857568e+00 2.0080111969491461e+00 -2.7751789989186348e+00 7.7225595302503036e-01 
        </Neuron>
        <Neuron NSynapses="13">
          4.7435884790617389e-01 -9.1816429540811118e-01 -2.4049333171337590e+00 -3.0769910302881121e-01 -1.6511453589370081e-01 3.8340949062400397e-02 -2.1221485981747015e-01 3.3944378954258579e-02 -2.9004626131567796e-01 -4.8961117013575833e-02 -1.5590350155555646e-01 6.9610041055477145e-01 -2.4252926700909248e+00 
        </Neuron>
        <Neuron NSynapses="13">
          8.3185332889622460e-02 1.6068320091596660e+00 -6.4955060462365555e-01 -1.1426993939979870e-01 6.2292903621703355e-01 1.2783059273569675e-01 -1.4301760404515951e+00 -8.0168635151610357e-01 1.4379192589540444e+00 5.4190502041396833e+00 -2.0913584909902311e-01 -1.5402896783843179e+00 4.0122693509580648e-01 
        </Neuron>
        <Neuron NSynapses="13">
          -3.3182957382924716e-01 -5.2270942253721875e-01 -1.5262655848943827e+00 -1.9094223727775146e+00 -1.1050152565711581e+01 -1.0702722130048914e+00 4.3243613589483063e+00 -1.0271692787135281e+01 -1.4767721196857984e+00 -2.9541036579669195e+00 3.4938081889089529e+00 5.4897633557734187e+00 2.3650022102473534e+00 
        </Neuron>
        <Neuron NSynapses="13">
          4.7429677647550667e-01 1.5956579644852462e-01 -2.9305600934425041e-01 1.2044615310230183e-01 -3.9434427440254716e-01 -1.0633818413340278e-01 -9.8603736768406802e-01 5.6560202962368612e-02 5.0408598369040203e-01 1.8600982406488742e-01 8.9697487584212121e-01 -1.0102087054529276e+00 -8.9774636561130072e-01 
        </Neuron>
        <Neuron NSynapses="13">
          -1.4855975912695787e-01 -1.8203185655833465e-01 1.2689040720329148e-01 -2.3341173142017371e-01 -1.2012138421433614e-01 8.4446547070012992e-02 1.6588366755904901e-01 -1.8526389144996130e-01 2.1340968436654478e-01 -9.1340192934199690e-02 -2.4407330271991937e-01 -2.7444128466866641e-02 1.9804870930440446e-01 
        </Neuron>
        <Neuron NSynapses="13">
          3.5155608710225085e-02 9.0227211930068940e-02 -2.7200729094377429e-01 5.0370451571209240e-01 4.8697080522433495e-01 1.5430191791329798e-01 2.4468113299861879e-01 8.4897884075106747e-02 2.7148942694240907e-01 -2.9533554492084213e-01 -3.3933099274133460e-02 2.5897887553135673e-01 4.4615061630587394e-01 
        </Neuron>
        <Neuron NSynapses="13">
          -1.4300129293352071e+00 6.7297440513750650e-01 -9.5119465161841454e-01 -9.4048008455453400e-02 -7.0995425216710419e+00 -1.0225724058652885e+00 1.1476640122019097e+00 -3.4356173906842677e+00 -1.2772021395767119e+00 3.9156013850022231e-01 -5.6476798701157254e+00 4.3707412362351254e+00 2.6080210395677690e+00 
        </Neuron>
      </Layer>
      <Layer Index="1" NNeurons="14">
        <Neuron NSynapses="1">
          5.3343530126737249e-01 
        </Neuron>
        <Neuron NSynapses="1">
          -1.2345895031316629e+00 
        </Neuron>
        <Neuron NSynapses="1">
          6.2078604359604994e-01 
        </Neuron>
        <Neuron NSynapses="1">
          -1.1690644996177433e+00 
        </Neuron>
        <Neuron NSynapses="1">
          2.0536170437031256e+00 
        </Neuron>
        <Neuron NSynapses="1">
          -2.6844606502771984e-01 
        </Neuron>
        <Neuron NSynapses="1">
          2.4156728242032761e+00 
        </Neuron>
        <Neuron NSynapses="1">
          6.8612607344450860e-01 
        </Neuron>
        <Neuron NSynapses="1">
          3.9544151718037607e-01 
        </Neuron>
        <Neuron NSynapses="1">
          9.4905632707886622e-01 
        </Neuron>
        <Neuron NSynapses="1">
          -1.1746747343436728e+00 
        </Neuron>
        <Neuron NSynapses="1">
          -7.1061309826850905e-01 
        </Neuron>
        <Neuron NSynapses="1">
          -6.6027373703583958e-01 
        </Neuron>
        <Neuron NSynapses="1">
          -3.5546754088875993e-01 
        </Neuron>
      </Layer>
      <Layer Index="2" NNeurons="1">
        <Neuron NSynapses="0"/>
      </Layer>
    </Layout>
  </Weights>
</MethodSetup>
