<?xml version="1.0"?>
<MethodSetup Method="MLP::MLP">
  <GeneralInfo>
    <Info name="TMVA Release" value="4.2.1 [262657]"/>
    <Info name="ROOT Release" value="6.24/06 [399366]"/>
    <Info name="Creator" value="brownd"/>
    <Info name="Date" value="Tue Aug 16 17:55:01 2022"/>
    <Info name="Host" value="Darwin macitois19.dyndns.cern.ch 19.6.0 Darwin Kernel Version 19.6.0: Tue Nov 10 00:10:30 PST 2020; root:xnu-6153.141.10~1/RELEASE_X86_64 x86_64"/>
    <Info name="Dir" value="/Users/brownd/mu2e/MDC2020"/>
    <Info name="Training events" value="20000"/>
    <Info name="TrainingTime" value="4.25032110e+01"/>
    <Info name="AnalysisType" value="Classification"/>
  </GeneralInfo>
  <Options>
    <Option name="NCycles" modified="Yes">600</Option>
    <Option name="HiddenLayers" modified="Yes">N+5</Option>
    <Option name="NeuronType" modified="Yes">tanh</Option>
    <Option name="RandomSeed" modified="No">1</Option>
    <Option name="EstimatorType" modified="No">CE</Option>
    <Option name="NeuronInputType" modified="No">sum</Option>
    <Option name="V" modified="Yes">False</Option>
    <Option name="VerbosityLevel" modified="No">Default</Option>
    <Option name="VarTransform" modified="Yes">N</Option>
    <Option name="H" modified="Yes">False</Option>
    <Option name="CreateMVAPdfs" modified="No">False</Option>
    <Option name="IgnoreNegWeightsInTraining" modified="No">False</Option>
    <Option name="TrainingMethod" modified="No">BP</Option>
    <Option name="LearningRate" modified="No">2.000000e-02</Option>
    <Option name="DecayRate" modified="No">1.000000e-02</Option>
    <Option name="TestRate" modified="Yes">5</Option>
    <Option name="EpochMonitoring" modified="No">False</Option>
    <Option name="Sampling" modified="No">1.000000e+00</Option>
    <Option name="SamplingEpoch" modified="No">1.000000e+00</Option>
    <Option name="SamplingImportance" modified="No">1.000000e+00</Option>
    <Option name="SamplingTraining" modified="No">True</Option>
    <Option name="SamplingTesting" modified="No">False</Option>
    <Option name="ResetStep" modified="No">50</Option>
    <Option name="Tau" modified="No">3.000000e+00</Option>
    <Option name="BPMode" modified="No">sequential</Option>
    <Option name="BatchSize" modified="No">-1</Option>
    <Option name="ConvergenceImprove" modified="No">1.000000e-30</Option>
    <Option name="ConvergenceTests" modified="No">-1</Option>
    <Option name="UseRegulator" modified="Yes">False</Option>
    <Option name="UpdateLimit" modified="No">10000</Option>
    <Option name="CalculateErrors" modified="No">False</Option>
    <Option name="WeightRange" modified="No">1.000000e+00</Option>
  </Options>
  <Variables NVar="5">
    <Variable VarIndex="0" Expression="abs(detsh.doca)" Label="doca" Title="doca" Unit="F" Internal="doca" Type="F" Min="5.22225855e-05" Max="9.58264065e+00"/>
    <Variable VarIndex="1" Expression="detsh.rdrift" Label="rdrift" Title="rdrift" Unit="F" Internal="rdrift" Type="F" Min="0.00000000e+00" Max="2.90008020e+00"/>
    <Variable VarIndex="2" Expression="detsh.totdrift" Label="totdrift" Title="totdrift" Unit="F" Internal="totdrift" Type="F" Min="8.79999995e-01" Max="3.60200005e+01"/>
    <Variable VarIndex="3" Expression="1000*detsh.edep" Label="edep" Title="edep" Unit="F" Internal="edep" Type="F" Min="1.89267620e-01" Max="5.78722429e+00"/>
    <Variable VarIndex="4" Expression="detsh.docavar" Label="dvar" Title="dvar" Unit="F" Internal="dvar" Type="F" Min="1.61691248e-01" Max="3.34258270e+01"/>
  </Variables>
  <Spectators NSpec="0"/>
  <Classes NClass="2">
    <Class Name="Signal" Index="0"/>
    <Class Name="Background" Index="1"/>
  </Classes>
  <Transformations NTransformations="1">
    <Transform Name="Normalize">
      <Selection>
        <Input NInputs="5">
          <Input Type="Variable" Label="doca" Expression="abs(detsh.doca)"/>
          <Input Type="Variable" Label="rdrift" Expression="detsh.rdrift"/>
          <Input Type="Variable" Label="totdrift" Expression="detsh.totdrift"/>
          <Input Type="Variable" Label="edep" Expression="1000*detsh.edep"/>
          <Input Type="Variable" Label="dvar" Expression="detsh.docavar"/>
        </Input>
        <Output NOutputs="5">
          <Output Type="Variable" Label="doca" Expression="abs(detsh.doca)"/>
          <Output Type="Variable" Label="rdrift" Expression="detsh.rdrift"/>
          <Output Type="Variable" Label="totdrift" Expression="detsh.totdrift"/>
          <Output Type="Variable" Label="edep" Expression="1000*detsh.edep"/>
          <Output Type="Variable" Label="dvar" Expression="detsh.docavar"/>
        </Output>
      </Selection>
      <Class ClassIndex="0">
        <Ranges>
          <Range Index="0" Min="5.5337743106065318e-05" Max="9.5826406478881836e+00"/>
          <Range Index="1" Min="0.0000000000000000e+00" Max="2.5635702610015869e+00"/>
          <Range Index="2" Min="9.7000002861022949e-01" Max="3.6020000457763672e+01"/>
          <Range Index="3" Min="1.8926762044429779e-01" Max="5.7854046821594238e+00"/>
          <Range Index="4" Min="1.6169124841690063e-01" Max="3.3425827026367188e+01"/>
        </Ranges>
      </Class>
      <Class ClassIndex="1">
        <Ranges>
          <Range Index="0" Min="5.2222585509298369e-05" Max="9.1671600341796875e+00"/>
          <Range Index="1" Min="0.0000000000000000e+00" Max="2.9000802040100098e+00"/>
          <Range Index="2" Min="8.7999999523162842e-01" Max="3.6020000457763672e+01"/>
          <Range Index="3" Min="2.0382672548294067e-01" Max="5.7872242927551270e+00"/>
          <Range Index="4" Min="1.6378308832645416e-01" Max="2.4022548675537109e+01"/>
        </Ranges>
      </Class>
      <Class ClassIndex="2">
        <Ranges>
          <Range Index="0" Min="5.2222585509298369e-05" Max="9.5826406478881836e+00"/>
          <Range Index="1" Min="0.0000000000000000e+00" Max="2.9000802040100098e+00"/>
          <Range Index="2" Min="8.7999999523162842e-01" Max="3.6020000457763672e+01"/>
          <Range Index="3" Min="1.8926762044429779e-01" Max="5.7872242927551270e+00"/>
          <Range Index="4" Min="1.6169124841690063e-01" Max="3.3425827026367188e+01"/>
        </Ranges>
      </Class>
    </Transform>
  </Transformations>
  <MVAPdfs/>
  <Weights>
    <Layout NLayers="3">
      <Layer Index="0" NNeurons="6">
        <Neuron NSynapses="10">
          -4.2754900399148754e+00 2.4464371845534525e+00 3.7559128907412392e-02 5.7744720262346041e+00 -4.4532299006181901e+00 -2.2487249125541822e+00 -2.7623986786502353e+00 2.1620125536964974e+00 -1.9061990302731437e+00 -8.1695269234536418e+00 
        </Neuron>
        <Neuron NSynapses="10">
          -6.0362523077676233e-01 9.1347231667167661e-01 -2.2040177882866598e+00 -2.6165315009407850e+00 1.7477189140948410e+00 -6.5577229896580336e-01 -1.7924376816317118e+00 1.9040256964229281e+00 4.7327106609930458e-01 7.5710679779087608e-01 
        </Neuron>
        <Neuron NSynapses="10">
          1.5136580477152042e-01 -5.4348923621504364e-01 -6.4032204870487941e-02 4.7827114481304711e-01 1.9018243950195890e-01 -2.3342515183315196e-01 1.8924362080695500e-01 -1.6438894783754889e+00 -6.1079292943817209e-01 2.0017338623159467e-01 
        </Neuron>
        <Neuron NSynapses="10">
          2.4048545577672512e-01 4.0191676837463879e+00 -8.1907310546714948e-02 1.4293169597962863e+00 2.9535524477374159e-01 3.8367653777947770e+00 -3.1904081022112951e+00 7.6499693111264433e-01 -1.4880232390380894e+00 6.2883459592485624e-01 
        </Neuron>
        <Neuron NSynapses="10">
          1.3782436259030252e+01 9.0007666449058765e-01 4.0468322108020187e+00 -5.8484180399581422e+00 -1.2215027060605237e+00 -2.9985348741929996e+00 4.6238199602131376e+00 -1.5056439694446024e+00 3.5526294050252942e+00 7.8446942246969247e+00 
        </Neuron>
        <Neuron NSynapses="10">
          1.0160559277656661e+01 3.5698914789942915e+00 9.2091149967609431e-01 -1.0489376088398494e+00 -2.5619714938596201e+00 -1.1516178839731708e+00 1.2210215397916575e+00 -1.2192920084361893e+00 1.2599279103757013e+00 -8.7614218307322633e-02 
        </Neuron>
      </Layer>
      <Layer Index="1" NNeurons="11">
        <Neuron NSynapses="1">
          -2.1727215474878538e+00 
        </Neuron>
        <Neuron NSynapses="1">
          -1.0319248252897055e+00 
        </Neuron>
        <Neuron NSynapses="1">
          4.5474399852732290e+00 
        </Neuron>
        <Neuron NSynapses="1">
          6.5765958265056601e-01 
        </Neuron>
        <Neuron NSynapses="1">
          1.8083851440630188e+00 
        </Neuron>
        <Neuron NSynapses="1">
          6.2581688242988665e-01 
        </Neuron>
        <Neuron NSynapses="1">
          -1.1401838644258675e+00 
        </Neuron>
        <Neuron NSynapses="1">
          -8.7959117875990822e-01 
        </Neuron>
        <Neuron NSynapses="1">
          -6.7001862565891331e-03 
        </Neuron>
        <Neuron NSynapses="1">
          -9.9922695055495725e-01 
        </Neuron>
        <Neuron NSynapses="1">
          1.0633229817599308e+00 
        </Neuron>
      </Layer>
      <Layer Index="2" NNeurons="1">
        <Neuron NSynapses="0"/>
      </Layer>
    </Layout>
  </Weights>
</MethodSetup>
