<?xml version="1.0"?>
<MethodSetup Method="MLP::MLP">
  <GeneralInfo>
    <Info name="TMVA Release" value="4.2.1 [262657]"/>
    <Info name="ROOT Release" value="6.24/06 [399366]"/>
    <Info name="Creator" value="brownd"/>
    <Info name="Date" value="Tue Aug 16 17:45:43 2022"/>
    <Info name="Host" value="Darwin macitois19.dyndns.cern.ch 19.6.0 Darwin Kernel Version 19.6.0: Tue Nov 10 00:10:30 PST 2020; root:xnu-6153.141.10~1/RELEASE_X86_64 x86_64"/>
    <Info name="Dir" value="/Users/brownd/mu2e/MDC2020"/>
    <Info name="Training events" value="20000"/>
    <Info name="TrainingTime" value="4.22516448e+01"/>
    <Info name="AnalysisType" value="Classification"/>
  </GeneralInfo>
  <Options>
    <Option name="NCycles" modified="Yes">600</Option>
    <Option name="HiddenLayers" modified="Yes">N+5</Option>
    <Option name="NeuronType" modified="Yes">tanh</Option>
    <Option name="RandomSeed" modified="No">1</Option>
    <Option name="EstimatorType" modified="No">CE</Option>
    <Option name="NeuronInputType" modified="No">sum</Option>
    <Option name="V" modified="Yes">False</Option>
    <Option name="VerbosityLevel" modified="No">Default</Option>
    <Option name="VarTransform" modified="Yes">N</Option>
    <Option name="H" modified="Yes">False</Option>
    <Option name="CreateMVAPdfs" modified="No">False</Option>
    <Option name="IgnoreNegWeightsInTraining" modified="No">False</Option>
    <Option name="TrainingMethod" modified="No">BP</Option>
    <Option name="LearningRate" modified="No">2.000000e-02</Option>
    <Option name="DecayRate" modified="No">1.000000e-02</Option>
    <Option name="TestRate" modified="Yes">5</Option>
    <Option name="EpochMonitoring" modified="No">False</Option>
    <Option name="Sampling" modified="No">1.000000e+00</Option>
    <Option name="SamplingEpoch" modified="No">1.000000e+00</Option>
    <Option name="SamplingImportance" modified="No">1.000000e+00</Option>
    <Option name="SamplingTraining" modified="No">True</Option>
    <Option name="SamplingTesting" modified="No">False</Option>
    <Option name="ResetStep" modified="No">50</Option>
    <Option name="Tau" modified="No">3.000000e+00</Option>
    <Option name="BPMode" modified="No">sequential</Option>
    <Option name="BatchSize" modified="No">-1</Option>
    <Option name="ConvergenceImprove" modified="No">1.000000e-30</Option>
    <Option name="ConvergenceTests" modified="No">-1</Option>
    <Option name="UseRegulator" modified="Yes">False</Option>
    <Option name="UpdateLimit" modified="No">10000</Option>
    <Option name="CalculateErrors" modified="No">False</Option>
    <Option name="WeightRange" modified="No">1.000000e+00</Option>
  </Options>
  <Variables NVar="5">
    <Variable VarIndex="0" Expression="abs(detsh.doca)" Label="doca" Title="doca" Unit="F" Internal="doca" Type="F" Min="5.22225855e-05" Max="9.58264065e+00"/>
    <Variable VarIndex="1" Expression="detsh.rdrift" Label="rdrift" Title="rdrift" Unit="F" Internal="rdrift" Type="F" Min="0.00000000e+00" Max="2.90008020e+00"/>
    <Variable VarIndex="2" Expression="detsh.totdrift" Label="totdrift" Title="totdrift" Unit="F" Internal="totdrift" Type="F" Min="8.79999995e-01" Max="3.60200005e+01"/>
    <Variable VarIndex="3" Expression="1000*detsh.edep" Label="edep" Title="edep" Unit="F" Internal="edep" Type="F" Min="1.89267620e-01" Max="5.78722429e+00"/>
    <Variable VarIndex="4" Expression="detsh.docavar" Label="dvar" Title="dvar" Unit="F" Internal="dvar" Type="F" Min="1.61691248e-01" Max="3.34258270e+01"/>
  </Variables>
  <Spectators NSpec="0"/>
  <Classes NClass="2">
    <Class Name="Signal" Index="0"/>
    <Class Name="Background" Index="1"/>
  </Classes>
  <Transformations NTransformations="1">
    <Transform Name="Normalize">
      <Selection>
        <Input NInputs="5">
          <Input Type="Variable" Label="doca" Expression="abs(detsh.doca)"/>
          <Input Type="Variable" Label="rdrift" Expression="detsh.rdrift"/>
          <Input Type="Variable" Label="totdrift" Expression="detsh.totdrift"/>
          <Input Type="Variable" Label="edep" Expression="1000*detsh.edep"/>
          <Input Type="Variable" Label="dvar" Expression="detsh.docavar"/>
        </Input>
        <Output NOutputs="5">
          <Output Type="Variable" Label="doca" Expression="abs(detsh.doca)"/>
          <Output Type="Variable" Label="rdrift" Expression="detsh.rdrift"/>
          <Output Type="Variable" Label="totdrift" Expression="detsh.totdrift"/>
          <Output Type="Variable" Label="edep" Expression="1000*detsh.edep"/>
          <Output Type="Variable" Label="dvar" Expression="detsh.docavar"/>
        </Output>
      </Selection>
      <Class ClassIndex="0">
        <Ranges>
          <Range Index="0" Min="5.5337743106065318e-05" Max="9.5826406478881836e+00"/>
          <Range Index="1" Min="0.0000000000000000e+00" Max="2.5635702610015869e+00"/>
          <Range Index="2" Min="9.7000002861022949e-01" Max="3.6020000457763672e+01"/>
          <Range Index="3" Min="1.8926762044429779e-01" Max="5.7854046821594238e+00"/>
          <Range Index="4" Min="1.6169124841690063e-01" Max="3.3425827026367188e+01"/>
        </Ranges>
      </Class>
      <Class ClassIndex="1">
        <Ranges>
          <Range Index="0" Min="5.2222585509298369e-05" Max="9.1671600341796875e+00"/>
          <Range Index="1" Min="0.0000000000000000e+00" Max="2.9000802040100098e+00"/>
          <Range Index="2" Min="8.7999999523162842e-01" Max="3.6020000457763672e+01"/>
          <Range Index="3" Min="2.0382672548294067e-01" Max="5.7872242927551270e+00"/>
          <Range Index="4" Min="1.6378308832645416e-01" Max="2.4022548675537109e+01"/>
        </Ranges>
      </Class>
      <Class ClassIndex="2">
        <Ranges>
          <Range Index="0" Min="5.2222585509298369e-05" Max="9.5826406478881836e+00"/>
          <Range Index="1" Min="0.0000000000000000e+00" Max="2.9000802040100098e+00"/>
          <Range Index="2" Min="8.7999999523162842e-01" Max="3.6020000457763672e+01"/>
          <Range Index="3" Min="1.8926762044429779e-01" Max="5.7872242927551270e+00"/>
          <Range Index="4" Min="1.6169124841690063e-01" Max="3.3425827026367188e+01"/>
        </Ranges>
      </Class>
    </Transform>
  </Transformations>
  <MVAPdfs/>
  <Weights>
    <Layout NLayers="3">
      <Layer Index="0" NNeurons="6">
        <Neuron NSynapses="10">
          -3.6838377500832662e+00 5.3519679371952487e+00 4.7399727998066282e-01 6.1775554194176534e+00 1.1255262038277836e+00 -3.9297384088415371e-01 -2.3252220827187031e+00 2.3079462118892153e+00 -1.0096511887114346e-01 -5.8569319856848514e+00 
        </Neuron>
        <Neuron NSynapses="10">
          1.2899328699198490e-01 -2.5021422719306607e+00 -3.7997520778102012e-01 1.2034810243124641e+00 2.6509281123526502e+00 7.1111539757121711e-01 1.4153496964432237e+00 2.0395599411919085e+00 1.0940974568155943e+00 1.8871072729023683e+00 
        </Neuron>
        <Neuron NSynapses="10">
          -2.2595192358860375e-01 2.8179350212883564e-01 -5.3502090501738475e-01 -4.9363479587545625e-02 -9.8552972881397094e-01 -2.5341491747601069e-01 -6.9523042503570331e-02 -2.0835156130193875e+00 -2.1862690295025042e+00 -2.3279861066155014e-01 
        </Neuron>
        <Neuron NSynapses="10">
          -7.4546719609875922e-01 1.7801039280664294e-01 -1.3439956436129983e+00 -1.7081150038972177e+00 7.6922011380429778e-01 3.9540794058018841e-01 -5.3531173019088714e+00 1.8452455170922533e-01 -1.1514221565783573e+00 2.1473837779745666e+00 
        </Neuron>
        <Neuron NSynapses="10">
          1.0900614376370006e+01 4.7532217162130574e-01 3.2431098311699884e+00 -3.3171774096301196e+00 -3.2555810871924238e+00 -1.5661085427272115e+00 3.2520649504133838e+00 -1.6157349223745947e+00 3.3187502180359187e+00 4.3332918883092235e+00 
        </Neuron>
        <Neuron NSynapses="10">
          7.6679703282373186e+00 2.2614362946602076e+00 5.3250706677141157e-01 1.4727494423855929e+00 -1.9609147695430540e+00 -1.4273699245958575e+00 -2.6108731167310055e+00 -1.1059118341617982e+00 1.7836216317084523e+00 -6.9771738349712842e-01 
        </Neuron>
      </Layer>
      <Layer Index="1" NNeurons="11">
        <Neuron NSynapses="1">
          -1.9905205620948330e+00 
        </Neuron>
        <Neuron NSynapses="1">
          -1.7858105760279070e+00 
        </Neuron>
        <Neuron NSynapses="1">
          4.1096878801343646e+00 
        </Neuron>
        <Neuron NSynapses="1">
          6.8127423641894924e-01 
        </Neuron>
        <Neuron NSynapses="1">
          1.5830641933658223e+00 
        </Neuron>
        <Neuron NSynapses="1">
          2.3544500121163067e-01 
        </Neuron>
        <Neuron NSynapses="1">
          -8.7117453238559317e-01 
        </Neuron>
        <Neuron NSynapses="1">
          -1.9134843932080454e+00 
        </Neuron>
        <Neuron NSynapses="1">
          -2.9008595401716070e-01 
        </Neuron>
        <Neuron NSynapses="1">
          -1.2666246486731543e+00 
        </Neuron>
        <Neuron NSynapses="1">
          4.2650876066848270e-01 
        </Neuron>
      </Layer>
      <Layer Index="2" NNeurons="1">
        <Neuron NSynapses="0"/>
      </Layer>
    </Layout>
  </Weights>
</MethodSetup>
