<?xml version="1.0"?>
<MethodSetup Method="MLP::MLP">
  <GeneralInfo>
    <Info name="TMVA Release" value="4.2.1 [262657]"/>
    <Info name="ROOT Release" value="6.26/02 [399874]"/>
    <Info name="Creator" value="brownd"/>
    <Info name="Date" value="Mon Oct 10 08:35:02 2022"/>
    <Info name="Host" value="Darwin macphsft17.dyndns.cern.ch 21.4.0 Darwin Kernel Version 21.4.0: Fri Mar 18 00:45:05 PDT 2022; root:xnu-8020.101.4~15/RELEASE_X86_64 x86_64"/>
    <Info name="Dir" value="/Users/brownd/MDC2020"/>
    <Info name="Training events" value="120000"/>
    <Info name="TrainingTime" value="4.61359033e+02"/>
    <Info name="AnalysisType" value="Classification"/>
  </GeneralInfo>
  <Options>
    <Option name="NCycles" modified="Yes">600</Option>
    <Option name="HiddenLayers" modified="Yes">N+5</Option>
    <Option name="NeuronType" modified="Yes">sigmoid</Option>
    <Option name="RandomSeed" modified="No">1</Option>
    <Option name="EstimatorType" modified="No">CE</Option>
    <Option name="NeuronInputType" modified="No">sum</Option>
    <Option name="V" modified="Yes">False</Option>
    <Option name="VerbosityLevel" modified="No">Default</Option>
    <Option name="VarTransform" modified="Yes">N</Option>
    <Option name="H" modified="Yes">False</Option>
    <Option name="CreateMVAPdfs" modified="No">False</Option>
    <Option name="IgnoreNegWeightsInTraining" modified="No">False</Option>
    <Option name="TrainingMethod" modified="No">BP</Option>
    <Option name="LearningRate" modified="No">2.000000e-02</Option>
    <Option name="DecayRate" modified="No">1.000000e-02</Option>
    <Option name="TestRate" modified="Yes">5</Option>
    <Option name="EpochMonitoring" modified="No">False</Option>
    <Option name="Sampling" modified="No">1.000000e+00</Option>
    <Option name="SamplingEpoch" modified="No">1.000000e+00</Option>
    <Option name="SamplingImportance" modified="No">1.000000e+00</Option>
    <Option name="SamplingTraining" modified="No">True</Option>
    <Option name="SamplingTesting" modified="No">False</Option>
    <Option name="ResetStep" modified="No">50</Option>
    <Option name="Tau" modified="No">3.000000e+00</Option>
    <Option name="BPMode" modified="No">sequential</Option>
    <Option name="BatchSize" modified="No">-1</Option>
    <Option name="ConvergenceImprove" modified="No">1.000000e-30</Option>
    <Option name="ConvergenceTests" modified="No">-1</Option>
    <Option name="UseRegulator" modified="Yes">False</Option>
    <Option name="UpdateLimit" modified="No">10000</Option>
    <Option name="CalculateErrors" modified="No">False</Option>
    <Option name="WeightRange" modified="No">1.000000e+00</Option>
  </Options>
  <Variables NVar="7">
    <Variable VarIndex="0" Expression="abs(detsh.udoca)" Label="udoca" Title="udoca" Unit="mm" Internal="udoca" Type="F" Min="1.13832166e-05" Max="5.01492096e+02"/>
    <Variable VarIndex="1" Expression="detsh.rdrift" Label="rdrift" Title="rdrift" Unit="mm" Internal="rdrift" Type="F" Min="-6.56539679e-01" Max="2.79489827e+00"/>
    <Variable VarIndex="2" Expression="(detsh.rdrift-fabs(detsh.udoca))/sqrt(detsh.rerr*detsh.rerr+detsh.udocavar)" Label="udpull" Title="udpull" Unit="F" Internal="udpull" Type="F" Min="-1.26426483e+02" Max="1.31001940e+01"/>
    <Variable VarIndex="3" Expression="detsh.tottdrift" Label="tottdrift" Title="tottdrift" Unit="ns" Internal="tottdrift" Type="F" Min="8.79999995e-01" Max="3.60200005e+01"/>
    <Variable VarIndex="4" Expression="1000*detsh.edep" Label="edep" Title="edep" Unit="KeV" Internal="edep" Type="F" Min="-3.27214789e+00" Max="5.80542374e+00"/>
    <Variable VarIndex="5" Expression="sqrt(detsh.udocavar)" Label="uderr" Title="uderr" Unit="mm" Internal="uderr" Type="F" Min="8.67095739e-02" Max="8.11865616e+01"/>
    <Variable VarIndex="6" Expression="4.0*detsh.rdrift*fabs(detsh.udoca)/(detsh.rerr*detsh.rerr+detsh.udocavar)" Label="dchisq" Title="dchisq" Unit="F" Internal="dchisq" Type="F" Min="-2.20875778e+01" Max="1.52497302e+03"/>
  </Variables>
  <Spectators NSpec="0"/>
  <Classes NClass="2">
    <Class Name="Signal" Index="0"/>
    <Class Name="Background" Index="1"/>
  </Classes>
  <Transformations NTransformations="1">
    <Transform Name="Normalize">
      <Selection>
        <Input NInputs="7">
          <Input Type="Variable" Label="udoca" Expression="abs(detsh.udoca)"/>
          <Input Type="Variable" Label="rdrift" Expression="detsh.rdrift"/>
          <Input Type="Variable" Label="udpull" Expression="(detsh.rdrift-fabs(detsh.udoca))/sqrt(detsh.rerr*detsh.rerr+detsh.udocavar)"/>
          <Input Type="Variable" Label="tottdrift" Expression="detsh.tottdrift"/>
          <Input Type="Variable" Label="edep" Expression="1000*detsh.edep"/>
          <Input Type="Variable" Label="uderr" Expression="sqrt(detsh.udocavar)"/>
          <Input Type="Variable" Label="dchisq" Expression="4.0*detsh.rdrift*fabs(detsh.udoca)/(detsh.rerr*detsh.rerr+detsh.udocavar)"/>
        </Input>
        <Output NOutputs="7">
          <Output Type="Variable" Label="udoca" Expression="abs(detsh.udoca)"/>
          <Output Type="Variable" Label="rdrift" Expression="detsh.rdrift"/>
          <Output Type="Variable" Label="udpull" Expression="(detsh.rdrift-fabs(detsh.udoca))/sqrt(detsh.rerr*detsh.rerr+detsh.udocavar)"/>
          <Output Type="Variable" Label="tottdrift" Expression="detsh.tottdrift"/>
          <Output Type="Variable" Label="edep" Expression="1000*detsh.edep"/>
          <Output Type="Variable" Label="uderr" Expression="sqrt(detsh.udocavar)"/>
          <Output Type="Variable" Label="dchisq" Expression="4.0*detsh.rdrift*fabs(detsh.udoca)/(detsh.rerr*detsh.rerr+detsh.udocavar)"/>
        </Output>
      </Selection>
      <Class ClassIndex="0">
        <Ranges>
          <Range Index="0" Min="3.6325520341051742e-05" Max="4.6104672241210938e+02"/>
          <Range Index="1" Min="-6.5653967857360840e-01" Max="2.7762341499328613e+00"/>
          <Range Index="2" Min="-1.2642648315429688e+02" Max="1.1143022537231445e+01"/>
          <Range Index="3" Min="8.7999999523162842e-01" Max="3.6020000457763672e+01"/>
          <Range Index="4" Min="-9.0266156196594238e-01" Max="5.8054237365722656e+00"/>
          <Range Index="5" Min="8.6709573864936829e-02" Max="7.1647496223449707e+00"/>
          <Range Index="6" Min="-2.2087577819824219e+01" Max="1.5249730224609375e+03"/>
        </Ranges>
      </Class>
      <Class ClassIndex="1">
        <Ranges>
          <Range Index="0" Min="1.1383216588001233e-05" Max="5.0149209594726562e+02"/>
          <Range Index="1" Min="-5.7509487867355347e-01" Max="2.7948982715606689e+00"/>
          <Range Index="2" Min="-1.1809473419189453e+02" Max="1.3100193977355957e+01"/>
          <Range Index="3" Min="8.7999999523162842e-01" Max="3.6020000457763672e+01"/>
          <Range Index="4" Min="-3.2721478939056396e+00" Max="5.7872242927551270e+00"/>
          <Range Index="5" Min="9.2217676341533661e-02" Max="8.1186561584472656e+01"/>
          <Range Index="6" Min="-1.8115402221679688e+01" Max="9.7045410156250000e+02"/>
        </Ranges>
      </Class>
      <Class ClassIndex="2">
        <Ranges>
          <Range Index="0" Min="1.1383216588001233e-05" Max="5.0149209594726562e+02"/>
          <Range Index="1" Min="-6.5653967857360840e-01" Max="2.7948982715606689e+00"/>
          <Range Index="2" Min="-1.2642648315429688e+02" Max="1.3100193977355957e+01"/>
          <Range Index="3" Min="8.7999999523162842e-01" Max="3.6020000457763672e+01"/>
          <Range Index="4" Min="-3.2721478939056396e+00" Max="5.8054237365722656e+00"/>
          <Range Index="5" Min="8.6709573864936829e-02" Max="8.1186561584472656e+01"/>
          <Range Index="6" Min="-2.2087577819824219e+01" Max="1.5249730224609375e+03"/>
        </Ranges>
      </Class>
    </Transform>
  </Transformations>
  <MVAPdfs/>
  <Weights>
    <Layout NLayers="3">
      <Layer Index="0" NNeurons="8">
        <Neuron NSynapses="12">
          -2.9879035387669517e-01 3.8131458524784754e+00 2.9744695013483806e+00 1.4361412280162882e+00 1.1331272328787737e+01 -4.6606954385271315e-01 -3.9817966978013719e+00 -2.3463943594508958e+00 -1.0051143049817375e+00 -7.4772892277978684e+00 -3.2867152392273593e+00 8.3028362593422067e-01 
        </Neuron>
        <Neuron NSynapses="12">
          -3.8658510472489993e-01 1.4435612640812558e+00 -3.3949943345098395e+00 5.9141540734644060e+00 -7.1718143412691260e-01 1.1972859173651532e+01 3.0860823176937919e+00 5.4372224759483920e+00 4.6187332711144818e-01 1.0994859966168509e+00 2.6714930917251496e+00 -6.1897374989910992e-01 
        </Neuron>
        <Neuron NSynapses="12">
          -7.1036497290657881e+00 -4.7055288098538978e-01 3.4883290500233075e+00 -1.0349462359516590e+00 6.7770685155379923e+01 6.0635728047609918e+00 -6.5781616056236103e-01 -1.0882759765182517e+00 -4.0882850808964690e+00 -3.3811290898340957e+01 -7.3976091188346320e+00 -4.0360510221083175e+00 
        </Neuron>
        <Neuron NSynapses="12">
          4.9035510329367810e-01 7.7589665516256012e+00 -2.3998026948131687e-01 1.0929879845293229e+00 1.3022524624628038e-03 -1.0061035803401579e-01 3.1226211063899106e-01 -3.4071002394492060e-02 3.4557078078088277e-01 -8.2780059605617573e-02 -2.7838784348230677e-01 2.3093149910926844e-01 
        </Neuron>
        <Neuron NSynapses="12">
          4.9113667884337693e-02 1.7701123739427271e+00 8.7150722970901084e-01 7.9626865428972926e-01 1.1866730857362869e-01 -6.7388937597628296e-01 -2.6336034438938705e+00 -1.3298950190673933e-01 -4.6779478225530049e+00 -1.8680812656590542e-01 8.3134942765743691e+00 -4.4260518893201556e-01 
        </Neuron>
        <Neuron NSynapses="12">
          -9.1221710590385785e-01 1.4617883854557610e+00 2.5524981040168422e+00 9.1249488509672128e-01 2.6431839550694267e+01 3.4580680338451657e+00 -1.0053938457074862e+01 -1.1239384565734346e+01 1.8360067602673258e+00 -6.5541584725624205e+00 -4.8120029702232170e+00 3.4838404447594229e-01 
        </Neuron>
        <Neuron NSynapses="12">
          -1.3721744163491021e+00 2.2459557551797338e+00 1.2385432887427354e+00 8.9695250701167084e-01 9.0934747417652440e-01 -5.2967685871614547e+00 1.4771681387319815e+01 1.3709081383354331e+01 -7.7491783430833028e-01 -1.6418715510244466e+00 2.7389749297960542e+00 -1.4844470093204967e+00 
        </Neuron>
        <Neuron NSynapses="12">
          3.2059096924315494e-02 -1.3545857695641375e+00 -9.1114583690670925e-01 -1.9111402376732043e+00 -1.7766180492466159e+01 -2.7968804462461545e+00 2.8325385433149806e+00 3.6475811136455984e+00 1.6289766181454119e+00 1.1290220183926563e+01 2.3799271673625519e-01 1.1815966358627557e+00 
        </Neuron>
      </Layer>
      <Layer Index="1" NNeurons="13">
        <Neuron NSynapses="1">
          -1.7045831810026744e+00 
        </Neuron>
        <Neuron NSynapses="1">
          -3.3779554853679592e+00 
        </Neuron>
        <Neuron NSynapses="1">
          -1.1797140500260539e+00 
        </Neuron>
        <Neuron NSynapses="1">
          5.5810801452975047e+00 
        </Neuron>
        <Neuron NSynapses="1">
          -9.9813918585821853e+00 
        </Neuron>
        <Neuron NSynapses="1">
          -2.2807592364885250e+00 
        </Neuron>
        <Neuron NSynapses="1">
          3.5850883676173781e+00 
        </Neuron>
        <Neuron NSynapses="1">
          5.4377354726588303e+00 
        </Neuron>
        <Neuron NSynapses="1">
          -1.6859810255978094e+00 
        </Neuron>
        <Neuron NSynapses="1">
          -1.0090754192202452e+01 
        </Neuron>
        <Neuron NSynapses="1">
          1.6961197217992889e+00 
        </Neuron>
        <Neuron NSynapses="1">
          -1.0740406911143141e+00 
        </Neuron>
        <Neuron NSynapses="1">
          1.7894280270797303e+00 
        </Neuron>
      </Layer>
      <Layer Index="2" NNeurons="1">
        <Neuron NSynapses="0"/>
      </Layer>
    </Layout>
  </Weights>
</MethodSetup>
