<?xml version="1.0"?>
<MethodSetup Method="MLP::MLP">
  <GeneralInfo>
    <Info name="TMVA Release" value="4.2.1 [262657]"/>
    <Info name="ROOT Release" value="6.26/02 [399874]"/>
    <Info name="Creator" value="brownd"/>
    <Info name="Date" value="Thu Oct 27 15:14:18 2022"/>
    <Info name="Host" value="Darwin macphsft17.dyndns.cern.ch 21.4.0 Darwin Kernel Version 21.4.0: Fri Mar 18 00:45:05 PDT 2022; root:xnu-8020.101.4~15/RELEASE_X86_64 x86_64"/>
    <Info name="Dir" value="/Users/brownd/MDC2020"/>
    <Info name="Training events" value="40000"/>
    <Info name="TrainingTime" value="1.40379913e+02"/>
    <Info name="AnalysisType" value="Classification"/>
  </GeneralInfo>
  <Options>
    <Option name="NCycles" modified="Yes">600</Option>
    <Option name="HiddenLayers" modified="Yes">N+5</Option>
    <Option name="NeuronType" modified="Yes">tanh</Option>
    <Option name="RandomSeed" modified="No">1</Option>
    <Option name="EstimatorType" modified="No">CE</Option>
    <Option name="NeuronInputType" modified="No">sum</Option>
    <Option name="V" modified="Yes">False</Option>
    <Option name="VerbosityLevel" modified="No">Default</Option>
    <Option name="VarTransform" modified="Yes">N</Option>
    <Option name="H" modified="Yes">False</Option>
    <Option name="CreateMVAPdfs" modified="No">False</Option>
    <Option name="IgnoreNegWeightsInTraining" modified="No">False</Option>
    <Option name="TrainingMethod" modified="No">BP</Option>
    <Option name="LearningRate" modified="No">2.000000e-02</Option>
    <Option name="DecayRate" modified="No">1.000000e-02</Option>
    <Option name="TestRate" modified="Yes">5</Option>
    <Option name="EpochMonitoring" modified="No">False</Option>
    <Option name="Sampling" modified="No">1.000000e+00</Option>
    <Option name="SamplingEpoch" modified="No">1.000000e+00</Option>
    <Option name="SamplingImportance" modified="No">1.000000e+00</Option>
    <Option name="SamplingTraining" modified="No">True</Option>
    <Option name="SamplingTesting" modified="No">False</Option>
    <Option name="ResetStep" modified="No">50</Option>
    <Option name="Tau" modified="No">3.000000e+00</Option>
    <Option name="BPMode" modified="No">sequential</Option>
    <Option name="BatchSize" modified="No">-1</Option>
    <Option name="ConvergenceImprove" modified="No">1.000000e-30</Option>
    <Option name="ConvergenceTests" modified="No">-1</Option>
    <Option name="UseRegulator" modified="Yes">False</Option>
    <Option name="UpdateLimit" modified="No">10000</Option>
    <Option name="CalculateErrors" modified="No">False</Option>
    <Option name="WeightRange" modified="No">1.000000e+00</Option>
  </Options>
  <Variables NVar="7">
    <Variable VarIndex="0" Expression="abs(detsh.udoca)" Label="udoca" Title="udoca" Unit="mm" Internal="udoca" Type="F" Min="1.78386072e-05" Max="2.15585136e+01"/>
    <Variable VarIndex="1" Expression="detsh.rdrift" Label="rdrift" Title="rdrift" Unit="mm" Internal="rdrift" Type="F" Min="-2.75362819e-01" Max="2.78964353e+00"/>
    <Variable VarIndex="2" Expression="(detsh.rdrift-fabs(detsh.udoca))/sqrt(detsh.rerr*detsh.rerr+detsh.udocavar)" Label="udpull" Title="udpull" Unit="F" Internal="udpull" Type="F" Min="-8.98637295e+00" Max="4.05151176e+00"/>
    <Variable VarIndex="3" Expression="detsh.tottdrift" Label="tottdrift" Title="tottdrift" Unit="ns" Internal="tottdrift" Type="F" Min="8.79999995e-01" Max="3.60200005e+01"/>
    <Variable VarIndex="4" Expression="1000*detsh.edep" Label="edep" Title="edep" Unit="KeV" Internal="edep" Type="F" Min="1.81988195e-01" Max="5.78904486e+00"/>
    <Variable VarIndex="5" Expression="sqrt(detsh.udocavar)" Label="uderr" Title="uderr" Unit="mm" Internal="uderr" Type="F" Min="4.27435160e-01" Max="6.66008329e+00"/>
    <Variable VarIndex="6" Expression="4.0*detsh.rdrift*fabs(detsh.udoca)/(detsh.rerr*detsh.rerr+detsh.udocavar)" Label="dchisq" Title="dchisq" Unit="F" Internal="dchisq" Type="F" Min="-2.34573531e+00" Max="1.47244278e+02"/>
  </Variables>
  <Spectators NSpec="0"/>
  <Classes NClass="2">
    <Class Name="Signal" Index="0"/>
    <Class Name="Background" Index="1"/>
  </Classes>
  <Transformations NTransformations="1">
    <Transform Name="Normalize">
      <Selection>
        <Input NInputs="7">
          <Input Type="Variable" Label="udoca" Expression="abs(detsh.udoca)"/>
          <Input Type="Variable" Label="rdrift" Expression="detsh.rdrift"/>
          <Input Type="Variable" Label="udpull" Expression="(detsh.rdrift-fabs(detsh.udoca))/sqrt(detsh.rerr*detsh.rerr+detsh.udocavar)"/>
          <Input Type="Variable" Label="tottdrift" Expression="detsh.tottdrift"/>
          <Input Type="Variable" Label="edep" Expression="1000*detsh.edep"/>
          <Input Type="Variable" Label="uderr" Expression="sqrt(detsh.udocavar)"/>
          <Input Type="Variable" Label="dchisq" Expression="4.0*detsh.rdrift*fabs(detsh.udoca)/(detsh.rerr*detsh.rerr+detsh.udocavar)"/>
        </Input>
        <Output NOutputs="7">
          <Output Type="Variable" Label="udoca" Expression="abs(detsh.udoca)"/>
          <Output Type="Variable" Label="rdrift" Expression="detsh.rdrift"/>
          <Output Type="Variable" Label="udpull" Expression="(detsh.rdrift-fabs(detsh.udoca))/sqrt(detsh.rerr*detsh.rerr+detsh.udocavar)"/>
          <Output Type="Variable" Label="tottdrift" Expression="detsh.tottdrift"/>
          <Output Type="Variable" Label="edep" Expression="1000*detsh.edep"/>
          <Output Type="Variable" Label="uderr" Expression="sqrt(detsh.udocavar)"/>
          <Output Type="Variable" Label="dchisq" Expression="4.0*detsh.rdrift*fabs(detsh.udoca)/(detsh.rerr*detsh.rerr+detsh.udocavar)"/>
        </Output>
      </Selection>
      <Class ClassIndex="0">
        <Ranges>
          <Range Index="0" Min="1.3050218694843352e-04" Max="7.4602532386779785e+00"/>
          <Range Index="1" Min="-2.4018673598766327e-01" Max="2.7896435260772705e+00"/>
          <Range Index="2" Min="-5.2954211235046387e+00" Max="4.0515117645263672e+00"/>
          <Range Index="3" Min="8.7999999523162842e-01" Max="3.6020000457763672e+01"/>
          <Range Index="4" Min="1.8198819458484650e-01" Max="5.7872242927551270e+00"/>
          <Range Index="5" Min="4.3773856759071350e-01" Max="5.3247666358947754e+00"/>
          <Range Index="6" Min="-2.3457353115081787e+00" Max="1.4724427795410156e+02"/>
        </Ranges>
      </Class>
      <Class ClassIndex="1">
        <Ranges>
          <Range Index="0" Min="1.7838607163866982e-05" Max="2.1558513641357422e+01"/>
          <Range Index="1" Min="-2.7536281943321228e-01" Max="2.6265559196472168e+00"/>
          <Range Index="2" Min="-8.9863729476928711e+00" Max="3.8691959381103516e+00"/>
          <Range Index="3" Min="8.7999999523162842e-01" Max="3.6020000457763672e+01"/>
          <Range Index="4" Min="1.9836702942848206e-01" Max="5.7890448570251465e+00"/>
          <Range Index="5" Min="4.2743515968322754e-01" Max="6.6600832939147949e+00"/>
          <Range Index="6" Min="-1.9901106357574463e+00" Max="8.6610458374023438e+01"/>
        </Ranges>
      </Class>
      <Class ClassIndex="2">
        <Ranges>
          <Range Index="0" Min="1.7838607163866982e-05" Max="2.1558513641357422e+01"/>
          <Range Index="1" Min="-2.7536281943321228e-01" Max="2.7896435260772705e+00"/>
          <Range Index="2" Min="-8.9863729476928711e+00" Max="4.0515117645263672e+00"/>
          <Range Index="3" Min="8.7999999523162842e-01" Max="3.6020000457763672e+01"/>
          <Range Index="4" Min="1.8198819458484650e-01" Max="5.7890448570251465e+00"/>
          <Range Index="5" Min="4.2743515968322754e-01" Max="6.6600832939147949e+00"/>
          <Range Index="6" Min="-2.3457353115081787e+00" Max="1.4724427795410156e+02"/>
        </Ranges>
      </Class>
    </Transform>
  </Transformations>
  <MVAPdfs/>
  <Weights>
    <Layout NLayers="3">
      <Layer Index="0" NNeurons="8">
        <Neuron NSynapses="12">
          2.2277336642321228e+00 4.6480207304207353e+00 3.1567432145289631e-01 1.4929263068307199e+00 -2.6934344186280925e+00 3.5018492680348773e-01 -1.0653765653227376e+00 3.3433265116244058e+00 -4.1464885823869402e-01 1.4876606904420359e-01 -2.8557174996980845e+00 -2.0088622700597430e-01 
        </Neuron>
        <Neuron NSynapses="12">
          2.3140340978567392e-01 -8.5497666156779083e-03 -1.3011755895781716e+00 7.4771423620313415e-01 -3.2722052502824535e+00 3.6891141952472978e-01 -2.1892617969090766e-01 2.5796590210540060e+00 -2.8307993103563094e+00 2.9628583119023635e-02 1.6897270097745685e+00 -2.9219522743614745e+00 
        </Neuron>
        <Neuron NSynapses="12">
          -3.5899271535744210e+00 1.9879269980417260e+00 5.9075399534207245e+00 -6.4616922333112303e-01 5.4708668577218509e+00 2.5949291482250105e+00 -1.3771732958035229e-01 -3.2391753648928758e+00 3.1259850747032107e+00 -4.0975012983418573e+00 -1.0644154446573816e-01 1.5850324524364320e-01 
        </Neuron>
        <Neuron NSynapses="12">
          8.6302698099107233e-02 5.1949767337403161e+00 1.1822469444253701e-01 1.1029407179358566e+00 -2.8998735285249466e-01 1.3653286485902330e-01 6.2630688139218760e-01 4.6807255267277983e-02 -1.2727205988702481e-01 -5.1976332572562056e-01 -6.0810291111452995e-02 -1.3742697651449898e+00 
        </Neuron>
        <Neuron NSynapses="12">
          4.7758393286031370e-01 2.0844622807335842e+00 3.6226714926146379e+00 1.3479136398312446e+00 -4.3901917649887210e+00 -5.9290837725764352e+00 -8.6624971972440423e-01 -1.5702406352517193e-01 -1.9850141806505492e+00 -1.4171931125798289e+00 4.8810352628470914e+00 7.2126071444082185e-01 
        </Neuron>
        <Neuron NSynapses="12">
          -1.1254799285186541e+00 1.0780506570853063e-01 1.0526661051196520e+00 8.1891634323018481e-01 3.8454107975743921e+00 -6.2014801892724687e-02 1.5179953119354128e-01 -7.8455483039656846e+00 3.8131936306094505e+00 -2.1070420509339729e+00 9.6764944471065484e-02 -2.5913762432840657e+00 
        </Neuron>
        <Neuron NSynapses="12">
          -1.1819518753254616e+00 5.3603216354967764e-01 -2.9362280631543438e+00 5.6574312904388246e-02 -9.7962985234616617e-01 -3.4065424611316808e-01 1.6624253476009634e+00 5.5906722760324419e+00 3.4661878837940245e-02 2.4088747804899313e+00 8.3954149631477945e-02 -1.1716837226409695e+00 
        </Neuron>
        <Neuron NSynapses="12">
          -4.1696083913481885e-01 -1.1925070152440831e-01 -2.7316717329842977e+00 -1.5906269260461423e+00 -4.8576037057433643e+00 -5.6480449190602044e+00 5.5964669245373810e-01 2.9474941667818895e+00 1.7883774587941386e+00 3.1419451469283355e+00 5.5740296873882944e-01 8.2383112764815181e-01 
        </Neuron>
      </Layer>
      <Layer Index="1" NNeurons="13">
        <Neuron NSynapses="1">
          -1.8507459623521887e+00 
        </Neuron>
        <Neuron NSynapses="1">
          -2.4978217104989642e+00 
        </Neuron>
        <Neuron NSynapses="1">
          -6.4187929787453157e-01 
        </Neuron>
        <Neuron NSynapses="1">
          1.6080787972105548e+00 
        </Neuron>
        <Neuron NSynapses="1">
          -3.7982925334739626e-01 
        </Neuron>
        <Neuron NSynapses="1">
          -7.4462203722996678e-01 
        </Neuron>
        <Neuron NSynapses="1">
          5.9846206069076668e-01 
        </Neuron>
        <Neuron NSynapses="1">
          7.3199415030023351e-01 
        </Neuron>
        <Neuron NSynapses="1">
          -1.2746160637395638e+00 
        </Neuron>
        <Neuron NSynapses="1">
          1.2615581544349546e+00 
        </Neuron>
        <Neuron NSynapses="1">
          5.0815095461708926e-01 
        </Neuron>
        <Neuron NSynapses="1">
          -1.4433900255363934e+00 
        </Neuron>
        <Neuron NSynapses="1">
          -2.1305074425518913e+00 
        </Neuron>
      </Layer>
      <Layer Index="2" NNeurons="1">
        <Neuron NSynapses="0"/>
      </Layer>
    </Layout>
  </Weights>
</MethodSetup>
