<?xml version="1.0"?>
<MethodSetup Method="MLP::MLP">
  <GeneralInfo>
    <Info name="TMVA Release" value="4.2.1 [262657]"/>
    <Info name="ROOT Release" value="6.26/02 [399874]"/>
    <Info name="Creator" value="brownd"/>
    <Info name="Date" value="Sun Oct  9 16:54:48 2022"/>
    <Info name="Host" value="Darwin macphsft17.dyndns.cern.ch 21.4.0 Darwin Kernel Version 21.4.0: Fri Mar 18 00:45:05 PDT 2022; root:xnu-8020.101.4~15/RELEASE_X86_64 x86_64"/>
    <Info name="Dir" value="/Users/brownd/MDC2020"/>
    <Info name="Training events" value="70000"/>
    <Info name="TrainingTime" value="2.37404710e+02"/>
    <Info name="AnalysisType" value="Classification"/>
  </GeneralInfo>
  <Options>
    <Option name="NCycles" modified="Yes">600</Option>
    <Option name="HiddenLayers" modified="Yes">N+5</Option>
    <Option name="NeuronType" modified="Yes">ReLU</Option>
    <Option name="RandomSeed" modified="No">1</Option>
    <Option name="EstimatorType" modified="No">CE</Option>
    <Option name="NeuronInputType" modified="No">sum</Option>
    <Option name="V" modified="Yes">False</Option>
    <Option name="VerbosityLevel" modified="No">Default</Option>
    <Option name="VarTransform" modified="Yes">N</Option>
    <Option name="H" modified="Yes">False</Option>
    <Option name="CreateMVAPdfs" modified="No">False</Option>
    <Option name="IgnoreNegWeightsInTraining" modified="No">False</Option>
    <Option name="TrainingMethod" modified="No">BP</Option>
    <Option name="LearningRate" modified="No">2.000000e-02</Option>
    <Option name="DecayRate" modified="No">1.000000e-02</Option>
    <Option name="TestRate" modified="Yes">5</Option>
    <Option name="EpochMonitoring" modified="No">False</Option>
    <Option name="Sampling" modified="No">1.000000e+00</Option>
    <Option name="SamplingEpoch" modified="No">1.000000e+00</Option>
    <Option name="SamplingImportance" modified="No">1.000000e+00</Option>
    <Option name="SamplingTraining" modified="No">True</Option>
    <Option name="SamplingTesting" modified="No">False</Option>
    <Option name="ResetStep" modified="No">50</Option>
    <Option name="Tau" modified="No">3.000000e+00</Option>
    <Option name="BPMode" modified="No">sequential</Option>
    <Option name="BatchSize" modified="No">-1</Option>
    <Option name="ConvergenceImprove" modified="No">1.000000e-30</Option>
    <Option name="ConvergenceTests" modified="No">-1</Option>
    <Option name="UseRegulator" modified="Yes">False</Option>
    <Option name="UpdateLimit" modified="No">10000</Option>
    <Option name="CalculateErrors" modified="No">False</Option>
    <Option name="WeightRange" modified="No">1.000000e+00</Option>
  </Options>
  <Variables NVar="7">
    <Variable VarIndex="0" Expression="abs(detsh.udoca)" Label="udoca" Title="udoca" Unit="mm" Internal="udoca" Type="F" Min="9.58467444e-06" Max="2.44449707e+02"/>
    <Variable VarIndex="1" Expression="detsh.rdrift" Label="rdrift" Title="rdrift" Unit="mm" Internal="rdrift" Type="F" Min="-2.89308101e-01" Max="2.79074979e+00"/>
    <Variable VarIndex="2" Expression="(detsh.rdrift-fabs(detsh.udoca))/sqrt(detsh.rerr*detsh.rerr+detsh.udocavar)" Label="udpull" Title="udpull" Unit="F" Internal="udpull" Type="F" Min="-4.49041405e+01" Max="1.30033417e+01"/>
    <Variable VarIndex="3" Expression="detsh.tottdrift" Label="tottdrift" Title="tottdrift" Unit="ns" Internal="tottdrift" Type="F" Min="8.79999995e-01" Max="3.60200005e+01"/>
    <Variable VarIndex="4" Expression="1000*detsh.edep" Label="edep" Title="edep" Unit="KeV" Internal="edep" Type="F" Min="-3.27214789e+00" Max="6.29497194e+00"/>
    <Variable VarIndex="5" Expression="sqrt(detsh.udocavar)" Label="uderr" Title="uderr" Unit="mm" Internal="uderr" Type="F" Min="9.59530249e-02" Max="1.16912117e+01"/>
    <Variable VarIndex="6" Expression="4.0*detsh.rdrift*fabs(detsh.udoca)/(detsh.rerr*detsh.rerr+detsh.udocavar)" Label="dchisq" Title="dchisq" Unit="F" Internal="dchisq" Type="F" Min="-1.55596399e+01" Max="1.58193420e+03"/>
  </Variables>
  <Spectators NSpec="0"/>
  <Classes NClass="2">
    <Class Name="Signal" Index="0"/>
    <Class Name="Background" Index="1"/>
  </Classes>
  <Transformations NTransformations="1">
    <Transform Name="Normalize">
      <Selection>
        <Input NInputs="7">
          <Input Type="Variable" Label="udoca" Expression="abs(detsh.udoca)"/>
          <Input Type="Variable" Label="rdrift" Expression="detsh.rdrift"/>
          <Input Type="Variable" Label="udpull" Expression="(detsh.rdrift-fabs(detsh.udoca))/sqrt(detsh.rerr*detsh.rerr+detsh.udocavar)"/>
          <Input Type="Variable" Label="tottdrift" Expression="detsh.tottdrift"/>
          <Input Type="Variable" Label="edep" Expression="1000*detsh.edep"/>
          <Input Type="Variable" Label="uderr" Expression="sqrt(detsh.udocavar)"/>
          <Input Type="Variable" Label="dchisq" Expression="4.0*detsh.rdrift*fabs(detsh.udoca)/(detsh.rerr*detsh.rerr+detsh.udocavar)"/>
        </Input>
        <Output NOutputs="7">
          <Output Type="Variable" Label="udoca" Expression="abs(detsh.udoca)"/>
          <Output Type="Variable" Label="rdrift" Expression="detsh.rdrift"/>
          <Output Type="Variable" Label="udpull" Expression="(detsh.rdrift-fabs(detsh.udoca))/sqrt(detsh.rerr*detsh.rerr+detsh.udocavar)"/>
          <Output Type="Variable" Label="tottdrift" Expression="detsh.tottdrift"/>
          <Output Type="Variable" Label="edep" Expression="1000*detsh.edep"/>
          <Output Type="Variable" Label="uderr" Expression="sqrt(detsh.udocavar)"/>
          <Output Type="Variable" Label="dchisq" Expression="4.0*detsh.rdrift*fabs(detsh.udoca)/(detsh.rerr*detsh.rerr+detsh.udocavar)"/>
        </Output>
      </Selection>
      <Class ClassIndex="0">
        <Ranges>
          <Range Index="0" Min="2.7860960108228028e-04" Max="2.4444970703125000e+02"/>
          <Range Index="1" Min="-2.8930810093879700e-01" Max="2.7907497882843018e+00"/>
          <Range Index="2" Min="-2.9457912445068359e+01" Max="1.2348029136657715e+01"/>
          <Range Index="3" Min="8.7999999523162842e-01" Max="3.6020000457763672e+01"/>
          <Range Index="4" Min="-1.4449862241744995e+00" Max="6.2949719429016113e+00"/>
          <Range Index="5" Min="9.5953024923801422e-02" Max="1.1691211700439453e+01"/>
          <Range Index="6" Min="-1.5559639930725098e+01" Max="1.3518586425781250e+03"/>
        </Ranges>
      </Class>
      <Class ClassIndex="1">
        <Ranges>
          <Range Index="0" Min="9.5846744443406351e-06" Max="8.5823875427246094e+01"/>
          <Range Index="1" Min="-2.3644836246967316e-01" Max="2.6909956932067871e+00"/>
          <Range Index="2" Min="-4.4904140472412109e+01" Max="1.3003341674804688e+01"/>
          <Range Index="3" Min="8.7999999523162842e-01" Max="3.6020000457763672e+01"/>
          <Range Index="4" Min="-3.2721478939056396e+00" Max="6.2931518554687500e+00"/>
          <Range Index="5" Min="9.6606180071830750e-02" Max="7.6204986572265625e+00"/>
          <Range Index="6" Min="-1.3761897087097168e+01" Max="1.5819342041015625e+03"/>
        </Ranges>
      </Class>
      <Class ClassIndex="2">
        <Ranges>
          <Range Index="0" Min="9.5846744443406351e-06" Max="2.4444970703125000e+02"/>
          <Range Index="1" Min="-2.8930810093879700e-01" Max="2.7907497882843018e+00"/>
          <Range Index="2" Min="-4.4904140472412109e+01" Max="1.3003341674804688e+01"/>
          <Range Index="3" Min="8.7999999523162842e-01" Max="3.6020000457763672e+01"/>
          <Range Index="4" Min="-3.2721478939056396e+00" Max="6.2949719429016113e+00"/>
          <Range Index="5" Min="9.5953024923801422e-02" Max="1.1691211700439453e+01"/>
          <Range Index="6" Min="-1.5559639930725098e+01" Max="1.5819342041015625e+03"/>
        </Ranges>
      </Class>
    </Transform>
  </Transformations>
  <MVAPdfs/>
  <Weights>
    <Layout NLayers="3">
      <Layer Index="0" NNeurons="8">
        <Neuron NSynapses="12">
          -4.1967287685327461e+00 1.7687247109034951e+00 1.4375994208791263e+00 1.7779981457527354e+00 6.7194839178984195e-02 -1.4024793341252511e+00 -6.6315813637877130e-01 3.6217429730699640e+00 -1.0382914689328646e-01 -7.0361577129595287e-01 -2.5457485996241963e-01 5.7531426769631624e+00 
        </Neuron>
        <Neuron NSynapses="12">
          6.4817706227257232e-01 -5.0410677104866253e-01 -4.4296172180073040e-01 6.9108832737476789e-01 -6.1758208496092204e-01 2.2767847308131026e+00 2.0532910452928466e+00 2.0566166294472548e+00 -6.5018051769327254e+00 -5.0935541249099592e-01 -4.5798029107325122e-01 2.7185441262144092e+00 
        </Neuron>
        <Neuron NSynapses="12">
          -1.6700820783881888e+01 -1.8958475884946011e-01 1.3035878746066776e+00 -1.0896383660647904e+00 2.3138769269749339e+01 -7.4552582212091559e-02 -1.0986387912280886e+00 6.6164379802448279e+00 -2.9833131524568985e+00 -3.9476013501261348e-01 -5.2115516960320074e-01 -1.7457227761148712e+01 
        </Neuron>
        <Neuron NSynapses="12">
          -1.3619561877180711e-01 1.6448134076900458e+00 -7.8948797412237082e-01 1.1378083296976174e+00 4.2032195105331016e-02 -6.0182435053032957e-01 -5.3634971695070244e-01 3.1776563831930352e-02 -5.0047288500465792e-01 -1.3722714704019072e+00 4.0851048667569581e+00 -1.3742526730330936e-02 
        </Neuron>
        <Neuron NSynapses="12">
          -3.5121167068489764e-02 1.4318310712299052e+00 1.4025801768868282e+00 1.3227211538360182e+00 4.6922159813404468e-01 2.9429388967522310e+00 -8.4491401104040680e+00 6.0824343232483591e-01 6.6119334274673747e-01 -1.7403658729925320e+00 2.3005467516156926e+00 1.1274875760500456e+00 
        </Neuron>
        <Neuron NSynapses="12">
          -3.7192599117392078e+00 1.5224754553231262e-01 3.7614780000891612e-01 7.3438506768006873e-01 5.3839582049536672e+00 2.6304843670125195e+00 1.2359818777107037e+00 4.2801100171790116e+00 1.6254476892398320e+00 -5.1560264058250782e-01 -4.8465282328986731e-01 -2.2754079423096037e+01 
        </Neuron>
        <Neuron NSynapses="12">
          3.4593910815400736e-01 1.3457533808100310e+00 1.8457534638720385e+00 -3.9598081770188132e-01 2.3014705688879347e+00 -2.0966433279307579e+00 -1.6079154336503365e+00 -7.3510105563788191e+00 1.3071105070772104e+00 1.0121132824122683e+00 -4.0857570076108618e-01 7.3289547387546061e-01 
        </Neuron>
        <Neuron NSynapses="12">
          1.2607177940786474e+00 -4.3547651894447537e-01 5.0881204823848447e-01 -1.0637331054646895e+00 -5.6722271730381895e+00 -1.3439314387431009e+00 -1.7455114168105787e-01 -2.6659426241302016e+00 5.4207992156295304e-01 -1.9660968252794242e+00 -2.5025937518956023e+00 -3.7118944587281533e+00 
        </Neuron>
      </Layer>
      <Layer Index="1" NNeurons="13">
        <Neuron NSynapses="1">
          -2.1705143788168177e+00 
        </Neuron>
        <Neuron NSynapses="1">
          -1.2691083080112182e+00 
        </Neuron>
        <Neuron NSynapses="1">
          -6.3673200589754164e-01 
        </Neuron>
        <Neuron NSynapses="1">
          5.4175980634531951e-01 
        </Neuron>
        <Neuron NSynapses="1">
          -9.9112226498831923e-01 
        </Neuron>
        <Neuron NSynapses="1">
          -8.8551521814782852e-01 
        </Neuron>
        <Neuron NSynapses="1">
          -6.1321356643286573e-01 
        </Neuron>
        <Neuron NSynapses="1">
          1.4564921534636603e+00 
        </Neuron>
        <Neuron NSynapses="1">
          -5.3622483971216395e-01 
        </Neuron>
        <Neuron NSynapses="1">
          1.4946431192764293e+00 
        </Neuron>
        <Neuron NSynapses="1">
          -5.1447554241646976e-01 
        </Neuron>
        <Neuron NSynapses="1">
          1.4451348502036336e+00 
        </Neuron>
        <Neuron NSynapses="1">
          -2.7837224783989817e-01 
        </Neuron>
      </Layer>
      <Layer Index="2" NNeurons="1">
        <Neuron NSynapses="0"/>
      </Layer>
    </Layout>
  </Weights>
</MethodSetup>
