<?xml version="1.0"?>
<MethodSetup Method="MLP::MLP">
  <GeneralInfo>
    <Info name="TMVA Release" value="4.2.1 [262657]"/>
    <Info name="ROOT Release" value="6.10/06 [395782]"/>
    <Info name="Creator" value="brownd"/>
    <Info name="Date" value="Tue Oct 30 07:05:07 2018"/>
    <Info name="Host" value="Darwin macitois19.cern.ch 16.5.0 Darwin Kernel Version 16.5.0: Fri Mar 3 16:52:33 PST 2017; root:xnu-3789.51.2~3/RELEASE_X86_64 x86_64"/>
    <Info name="Dir" value="/Users/brownd/mu2e/Mu2eSim/MDC2018/Offline"/>
    <Info name="Training events" value="17330"/>
    <Info name="TrainingTime" value="9.52726710e+01"/>
    <Info name="AnalysisType" value="Classification"/>
  </GeneralInfo>
  <Options>
    <Option name="NCycles" modified="No">500</Option>
    <Option name="HiddenLayers" modified="No">N,N-1</Option>
    <Option name="NeuronType" modified="No">sigmoid</Option>
    <Option name="RandomSeed" modified="No">1</Option>
    <Option name="EstimatorType" modified="No">CE</Option>
    <Option name="NeuronInputType" modified="No">sum</Option>
    <Option name="V" modified="Yes">False</Option>
    <Option name="VerbosityLevel" modified="No">Default</Option>
    <Option name="VarTransform" modified="Yes">N</Option>
    <Option name="H" modified="Yes">False</Option>
    <Option name="CreateMVAPdfs" modified="No">False</Option>
    <Option name="IgnoreNegWeightsInTraining" modified="No">False</Option>
    <Option name="TrainingMethod" modified="No">BP</Option>
    <Option name="LearningRate" modified="No">2.000000e-02</Option>
    <Option name="DecayRate" modified="No">1.000000e-02</Option>
    <Option name="TestRate" modified="No">10</Option>
    <Option name="EpochMonitoring" modified="No">False</Option>
    <Option name="Sampling" modified="No">1.000000e+00</Option>
    <Option name="SamplingEpoch" modified="No">1.000000e+00</Option>
    <Option name="SamplingImportance" modified="No">1.000000e+00</Option>
    <Option name="SamplingTraining" modified="No">True</Option>
    <Option name="SamplingTesting" modified="No">False</Option>
    <Option name="ResetStep" modified="No">50</Option>
    <Option name="Tau" modified="No">3.000000e+00</Option>
    <Option name="BPMode" modified="No">sequential</Option>
    <Option name="BatchSize" modified="No">-1</Option>
    <Option name="ConvergenceImprove" modified="No">1.000000e-30</Option>
    <Option name="ConvergenceTests" modified="No">-1</Option>
    <Option name="UseRegulator" modified="No">False</Option>
    <Option name="UpdateLimit" modified="No">10000</Option>
    <Option name="CalculateErrors" modified="No">False</Option>
    <Option name="WeightRange" modified="No">1.000000e+00</Option>
  </Options>
  <Variables NVar="10">
    <Variable VarIndex="0" Expression="de.nactive" Label="de.nactive" Title="NActive" Unit="Count" Internal="de.nactive" Type="I" Min="1.50000000e+01" Max="8.10000000e+01"/>
    <Variable VarIndex="1" Expression="de.nactive/de.nhits" Label="de.nactive/de.nhits" Title="FActive" Unit="Fraction" Internal="de.nactive_D_de.nhits" Type="F" Min="5.11111140e-01" Max="1.00000000e+00"/>
    <Variable VarIndex="2" Expression="log10(de.con)" Label="log10(de.con)" Title="LogFitCon" Unit="Probability" Internal="log10_de.con_" Type="F" Min="-4.42514076e+01" Max="0.00000000e+00"/>
    <Variable VarIndex="3" Expression="de.momerr" Label="de.momerr" Title="FitMomErr" Unit="MeV/c" Internal="de.momerr" Type="F" Min="6.04421422e-02" Max="6.04027152e-01"/>
    <Variable VarIndex="4" Expression="de.t0err" Label="de.t0err" Title="T0Err" Unit="nsec" Internal="de.t0err" Type="F" Min="3.25834692e-01" Max="6.88017559e+00"/>
    <Variable VarIndex="5" Expression="de.d0" Label="de.d0" Title="D0" Unit="mm" Internal="de.d0" Type="F" Min="-1.74721512e+02" Max="1.12848549e+02"/>
    <Variable VarIndex="6" Expression="de.d0+2./de.om" Label="de.d0+2./de.om" Title="MaxRadius" Unit="mm" Internal="de.d0_P_2._D_de.om" Type="F" Min="4.31313843e+02" Max="6.78714417e+02"/>
    <Variable VarIndex="7" Expression="de.ndactive/de.nactive" Label="de.ndactive/de.nactive" Title="DoubleHitFraction" Unit="Fraction" Internal="de.ndactive_D_de.nactive" Type="F" Min="1.11111112e-01" Max="5.59322059e-01"/>
    <Variable VarIndex="8" Expression="de.nnullambig/de.nactive" Label="de.nnullambig/de.nactive" Title="NullHitFraction" Unit="Fraction" Internal="de.nnullambig_D_de.nactive" Type="F" Min="0.00000000e+00" Max="4.37500000e-01"/>
    <Variable VarIndex="9" Expression="de.nmatactive/de.nactive" Label="de.nmatactive/de.nactive" Title="MatFraction" Unit="Fraction" Internal="de.nmatactive_D_de.nactive" Type="F" Min="9.62962985e-01" Max="2.88235283e+00"/>
  </Variables>
  <Spectators NSpec="0"/>
  <Classes NClass="2">
    <Class Name="Background" Index="0"/>
    <Class Name="Signal" Index="1"/>
  </Classes>
  <Transformations NTransformations="1">
    <Transform Name="Normalize">
      <Selection>
        <Input NInputs="10">
          <Input Type="Variable" Label="de.nactive" Expression="de.nactive"/>
          <Input Type="Variable" Label="de.nactive/de.nhits" Expression="de.nactive/de.nhits"/>
          <Input Type="Variable" Label="log10(de.con)" Expression="log10(de.con)"/>
          <Input Type="Variable" Label="de.momerr" Expression="de.momerr"/>
          <Input Type="Variable" Label="de.t0err" Expression="de.t0err"/>
          <Input Type="Variable" Label="de.d0" Expression="de.d0"/>
          <Input Type="Variable" Label="de.d0+2./de.om" Expression="de.d0+2./de.om"/>
          <Input Type="Variable" Label="de.ndactive/de.nactive" Expression="de.ndactive/de.nactive"/>
          <Input Type="Variable" Label="de.nnullambig/de.nactive" Expression="de.nnullambig/de.nactive"/>
          <Input Type="Variable" Label="de.nmatactive/de.nactive" Expression="de.nmatactive/de.nactive"/>
        </Input>
        <Output NOutputs="10">
          <Output Type="Variable" Label="de.nactive" Expression="de.nactive"/>
          <Output Type="Variable" Label="de.nactive/de.nhits" Expression="de.nactive/de.nhits"/>
          <Output Type="Variable" Label="log10(de.con)" Expression="log10(de.con)"/>
          <Output Type="Variable" Label="de.momerr" Expression="de.momerr"/>
          <Output Type="Variable" Label="de.t0err" Expression="de.t0err"/>
          <Output Type="Variable" Label="de.d0" Expression="de.d0"/>
          <Output Type="Variable" Label="de.d0+2./de.om" Expression="de.d0+2./de.om"/>
          <Output Type="Variable" Label="de.ndactive/de.nactive" Expression="de.ndactive/de.nactive"/>
          <Output Type="Variable" Label="de.nnullambig/de.nactive" Expression="de.nnullambig/de.nactive"/>
          <Output Type="Variable" Label="de.nmatactive/de.nactive" Expression="de.nmatactive/de.nactive"/>
        </Output>
      </Selection>
      <Class ClassIndex="0">
        <Ranges>
          <Range Index="0" Min="1.5000000000000000e+01" Max="5.8000000000000000e+01"/>
          <Range Index="1" Min="5.1111114025115967e-01" Max="1.0000000000000000e+00"/>
          <Range Index="2" Min="-4.3406311035156250e+01" Max="0.0000000000000000e+00"/>
          <Range Index="3" Min="9.2080287635326385e-02" Max="6.0402715206146240e-01"/>
          <Range Index="4" Min="4.9292311072349548e-01" Max="6.8801755905151367e+00"/>
          <Range Index="5" Min="-1.7472151184082031e+02" Max="7.2072830200195312e+01"/>
          <Range Index="6" Min="4.3394882202148438e+02" Max="6.6292663574218750e+02"/>
          <Range Index="7" Min="1.7647059261798859e-01" Max="5.2083331346511841e-01"/>
          <Range Index="8" Min="0.0000000000000000e+00" Max="4.2857143282890320e-01"/>
          <Range Index="9" Min="1.0000000000000000e+00" Max="2.4117646217346191e+00"/>
        </Ranges>
      </Class>
      <Class ClassIndex="1">
        <Ranges>
          <Range Index="0" Min="1.5000000000000000e+01" Max="8.1000000000000000e+01"/>
          <Range Index="1" Min="7.1428573131561279e-01" Max="1.0000000000000000e+00"/>
          <Range Index="2" Min="-4.4251407623291016e+01" Max="0.0000000000000000e+00"/>
          <Range Index="3" Min="6.0442142188549042e-02" Max="3.8960531353950500e-01"/>
          <Range Index="4" Min="3.2583469152450562e-01" Max="2.8579311370849609e+00"/>
          <Range Index="5" Min="-1.0562844085693359e+02" Max="1.1284854888916016e+02"/>
          <Range Index="6" Min="4.3131384277343750e+02" Max="6.7871441650390625e+02"/>
          <Range Index="7" Min="1.1111111193895340e-01" Max="5.5932205915451050e-01"/>
          <Range Index="8" Min="0.0000000000000000e+00" Max="4.3750000000000000e-01"/>
          <Range Index="9" Min="9.6296298503875732e-01" Max="2.8823528289794922e+00"/>
        </Ranges>
      </Class>
      <Class ClassIndex="2">
        <Ranges>
          <Range Index="0" Min="1.5000000000000000e+01" Max="8.1000000000000000e+01"/>
          <Range Index="1" Min="5.1111114025115967e-01" Max="1.0000000000000000e+00"/>
          <Range Index="2" Min="-4.4251407623291016e+01" Max="0.0000000000000000e+00"/>
          <Range Index="3" Min="6.0442142188549042e-02" Max="6.0402715206146240e-01"/>
          <Range Index="4" Min="3.2583469152450562e-01" Max="6.8801755905151367e+00"/>
          <Range Index="5" Min="-1.7472151184082031e+02" Max="1.1284854888916016e+02"/>
          <Range Index="6" Min="4.3131384277343750e+02" Max="6.7871441650390625e+02"/>
          <Range Index="7" Min="1.1111111193895340e-01" Max="5.5932205915451050e-01"/>
          <Range Index="8" Min="0.0000000000000000e+00" Max="4.3750000000000000e-01"/>
          <Range Index="9" Min="9.6296298503875732e-01" Max="2.8823528289794922e+00"/>
        </Ranges>
      </Class>
    </Transform>
  </Transformations>
  <MVAPdfs/>
  <Weights>
    <Layout NLayers="4">
      <Layer Index="0" NNeurons="11">
        <Neuron NSynapses="10">
          -2.9356062675731021e-01 2.0046866878999348e+00 -3.8595478467530037e-01 1.2731575271638800e+00 -1.5757787781447010e+00 -1.4395353397168231e+00 -9.4916503268217134e-01 2.2398196813437932e+00 -1.6922646651172060e-01 -1.6320296810629646e+00 
        </Neuron>
        <Neuron NSynapses="10">
          -1.6719428753540420e+00 -4.4673859210040712e-01 -9.9353241449906504e-01 -6.6894067170271798e-01 -2.5332629741011642e-01 6.1519417903118534e-01 -1.0737617743195820e+00 1.4611066318751158e+00 1.8318681410115560e+00 4.1766494432714196e-01 
        </Neuron>
        <Neuron NSynapses="10">
          -3.5929233131404364e-01 -7.5169835898207249e-01 -1.0862550578506450e-01 3.2631280931119572e-01 -1.0191322386440096e+00 -1.5945361478282385e-01 9.9028714634023385e-01 -1.3407075563095538e+00 -7.3942323380355479e-01 -2.0111901408429644e+00 
        </Neuron>
        <Neuron NSynapses="10">
          7.0745580381877970e-01 1.6865497068212794e+00 -1.4018357895518413e-01 3.9012531625885340e-02 -2.3400452140618910e-01 -2.8782570977912286e-01 -9.7957648869307923e-01 1.7600940151362729e+00 -2.6225033683908201e+00 1.4864967556691933e+00 
        </Neuron>
        <Neuron NSynapses="10">
          1.2581332642860110e+00 9.0579026357928516e-01 1.8770634773673509e+00 8.5774090353997079e-01 -1.0275133075779157e+00 -1.6128848557172490e+00 1.1783915360923356e+00 2.5901668122603710e-01 7.3666598162062480e-01 1.8862055556342756e+00 
        </Neuron>
        <Neuron NSynapses="10">
          1.5702898485712853e+00 1.2938233449429213e+00 -1.5834516640277188e+00 7.7000972456656258e-01 -1.4906962124612404e+00 -9.6777021818155728e-01 -1.4495249443290990e+00 -1.6747317176297649e+00 2.1359074003435818e+00 3.0504698403232294e-01 
        </Neuron>
        <Neuron NSynapses="10">
          -1.5951147807968404e+00 3.5594908527934305e-01 6.4339494796736874e-01 2.6926144656521317e-01 2.1163676687038535e+00 -3.9291477127497509e-01 4.7306137772123541e-01 -1.0204084161041245e+00 -8.0985412211016583e-01 7.3754696806864650e-01 
        </Neuron>
        <Neuron NSynapses="10">
          -7.5241049760030976e-01 -1.4557240700636085e+00 5.9855229523552489e-01 1.7662505759754286e+00 1.5148222763331016e+00 -2.9271654660725577e-01 -1.8475706587622298e+00 -1.8994556868814148e+00 4.3045197654712247e-01 6.8518385929105907e-01 
        </Neuron>
        <Neuron NSynapses="10">
          1.9378513184730479e+00 6.4585318025138794e-01 1.1670067968012057e+00 -1.0567799754865472e+00 -1.0885912166230789e+00 -3.4345401229773803e-01 1.3043449564369838e+00 -9.8739672459370897e-01 -2.3152506088729180e-01 -6.0743753822244706e-01 
        </Neuron>
        <Neuron NSynapses="10">
          -1.7569677206879636e-01 -7.8871128523489306e-02 1.4515317260007110e+00 -2.0758023466868822e+00 -1.0570982951894781e+00 1.5923815219902144e+00 -5.3309075557995622e-01 -1.3035432581180573e+00 -1.6885063145870651e+00 2.2869955395923822e-01 
        </Neuron>
        <Neuron NSynapses="10">
          -1.9877406143544576e+00 -1.7249624439028370e+00 3.6742809400439951e+00 2.3533489097799607e+00 -1.2245050639812984e+00 1.5583152562646945e+00 -7.6348046228571365e-01 -1.0675138530417607e+00 -2.0958472992439741e+00 3.1582158359817925e+00 
        </Neuron>
      </Layer>
      <Layer Index="1" NNeurons="11">
        <Neuron NSynapses="9">
          -1.8644332762371769e+00 3.1836382363739951e-01 3.2298706457546966e-01 6.2803078752698860e-01 -1.3582955335204672e+00 1.6784215112283629e+00 3.4792959479804586e-01 -9.5771065439886505e-01 8.1410906073737932e-01 
        </Neuron>
        <Neuron NSynapses="9">
          -1.1002362723204422e+00 -1.5634598349265907e+00 1.4167230197671662e-01 -3.0570188849553481e-01 1.8058512041072656e+00 7.1961123977491215e-01 -2.6659840712281863e-02 -3.3977785758845291e-01 1.6685772250686115e-01 
        </Neuron>
        <Neuron NSynapses="9">
          -2.9258092620461187e+00 1.8817115517952194e+00 4.7534410656148524e-01 1.2234595500415389e-03 1.1496039214376395e+00 -3.3856898202902017e+00 1.1148248839815012e-02 1.2823448644576514e+00 1.9022780280716918e+00 
        </Neuron>
        <Neuron NSynapses="9">
          -1.7550624692759313e+00 -1.3069269787250941e-02 1.1745941444438317e+00 1.1417726695655828e+00 -1.5002253605438500e-03 -1.3993643137554119e+00 -1.1457146710166234e-01 -1.3531300091929472e+00 1.2834440995031455e+00 
        </Neuron>
        <Neuron NSynapses="9">
          1.1608874173346477e+00 -6.9462669494371931e-01 -6.2274880833413160e-01 5.7583992523346716e-01 -1.1589753087545396e+00 4.0386660870839569e-01 1.6346136447980064e+00 -5.4727325886139178e-01 -7.3169948126223328e-01 
        </Neuron>
        <Neuron NSynapses="9">
          3.4486982339139510e-01 4.5367409937077480e-01 2.3050750815738436e-01 5.1000949843025933e-01 -1.5507141566356804e+00 1.4933327487020793e+00 7.7093182490741463e-01 4.6168919332887548e-01 3.1895214491648455e-01 
        </Neuron>
        <Neuron NSynapses="9">
          7.1990405990646822e-01 -7.0211083416736852e-01 -5.5495024314231811e-01 1.4021062205881389e+00 -7.5834427869099796e-01 -8.9189108232707870e-01 1.5619365227325426e+00 9.3299185622431458e-01 -3.2401925681019034e-01 
        </Neuron>
        <Neuron NSynapses="9">
          1.1616788153309385e+00 1.8770278070947370e+00 -1.8090531897964557e+00 9.2721515163577473e-01 7.7643993399550693e-02 6.5583178741559819e-02 -1.7254449041439437e+00 -1.5228791531807084e+00 1.1338877510358270e+00 
        </Neuron>
        <Neuron NSynapses="9">
          2.7797165811654501e+00 -2.5040077287620734e+00 -8.5673745744799701e-01 -2.2556383412448273e+00 -2.1423184123450195e-01 2.8238898375041157e+00 -2.3854761686499892e-01 -4.7359923509289392e-01 -1.4287693011240712e+00 
        </Neuron>
        <Neuron NSynapses="9">
          -1.9785555723737616e-01 2.3946445945992640e+00 1.4935698124438368e+00 2.0893160377354478e+00 -4.0529093394544607e-01 -4.0461123778905890e+00 1.1043157438572395e+00 5.7638818232910838e-01 -1.2948392312315449e+00 
        </Neuron>
        <Neuron NSynapses="9">
          -6.2844157206311058e-01 -1.4945109928141759e-01 -2.3290422045265402e-01 -2.2957569400103877e+00 1.4787191104677184e+00 6.9327221138570683e-01 -5.3952923833444433e-01 -1.2641681282104361e-01 1.3519008128768419e+00 
        </Neuron>
      </Layer>
      <Layer Index="2" NNeurons="10">
        <Neuron NSynapses="1">
          2.9893315785795753e+00 
        </Neuron>
        <Neuron NSynapses="1">
          -3.3661730457804202e+00 
        </Neuron>
        <Neuron NSynapses="1">
          -1.1382806685234310e+00 
        </Neuron>
        <Neuron NSynapses="1">
          -3.6344381278444806e+00 
        </Neuron>
        <Neuron NSynapses="1">
          -6.3807933179075937e-01 
        </Neuron>
        <Neuron NSynapses="1">
          6.3916447096983982e+00 
        </Neuron>
        <Neuron NSynapses="1">
          -4.2739190952768309e-03 
        </Neuron>
        <Neuron NSynapses="1">
          -5.4416991222455713e-01 
        </Neuron>
        <Neuron NSynapses="1">
          -7.3554603645461469e-01 
        </Neuron>
        <Neuron NSynapses="1">
          1.4956330928168804e+00 
        </Neuron>
      </Layer>
      <Layer Index="3" NNeurons="1">
        <Neuron NSynapses="0"/>
      </Layer>
    </Layout>
  </Weights>
</MethodSetup>
