<?xml version="1.0"?>
<MethodSetup Method="MLP::MLP">
  <GeneralInfo>
    <Info name="TMVA Release" value="4.2.1 [262657]"/>
    <Info name="ROOT Release" value="6.10/06 [395782]"/>
    <Info name="Creator" value="brownd"/>
    <Info name="Date" value="Tue Oct 30 06:50:57 2018"/>
    <Info name="Host" value="Darwin macitois19.cern.ch 16.5.0 Darwin Kernel Version 16.5.0: Fri Mar 3 16:52:33 PST 2017; root:xnu-3789.51.2~3/RELEASE_X86_64 x86_64"/>
    <Info name="Dir" value="/Users/brownd/mu2e/Mu2eSim/MDC2018/Offline"/>
    <Info name="Training events" value="15872"/>
    <Info name="TrainingTime" value="9.29791398e+01"/>
    <Info name="AnalysisType" value="Classification"/>
  </GeneralInfo>
  <Options>
    <Option name="NCycles" modified="No">500</Option>
    <Option name="HiddenLayers" modified="No">N,N-1</Option>
    <Option name="NeuronType" modified="No">sigmoid</Option>
    <Option name="RandomSeed" modified="No">1</Option>
    <Option name="EstimatorType" modified="No">CE</Option>
    <Option name="NeuronInputType" modified="No">sum</Option>
    <Option name="V" modified="Yes">False</Option>
    <Option name="VerbosityLevel" modified="No">Default</Option>
    <Option name="VarTransform" modified="Yes">N</Option>
    <Option name="H" modified="Yes">False</Option>
    <Option name="CreateMVAPdfs" modified="No">False</Option>
    <Option name="IgnoreNegWeightsInTraining" modified="No">False</Option>
    <Option name="TrainingMethod" modified="No">BP</Option>
    <Option name="LearningRate" modified="No">2.000000e-02</Option>
    <Option name="DecayRate" modified="No">1.000000e-02</Option>
    <Option name="TestRate" modified="No">10</Option>
    <Option name="EpochMonitoring" modified="No">False</Option>
    <Option name="Sampling" modified="No">1.000000e+00</Option>
    <Option name="SamplingEpoch" modified="No">1.000000e+00</Option>
    <Option name="SamplingImportance" modified="No">1.000000e+00</Option>
    <Option name="SamplingTraining" modified="No">True</Option>
    <Option name="SamplingTesting" modified="No">False</Option>
    <Option name="ResetStep" modified="No">50</Option>
    <Option name="Tau" modified="No">3.000000e+00</Option>
    <Option name="BPMode" modified="No">sequential</Option>
    <Option name="BatchSize" modified="No">-1</Option>
    <Option name="ConvergenceImprove" modified="No">1.000000e-30</Option>
    <Option name="ConvergenceTests" modified="No">-1</Option>
    <Option name="UseRegulator" modified="No">False</Option>
    <Option name="UpdateLimit" modified="No">10000</Option>
    <Option name="CalculateErrors" modified="No">False</Option>
    <Option name="WeightRange" modified="No">1.000000e+00</Option>
  </Options>
  <Variables NVar="10">
    <Variable VarIndex="0" Expression="de.nactive" Label="de.nactive" Title="NActive" Unit="Count" Internal="de.nactive" Type="I" Min="1.60000000e+01" Max="8.20000000e+01"/>
    <Variable VarIndex="1" Expression="de.nactive/de.nhits" Label="de.nactive/de.nhits" Title="FActive" Unit="Fraction" Internal="de.nactive_D_de.nhits" Type="F" Min="3.44827592e-01" Max="1.00000000e+00"/>
    <Variable VarIndex="2" Expression="log10(de.con)" Label="log10(de.con)" Title="LogFitCon" Unit="Probability" Internal="log10_de.con_" Type="F" Min="-4.48534698e+01" Max="0.00000000e+00"/>
    <Variable VarIndex="3" Expression="de.momerr" Label="de.momerr" Title="FitMomErr" Unit="MeV/c" Internal="de.momerr" Type="F" Min="6.12169392e-02" Max="1.96003044e+00"/>
    <Variable VarIndex="4" Expression="de.t0err" Label="de.t0err" Title="T0Err" Unit="nsec" Internal="de.t0err" Type="F" Min="1.50049910e-01" Max="2.70536494e+00"/>
    <Variable VarIndex="5" Expression="de.d0" Label="de.d0" Title="D0" Unit="mm" Internal="de.d0" Type="F" Min="-5.26685303e+02" Max="9.94038315e+01"/>
    <Variable VarIndex="6" Expression="de.d0+2./de.om" Label="de.d0+2./de.om" Title="MaxRadius" Unit="mm" Internal="de.d0_P_2._D_de.om" Type="F" Min="4.31486176e+02" Max="8.98575806e+02"/>
    <Variable VarIndex="7" Expression="de.ndactive/de.nactive" Label="de.ndactive/de.nactive" Title="DoubleHitFraction" Unit="Fraction" Internal="de.ndactive_D_de.nactive" Type="F" Min="1.57894731e-01" Max="5.50000012e-01"/>
    <Variable VarIndex="8" Expression="de.nnullambig/de.nactive" Label="de.nnullambig/de.nactive" Title="NullHitFraction" Unit="Fraction" Internal="de.nnullambig_D_de.nactive" Type="F" Min="0.00000000e+00" Max="4.54545468e-01"/>
    <Variable VarIndex="9" Expression="de.nmatactive/de.nactive" Label="de.nmatactive/de.nactive" Title="MatFraction" Unit="Fraction" Internal="de.nmatactive_D_de.nactive" Type="F" Min="9.37500000e-01" Max="4.16666651e+00"/>
  </Variables>
  <Spectators NSpec="0"/>
  <Classes NClass="2">
    <Class Name="Background" Index="0"/>
    <Class Name="Signal" Index="1"/>
  </Classes>
  <Transformations NTransformations="1">
    <Transform Name="Normalize">
      <Selection>
        <Input NInputs="10">
          <Input Type="Variable" Label="de.nactive" Expression="de.nactive"/>
          <Input Type="Variable" Label="de.nactive/de.nhits" Expression="de.nactive/de.nhits"/>
          <Input Type="Variable" Label="log10(de.con)" Expression="log10(de.con)"/>
          <Input Type="Variable" Label="de.momerr" Expression="de.momerr"/>
          <Input Type="Variable" Label="de.t0err" Expression="de.t0err"/>
          <Input Type="Variable" Label="de.d0" Expression="de.d0"/>
          <Input Type="Variable" Label="de.d0+2./de.om" Expression="de.d0+2./de.om"/>
          <Input Type="Variable" Label="de.ndactive/de.nactive" Expression="de.ndactive/de.nactive"/>
          <Input Type="Variable" Label="de.nnullambig/de.nactive" Expression="de.nnullambig/de.nactive"/>
          <Input Type="Variable" Label="de.nmatactive/de.nactive" Expression="de.nmatactive/de.nactive"/>
        </Input>
        <Output NOutputs="10">
          <Output Type="Variable" Label="de.nactive" Expression="de.nactive"/>
          <Output Type="Variable" Label="de.nactive/de.nhits" Expression="de.nactive/de.nhits"/>
          <Output Type="Variable" Label="log10(de.con)" Expression="log10(de.con)"/>
          <Output Type="Variable" Label="de.momerr" Expression="de.momerr"/>
          <Output Type="Variable" Label="de.t0err" Expression="de.t0err"/>
          <Output Type="Variable" Label="de.d0" Expression="de.d0"/>
          <Output Type="Variable" Label="de.d0+2./de.om" Expression="de.d0+2./de.om"/>
          <Output Type="Variable" Label="de.ndactive/de.nactive" Expression="de.ndactive/de.nactive"/>
          <Output Type="Variable" Label="de.nnullambig/de.nactive" Expression="de.nnullambig/de.nactive"/>
          <Output Type="Variable" Label="de.nmatactive/de.nactive" Expression="de.nmatactive/de.nactive"/>
        </Output>
      </Selection>
      <Class ClassIndex="0">
        <Ranges>
          <Range Index="0" Min="1.6000000000000000e+01" Max="5.9000000000000000e+01"/>
          <Range Index="1" Min="3.4482759237289429e-01" Max="1.0000000000000000e+00"/>
          <Range Index="2" Min="-3.5511821746826172e+01" Max="0.0000000000000000e+00"/>
          <Range Index="3" Min="8.8218085467815399e-02" Max="1.9600304365158081e+00"/>
          <Range Index="4" Min="1.9247639179229736e-01" Max="2.7053649425506592e+00"/>
          <Range Index="5" Min="-5.2668530273437500e+02" Max="7.1011436462402344e+01"/>
          <Range Index="6" Min="4.3148617553710938e+02" Max="8.9857580566406250e+02"/>
          <Range Index="7" Min="2.0000000298023224e-01" Max="5.0000000000000000e-01"/>
          <Range Index="8" Min="0.0000000000000000e+00" Max="4.2857143282890320e-01"/>
          <Range Index="9" Min="9.4444441795349121e-01" Max="4.1666665077209473e+00"/>
        </Ranges>
      </Class>
      <Class ClassIndex="1">
        <Ranges>
          <Range Index="0" Min="1.6000000000000000e+01" Max="8.2000000000000000e+01"/>
          <Range Index="1" Min="6.7441862821578979e-01" Max="1.0000000000000000e+00"/>
          <Range Index="2" Min="-4.4853469848632812e+01" Max="0.0000000000000000e+00"/>
          <Range Index="3" Min="6.1216939240694046e-02" Max="4.5335420966148376e-01"/>
          <Range Index="4" Min="1.5004990994930267e-01" Max="2.1615338325500488e+00"/>
          <Range Index="5" Min="-1.0386370086669922e+02" Max="9.9403831481933594e+01"/>
          <Range Index="6" Min="4.3164593505859375e+02" Max="6.7866595458984375e+02"/>
          <Range Index="7" Min="1.5789473056793213e-01" Max="5.5000001192092896e-01"/>
          <Range Index="8" Min="0.0000000000000000e+00" Max="4.5454546809196472e-01"/>
          <Range Index="9" Min="9.3750000000000000e-01" Max="2.0344827175140381e+00"/>
        </Ranges>
      </Class>
      <Class ClassIndex="2">
        <Ranges>
          <Range Index="0" Min="1.6000000000000000e+01" Max="8.2000000000000000e+01"/>
          <Range Index="1" Min="3.4482759237289429e-01" Max="1.0000000000000000e+00"/>
          <Range Index="2" Min="-4.4853469848632812e+01" Max="0.0000000000000000e+00"/>
          <Range Index="3" Min="6.1216939240694046e-02" Max="1.9600304365158081e+00"/>
          <Range Index="4" Min="1.5004990994930267e-01" Max="2.7053649425506592e+00"/>
          <Range Index="5" Min="-5.2668530273437500e+02" Max="9.9403831481933594e+01"/>
          <Range Index="6" Min="4.3148617553710938e+02" Max="8.9857580566406250e+02"/>
          <Range Index="7" Min="1.5789473056793213e-01" Max="5.5000001192092896e-01"/>
          <Range Index="8" Min="0.0000000000000000e+00" Max="4.5454546809196472e-01"/>
          <Range Index="9" Min="9.3750000000000000e-01" Max="4.1666665077209473e+00"/>
        </Ranges>
      </Class>
    </Transform>
  </Transformations>
  <MVAPdfs/>
  <Weights>
    <Layout NLayers="4">
      <Layer Index="0" NNeurons="11">
        <Neuron NSynapses="10">
          -3.0614662719071106e-01 1.9864346530584440e+00 1.1165391441487618e-01 8.9074563659117167e-01 -1.8428942716905266e+00 -1.3468518691823588e+00 -1.6264473149495444e+00 2.3696928985862993e+00 5.6989669020453582e-01 -1.9328884531394233e+00 
        </Neuron>
        <Neuron NSynapses="10">
          -1.6268558524944798e+00 -4.2333642119598092e-01 -1.0455612170929194e+00 -2.3516535627715321e-01 -3.8633206945309434e-01 7.0522182097625563e-01 -1.5475463600531212e+00 2.0565228013848240e+00 6.0303113757040050e-01 5.8028585156653056e-01 
        </Neuron>
        <Neuron NSynapses="10">
          -3.7014320825767372e-01 -7.4769311783573289e-01 2.8756289431861992e-01 7.4605143125646978e-01 -1.2473900565544578e+00 -3.4295001395983954e-01 3.1286279737872756e-02 1.0813718723560679e+00 -1.5170164825803825e+00 -2.1012509802066281e+00 
        </Neuron>
        <Neuron NSynapses="10">
          6.9260865773374136e-01 1.6666685374901171e+00 -4.7763329177431596e-01 -6.2514813838017136e-01 2.9733371435742689e-01 -2.2826123229662709e-01 -5.7857825355738468e-01 5.4412330502604056e-01 -2.5107760869964983e+00 2.1881914894783114e+00 
        </Neuron>
        <Neuron NSynapses="10">
          1.1760046075460511e+00 8.7086366331761900e-01 1.4012547161371935e+00 9.0764249483979531e-01 -8.0375393243901694e-01 -1.6349138613782330e+00 9.4214937468452831e-01 1.3072847966232082e-01 1.6836794582514387e+00 8.6508483746498621e-01 
        </Neuron>
        <Neuron NSynapses="10">
          1.5737866520544523e+00 1.3072072019863790e+00 -1.4744062112838450e+00 1.4230047730020761e+00 -1.8283518050300709e+00 -9.3263476202043682e-01 -2.0426643690631097e+00 -1.1306409856412212e+00 2.4797852079201808e+00 -5.6244437123277397e-02 
        </Neuron>
        <Neuron NSynapses="10">
          -1.5740826823151701e+00 3.7598399517727193e-01 -1.9042514089952733e-01 1.5125510947086823e-01 1.9291012781351695e+00 -2.2449139233511453e-01 4.1285548203549011e-01 -1.8558554293541072e+00 1.0626477844544697e+00 -1.5737229962282832e-02 
        </Neuron>
        <Neuron NSynapses="10">
          -7.1488959549829822e-01 -1.4349749747102443e+00 5.2830441708576648e-01 1.3013093665128297e+00 1.2339471256044579e+00 -3.7725312539788541e-01 -1.5445478241613546e+00 -1.7688232212177437e+00 5.2015385864259600e-01 4.8366525750313277e-01 
        </Neuron>
        <Neuron NSynapses="10">
          1.9121620933234824e+00 6.5121213353774765e-01 6.1168799671659480e-01 -9.6691009513682813e-01 -8.6540249024488769e-01 -2.1757180917863778e-01 6.8386450280715483e-01 -1.0545982779675553e+00 -1.2851243006579427e+00 -9.2062823657709814e-01 
        </Neuron>
        <Neuron NSynapses="10">
          -2.0982002174487507e-01 -1.1458099029764371e-01 1.3698389078537807e+00 -2.0148941953898265e+00 -8.7286252479872806e-01 1.6595608061443410e+00 -2.2090646363888636e-01 -2.0858263610434493e+00 -1.8958943353668607e+00 6.5098472842264121e-01 
        </Neuron>
        <Neuron NSynapses="10">
          -1.8977151301777351e+00 -1.6739223636041571e+00 2.5613651564960098e+00 2.6210471019763606e+00 -1.1073312893212424e+00 1.6680716082854878e+00 -2.1589025292129663e-01 -2.3178478702265779e+00 -1.8068114322084439e+00 2.2764052710155758e+00 
        </Neuron>
      </Layer>
      <Layer Index="1" NNeurons="11">
        <Neuron NSynapses="9">
          -1.9583960990139013e+00 2.6145725912882212e-01 3.0846889569837804e-01 7.8479542591198781e-01 -1.2667357480008148e+00 1.5950680579928951e+00 2.9257923695366767e-01 -9.9299876084294347e-01 8.2311250173999373e-01 
        </Neuron>
        <Neuron NSynapses="9">
          -1.1045678643469146e+00 -1.5892758928320654e+00 1.5372432537824185e-01 -3.0432633667320624e-01 1.8036864850343146e+00 7.3542383218528307e-01 -8.3281876205901616e-03 -3.3578678141519080e-01 1.6382557135030709e-01 
        </Neuron>
        <Neuron NSynapses="9">
          -2.6975913248282328e+00 1.0792051751107148e+00 6.1632626264358126e-01 -3.3790080070050726e-01 9.6800488219596570e-01 -2.5268770463631709e+00 3.8415953213716886e-01 1.4017849645843197e+00 1.8444388980425774e+00 
        </Neuron>
        <Neuron NSynapses="9">
          -2.0601561510637056e+00 2.5032791289580436e-01 1.3884879641162802e+00 1.4542195567031690e+00 6.7625696618057063e-02 -1.7971734978771827e+00 8.2320718139406474e-02 -1.1034259343188384e+00 1.5410479235420367e+00 
        </Neuron>
        <Neuron NSynapses="9">
          7.5673735732283320e-01 -4.7669446163638129e-01 -1.2558995229835923e-01 1.0538954862114303e+00 -1.1528346002375729e+00 -1.6718286772475047e-01 1.9063525595309054e+00 -4.7530595258078334e-01 -5.6675236283577646e-01 
        </Neuron>
        <Neuron NSynapses="9">
          -3.6717475482522521e-02 9.0714953351510186e-01 4.7571146933777070e-01 1.0742277951035348e+00 -1.4534520800628066e+00 9.7393552941704475e-01 9.7814511725430198e-01 7.7216892022995476e-01 5.8100242023238136e-01 
        </Neuron>
        <Neuron NSynapses="9">
          2.8118017814189472e-01 -6.1075986989521647e-01 -4.5600783749106211e-01 2.1419673542942266e+00 -5.2481100908079070e-01 -1.3633641453327372e+00 1.5565621589326755e+00 1.0380913099117275e+00 -2.2531613252203234e-01 
        </Neuron>
        <Neuron NSynapses="9">
          2.4615819250122870e+00 1.7316681973586083e+00 -2.6359729578408824e+00 -1.0104153707555688e+00 -2.6959130998979580e-01 1.6808376738827691e+00 -2.0475422058844952e+00 -1.4996254396891655e+00 1.0826020187273977e+00 
        </Neuron>
        <Neuron NSynapses="9">
          2.5241081663290164e+00 -1.8418033221718455e+00 -8.8654712219304854e-01 -1.8526029197480649e+00 6.6343347561696311e-02 2.4230211141957456e+00 -5.5589621035883685e-01 -4.5270286972113216e-01 -1.1172231798086287e+00 
        </Neuron>
        <Neuron NSynapses="9">
          -6.2464521510796596e-03 1.6050160820600281e+00 1.7822392417759647e+00 1.8394475604260467e+00 -6.4064980532429650e-01 -3.4888166067379012e+00 1.8551896446641345e+00 8.0540543351209359e-01 -1.3714777861955374e+00 
        </Neuron>
        <Neuron NSynapses="9">
          -1.0163689471073472e+00 2.1234825098454410e-01 1.9151310670041385e-02 -1.8442621483510107e+00 1.5514038248107729e+00 2.6667757173662959e-01 -2.9754978819003391e-01 1.9169858486889058e-01 1.6183042938175465e+00 
        </Neuron>
      </Layer>
      <Layer Index="2" NNeurons="10">
        <Neuron NSynapses="1">
          3.4440263064672574e+00 
        </Neuron>
        <Neuron NSynapses="1">
          -2.2184386151594784e-01 
        </Neuron>
        <Neuron NSynapses="1">
          -2.5964066131476073e+00 
        </Neuron>
        <Neuron NSynapses="1">
          -3.8381371292364825e+00 
        </Neuron>
        <Neuron NSynapses="1">
          -1.1532034065446975e-01 
        </Neuron>
        <Neuron NSynapses="1">
          5.1710757299205614e+00 
        </Neuron>
        <Neuron NSynapses="1">
          -2.4077914721760796e+00 
        </Neuron>
        <Neuron NSynapses="1">
          -1.3546602262502012e+00 
        </Neuron>
        <Neuron NSynapses="1">
          -3.9138643035659948e-01 
        </Neuron>
        <Neuron NSynapses="1">
          1.3376792997326488e+00 
        </Neuron>
      </Layer>
      <Layer Index="3" NNeurons="1">
        <Neuron NSynapses="0"/>
      </Layer>
    </Layout>
  </Weights>
</MethodSetup>
