<?xml version="1.0"?>
<MethodSetup Method="MLP::MLP">
  <GeneralInfo>
    <Info name="TMVA Release" value="4.2.1 [262657]"/>
    <Info name="ROOT Release" value="6.14/06 [396806]"/>
    <Info name="Creator" value="brownd"/>
    <Info name="Date" value="Fri May 17 16:38:58 2019"/>
    <Info name="Host" value="Darwin macitois21.cern.ch 18.0.0 Darwin Kernel Version 18.0.0: Wed Aug 22 20:13:40 PDT 2018; root:xnu-4903.201.2~1/RELEASE_X86_64 x86_64"/>
    <Info name="Dir" value="/Users/brownd/mu2e/Mu2eSim/MDC2018/Offline"/>
    <Info name="Training events" value="242586"/>
    <Info name="TrainingTime" value="1.22145145e+03"/>
    <Info name="AnalysisType" value="Classification"/>
  </GeneralInfo>
  <Options>
    <Option name="NCycles" modified="No">500</Option>
    <Option name="HiddenLayers" modified="No">N,N-1</Option>
    <Option name="NeuronType" modified="No">sigmoid</Option>
    <Option name="RandomSeed" modified="No">1</Option>
    <Option name="EstimatorType" modified="No">CE</Option>
    <Option name="NeuronInputType" modified="No">sum</Option>
    <Option name="V" modified="Yes">False</Option>
    <Option name="VerbosityLevel" modified="No">Default</Option>
    <Option name="VarTransform" modified="Yes">N</Option>
    <Option name="H" modified="Yes">False</Option>
    <Option name="CreateMVAPdfs" modified="No">False</Option>
    <Option name="IgnoreNegWeightsInTraining" modified="No">False</Option>
    <Option name="TrainingMethod" modified="No">BP</Option>
    <Option name="LearningRate" modified="No">2.000000e-02</Option>
    <Option name="DecayRate" modified="No">1.000000e-02</Option>
    <Option name="TestRate" modified="No">10</Option>
    <Option name="EpochMonitoring" modified="No">False</Option>
    <Option name="Sampling" modified="No">1.000000e+00</Option>
    <Option name="SamplingEpoch" modified="No">1.000000e+00</Option>
    <Option name="SamplingImportance" modified="No">1.000000e+00</Option>
    <Option name="SamplingTraining" modified="No">True</Option>
    <Option name="SamplingTesting" modified="No">False</Option>
    <Option name="ResetStep" modified="No">50</Option>
    <Option name="Tau" modified="No">3.000000e+00</Option>
    <Option name="BPMode" modified="No">sequential</Option>
    <Option name="BatchSize" modified="No">-1</Option>
    <Option name="ConvergenceImprove" modified="No">1.000000e-30</Option>
    <Option name="ConvergenceTests" modified="No">-1</Option>
    <Option name="UseRegulator" modified="No">False</Option>
    <Option name="UpdateLimit" modified="No">10000</Option>
    <Option name="CalculateErrors" modified="No">False</Option>
    <Option name="WeightRange" modified="No">1.000000e+00</Option>
  </Options>
  <Variables NVar="10">
    <Variable VarIndex="0" Expression="de.nactive" Label="de.nactive" Title="NActive" Unit="Count" Internal="de.nactive" Type="I" Min="1.40000000e+01" Max="8.80000000e+01"/>
    <Variable VarIndex="1" Expression="de.nactive/de.nhits" Label="de.nactive/de.nhits" Title="FActive" Unit="Fraction" Internal="de.nactive_D_de.nhits" Type="F" Min="3.40425521e-01" Max="1.00000000e+00"/>
    <Variable VarIndex="2" Expression="log10(de.fitcon)" Label="log10(de.fitcon)" Title="LogFitCon" Unit="Probability" Internal="log10_de.fitcon_" Type="F" Min="-4.48534698e+01" Max="0.00000000e+00"/>
    <Variable VarIndex="3" Expression="de.momerr" Label="de.momerr" Title="FitMomErr" Unit="MeV/c" Internal="de.momerr" Type="F" Min="5.15327416e-02" Max="5.96623802e+00"/>
    <Variable VarIndex="4" Expression="de.t0err" Label="de.t0err" Title="T0Err" Unit="nsec" Internal="de.t0err" Type="F" Min="9.76576284e-02" Max="6.06442213e+00"/>
    <Variable VarIndex="5" Expression="de.d0" Label="de.d0" Title="D0" Unit="mm" Internal="de.d0" Type="F" Min="-4.69141327e+02" Max="1.91404755e+02"/>
    <Variable VarIndex="6" Expression="de.d0+2./de.om" Label="de.d0+2./de.om" Title="MaxRadius" Unit="mm" Internal="de.d0_P_2._D_de.om" Type="F" Min="4.18960632e+02" Max="7.41317017e+02"/>
    <Variable VarIndex="7" Expression="de.ndactive/de.nactive" Label="de.ndactive/de.nactive" Title="DoubleHitFraction" Unit="Fraction" Internal="de.ndactive_D_de.nactive" Type="F" Min="8.33333358e-02" Max="6.31578922e-01"/>
    <Variable VarIndex="8" Expression="de.nnullambig/de.nactive" Label="de.nnullambig/de.nactive" Title="NullHitFraction" Unit="Fraction" Internal="de.nnullambig_D_de.nactive" Type="F" Min="0.00000000e+00" Max="5.21739125e-01"/>
    <Variable VarIndex="9" Expression="de.nmatactive/de.nactive" Label="de.nmatactive/de.nactive" Title="MatFraction" Unit="Fraction" Internal="de.nmatactive_D_de.nactive" Type="F" Min="8.88888896e-01" Max="4.33333349e+00"/>
  </Variables>
  <Spectators NSpec="0"/>
  <Classes NClass="2">
    <Class Name="Background" Index="0"/>
    <Class Name="Signal" Index="1"/>
  </Classes>
  <Transformations NTransformations="1">
    <Transform Name="Normalize">
      <Selection>
        <Input NInputs="10">
          <Input Type="Variable" Label="de.nactive" Expression="de.nactive"/>
          <Input Type="Variable" Label="de.nactive/de.nhits" Expression="de.nactive/de.nhits"/>
          <Input Type="Variable" Label="log10(de.fitcon)" Expression="log10(de.fitcon)"/>
          <Input Type="Variable" Label="de.momerr" Expression="de.momerr"/>
          <Input Type="Variable" Label="de.t0err" Expression="de.t0err"/>
          <Input Type="Variable" Label="de.d0" Expression="de.d0"/>
          <Input Type="Variable" Label="de.d0+2./de.om" Expression="de.d0+2./de.om"/>
          <Input Type="Variable" Label="de.ndactive/de.nactive" Expression="de.ndactive/de.nactive"/>
          <Input Type="Variable" Label="de.nnullambig/de.nactive" Expression="de.nnullambig/de.nactive"/>
          <Input Type="Variable" Label="de.nmatactive/de.nactive" Expression="de.nmatactive/de.nactive"/>
        </Input>
        <Output NOutputs="10">
          <Output Type="Variable" Label="de.nactive" Expression="de.nactive"/>
          <Output Type="Variable" Label="de.nactive/de.nhits" Expression="de.nactive/de.nhits"/>
          <Output Type="Variable" Label="log10(de.fitcon)" Expression="log10(de.fitcon)"/>
          <Output Type="Variable" Label="de.momerr" Expression="de.momerr"/>
          <Output Type="Variable" Label="de.t0err" Expression="de.t0err"/>
          <Output Type="Variable" Label="de.d0" Expression="de.d0"/>
          <Output Type="Variable" Label="de.d0+2./de.om" Expression="de.d0+2./de.om"/>
          <Output Type="Variable" Label="de.ndactive/de.nactive" Expression="de.ndactive/de.nactive"/>
          <Output Type="Variable" Label="de.nnullambig/de.nactive" Expression="de.nnullambig/de.nactive"/>
          <Output Type="Variable" Label="de.nmatactive/de.nactive" Expression="de.nmatactive/de.nactive"/>
        </Output>
      </Selection>
      <Class ClassIndex="0">
        <Ranges>
          <Range Index="0" Min="1.4000000000000000e+01" Max="6.0000000000000000e+01"/>
          <Range Index="1" Min="3.4042552113533020e-01" Max="1.0000000000000000e+00"/>
          <Range Index="2" Min="-4.3677379608154297e+01" Max="0.0000000000000000e+00"/>
          <Range Index="3" Min="7.4155166745185852e-02" Max="5.9662380218505859e+00"/>
          <Range Index="4" Min="9.7657628357410431e-02" Max="6.0644221305847168e+00"/>
          <Range Index="5" Min="-4.6914132690429688e+02" Max="9.9290390014648438e+01"/>
          <Range Index="6" Min="4.2179968261718750e+02" Max="7.4131701660156250e+02"/>
          <Range Index="7" Min="8.3333335816860199e-02" Max="6.3157892227172852e-01"/>
          <Range Index="8" Min="0.0000000000000000e+00" Max="5.2173912525177002e-01"/>
          <Range Index="9" Min="8.8888889551162720e-01" Max="4.3333334922790527e+00"/>
        </Ranges>
      </Class>
      <Class ClassIndex="1">
        <Ranges>
          <Range Index="0" Min="1.4000000000000000e+01" Max="8.8000000000000000e+01"/>
          <Range Index="1" Min="6.1224490404129028e-01" Max="1.0000000000000000e+00"/>
          <Range Index="2" Min="-4.4853469848632812e+01" Max="0.0000000000000000e+00"/>
          <Range Index="3" Min="5.1532741636037827e-02" Max="9.8580336570739746e-01"/>
          <Range Index="4" Min="1.0227800905704498e-01" Max="3.4413776397705078e+00"/>
          <Range Index="5" Min="-1.4413674926757812e+02" Max="1.9140475463867188e+02"/>
          <Range Index="6" Min="4.1896063232421875e+02" Max="6.8776812744140625e+02"/>
          <Range Index="7" Min="1.0000000149011612e-01" Max="6.1403506994247437e-01"/>
          <Range Index="8" Min="0.0000000000000000e+00" Max="4.8148149251937866e-01"/>
          <Range Index="9" Min="9.4871795177459717e-01" Max="3.0000000000000000e+00"/>
        </Ranges>
      </Class>
      <Class ClassIndex="2">
        <Ranges>
          <Range Index="0" Min="1.4000000000000000e+01" Max="8.8000000000000000e+01"/>
          <Range Index="1" Min="3.4042552113533020e-01" Max="1.0000000000000000e+00"/>
          <Range Index="2" Min="-4.4853469848632812e+01" Max="0.0000000000000000e+00"/>
          <Range Index="3" Min="5.1532741636037827e-02" Max="5.9662380218505859e+00"/>
          <Range Index="4" Min="9.7657628357410431e-02" Max="6.0644221305847168e+00"/>
          <Range Index="5" Min="-4.6914132690429688e+02" Max="1.9140475463867188e+02"/>
          <Range Index="6" Min="4.1896063232421875e+02" Max="7.4131701660156250e+02"/>
          <Range Index="7" Min="8.3333335816860199e-02" Max="6.3157892227172852e-01"/>
          <Range Index="8" Min="0.0000000000000000e+00" Max="5.2173912525177002e-01"/>
          <Range Index="9" Min="8.8888889551162720e-01" Max="4.3333334922790527e+00"/>
        </Ranges>
      </Class>
    </Transform>
  </Transformations>
  <MVAPdfs/>
  <Weights>
    <Layout NLayers="4">
      <Layer Index="0" NNeurons="11">
        <Neuron NSynapses="10">
          -2.3305331071179819e-01 2.0166755953055380e+00 1.9449234659299668e-03 1.2518887337171880e+00 -1.7996022183088387e+00 -2.7924005093633875e-01 7.3841913463765074e-01 2.1847208420888622e+00 -4.6579871006022838e-01 2.0918051435791496e-01 
        </Neuron>
        <Neuron NSynapses="10">
          -1.7432804223051632e+00 -4.4125778291115331e-01 -1.1495088667210653e+00 -1.6220157268984539e-01 -9.8544781151431268e-02 2.1127295346029124e-01 1.5932648717766205e+00 7.1042209215595975e-01 3.2317803416456647e-01 5.9508363755822102e-01 
        </Neuron>
        <Neuron NSynapses="10">
          -3.8134472314572704e-01 -7.5639490554642252e-01 2.6308807168370141e-01 5.3483571784840700e-01 -1.7946551420508730e+00 -9.9200033641256213e-01 -2.6518914350985945e+00 8.7470523601668837e-01 -2.1783999831506656e-01 -1.4590591008911800e+00 
        </Neuron>
        <Neuron NSynapses="10">
          8.7520571510178302e-01 1.6844583819858554e+00 2.8097284173140973e+00 -7.0684260468657545e-01 1.6207553764087510e+00 3.3695848320632416e+00 -2.7875821162919934e+00 -2.8885476165174526e+00 -8.2169020596480085e+00 9.1089857434513775e+00 
        </Neuron>
        <Neuron NSynapses="10">
          1.2330706488286014e+00 8.7804440218040003e-01 2.0073745108496812e+00 6.4002346414904121e-01 1.2499791440711669e+00 -4.8809017161672874e-01 4.2528246882730656e+00 -3.8717719389845988e+00 7.9311919374154061e-01 1.6358544400030828e+00 
        </Neuron>
        <Neuron NSynapses="10">
          1.5781826671640540e+00 1.3094154964325999e+00 -2.7800310781731485e+00 1.3201188721233110e+00 -3.9499791179109951e+00 -1.7014094773582433e+00 -1.8742656395794701e+00 1.5703760169417691e-01 2.2077824693577952e+00 3.2668464616228747e+00 
        </Neuron>
        <Neuron NSynapses="10">
          -1.4812124148940069e+00 3.9042891901226862e-01 2.0041808625940853e+00 2.5624397380005981e-01 3.0332174689686831e+00 -1.5077608991523436e-01 1.0424356354391997e+00 -2.5900541939572219e-01 -2.4893397282158769e-01 -1.1568928006090642e+00 
        </Neuron>
        <Neuron NSynapses="10">
          -7.5325816579246074e-01 -1.4300858090093076e+00 3.7535936463925536e-02 1.5406130914435123e+00 -3.7845059970886080e-02 -2.3538965935507014e-01 -7.5359853390809128e-01 -8.7032255682410098e-01 2.7062130675268131e-01 1.2992513966145683e-01 
        </Neuron>
        <Neuron NSynapses="10">
          1.7494415700782926e+00 6.5374116897170953e-01 8.6725026717365838e-01 -1.1277980804056060e+00 -6.4577853779818384e-01 7.1625408421990833e-02 1.7667708947263501e-02 -1.1877002000735639e+00 -3.9253587929521733e-01 -2.7278028550922861e-01 
        </Neuron>
        <Neuron NSynapses="10">
          -1.2934453304487481e-01 -1.0647989626679005e-01 5.5777849619443279e-02 -2.1722136372841816e+00 -7.5061770305524222e-01 1.2260354999842438e+00 2.0603627167879472e+00 -3.8928025952789351e+00 -2.7111146827403670e-01 1.0950648586377676e+00 
        </Neuron>
        <Neuron NSynapses="10">
          -2.0121021038777172e+00 -1.7004273004723043e+00 5.9060216960582474e+00 2.4078200443028073e+00 2.8442605346492549e+00 4.2319506067265875e+00 4.7626532022797479e+00 -1.1456577313485804e+01 -8.7380848006320111e+00 9.6686432446782504e+00 
        </Neuron>
      </Layer>
      <Layer Index="1" NNeurons="11">
        <Neuron NSynapses="9">
          -1.8353881076516487e+00 2.5602580335158776e-01 2.8158633727599830e-01 5.9498946392036889e-01 -1.3851316776698108e+00 1.6916189919939013e+00 3.8258048358307034e-01 -9.6546375488943881e-01 8.0194235798790914e-01 
        </Neuron>
        <Neuron NSynapses="9">
          -1.0501255931334255e+00 -1.5923535437643812e+00 1.2966201938418542e-01 -3.0492158359011728e-01 1.8087908806207020e+00 7.5907087058084144e-01 -5.7970356117422045e-03 -3.4592595845759200e-01 1.6446074410423414e-01 
        </Neuron>
        <Neuron NSynapses="9">
          -3.8175178167796386e+00 7.5048338341541254e-01 1.8025412249172834e+00 -2.8980073667338802e-01 -3.2696057074844231e-01 -3.2793457727841853e+00 1.0502871428889704e+00 1.5371410814367823e+00 1.7290809155735360e+00 
        </Neuron>
        <Neuron NSynapses="9">
          -2.4345645756366641e+00 1.6436294759264147e-01 1.3819731173824990e+00 1.5933929688914035e+00 -3.1047590745766773e-01 -1.4413422889463383e+00 6.9098930452630020e-02 -1.4480967284787492e+00 1.6036158044242714e+00 
        </Neuron>
        <Neuron NSynapses="9">
          -8.3834718447856182e-01 -7.1257647133501867e-01 1.3672730799389570e+00 2.5528934659848965e+00 -2.1073729403062038e+00 -1.5697281850559370e+00 2.6423049043220965e+00 -2.1782441216232953e-01 -5.4380183062512311e-01 
        </Neuron>
        <Neuron NSynapses="9">
          -7.7416018218478444e-01 1.0903100438169482e+00 1.2742449646123892e+00 2.4618521875173185e+00 -2.2796496336863701e+00 -4.1261420887053801e-01 1.8869746410326298e+00 4.7842746207031128e-01 6.4738568432104093e-01 
        </Neuron>
        <Neuron NSynapses="9">
          3.8238247866102948e+00 -5.7965025507932233e-01 -2.1520118855077546e+00 3.9564013442325274e+00 2.3826294263632317e-01 -2.8302900632451191e+00 1.8278787033008552e+00 6.0497161047210446e-01 -6.9018131255325230e-02 
        </Neuron>
        <Neuron NSynapses="9">
          1.1976423283460800e+00 1.9301348537744887e+00 -1.3427060866217384e+00 -2.2749400527684229e+00 -4.4620883706294945e-01 4.1716519353813295e+00 -2.1891190593442680e+00 -1.4201357489190913e+00 1.0501651418448514e+00 
        </Neuron>
        <Neuron NSynapses="9">
          4.3591763430994650e+00 -1.8310693538519260e+00 -3.1292210104596512e+00 -1.9764450240620473e+00 1.4106672329333050e+00 3.2289772368706182e+00 -1.1954498302774856e+00 -8.6312993076224653e-01 -9.4309341766221155e-01 
        </Neuron>
        <Neuron NSynapses="9">
          -8.4808465995463733e-01 1.6047029240079860e+00 3.0189038991669714e+00 3.9375108476083489e+00 -1.6126047818528306e+00 -6.0071264197090501e+00 3.4549079453915739e+00 3.6189744619548697e-01 -1.3916631241703512e+00 
        </Neuron>
        <Neuron NSynapses="9">
          -1.2773921010065410e+00 1.1235351355811991e-01 -1.8923483733417627e-02 -1.7368644244363303e+00 1.1644906359831151e+00 6.2947940249088818e-01 -2.8588602522499290e-01 -1.6436224220256343e-01 1.6811250637116539e+00 
        </Neuron>
      </Layer>
      <Layer Index="2" NNeurons="10">
        <Neuron NSynapses="1">
          5.9665892828867459e+00 
        </Neuron>
        <Neuron NSynapses="1">
          -3.5603284345969866e-01 
        </Neuron>
        <Neuron NSynapses="1">
          -4.2964466590288009e+00 
        </Neuron>
        <Neuron NSynapses="1">
          -4.1715447283362135e+00 
        </Neuron>
        <Neuron NSynapses="1">
          2.7331367698538691e+00 
        </Neuron>
        <Neuron NSynapses="1">
          6.7422897284348853e+00 
        </Neuron>
        <Neuron NSynapses="1">
          -2.7105055296234570e+00 
        </Neuron>
        <Neuron NSynapses="1">
          -7.6631859839120919e-01 
        </Neuron>
        <Neuron NSynapses="1">
          1.0303547419473933e+00 
        </Neuron>
        <Neuron NSynapses="1">
          3.0700351264950427e+00 
        </Neuron>
      </Layer>
      <Layer Index="3" NNeurons="1">
        <Neuron NSynapses="0"/>
      </Layer>
    </Layout>
  </Weights>
</MethodSetup>
