<?xml version="1.0"?>
<MethodSetup Method="MLP::MLP">
  <GeneralInfo>
    <Info name="TMVA Release" value="4.2.1 [262657]"/>
    <Info name="ROOT Release" value="6.14/06 [396806]"/>
    <Info name="Creator" value="brownd"/>
    <Info name="Date" value="Sun Feb 17 06:56:44 2019"/>
    <Info name="Host" value="Darwin macitois21.cern.ch 18.0.0 Darwin Kernel Version 18.0.0: Wed Aug 22 20:13:40 PDT 2018; root:xnu-4903.201.2~1/RELEASE_X86_64 x86_64"/>
    <Info name="Dir" value="/Users/brownd/mu2e/Mu2eSim/MDC2018/Offline"/>
    <Info name="Training events" value="42615"/>
    <Info name="TrainingTime" value="2.41111586e+02"/>
    <Info name="AnalysisType" value="Classification"/>
  </GeneralInfo>
  <Options>
    <Option name="NCycles" modified="No">500</Option>
    <Option name="HiddenLayers" modified="No">N,N-1</Option>
    <Option name="NeuronType" modified="No">sigmoid</Option>
    <Option name="RandomSeed" modified="No">1</Option>
    <Option name="EstimatorType" modified="No">CE</Option>
    <Option name="NeuronInputType" modified="No">sum</Option>
    <Option name="V" modified="Yes">False</Option>
    <Option name="VerbosityLevel" modified="No">Default</Option>
    <Option name="VarTransform" modified="Yes">N</Option>
    <Option name="H" modified="Yes">False</Option>
    <Option name="CreateMVAPdfs" modified="No">False</Option>
    <Option name="IgnoreNegWeightsInTraining" modified="No">False</Option>
    <Option name="TrainingMethod" modified="No">BP</Option>
    <Option name="LearningRate" modified="No">2.000000e-02</Option>
    <Option name="DecayRate" modified="No">1.000000e-02</Option>
    <Option name="TestRate" modified="No">10</Option>
    <Option name="EpochMonitoring" modified="No">False</Option>
    <Option name="Sampling" modified="No">1.000000e+00</Option>
    <Option name="SamplingEpoch" modified="No">1.000000e+00</Option>
    <Option name="SamplingImportance" modified="No">1.000000e+00</Option>
    <Option name="SamplingTraining" modified="No">True</Option>
    <Option name="SamplingTesting" modified="No">False</Option>
    <Option name="ResetStep" modified="No">50</Option>
    <Option name="Tau" modified="No">3.000000e+00</Option>
    <Option name="BPMode" modified="No">sequential</Option>
    <Option name="BatchSize" modified="No">-1</Option>
    <Option name="ConvergenceImprove" modified="No">1.000000e-30</Option>
    <Option name="ConvergenceTests" modified="No">-1</Option>
    <Option name="UseRegulator" modified="No">False</Option>
    <Option name="UpdateLimit" modified="No">10000</Option>
    <Option name="CalculateErrors" modified="No">False</Option>
    <Option name="WeightRange" modified="No">1.000000e+00</Option>
  </Options>
  <Variables NVar="10">
    <Variable VarIndex="0" Expression="de.nactive" Label="de.nactive" Title="NActive" Unit="Count" Internal="de.nactive" Type="I" Min="1.40000000e+01" Max="9.20000000e+01"/>
    <Variable VarIndex="1" Expression="de.nactive/de.nhits" Label="de.nactive/de.nhits" Title="FActive" Unit="Fraction" Internal="de.nactive_D_de.nhits" Type="F" Min="4.09090906e-01" Max="1.00000000e+00"/>
    <Variable VarIndex="2" Expression="log10(de.fitcon)" Label="log10(de.fitcon)" Title="LogFitCon" Unit="Probability" Internal="log10_de.fitcon_" Type="F" Min="-4.30975952e+01" Max="0.00000000e+00"/>
    <Variable VarIndex="3" Expression="de.momerr" Label="de.momerr" Title="FitMomErr" Unit="MeV/c" Internal="de.momerr" Type="F" Min="5.60360700e-02" Max="2.11952853e+00"/>
    <Variable VarIndex="4" Expression="de.t0err" Label="de.t0err" Title="T0Err" Unit="nsec" Internal="de.t0err" Type="F" Min="1.49787828e-01" Max="3.92623711e+00"/>
    <Variable VarIndex="5" Expression="de.d0" Label="de.d0" Title="D0" Unit="mm" Internal="de.d0" Type="F" Min="-4.11347839e+02" Max="1.50404922e+02"/>
    <Variable VarIndex="6" Expression="de.d0+2./de.om" Label="de.d0+2./de.om" Title="MaxRadius" Unit="mm" Internal="de.d0_P_2._D_de.om" Type="F" Min="4.21877502e+02" Max="6.76682495e+02"/>
    <Variable VarIndex="7" Expression="de.ndactive/de.nactive" Label="de.ndactive/de.nactive" Title="DoubleHitFraction" Unit="Fraction" Internal="de.ndactive_D_de.nactive" Type="F" Min="1.42857149e-01" Max="6.31578922e-01"/>
    <Variable VarIndex="8" Expression="de.nnullambig/de.nactive" Label="de.nnullambig/de.nactive" Title="NullHitFraction" Unit="Fraction" Internal="de.nnullambig_D_de.nactive" Type="F" Min="0.00000000e+00" Max="5.29411793e-01"/>
    <Variable VarIndex="9" Expression="de.nmatactive/de.nactive" Label="de.nmatactive/de.nactive" Title="MatFraction" Unit="Fraction" Internal="de.nmatactive_D_de.nactive" Type="F" Min="9.64285731e-01" Max="3.56250000e+00"/>
  </Variables>
  <Spectators NSpec="0"/>
  <Classes NClass="2">
    <Class Name="Background" Index="0"/>
    <Class Name="Signal" Index="1"/>
  </Classes>
  <Transformations NTransformations="1">
    <Transform Name="Normalize">
      <Selection>
        <Input NInputs="10">
          <Input Type="Variable" Label="de.nactive" Expression="de.nactive"/>
          <Input Type="Variable" Label="de.nactive/de.nhits" Expression="de.nactive/de.nhits"/>
          <Input Type="Variable" Label="log10(de.fitcon)" Expression="log10(de.fitcon)"/>
          <Input Type="Variable" Label="de.momerr" Expression="de.momerr"/>
          <Input Type="Variable" Label="de.t0err" Expression="de.t0err"/>
          <Input Type="Variable" Label="de.d0" Expression="de.d0"/>
          <Input Type="Variable" Label="de.d0+2./de.om" Expression="de.d0+2./de.om"/>
          <Input Type="Variable" Label="de.ndactive/de.nactive" Expression="de.ndactive/de.nactive"/>
          <Input Type="Variable" Label="de.nnullambig/de.nactive" Expression="de.nnullambig/de.nactive"/>
          <Input Type="Variable" Label="de.nmatactive/de.nactive" Expression="de.nmatactive/de.nactive"/>
        </Input>
        <Output NOutputs="10">
          <Output Type="Variable" Label="de.nactive" Expression="de.nactive"/>
          <Output Type="Variable" Label="de.nactive/de.nhits" Expression="de.nactive/de.nhits"/>
          <Output Type="Variable" Label="log10(de.fitcon)" Expression="log10(de.fitcon)"/>
          <Output Type="Variable" Label="de.momerr" Expression="de.momerr"/>
          <Output Type="Variable" Label="de.t0err" Expression="de.t0err"/>
          <Output Type="Variable" Label="de.d0" Expression="de.d0"/>
          <Output Type="Variable" Label="de.d0+2./de.om" Expression="de.d0+2./de.om"/>
          <Output Type="Variable" Label="de.ndactive/de.nactive" Expression="de.ndactive/de.nactive"/>
          <Output Type="Variable" Label="de.nnullambig/de.nactive" Expression="de.nnullambig/de.nactive"/>
          <Output Type="Variable" Label="de.nmatactive/de.nactive" Expression="de.nmatactive/de.nactive"/>
        </Output>
      </Selection>
      <Class ClassIndex="0">
        <Ranges>
          <Range Index="0" Min="1.4000000000000000e+01" Max="5.6000000000000000e+01"/>
          <Range Index="1" Min="4.0909090638160706e-01" Max="1.0000000000000000e+00"/>
          <Range Index="2" Min="-4.0486656188964844e+01" Max="0.0000000000000000e+00"/>
          <Range Index="3" Min="6.9610886275768280e-02" Max="2.1195285320281982e+00"/>
          <Range Index="4" Min="2.0598940551280975e-01" Max="3.9262371063232422e+00"/>
          <Range Index="5" Min="-4.1134783935546875e+02" Max="8.4230140686035156e+01"/>
          <Range Index="6" Min="4.2294497680664062e+02" Max="6.6079388427734375e+02"/>
          <Range Index="7" Min="1.9230769574642181e-01" Max="6.3157892227172852e-01"/>
          <Range Index="8" Min="0.0000000000000000e+00" Max="5.2941179275512695e-01"/>
          <Range Index="9" Min="1.0000000000000000e+00" Max="3.5625000000000000e+00"/>
        </Ranges>
      </Class>
      <Class ClassIndex="1">
        <Ranges>
          <Range Index="0" Min="1.5000000000000000e+01" Max="9.2000000000000000e+01"/>
          <Range Index="1" Min="6.0869562625885010e-01" Max="1.0000000000000000e+00"/>
          <Range Index="2" Min="-4.3097595214843750e+01" Max="0.0000000000000000e+00"/>
          <Range Index="3" Min="5.6036069989204407e-02" Max="4.8161453008651733e-01"/>
          <Range Index="4" Min="1.4978782832622528e-01" Max="2.8933496475219727e+00"/>
          <Range Index="5" Min="-1.1015491485595703e+02" Max="1.5040492248535156e+02"/>
          <Range Index="6" Min="4.2187750244140625e+02" Max="6.7668249511718750e+02"/>
          <Range Index="7" Min="1.4285714924335480e-01" Max="5.8620691299438477e-01"/>
          <Range Index="8" Min="0.0000000000000000e+00" Max="4.7058823704719543e-01"/>
          <Range Index="9" Min="9.6428573131561279e-01" Max="2.3529412746429443e+00"/>
        </Ranges>
      </Class>
      <Class ClassIndex="2">
        <Ranges>
          <Range Index="0" Min="1.4000000000000000e+01" Max="9.2000000000000000e+01"/>
          <Range Index="1" Min="4.0909090638160706e-01" Max="1.0000000000000000e+00"/>
          <Range Index="2" Min="-4.3097595214843750e+01" Max="0.0000000000000000e+00"/>
          <Range Index="3" Min="5.6036069989204407e-02" Max="2.1195285320281982e+00"/>
          <Range Index="4" Min="1.4978782832622528e-01" Max="3.9262371063232422e+00"/>
          <Range Index="5" Min="-4.1134783935546875e+02" Max="1.5040492248535156e+02"/>
          <Range Index="6" Min="4.2187750244140625e+02" Max="6.7668249511718750e+02"/>
          <Range Index="7" Min="1.4285714924335480e-01" Max="6.3157892227172852e-01"/>
          <Range Index="8" Min="0.0000000000000000e+00" Max="5.2941179275512695e-01"/>
          <Range Index="9" Min="9.6428573131561279e-01" Max="3.5625000000000000e+00"/>
        </Ranges>
      </Class>
    </Transform>
  </Transformations>
  <MVAPdfs/>
  <Weights>
    <Layout NLayers="4">
      <Layer Index="0" NNeurons="11">
        <Neuron NSynapses="10">
          -2.7137607228975624e-01 1.9668358474308738e+00 -5.9858256473155480e-01 7.6905363467600396e-01 -7.3120361313284921e-01 -1.5778434738809537e+00 -7.4629247701370405e-01 2.8820125451947276e+00 7.6873116023013255e-01 -2.0350709684390567e+00 
        </Neuron>
        <Neuron NSynapses="10">
          -1.6280674309578800e+00 -4.5054134450648825e-01 -2.3178925760192186e+00 -1.8809375256743846e-01 9.2541367892268918e-03 6.0725782027268271e-01 -9.5804324576195710e-01 3.2811325815767806e-01 1.7749708449301915e-02 8.5809430060740743e-01 
        </Neuron>
        <Neuron NSynapses="10">
          -3.7049436311205286e-01 -7.8844692431342878e-01 -4.2286827013096218e-01 8.5004548301930649e-01 -4.9802341712176923e-01 -2.9804036693867120e-01 1.1426046065251818e+00 1.2976595624057958e+00 -6.1285346898275073e-01 -1.2047854893391317e+00 
        </Neuron>
        <Neuron NSynapses="10">
          7.1823899294366644e-01 1.6906422518495046e+00 1.2869558318925050e+00 -8.6856960323980326e-01 -3.1106356989565098e-01 -2.1537288580328554e-02 -1.1200527911103206e+00 7.8595882466363420e-01 -3.7272366686104426e+00 3.3719574507640626e+00 
        </Neuron>
        <Neuron NSynapses="10">
          1.2569654336073399e+00 8.9720686849023390e-01 8.2612534813348526e-01 5.1265057971454553e-01 -1.1607159952912007e+00 -1.4783052808285841e+00 9.9165546640583202e-01 3.0962648614601496e-01 5.1407997777246361e-01 1.5867627105495967e+00 
        </Neuron>
        <Neuron NSynapses="10">
          1.5543669398657576e+00 1.2846716388205923e+00 -3.7608845304859142e+00 1.4294822700887460e+00 -1.5327093906228277e+00 -1.2811922638789937e+00 -1.5166814816677436e+00 5.0223622579157766e-02 3.3725188355228295e+00 -5.0476358449842418e-01 
        </Neuron>
        <Neuron NSynapses="10">
          -1.6261302442278307e+00 3.5740260843747462e-01 1.8957405961533931e+00 4.3056654817166429e-01 2.2802288954860352e+00 -5.3242126868176742e-01 1.1157478598604377e-01 -4.5576184155187018e+00 1.0429583225325643e+00 -4.2903793395568912e-01 
        </Neuron>
        <Neuron NSynapses="10">
          -7.6590612447792816e-01 -1.4446501723542626e+00 6.2990241761665655e-01 1.2128030465941679e+00 1.8167512492237958e+00 -3.9689153027953294e-01 -1.8320806718516729e+00 -1.1346915430749376e+00 8.3948155091866061e-01 4.6726063401486780e-02 
        </Neuron>
        <Neuron NSynapses="10">
          1.9188312443190663e+00 6.6843749641785299e-01 -9.9270865008451115e-02 -1.2352932508012786e+00 -1.4584681185250838e+00 -2.9758476604376988e-02 1.1644884980529635e+00 -2.0736825104456948e+00 -9.1847016968626005e-01 -4.0945063365815115e-01 
        </Neuron>
        <Neuron NSynapses="10">
          -2.2165101200436296e-01 -8.3863267993250432e-02 1.2635794992582854e+00 -1.9630323037306634e+00 -1.4725613045213823e+00 1.8327469668936540e+00 -5.5260839850266619e-01 -1.9540477522429942e+00 -1.5691438188977904e+00 5.4887152422836172e-01 
        </Neuron>
        <Neuron NSynapses="10">
          -2.0045493947419426e+00 -1.7009099465334070e+00 5.3210030435854669e+00 2.7419544659947039e+00 -1.4599494720305990e+00 1.3074743320149715e+00 -1.0626056431748327e+00 -3.7372586617208485e+00 -2.6203790836698464e+00 2.5643160011030908e+00 
        </Neuron>
      </Layer>
      <Layer Index="1" NNeurons="11">
        <Neuron NSynapses="9">
          -1.8836796095021382e+00 2.6872549292569253e-01 3.7112296745534951e-01 5.1720048256167594e-01 -1.3521945668024362e+00 1.6905629448739969e+00 3.6147830285022831e-01 -9.2496647286393996e-01 8.2354771211039546e-01 
        </Neuron>
        <Neuron NSynapses="9">
          -1.0538172233830072e+00 -1.5936954169724404e+00 1.1796815962390214e-01 -3.5754227835194302e-01 1.7870480850905941e+00 7.8079641260445087e-01 -3.4394017642115610e-02 -3.4962178824225659e-01 1.4893093594157797e-01 
        </Neuron>
        <Neuron NSynapses="9">
          -3.6052136469426781e+00 1.1600368691408676e+00 1.6879357422829984e+00 -9.1124506605756272e-01 1.6561303779026577e+00 -3.9501737347235406e+00 2.6705616996368553e-01 2.0121939856452125e+00 2.0504618595452446e+00 
        </Neuron>
        <Neuron NSynapses="9">
          -2.2765809196264799e+00 -1.8135887044395527e-01 1.2808785865927708e+00 1.9915078662776504e+00 -5.3717561471735432e-02 -1.5227454358473371e+00 -5.3072074131863334e-01 -1.0268432091837070e+00 9.1852786826985389e-01 
        </Neuron>
        <Neuron NSynapses="9">
          1.1061140454817175e+00 -1.0332036573505505e+00 -8.1339421636155873e-01 5.9628306673450582e-01 -1.3606440884676618e+00 9.9353960794295121e-02 1.2656382824794572e+00 -5.1060599550494068e-01 -1.3172529729210207e+00 
        </Neuron>
        <Neuron NSynapses="9">
          -7.7482936665598279e-01 5.0554327299402246e-01 8.3453794970521689e-01 1.7997186029178174e+00 -1.3182909781896017e+00 8.6220542535817624e-01 5.2549568118396872e-01 1.0403205858748690e+00 2.1541441951598203e-01 
        </Neuron>
        <Neuron NSynapses="9">
          3.8483717100256215e-01 -8.7564715559089323e-01 -8.9079626663355393e-01 1.7173401911976161e+00 -7.5805977114799195e-01 -4.8003240004304878e-02 1.3569691929528584e+00 9.7969065435110647e-01 -4.3656924094166549e-01 
        </Neuron>
        <Neuron NSynapses="9">
          2.8045974083545060e+00 1.3598693948637028e+00 -2.4372212455085731e+00 2.8737682408123960e-01 -7.6316613373182440e-01 1.1404867473654625e+00 -1.9912738498714373e+00 -1.3743022454805378e+00 5.6218651379882811e-01 
        </Neuron>
        <Neuron NSynapses="9">
          2.4906179018435171e+00 -2.3653930496178854e+00 -1.4064849319370343e+00 -5.9636590666157463e-01 -3.8275290371437731e-01 3.5732800590186158e+00 -8.1433696083364282e-01 -5.9182601428802162e-01 -1.7964883401515532e+00 
        </Neuron>
        <Neuron NSynapses="9">
          -1.6068012610075816e-01 1.6186134124076512e+00 2.0911990888088714e+00 7.9817735513355781e-01 -4.3635008105574880e-01 -3.9788099528126701e+00 1.2600604129996511e+00 1.0505748776732484e+00 -1.4087052715550603e+00 
        </Neuron>
        <Neuron NSynapses="9">
          -1.2718569759509837e+00 -2.2611989107807734e-01 -4.6463755179267825e-02 -1.3988756413688164e+00 1.4562006216234140e+00 4.8672426483823605e-01 -9.1531656581627518e-01 2.7812429387943149e-01 1.0061408288974378e+00 
        </Neuron>
      </Layer>
      <Layer Index="2" NNeurons="10">
        <Neuron NSynapses="1">
          2.7342197146138467e+00 
        </Neuron>
        <Neuron NSynapses="1">
          -1.1827053989938936e+00 
        </Neuron>
        <Neuron NSynapses="1">
          -2.5419987643954638e+00 
        </Neuron>
        <Neuron NSynapses="1">
          -2.4542506686917318e+00 
        </Neuron>
        <Neuron NSynapses="1">
          -9.8570665854646367e-01 
        </Neuron>
        <Neuron NSynapses="1">
          5.3413473304881283e+00 
        </Neuron>
        <Neuron NSynapses="1">
          -5.7008471435277763e-01 
        </Neuron>
        <Neuron NSynapses="1">
          -1.7503996775136579e+00 
        </Neuron>
        <Neuron NSynapses="1">
          -1.1087467266794990e+00 
        </Neuron>
        <Neuron NSynapses="1">
          1.0203401611370184e+00 
        </Neuron>
      </Layer>
      <Layer Index="3" NNeurons="1">
        <Neuron NSynapses="0"/>
      </Layer>
    </Layout>
  </Weights>
</MethodSetup>
