<?xml version="1.0"?>
<MethodSetup Method="MLP::MLP">
  <GeneralInfo>
    <Info name="TMVA Release" value="4.2.1 [262657]"/>
    <Info name="ROOT Release" value="6.12/06 [396294]"/>
    <Info name="Creator" value="lvinas"/>
    <Info name="Date" value="Tue Dec  3 02:58:15 2019"/>
    <Info name="Host" value="Linux buildservice008.fnal.gov 3.10.0-693.17.1.el7.x86_64 #1 SMP Thu Jan 25 04:11:40 CST 2018 x86_64 x86_64 x86_64 GNU/Linux"/>
    <Info name="Dir" value="/home/online1/lvinas/Art_to_Root"/>
    <Info name="Training events" value="242664"/>
    <Info name="TrainingTime" value="2.10870030e+03"/>
    <Info name="AnalysisType" value="Classification"/>
  </GeneralInfo>
  <Options>
    <Option name="NCycles" modified="No">500</Option>
    <Option name="HiddenLayers" modified="No">N,N-1</Option>
    <Option name="NeuronType" modified="No">sigmoid</Option>
    <Option name="RandomSeed" modified="No">1</Option>
    <Option name="EstimatorType" modified="No">CE</Option>
    <Option name="NeuronInputType" modified="No">sum</Option>
    <Option name="V" modified="Yes">False</Option>
    <Option name="VerbosityLevel" modified="No">Default</Option>
    <Option name="VarTransform" modified="Yes">N</Option>
    <Option name="H" modified="Yes">False</Option>
    <Option name="CreateMVAPdfs" modified="No">False</Option>
    <Option name="IgnoreNegWeightsInTraining" modified="No">False</Option>
    <Option name="TrainingMethod" modified="No">BP</Option>
    <Option name="LearningRate" modified="No">2.000000e-02</Option>
    <Option name="DecayRate" modified="No">1.000000e-02</Option>
    <Option name="TestRate" modified="No">10</Option>
    <Option name="EpochMonitoring" modified="No">False</Option>
    <Option name="Sampling" modified="No">1.000000e+00</Option>
    <Option name="SamplingEpoch" modified="No">1.000000e+00</Option>
    <Option name="SamplingImportance" modified="No">1.000000e+00</Option>
    <Option name="SamplingTraining" modified="No">True</Option>
    <Option name="SamplingTesting" modified="No">False</Option>
    <Option name="ResetStep" modified="No">50</Option>
    <Option name="Tau" modified="No">3.000000e+00</Option>
    <Option name="BPMode" modified="No">sequential</Option>
    <Option name="BatchSize" modified="No">-1</Option>
    <Option name="ConvergenceImprove" modified="No">1.000000e-30</Option>
    <Option name="ConvergenceTests" modified="No">-1</Option>
    <Option name="UseRegulator" modified="No">False</Option>
    <Option name="UpdateLimit" modified="No">10000</Option>
    <Option name="CalculateErrors" modified="No">False</Option>
    <Option name="WeightRange" modified="No">1.000000e+00</Option>
  </Options>
  <Variables NVar="7">
    <Variable VarIndex="0" Expression="detrkqual.NActiveHits" Label="detrkqual.NActiveHits" Title="NActive" Unit="Count" Internal="detrkqual.NActiveHits" Type="I" Min="1.40000000e+01" Max="8.60000000e+01"/>
    <Variable VarIndex="1" Expression="detrkqual.ActiveHitFraction" Label="detrkqual.ActiveHitFraction" Title="FActive" Unit="Fraction" Internal="detrkqual.ActiveHitFraction" Type="F" Min="3.40425521e-01" Max="1.00000000e+00"/>
    <Variable VarIndex="2" Expression="detrkqual.Log10FitCon" Label="detrkqual.Log10FitCon" Title="LogFitCon" Unit="Probability" Internal="detrkqual.Log10FitCon" Type="F" Min="-5.00000000e+01" Max="0.00000000e+00"/>
    <Variable VarIndex="3" Expression="detrkqual.MomError" Label="detrkqual.MomError" Title="FitMomErr" Unit="MeV/c" Internal="detrkqual.MomError" Type="F" Min="5.28592579e-02" Max="4.56853151e+00"/>
    <Variable VarIndex="4" Expression="detrkqual.T0Error" Label="detrkqual.T0Error" Title="T0Err" Unit="nsec" Internal="detrkqual.T0Error" Type="F" Min="9.60720778e-02" Max="4.71720171e+00"/>
    <Variable VarIndex="5" Expression="detrkqual.NullAmbigHitFraction" Label="detrkqual.NullAmbigHitFraction" Title="NullHitFraction" Unit="Fraction" Internal="detrkqual.NullAmbigHitFraction" Type="F" Min="0.00000000e+00" Max="5.00000000e-01"/>
    <Variable VarIndex="6" Expression="detrkqual.StrawHitFraction" Label="detrkqual.StrawHitFraction" Title="MatFraction" Unit="Fraction" Internal="detrkqual.StrawHitFraction" Type="F" Min="9.48717952e-01" Max="4.44444466e+00"/>
  </Variables>
  <Spectators NSpec="0"/>
  <Classes NClass="2">
    <Class Name="Background" Index="0"/>
    <Class Name="Signal" Index="1"/>
  </Classes>
  <Transformations NTransformations="1">
    <Transform Name="Normalize">
      <Selection>
        <Input NInputs="7">
          <Input Type="Variable" Label="detrkqual.NActiveHits" Expression="detrkqual.NActiveHits"/>
          <Input Type="Variable" Label="detrkqual.ActiveHitFraction" Expression="detrkqual.ActiveHitFraction"/>
          <Input Type="Variable" Label="detrkqual.Log10FitCon" Expression="detrkqual.Log10FitCon"/>
          <Input Type="Variable" Label="detrkqual.MomError" Expression="detrkqual.MomError"/>
          <Input Type="Variable" Label="detrkqual.T0Error" Expression="detrkqual.T0Error"/>
          <Input Type="Variable" Label="detrkqual.NullAmbigHitFraction" Expression="detrkqual.NullAmbigHitFraction"/>
          <Input Type="Variable" Label="detrkqual.StrawHitFraction" Expression="detrkqual.StrawHitFraction"/>
        </Input>
        <Output NOutputs="7">
          <Output Type="Variable" Label="detrkqual.NActiveHits" Expression="detrkqual.NActiveHits"/>
          <Output Type="Variable" Label="detrkqual.ActiveHitFraction" Expression="detrkqual.ActiveHitFraction"/>
          <Output Type="Variable" Label="detrkqual.Log10FitCon" Expression="detrkqual.Log10FitCon"/>
          <Output Type="Variable" Label="detrkqual.MomError" Expression="detrkqual.MomError"/>
          <Output Type="Variable" Label="detrkqual.T0Error" Expression="detrkqual.T0Error"/>
          <Output Type="Variable" Label="detrkqual.NullAmbigHitFraction" Expression="detrkqual.NullAmbigHitFraction"/>
          <Output Type="Variable" Label="detrkqual.StrawHitFraction" Expression="detrkqual.StrawHitFraction"/>
        </Output>
      </Selection>
      <Class ClassIndex="0">
        <Ranges>
          <Range Index="0" Min="1.4000000000000000e+01" Max="7.1000000000000000e+01"/>
          <Range Index="1" Min="3.4042552113533020e-01" Max="1.0000000000000000e+00"/>
          <Range Index="2" Min="-5.0000000000000000e+01" Max="-1.3046724234300200e-05"/>
          <Range Index="3" Min="7.6058022677898407e-02" Max="4.5685315132141113e+00"/>
          <Range Index="4" Min="9.7657628357410431e-02" Max="4.7172017097473145e+00"/>
          <Range Index="5" Min="0.0000000000000000e+00" Max="5.0000000000000000e-01"/>
          <Range Index="6" Min="9.5999997854232788e-01" Max="4.4444446563720703e+00"/>
        </Ranges>
      </Class>
      <Class ClassIndex="1">
        <Ranges>
          <Range Index="0" Min="1.4000000000000000e+01" Max="8.6000000000000000e+01"/>
          <Range Index="1" Min="5.8974361419677734e-01" Max="1.0000000000000000e+00"/>
          <Range Index="2" Min="-5.0000000000000000e+01" Max="0.0000000000000000e+00"/>
          <Range Index="3" Min="5.2859257906675339e-02" Max="8.6379057168960571e-01"/>
          <Range Index="4" Min="9.6072077751159668e-02" Max="3.6518876552581787e+00"/>
          <Range Index="5" Min="0.0000000000000000e+00" Max="5.0000000000000000e-01"/>
          <Range Index="6" Min="9.4871795177459717e-01" Max="2.9545454978942871e+00"/>
        </Ranges>
      </Class>
      <Class ClassIndex="2">
        <Ranges>
          <Range Index="0" Min="1.4000000000000000e+01" Max="8.6000000000000000e+01"/>
          <Range Index="1" Min="3.4042552113533020e-01" Max="1.0000000000000000e+00"/>
          <Range Index="2" Min="-5.0000000000000000e+01" Max="0.0000000000000000e+00"/>
          <Range Index="3" Min="5.2859257906675339e-02" Max="4.5685315132141113e+00"/>
          <Range Index="4" Min="9.6072077751159668e-02" Max="4.7172017097473145e+00"/>
          <Range Index="5" Min="0.0000000000000000e+00" Max="5.0000000000000000e-01"/>
          <Range Index="6" Min="9.4871795177459717e-01" Max="4.4444446563720703e+00"/>
        </Ranges>
      </Class>
    </Transform>
  </Transformations>
  <MVAPdfs/>
  <Weights>
    <Layout NLayers="4">
      <Layer Index="0" NNeurons="8">
        <Neuron NSynapses="7">
          -4.8367428005722191e-01 -2.6387697816333888e-01 9.3599717854261011e-01 9.1475719594676974e-01 -1.8326424590353788e-01 -8.9141469182409139e-01 -2.0444863221270484e-01 
        </Neuron>
        <Neuron NSynapses="7">
          1.8873315245263629e+00 -2.7150197836386489e+00 -9.0482049741370252e-01 3.7169546419040456e-01 1.7499956572770663e+00 -6.0746120855199537e-01 -1.4914121827518456e+00 
        </Neuron>
        <Neuron NSynapses="7">
          -5.6780054407704528e-01 1.6347750714879781e+00 1.0052800655642730e-01 4.2864984989411985e+00 4.2342838914864778e-01 8.7206361979271607e-01 -1.7739074864578532e+00 
        </Neuron>
        <Neuron NSynapses="7">
          -8.5407724402174989e-01 6.1105923925393695e+00 1.9008051910405106e+00 -8.1606459133155251e+00 7.7890568494879489e+00 3.5488506804021949e+00 3.8913472734801275e+00 
        </Neuron>
        <Neuron NSynapses="7">
          -1.9771967632012943e+00 -4.8112066923886215e-01 1.3556292158619565e+00 1.7804687452756216e+00 3.3840165653000809e+00 5.6667087759094703e-01 5.7118791964209270e-01 
        </Neuron>
        <Neuron NSynapses="7">
          -3.4753355825098436e-01 -1.9056992437232018e-01 1.5213118829356482e+00 -3.3544598089504685e-01 2.4425093494085406e-02 7.2251814281972493e-01 -2.0316441821930331e-01 
        </Neuron>
        <Neuron NSynapses="7">
          1.8050078556608529e+00 -1.1912344511761903e+00 -2.3016539811106913e-02 2.9606107753474037e-01 4.8209285719598522e+00 2.0143524366094506e-01 6.6588418466296861e-01 
        </Neuron>
        <Neuron NSynapses="7">
          1.7764841221415852e+00 5.4841012723519045e+00 4.8985924409687396e+00 -1.1004654858280126e+01 1.3032737951442195e+01 1.0565300008205668e-01 4.5906425790217451e+00 
        </Neuron>
      </Layer>
      <Layer Index="1" NNeurons="8">
        <Neuron NSynapses="6">
          -2.2592369413441626e+00 -1.2928560205637510e-01 7.8757891955474257e-01 5.7640199385905855e-01 -4.7812962284483657e-01 9.3713082391321778e-01 
        </Neuron>
        <Neuron NSynapses="6">
          2.1015593894259738e-01 -9.7772289261567974e-02 3.1857218108573870e+00 -1.5264013838256818e-01 -1.2064360659876072e+00 -3.9804783511356652e+00 
        </Neuron>
        <Neuron NSynapses="6">
          2.4331306062599505e+00 -3.1822304868162705e+00 -2.4744071566719159e-01 -1.2473649793663066e+00 -7.6738208986478457e-02 2.8851768330308986e-01 
        </Neuron>
        <Neuron NSynapses="6">
          -5.4778232007089256e-01 4.0139298507979664e+00 -3.8550297469548820e+00 -2.0363538587649574e+00 3.2651049010015107e+00 2.0088870030391037e+00 
        </Neuron>
        <Neuron NSynapses="6">
          6.4106156422231608e+00 -2.1019418128323473e+00 1.9161814509164230e+00 -5.6688036818962595e-01 -2.3982515994324660e+00 -1.4099710826449274e+00 
        </Neuron>
        <Neuron NSynapses="6">
          1.9285753029776849e+00 -1.8480977171938060e+00 -7.1863060394034839e-01 -1.4432755648578524e+00 -8.4814029737853003e-01 -1.8307139508130728e+00 
        </Neuron>
        <Neuron NSynapses="6">
          3.7175866379755940e+00 -3.3621550470648680e+00 7.7606701148382085e-01 2.0026749953890981e+00 -2.1117808957050674e+00 -3.2067619783571151e+00 
        </Neuron>
        <Neuron NSynapses="6">
          -2.1829004513545041e+00 1.4613681673936194e+00 -2.4873455682779082e+00 -1.7247781022196949e+00 1.6862923686701750e+00 1.9858421407672975e+00 
        </Neuron>
      </Layer>
      <Layer Index="2" NNeurons="7">
        <Neuron NSynapses="1">
          -6.3626621357324558e+00 
        </Neuron>
        <Neuron NSynapses="1">
          6.0452542136064338e+00 
        </Neuron>
        <Neuron NSynapses="1">
          -3.5160987653956055e+00 
        </Neuron>
        <Neuron NSynapses="1">
          -7.6367248318845626e-01 
        </Neuron>
        <Neuron NSynapses="1">
          4.4665139056149092e+00 
        </Neuron>
        <Neuron NSynapses="1">
          6.2993529701619995e+00 
        </Neuron>
        <Neuron NSynapses="1">
          6.0632097909975069e-01 
        </Neuron>
      </Layer>
      <Layer Index="3" NNeurons="1">
        <Neuron NSynapses="0"/>
      </Layer>
    </Layout>
  </Weights>
  <Calibration>
    <Calib Index="0" TrkQualCalib="1" TrkQual="0.999993"/>
    <Calib Index="1" TrkQualCalib="0.99" TrkQual="0.999943"/>
    <Calib Index="2" TrkQualCalib="0.98" TrkQual="0.999919"/>
    <Calib Index="3" TrkQualCalib="0.97" TrkQual="0.999897"/>
    <Calib Index="4" TrkQualCalib="0.96" TrkQual="0.999881"/>
    <Calib Index="5" TrkQualCalib="0.95" TrkQual="0.999851"/>
    <Calib Index="6" TrkQualCalib="0.94" TrkQual="0.999833"/>
    <Calib Index="7" TrkQualCalib="0.93" TrkQual="0.999805"/>
    <Calib Index="8" TrkQualCalib="0.92" TrkQual="0.999779"/>
    <Calib Index="9" TrkQualCalib="0.91" TrkQual="0.999749"/>
    <Calib Index="10" TrkQualCalib="0.9" TrkQual="0.999719"/>
    <Calib Index="11" TrkQualCalib="0.89" TrkQual="0.999697"/>
    <Calib Index="12" TrkQualCalib="0.88" TrkQual="0.999659"/>
    <Calib Index="13" TrkQualCalib="0.87" TrkQual="0.999627"/>
    <Calib Index="14" TrkQualCalib="0.86" TrkQual="0.999591"/>
    <Calib Index="15" TrkQualCalib="0.85" TrkQual="0.999553"/>
    <Calib Index="16" TrkQualCalib="0.84" TrkQual="0.999515"/>
    <Calib Index="17" TrkQualCalib="0.83" TrkQual="0.999473"/>
    <Calib Index="18" TrkQualCalib="0.82" TrkQual="0.999425"/>
    <Calib Index="19" TrkQualCalib="0.81" TrkQual="0.999377"/>
    <Calib Index="20" TrkQualCalib="0.8" TrkQual="0.999323"/>
    <Calib Index="21" TrkQualCalib="0.79" TrkQual="0.999271"/>
    <Calib Index="22" TrkQualCalib="0.78" TrkQual="0.999215"/>
    <Calib Index="23" TrkQualCalib="0.77" TrkQual="0.999151"/>
    <Calib Index="24" TrkQualCalib="0.76" TrkQual="0.999087"/>
    <Calib Index="25" TrkQualCalib="0.75" TrkQual="0.999015"/>
    <Calib Index="26" TrkQualCalib="0.74" TrkQual="0.998941"/>
    <Calib Index="27" TrkQualCalib="0.73" TrkQual="0.998859"/>
    <Calib Index="28" TrkQualCalib="0.72" TrkQual="0.998773"/>
    <Calib Index="29" TrkQualCalib="0.71" TrkQual="0.998683"/>
    <Calib Index="30" TrkQualCalib="0.7" TrkQual="0.998585"/>
    <Calib Index="31" TrkQualCalib="0.69" TrkQual="0.998479"/>
    <Calib Index="32" TrkQualCalib="0.68" TrkQual="0.998371"/>
    <Calib Index="33" TrkQualCalib="0.67" TrkQual="0.998249"/>
    <Calib Index="34" TrkQualCalib="0.66" TrkQual="0.998119"/>
    <Calib Index="35" TrkQualCalib="0.65" TrkQual="0.997981"/>
    <Calib Index="36" TrkQualCalib="0.64" TrkQual="0.997837"/>
    <Calib Index="37" TrkQualCalib="0.63" TrkQual="0.997675"/>
    <Calib Index="38" TrkQualCalib="0.62" TrkQual="0.997509"/>
    <Calib Index="39" TrkQualCalib="0.61" TrkQual="0.997327"/>
    <Calib Index="40" TrkQualCalib="0.6" TrkQual="0.997127"/>
    <Calib Index="41" TrkQualCalib="0.59" TrkQual="0.996921"/>
    <Calib Index="42" TrkQualCalib="0.58" TrkQual="0.996693"/>
    <Calib Index="43" TrkQualCalib="0.57" TrkQual="0.996453"/>
    <Calib Index="44" TrkQualCalib="0.56" TrkQual="0.996189"/>
    <Calib Index="45" TrkQualCalib="0.55" TrkQual="0.995903"/>
    <Calib Index="46" TrkQualCalib="0.54" TrkQual="0.995591"/>
    <Calib Index="47" TrkQualCalib="0.53" TrkQual="0.995251"/>
    <Calib Index="48" TrkQualCalib="0.52" TrkQual="0.994899"/>
    <Calib Index="49" TrkQualCalib="0.51" TrkQual="0.994511"/>
    <Calib Index="50" TrkQualCalib="0.5" TrkQual="0.994073"/>
    <Calib Index="51" TrkQualCalib="0.49" TrkQual="0.993609"/>
    <Calib Index="52" TrkQualCalib="0.48" TrkQual="0.993099"/>
    <Calib Index="53" TrkQualCalib="0.47" TrkQual="0.992529"/>
    <Calib Index="54" TrkQualCalib="0.46" TrkQual="0.991917"/>
    <Calib Index="55" TrkQualCalib="0.45" TrkQual="0.991261"/>
    <Calib Index="56" TrkQualCalib="0.44" TrkQual="0.990527"/>
    <Calib Index="57" TrkQualCalib="0.43" TrkQual="0.989741"/>
    <Calib Index="58" TrkQualCalib="0.42" TrkQual="0.988867"/>
    <Calib Index="59" TrkQualCalib="0.41" TrkQual="0.987919"/>
    <Calib Index="60" TrkQualCalib="0.4" TrkQual="0.986867"/>
    <Calib Index="61" TrkQualCalib="0.39" TrkQual="0.985691"/>
    <Calib Index="62" TrkQualCalib="0.38" TrkQual="0.984411"/>
    <Calib Index="63" TrkQualCalib="0.37" TrkQual="0.983005"/>
    <Calib Index="64" TrkQualCalib="0.36" TrkQual="0.981427"/>
    <Calib Index="65" TrkQualCalib="0.35" TrkQual="0.979693"/>
    <Calib Index="66" TrkQualCalib="0.34" TrkQual="0.977711"/>
    <Calib Index="67" TrkQualCalib="0.33" TrkQual="0.975549"/>
    <Calib Index="68" TrkQualCalib="0.32" TrkQual="0.973089"/>
    <Calib Index="69" TrkQualCalib="0.31" TrkQual="0.970411"/>
    <Calib Index="70" TrkQualCalib="0.3" TrkQual="0.967319"/>
    <Calib Index="71" TrkQualCalib="0.29" TrkQual="0.963799"/>
    <Calib Index="72" TrkQualCalib="0.28" TrkQual="0.959865"/>
    <Calib Index="73" TrkQualCalib="0.27" TrkQual="0.955309"/>
    <Calib Index="74" TrkQualCalib="0.26" TrkQual="0.950291"/>
    <Calib Index="75" TrkQualCalib="0.25" TrkQual="0.944601"/>
    <Calib Index="76" TrkQualCalib="0.24" TrkQual="0.937887"/>
    <Calib Index="77" TrkQualCalib="0.23" TrkQual="0.930195"/>
    <Calib Index="78" TrkQualCalib="0.22" TrkQual="0.921099"/>
    <Calib Index="79" TrkQualCalib="0.21" TrkQual="0.911037"/>
    <Calib Index="80" TrkQualCalib="0.2" TrkQual="0.899219"/>
    <Calib Index="81" TrkQualCalib="0.19" TrkQual="0.885247"/>
    <Calib Index="82" TrkQualCalib="0.18" TrkQual="0.868847"/>
    <Calib Index="83" TrkQualCalib="0.17" TrkQual="0.850043"/>
    <Calib Index="84" TrkQualCalib="0.16" TrkQual="0.828057"/>
    <Calib Index="85" TrkQualCalib="0.15" TrkQual="0.802435"/>
    <Calib Index="86" TrkQualCalib="0.14" TrkQual="0.773003"/>
    <Calib Index="87" TrkQualCalib="0.13" TrkQual="0.737451"/>
    <Calib Index="88" TrkQualCalib="0.12" TrkQual="0.695897"/>
    <Calib Index="89" TrkQualCalib="0.11" TrkQual="0.647087"/>
    <Calib Index="90" TrkQualCalib="0.1" TrkQual="0.589603"/>
    <Calib Index="91" TrkQualCalib="0.09" TrkQual="0.526073"/>
    <Calib Index="92" TrkQualCalib="0.08" TrkQual="0.457203"/>
    <Calib Index="93" TrkQualCalib="0.07" TrkQual="0.381613"/>
    <Calib Index="94" TrkQualCalib="0.06" TrkQual="0.299953"/>
    <Calib Index="95" TrkQualCalib="0.05" TrkQual="0.220967"/>
    <Calib Index="96" TrkQualCalib="0.04" TrkQual="0.148327"/>
    <Calib Index="97" TrkQualCalib="0.03" TrkQual="0.085503"/>
    <Calib Index="98" TrkQualCalib="0.02" TrkQual="0.036463"/>
    <Calib Index="99" TrkQualCalib="0.01" TrkQual="0.007343"/>
  </Calibration>
</MethodSetup>






