<?xml version="1.0"?>
<MethodSetup Method="MLP::MLP">
  <GeneralInfo>
    <Info name="TMVA Release" value="4.2.1 [262657]"/>
    <Info name="ROOT Release" value="6.12/06 [396294]"/>
    <Info name="Creator" value="edmonds"/>
    <Info name="Date" value="Wed Jun 26 11:14:19 2019"/>
    <Info name="Host" value="Linux buildservice004.fnal.gov 2.6.32-696.20.1.el6.x86_64 #1 SMP Thu Jan 25 08:47:49 CST 2018 x86_64 x86_64 x86_64 GNU/Linux"/>
    <Info name="Dir" value="/mu2e/app/users/edmonds/Offline_v631/Offline"/>
    <Info name="Training events" value="128863"/>
    <Info name="TrainingTime" value="7.88601214e+02"/>
    <Info name="AnalysisType" value="Classification"/>
  </GeneralInfo>
  <Options>
    <Option name="NCycles" modified="No">500</Option>
    <Option name="HiddenLayers" modified="No">N,N-1</Option>
    <Option name="NeuronType" modified="No">sigmoid</Option>
    <Option name="RandomSeed" modified="No">1</Option>
    <Option name="EstimatorType" modified="No">CE</Option>
    <Option name="NeuronInputType" modified="No">sum</Option>
    <Option name="V" modified="Yes">False</Option>
    <Option name="VerbosityLevel" modified="No">Default</Option>
    <Option name="VarTransform" modified="Yes">N</Option>
    <Option name="H" modified="Yes">False</Option>
    <Option name="CreateMVAPdfs" modified="No">False</Option>
    <Option name="IgnoreNegWeightsInTraining" modified="No">False</Option>
    <Option name="TrainingMethod" modified="No">BP</Option>
    <Option name="LearningRate" modified="No">2.000000e-02</Option>
    <Option name="DecayRate" modified="No">1.000000e-02</Option>
    <Option name="TestRate" modified="No">10</Option>
    <Option name="EpochMonitoring" modified="No">False</Option>
    <Option name="Sampling" modified="No">1.000000e+00</Option>
    <Option name="SamplingEpoch" modified="No">1.000000e+00</Option>
    <Option name="SamplingImportance" modified="No">1.000000e+00</Option>
    <Option name="SamplingTraining" modified="No">True</Option>
    <Option name="SamplingTesting" modified="No">False</Option>
    <Option name="ResetStep" modified="No">50</Option>
    <Option name="Tau" modified="No">3.000000e+00</Option>
    <Option name="BPMode" modified="No">sequential</Option>
    <Option name="BatchSize" modified="No">-1</Option>
    <Option name="ConvergenceImprove" modified="No">1.000000e-30</Option>
    <Option name="ConvergenceTests" modified="No">-1</Option>
    <Option name="UseRegulator" modified="No">False</Option>
    <Option name="UpdateLimit" modified="No">10000</Option>
    <Option name="CalculateErrors" modified="No">False</Option>
    <Option name="WeightRange" modified="No">1.000000e+00</Option>
  </Options>
  <Variables NVar="10">
    <Variable VarIndex="0" Expression="detrkqual.NActiveHits" Label="detrkqual.NActiveHits" Title="NActive" Unit="Count" Internal="detrkqual.NActiveHits" Type="I" Min="1.40000000e+01" Max="8.30000000e+01"/>
    <Variable VarIndex="1" Expression="detrkqual.ActiveHitFraction" Label="detrkqual.ActiveHitFraction" Title="FActive" Unit="Fraction" Internal="detrkqual.ActiveHitFraction" Type="F" Min="4.44444448e-01" Max="1.00000000e+00"/>
    <Variable VarIndex="2" Expression="detrkqual.Log10FitCon" Label="detrkqual.Log10FitCon" Title="LogFitCon" Unit="Probability" Internal="detrkqual.Log10FitCon" Type="F" Min="-5.00000000e+01" Max="0.00000000e+00"/>
    <Variable VarIndex="3" Expression="detrkqual.MomError" Label="detrkqual.MomError" Title="FitMomErr" Unit="MeV/c" Internal="detrkqual.MomError" Type="F" Min="5.54031543e-02" Max="3.78467107e+00"/>
    <Variable VarIndex="4" Expression="detrkqual.T0Error" Label="detrkqual.T0Error" Title="T0Err" Unit="nsec" Internal="detrkqual.T0Error" Type="F" Min="8.95573348e-02" Max="6.45363903e+00"/>
    <Variable VarIndex="5" Expression="detrkqual.d0" Label="detrkqual.d0" Title="D0" Unit="mm" Internal="detrkqual.d0" Type="F" Min="-4.40948456e+02" Max="1.91931412e+02"/>
    <Variable VarIndex="6" Expression="detrkqual.MaxRadius" Label="detrkqual.MaxRadius" Title="MaxRadius" Unit="mm" Internal="detrkqual.MaxRadius" Type="F" Min="4.11254669e+02" Max="6.76932434e+02"/>
    <Variable VarIndex="7" Expression="detrkqual.DoubleHitFraction" Label="detrkqual.DoubleHitFraction" Title="DoubleHitFraction" Unit="Fraction" Internal="detrkqual.DoubleHitFraction" Type="F" Min="5.55555560e-02" Max="6.87500000e-01"/>
    <Variable VarIndex="8" Expression="detrkqual.NullAmbigHitFraction" Label="detrkqual.NullAmbigHitFraction" Title="NullHitFraction" Unit="Fraction" Internal="detrkqual.NullAmbigHitFraction" Type="F" Min="0.00000000e+00" Max="5.00000000e-01"/>
    <Variable VarIndex="9" Expression="detrkqual.StrawHitFraction" Label="detrkqual.StrawHitFraction" Title="MatFraction" Unit="Fraction" Internal="detrkqual.StrawHitFraction" Type="F" Min="9.47368443e-01" Max="4.19047642e+00"/>
  </Variables>
  <Spectators NSpec="0"/>
  <Classes NClass="2">
    <Class Name="Background" Index="0"/>
    <Class Name="Signal" Index="1"/>
  </Classes>
  <Transformations NTransformations="1">
    <Transform Name="Normalize">
      <Selection>
        <Input NInputs="10">
          <Input Type="Variable" Label="detrkqual.NActiveHits" Expression="detrkqual.NActiveHits"/>
          <Input Type="Variable" Label="detrkqual.ActiveHitFraction" Expression="detrkqual.ActiveHitFraction"/>
          <Input Type="Variable" Label="detrkqual.Log10FitCon" Expression="detrkqual.Log10FitCon"/>
          <Input Type="Variable" Label="detrkqual.MomError" Expression="detrkqual.MomError"/>
          <Input Type="Variable" Label="detrkqual.T0Error" Expression="detrkqual.T0Error"/>
          <Input Type="Variable" Label="detrkqual.d0" Expression="detrkqual.d0"/>
          <Input Type="Variable" Label="detrkqual.MaxRadius" Expression="detrkqual.MaxRadius"/>
          <Input Type="Variable" Label="detrkqual.DoubleHitFraction" Expression="detrkqual.DoubleHitFraction"/>
          <Input Type="Variable" Label="detrkqual.NullAmbigHitFraction" Expression="detrkqual.NullAmbigHitFraction"/>
          <Input Type="Variable" Label="detrkqual.StrawHitFraction" Expression="detrkqual.StrawHitFraction"/>
        </Input>
        <Output NOutputs="10">
          <Output Type="Variable" Label="detrkqual.NActiveHits" Expression="detrkqual.NActiveHits"/>
          <Output Type="Variable" Label="detrkqual.ActiveHitFraction" Expression="detrkqual.ActiveHitFraction"/>
          <Output Type="Variable" Label="detrkqual.Log10FitCon" Expression="detrkqual.Log10FitCon"/>
          <Output Type="Variable" Label="detrkqual.MomError" Expression="detrkqual.MomError"/>
          <Output Type="Variable" Label="detrkqual.T0Error" Expression="detrkqual.T0Error"/>
          <Output Type="Variable" Label="detrkqual.d0" Expression="detrkqual.d0"/>
          <Output Type="Variable" Label="detrkqual.MaxRadius" Expression="detrkqual.MaxRadius"/>
          <Output Type="Variable" Label="detrkqual.DoubleHitFraction" Expression="detrkqual.DoubleHitFraction"/>
          <Output Type="Variable" Label="detrkqual.NullAmbigHitFraction" Expression="detrkqual.NullAmbigHitFraction"/>
          <Output Type="Variable" Label="detrkqual.StrawHitFraction" Expression="detrkqual.StrawHitFraction"/>
        </Output>
      </Selection>
      <Class ClassIndex="0">
        <Ranges>
          <Range Index="0" Min="1.4000000000000000e+01" Max="5.8000000000000000e+01"/>
          <Range Index="1" Min="4.4444444775581360e-01" Max="1.0000000000000000e+00"/>
          <Range Index="2" Min="-5.0000000000000000e+01" Max="-4.2970923459506594e-06"/>
          <Range Index="3" Min="8.5407182574272156e-02" Max="3.7846710681915283e+00"/>
          <Range Index="4" Min="8.9557334780693054e-02" Max="6.4536390304565430e+00"/>
          <Range Index="5" Min="-4.4094845581054688e+02" Max="1.5851446533203125e+02"/>
          <Range Index="6" Min="4.1389117431640625e+02" Max="6.5135125732421875e+02"/>
          <Range Index="7" Min="6.2500000000000000e-02" Max="6.8750000000000000e-01"/>
          <Range Index="8" Min="0.0000000000000000e+00" Max="5.0000000000000000e-01"/>
          <Range Index="9" Min="9.5652174949645996e-01" Max="4.1904764175415039e+00"/>
        </Ranges>
      </Class>
      <Class ClassIndex="1">
        <Ranges>
          <Range Index="0" Min="1.4000000000000000e+01" Max="8.3000000000000000e+01"/>
          <Range Index="1" Min="6.2162160873413086e-01" Max="1.0000000000000000e+00"/>
          <Range Index="2" Min="-5.0000000000000000e+01" Max="0.0000000000000000e+00"/>
          <Range Index="3" Min="5.5403154343366623e-02" Max="1.5983587503433228e+00"/>
          <Range Index="4" Min="9.8607555031776428e-02" Max="3.6732013225555420e+00"/>
          <Range Index="5" Min="-1.1116476440429688e+02" Max="1.9193141174316406e+02"/>
          <Range Index="6" Min="4.1125466918945312e+02" Max="6.7693243408203125e+02"/>
          <Range Index="7" Min="5.5555555969476700e-02" Max="6.1764705181121826e-01"/>
          <Range Index="8" Min="0.0000000000000000e+00" Max="4.8148149251937866e-01"/>
          <Range Index="9" Min="9.4736844301223755e-01" Max="2.6842105388641357e+00"/>
        </Ranges>
      </Class>
      <Class ClassIndex="2">
        <Ranges>
          <Range Index="0" Min="1.4000000000000000e+01" Max="8.3000000000000000e+01"/>
          <Range Index="1" Min="4.4444444775581360e-01" Max="1.0000000000000000e+00"/>
          <Range Index="2" Min="-5.0000000000000000e+01" Max="0.0000000000000000e+00"/>
          <Range Index="3" Min="5.5403154343366623e-02" Max="3.7846710681915283e+00"/>
          <Range Index="4" Min="8.9557334780693054e-02" Max="6.4536390304565430e+00"/>
          <Range Index="5" Min="-4.4094845581054688e+02" Max="1.9193141174316406e+02"/>
          <Range Index="6" Min="4.1125466918945312e+02" Max="6.7693243408203125e+02"/>
          <Range Index="7" Min="5.5555555969476700e-02" Max="6.8750000000000000e-01"/>
          <Range Index="8" Min="0.0000000000000000e+00" Max="5.0000000000000000e-01"/>
          <Range Index="9" Min="9.4736844301223755e-01" Max="4.1904764175415039e+00"/>
        </Ranges>
      </Class>
    </Transform>
  </Transformations>
  <MVAPdfs/>
  <Weights>
    <Layout NLayers="4">
      <Layer Index="0" NNeurons="11">
        <Neuron NSynapses="10">
          -2.4629141515612141e-01 1.9940290784983381e+00 3.7342196232331715e-01 1.0230931382447253e+00 -2.1548596097658672e+00 -6.3114547268162324e-01 -9.7787434782649130e-01 1.6375674024552873e+00 -2.0265749301969183e+00 -1.3384359819624068e+00 
        </Neuron>
        <Neuron NSynapses="10">
          -1.7326833433924917e+00 -4.1046265702883639e-01 -1.0206924995742981e+00 -1.7281553115810880e-01 -1.5127081758538115e+00 -1.1708185587711097e+00 -1.4491886125245039e+00 -3.6513473055669859e-01 3.9958848260232566e-01 -1.6295233532567424e-01 
        </Neuron>
        <Neuron NSynapses="10">
          -3.4584628291784469e-01 -7.4946232066924090e-01 -1.9849479044433213e-01 5.9810110470556488e-01 -7.1603712028937572e-01 -5.5558376051855318e-01 5.8718284535857625e-02 4.3040550050051509e+00 -4.5655199222045956e-01 1.7808612488494413e-01 
        </Neuron>
        <Neuron NSynapses="10">
          8.0350335476335411e-01 1.6297195809771619e+00 4.0958309489562250e+00 -6.8917987144436288e-01 1.4317587208629168e+00 1.2619357839290668e+00 3.0794279292661836e-01 -1.9904161609513438e+00 -9.3605054544423609e+00 1.2424814156986338e+01 
        </Neuron>
        <Neuron NSynapses="10">
          1.2240174588105575e+00 8.7077479140068770e-01 1.0679580906141328e+00 5.0317103883050740e-01 1.6931631789955673e-01 -5.7469864375920443e-01 1.1468221398407714e+00 -1.5218452249853829e+00 2.6676758343633072e-01 1.0989862700990300e+00 
        </Neuron>
        <Neuron NSynapses="10">
          1.4911421222034045e+00 1.3371636239902216e+00 -1.6815481092152109e+00 1.3975013335580111e+00 -2.9314785363489979e+00 -2.2488089284476063e+00 -2.3840177746015399e+00 -1.9177373225067642e+00 1.6111445160679929e+00 3.1956837772093238e-01 
        </Neuron>
        <Neuron NSynapses="10">
          -1.5489380367782810e+00 4.0039340420254205e-01 -1.0625065714243052e+00 1.5007292494058960e-01 2.3895294657627879e+00 -4.8944081080938168e-01 1.6702183223150129e-02 -6.9410460507508753e-01 -1.4045222896952797e-01 -4.5464898554598754e-01 
        </Neuron>
        <Neuron NSynapses="10">
          -7.3434187948489194e-01 -1.4465890242447585e+00 5.7131390935716697e-01 1.4936589960381410e+00 8.8152863236102763e-01 -1.8740310039777258e-01 -7.9277591025649141e-01 6.1670516275582443e-01 3.2607669637284736e-01 7.8845643776319940e-01 
        </Neuron>
        <Neuron NSynapses="10">
          1.9057898675975447e+00 6.4108771878671478e-01 -1.1837052462054844e-01 -1.1003236841731705e+00 -1.3038660739091676e+00 -3.2667167406787351e-01 3.5402487693321916e-01 -7.0277864667976286e-01 -1.2785068479525874e+00 -3.5539017303615283e-01 
        </Neuron>
        <Neuron NSynapses="10">
          -1.0034773833252739e-01 -1.1856035747603064e-01 1.9427603130905238e+00 -2.2333411136718713e+00 -1.5441282120321058e+00 1.4557917647800966e+00 -2.2238403480697577e-01 -5.2986630963020183e+00 -1.3161046374646883e+00 -3.0045726999419026e-01 
        </Neuron>
        <Neuron NSynapses="10">
          -2.0232925442558058e+00 -1.6539776360827536e+00 5.7811096598578926e+00 2.5739330127804867e+00 1.0361428391667311e+00 2.7246644253630357e+00 -7.7347763109074641e-01 -1.1234964766305087e+01 -1.1150618839004272e+01 1.1726322865858256e+01 
        </Neuron>
      </Layer>
      <Layer Index="1" NNeurons="11">
        <Neuron NSynapses="9">
          -1.8313574542348658e+00 2.2451177636477745e-01 2.5820163619627856e-01 4.5941601592548031e-01 -1.3600246562813898e+00 1.7707122343390289e+00 2.4935198937150152e-01 -9.8466493649234099e-01 8.0325317337397117e-01 
        </Neuron>
        <Neuron NSynapses="9">
          -1.0777252592844555e+00 -1.5958429835445951e+00 1.3596266984904448e-01 -3.6263749002659912e-01 1.7999308618831975e+00 7.6861394020855367e-01 -3.6070572461817565e-02 -3.4796268265827979e-01 1.6116006406861180e-01 
        </Neuron>
        <Neuron NSynapses="9">
          -3.4210577191338842e+00 1.5029892718856717e+00 1.3089144489783109e+00 1.8600479890186894e-01 7.2603299780842268e-01 -2.9763237337076713e+00 7.8645706634618795e-01 1.4010009815457485e+00 1.7303328962266733e+00 
        </Neuron>
        <Neuron NSynapses="9">
          -2.5217907983238890e+00 -9.7566575528843708e-02 9.7498864082748293e-01 1.0333063474479367e+00 -4.6136605854999724e-01 -1.3461032848548276e+00 -5.3044245373116294e-01 -1.3901493713829978e+00 1.0580891416445708e+00 
        </Neuron>
        <Neuron NSynapses="9">
          6.4742060557362091e-01 -8.8566631491169695e-02 2.1846315658810439e-01 2.4309513690399354e+00 -1.3239178545104637e+00 -1.1114605642789771e-01 2.8525044648711977e+00 -1.6746546365291842e-01 -6.5138391825305053e-01 
        </Neuron>
        <Neuron NSynapses="9">
          -1.1585518868923290e+00 7.6066469223585809e-01 1.3800919875287097e+00 9.2367749051264636e-01 -1.7739404099837135e+00 9.1314392346199269e-01 1.0392957439534587e+00 5.2556809858758857e-01 4.5543861862259194e-01 
        </Neuron>
        <Neuron NSynapses="9">
          3.3793151661877252e-01 -5.8166330161067747e-01 -4.9955919174647834e-01 1.6681047873613273e+00 -7.6520976822230780e-01 -1.0156268646341844e+00 1.5600704303792439e+00 9.3737164471101886e-01 -2.8535714731015371e-01 
        </Neuron>
        <Neuron NSynapses="9">
          3.6309913780645275e+00 9.6105821356601862e-01 -3.8861779221647197e+00 -1.5446873003732349e+00 -5.1733022985245714e-01 1.9107324745338783e+00 -2.3750111550106956e+00 -1.3568979145572120e+00 9.2633796818760927e-01 
        </Neuron>
        <Neuron NSynapses="9">
          3.3526802220355374e+00 -2.6978230245674388e+00 -2.1799013147873247e+00 -3.2079572869763919e+00 -3.4285512685728425e-01 4.3441343252728712e+00 -1.5976997791277663e+00 -7.8538773333674461e-01 -1.4781237976300257e+00 
        </Neuron>
        <Neuron NSynapses="9">
          -7.6473174505995911e-01 1.6265523432138367e+00 2.7811633936131526e+00 1.6961670672198881e+00 -8.3702150963980926e-01 -5.9968182307224041e+00 1.9294849899929498e+00 5.7235244753435544e-01 -1.5988543737499057e+00 
        </Neuron>
        <Neuron NSynapses="9">
          -1.4615222430943591e+00 -1.5011474231864819e-01 -3.9236448835767818e-01 -2.3745034995039842e+00 1.0154028651801967e+00 7.3571527913139434e-01 -9.6193101230768796e-01 -1.1900211677147159e-01 1.1333653612720063e+00 
        </Neuron>
      </Layer>
      <Layer Index="2" NNeurons="10">
        <Neuron NSynapses="1">
          4.0144820332663942e+00 
        </Neuron>
        <Neuron NSynapses="1">
          -1.1775574967560922e+00 
        </Neuron>
        <Neuron NSynapses="1">
          -2.9755014709799830e+00 
        </Neuron>
        <Neuron NSynapses="1">
          -4.0028938798412055e+00 
        </Neuron>
        <Neuron NSynapses="1">
          5.6705738321939225e-01 
        </Neuron>
        <Neuron NSynapses="1">
          6.3690629533312357e+00 
        </Neuron>
        <Neuron NSynapses="1">
          -2.7137074933592036e+00 
        </Neuron>
        <Neuron NSynapses="1">
          -8.7299117111429836e-01 
        </Neuron>
        <Neuron NSynapses="1">
          1.2907909546112509e-01 
        </Neuron>
        <Neuron NSynapses="1">
          2.1217896754670593e+00 
        </Neuron>
      </Layer>
      <Layer Index="3" NNeurons="1">
        <Neuron NSynapses="0"/>
      </Layer>
    </Layout>
  </Weights>
</MethodSetup>
