<?xml version="1.0"?>
<MethodSetup Method="MLP::MLP">
  <GeneralInfo>
    <Info name="TMVA Release" value="4.2.1 [262657]"/>
    <Info name="ROOT Release" value="6.14/06 [396806]"/>
    <Info name="Creator" value="brownd"/>
    <Info name="Date" value="Mon May 20 12:49:14 2019"/>
    <Info name="Host" value="Darwin macitois21.cern.ch 18.0.0 Darwin Kernel Version 18.0.0: Wed Aug 22 20:13:40 PDT 2018; root:xnu-4903.201.2~1/RELEASE_X86_64 x86_64"/>
    <Info name="Dir" value="/Users/brownd/mu2e/Mu2eSim/MDC2018/Offline"/>
    <Info name="Training events" value="242586"/>
    <Info name="TrainingTime" value="1.20846728e+03"/>
    <Info name="AnalysisType" value="Classification"/>
  </GeneralInfo>
  <Options>
    <Option name="NCycles" modified="No">500</Option>
    <Option name="HiddenLayers" modified="No">N,N-1</Option>
    <Option name="NeuronType" modified="No">sigmoid</Option>
    <Option name="RandomSeed" modified="No">1</Option>
    <Option name="EstimatorType" modified="No">CE</Option>
    <Option name="NeuronInputType" modified="No">sum</Option>
    <Option name="V" modified="Yes">False</Option>
    <Option name="VerbosityLevel" modified="No">Default</Option>
    <Option name="VarTransform" modified="Yes">N</Option>
    <Option name="H" modified="Yes">False</Option>
    <Option name="CreateMVAPdfs" modified="No">False</Option>
    <Option name="IgnoreNegWeightsInTraining" modified="No">False</Option>
    <Option name="TrainingMethod" modified="No">BP</Option>
    <Option name="LearningRate" modified="No">2.000000e-02</Option>
    <Option name="DecayRate" modified="No">1.000000e-02</Option>
    <Option name="TestRate" modified="No">10</Option>
    <Option name="EpochMonitoring" modified="No">False</Option>
    <Option name="Sampling" modified="No">1.000000e+00</Option>
    <Option name="SamplingEpoch" modified="No">1.000000e+00</Option>
    <Option name="SamplingImportance" modified="No">1.000000e+00</Option>
    <Option name="SamplingTraining" modified="No">True</Option>
    <Option name="SamplingTesting" modified="No">False</Option>
    <Option name="ResetStep" modified="No">50</Option>
    <Option name="Tau" modified="No">3.000000e+00</Option>
    <Option name="BPMode" modified="No">sequential</Option>
    <Option name="BatchSize" modified="No">-1</Option>
    <Option name="ConvergenceImprove" modified="No">1.000000e-30</Option>
    <Option name="ConvergenceTests" modified="No">-1</Option>
    <Option name="UseRegulator" modified="No">False</Option>
    <Option name="UpdateLimit" modified="No">10000</Option>
    <Option name="CalculateErrors" modified="No">False</Option>
    <Option name="WeightRange" modified="No">1.000000e+00</Option>
  </Options>
  <Variables NVar="10">
    <Variable VarIndex="0" Expression="detrkqual.NActiveHits" Label="detrkqual.NActiveHits" Title="NActive" Unit="Count" Internal="detrkqual.NActiveHits" Type="I" Min="1.40000000e+01" Max="8.80000000e+01"/>
    <Variable VarIndex="1" Expression="detrkqual.ActiveHitFraction" Label="detrkqual.ActiveHitFraction" Title="FActive" Unit="Fraction" Internal="detrkqual.ActiveHitFraction" Type="F" Min="4.05405402e-01" Max="1.00000000e+00"/>
    <Variable VarIndex="2" Expression="detrkqual.Log10FitCon" Label="detrkqual.Log10FitCon" Title="LogFitCon" Unit="Probability" Internal="detrkqual.Log10FitCon" Type="F" Min="-5.00000000e+01" Max="0.00000000e+00"/>
    <Variable VarIndex="3" Expression="detrkqual.MomError" Label="detrkqual.MomError" Title="FitMomErr" Unit="MeV/c" Internal="detrkqual.MomError" Type="F" Min="5.15327416e-02" Max="5.96623802e+00"/>
    <Variable VarIndex="4" Expression="detrkqual.T0Error" Label="detrkqual.T0Error" Title="T0Err" Unit="nsec" Internal="detrkqual.T0Error" Type="F" Min="9.60720778e-02" Max="6.30783129e+00"/>
    <Variable VarIndex="5" Expression="detrkqual.d0" Label="detrkqual.d0" Title="D0" Unit="mm" Internal="detrkqual.d0" Type="F" Min="-4.93680542e+02" Max="1.91404755e+02"/>
    <Variable VarIndex="6" Expression="detrkqual.MaxRadius" Label="detrkqual.MaxRadius" Title="MaxRadius" Unit="mm" Internal="detrkqual.MaxRadius" Type="F" Min="4.18960632e+02" Max="7.43960571e+02"/>
    <Variable VarIndex="7" Expression="detrkqual.DoubleHitFraction" Label="detrkqual.DoubleHitFraction" Title="DoubleHitFraction" Unit="Fraction" Internal="detrkqual.DoubleHitFraction" Type="F" Min="6.66666701e-02" Max="6.25000000e-01"/>
    <Variable VarIndex="8" Expression="detrkqual.NullAmbigHitFraction" Label="detrkqual.NullAmbigHitFraction" Title="NullHitFraction" Unit="Fraction" Internal="detrkqual.NullAmbigHitFraction" Type="F" Min="0.00000000e+00" Max="5.21739125e-01"/>
    <Variable VarIndex="9" Expression="detrkqual.StrawHitFraction" Label="detrkqual.StrawHitFraction" Title="MatFraction" Unit="Fraction" Internal="detrkqual.StrawHitFraction" Type="F" Min="9.48717952e-01" Max="4.44444466e+00"/>
  </Variables>
  <Spectators NSpec="0"/>
  <Classes NClass="2">
    <Class Name="Background" Index="0"/>
    <Class Name="Signal" Index="1"/>
  </Classes>
  <Transformations NTransformations="1">
    <Transform Name="Normalize">
      <Selection>
        <Input NInputs="10">
          <Input Type="Variable" Label="detrkqual.NActiveHits" Expression="detrkqual.NActiveHits"/>
          <Input Type="Variable" Label="detrkqual.ActiveHitFraction" Expression="detrkqual.ActiveHitFraction"/>
          <Input Type="Variable" Label="detrkqual.Log10FitCon" Expression="detrkqual.Log10FitCon"/>
          <Input Type="Variable" Label="detrkqual.MomError" Expression="detrkqual.MomError"/>
          <Input Type="Variable" Label="detrkqual.T0Error" Expression="detrkqual.T0Error"/>
          <Input Type="Variable" Label="detrkqual.d0" Expression="detrkqual.d0"/>
          <Input Type="Variable" Label="detrkqual.MaxRadius" Expression="detrkqual.MaxRadius"/>
          <Input Type="Variable" Label="detrkqual.DoubleHitFraction" Expression="detrkqual.DoubleHitFraction"/>
          <Input Type="Variable" Label="detrkqual.NullAmbigHitFraction" Expression="detrkqual.NullAmbigHitFraction"/>
          <Input Type="Variable" Label="detrkqual.StrawHitFraction" Expression="detrkqual.StrawHitFraction"/>
        </Input>
        <Output NOutputs="10">
          <Output Type="Variable" Label="detrkqual.NActiveHits" Expression="detrkqual.NActiveHits"/>
          <Output Type="Variable" Label="detrkqual.ActiveHitFraction" Expression="detrkqual.ActiveHitFraction"/>
          <Output Type="Variable" Label="detrkqual.Log10FitCon" Expression="detrkqual.Log10FitCon"/>
          <Output Type="Variable" Label="detrkqual.MomError" Expression="detrkqual.MomError"/>
          <Output Type="Variable" Label="detrkqual.T0Error" Expression="detrkqual.T0Error"/>
          <Output Type="Variable" Label="detrkqual.d0" Expression="detrkqual.d0"/>
          <Output Type="Variable" Label="detrkqual.MaxRadius" Expression="detrkqual.MaxRadius"/>
          <Output Type="Variable" Label="detrkqual.DoubleHitFraction" Expression="detrkqual.DoubleHitFraction"/>
          <Output Type="Variable" Label="detrkqual.NullAmbigHitFraction" Expression="detrkqual.NullAmbigHitFraction"/>
          <Output Type="Variable" Label="detrkqual.StrawHitFraction" Expression="detrkqual.StrawHitFraction"/>
        </Output>
      </Selection>
      <Class ClassIndex="0">
        <Ranges>
          <Range Index="0" Min="1.4000000000000000e+01" Max="7.1000000000000000e+01"/>
          <Range Index="1" Min="4.0540540218353271e-01" Max="1.0000000000000000e+00"/>
          <Range Index="2" Min="-5.0000000000000000e+01" Max="-3.8829125514894258e-06"/>
          <Range Index="3" Min="7.7153906226158142e-02" Max="5.9662380218505859e+00"/>
          <Range Index="4" Min="1.0505171120166779e-01" Max="6.3078312873840332e+00"/>
          <Range Index="5" Min="-4.9368054199218750e+02" Max="9.3687286376953125e+01"/>
          <Range Index="6" Min="4.1954516601562500e+02" Max="7.4396057128906250e+02"/>
          <Range Index="7" Min="1.1111111193895340e-01" Max="6.2500000000000000e-01"/>
          <Range Index="8" Min="0.0000000000000000e+00" Max="5.2173912525177002e-01"/>
          <Range Index="9" Min="9.7058820724487305e-01" Max="4.4444446563720703e+00"/>
        </Ranges>
      </Class>
      <Class ClassIndex="1">
        <Ranges>
          <Range Index="0" Min="1.4000000000000000e+01" Max="8.8000000000000000e+01"/>
          <Range Index="1" Min="6.1224490404129028e-01" Max="1.0000000000000000e+00"/>
          <Range Index="2" Min="-5.0000000000000000e+01" Max="0.0000000000000000e+00"/>
          <Range Index="3" Min="5.1532741636037827e-02" Max="9.8580336570739746e-01"/>
          <Range Index="4" Min="9.6072077751159668e-02" Max="4.0921516418457031e+00"/>
          <Range Index="5" Min="-1.4413674926757812e+02" Max="1.9140475463867188e+02"/>
          <Range Index="6" Min="4.1896063232421875e+02" Max="6.9494958496093750e+02"/>
          <Range Index="7" Min="6.6666670143604279e-02" Max="6.1403506994247437e-01"/>
          <Range Index="8" Min="0.0000000000000000e+00" Max="4.7999998927116394e-01"/>
          <Range Index="9" Min="9.4871795177459717e-01" Max="3.0000000000000000e+00"/>
        </Ranges>
      </Class>
      <Class ClassIndex="2">
        <Ranges>
          <Range Index="0" Min="1.4000000000000000e+01" Max="8.8000000000000000e+01"/>
          <Range Index="1" Min="4.0540540218353271e-01" Max="1.0000000000000000e+00"/>
          <Range Index="2" Min="-5.0000000000000000e+01" Max="0.0000000000000000e+00"/>
          <Range Index="3" Min="5.1532741636037827e-02" Max="5.9662380218505859e+00"/>
          <Range Index="4" Min="9.6072077751159668e-02" Max="6.3078312873840332e+00"/>
          <Range Index="5" Min="-4.9368054199218750e+02" Max="1.9140475463867188e+02"/>
          <Range Index="6" Min="4.1896063232421875e+02" Max="7.4396057128906250e+02"/>
          <Range Index="7" Min="6.6666670143604279e-02" Max="6.2500000000000000e-01"/>
          <Range Index="8" Min="0.0000000000000000e+00" Max="5.2173912525177002e-01"/>
          <Range Index="9" Min="9.4871795177459717e-01" Max="4.4444446563720703e+00"/>
        </Ranges>
      </Class>
    </Transform>
  </Transformations>
  <MVAPdfs/>
  <Weights>
    <Layout NLayers="4">
      <Layer Index="0" NNeurons="11">
        <Neuron NSynapses="10">
          -5.7066091748501468e-01 1.9644915965531529e+00 2.9791805421440604e-01 1.2290833564324060e+00 -2.8194988942424186e+00 -9.7095047772795118e-01 -7.5746228414367689e-01 1.4636045425399311e+00 -1.8489105325926694e+00 -5.0555915383876904e-01 
        </Neuron>
        <Neuron NSynapses="10">
          -7.5254552580343093e-01 -4.2883225759799215e-01 -8.3417037020347951e-01 -1.0332546711739901e+00 -1.4605423904343733e+00 8.7238436816738274e-01 -1.8121509411423162e+00 -1.0104657245243851e+00 -5.1504591545137812e-01 -7.7142327722496878e-02 
        </Neuron>
        <Neuron NSynapses="10">
          -1.4741996682763644e-01 -7.5699462798636474e-01 -4.5195402317249660e-02 -5.4157013140808596e-01 1.5235440924531718e-01 -8.6257189315441940e-01 2.5970738717309350e-01 2.9906559191074864e+00 -9.4184995981175390e-01 -1.7726568186763689e-01 
        </Neuron>
        <Neuron NSynapses="10">
          1.2658741448390605e-02 1.6554696877849673e+00 6.1669412348512029e+00 -1.6969934638839834e-01 2.2541537544858059e+00 -5.5452637230218732e-02 -2.2418339847733276e-01 -3.2764281742489771e+00 -5.6916375585409176e+00 7.8034438718536947e+00 
        </Neuron>
        <Neuron NSynapses="10">
          1.1043816484398770e+00 8.7205925986718025e-01 5.9693156664796332e-01 1.0356489455445126e+00 -1.4026334408464383e+00 -9.0025435796742259e-01 3.5072555589809001e-01 -3.3635685033287737e+00 9.6738763279590290e-01 -1.2192630688218334e-01 
        </Neuron>
        <Neuron NSynapses="10">
          1.9026841431414052e+00 1.3048674299512353e+00 -5.0348780886284512e+00 8.8142584997004580e-01 -2.1788465976880356e+00 -1.4344537101373251e+00 -2.4911432433007255e+00 -2.3001806906494831e+00 3.6748592268584233e+00 3.7351527907292073e+00 
        </Neuron>
        <Neuron NSynapses="10">
          -2.1473034281739016e+00 3.5184201030262952e-01 1.3470753060592857e+00 -2.1336271066959742e-01 2.6514144362848335e+00 -2.2517183091558057e-01 9.7099050378991481e-01 -3.6720189608486287e-01 7.8602728552052703e-01 -1.3022007274088832e+00 
        </Neuron>
        <Neuron NSynapses="10">
          -5.9053731718339186e-01 -1.4250104199554465e+00 -3.9365972095561713e-01 1.8205291615461683e+00 -1.1013112602996077e-01 -7.0377807319617158e-01 -1.3252179353614713e+00 3.0017463435398173e-01 -3.7718170732904448e-02 5.1951235521660366e-01 
        </Neuron>
        <Neuron NSynapses="10">
          2.1084840944213252e+00 6.6338964479181428e-01 -9.4754833808743069e-02 -3.7567419124099721e-01 3.7601882452939217e-01 -3.9462733474598516e-01 5.7039845553691459e-01 -4.4412135441893413e-01 -3.1988178182453375e-01 1.4245845773229432e-01 
        </Neuron>
        <Neuron NSynapses="10">
          -7.7382548675799778e-01 -1.2029557452752364e-01 5.2571127545574747e-01 -2.1848423842082902e+00 -1.3134603382462124e+00 2.0920907203893040e+00 -5.6383699781076213e-01 -4.7578021731536380e+00 -1.0331787159947681e+00 2.4063168810719621e-01 
        </Neuron>
        <Neuron NSynapses="10">
          -1.2917255046212863e+00 -1.6577053706342673e+00 9.2303860418745121e+00 2.0920921984806427e+00 1.5351887788554885e+00 1.0426326591834740e+00 -2.4634631080372293e-01 -1.1958428005592859e+01 -5.0453835878379456e+00 4.9048783568165906e+00 
        </Neuron>
      </Layer>
      <Layer Index="1" NNeurons="11">
        <Neuron NSynapses="9">
          -2.3539723625094386e+00 2.4168192956162704e-01 4.2647082169327050e-01 5.1933384170346131e-01 -1.3603955377940280e+00 1.7579413416172187e+00 2.3111879870250152e-01 -1.1085278722224670e+00 8.2037078079303727e-01 
        </Neuron>
        <Neuron NSynapses="9">
          -1.0907453074785758e+00 -1.5865637510450952e+00 1.4245384835142960e-01 -3.4290076516308665e-01 1.7969014654536253e+00 7.7968559199081056e-01 -3.0254374101175496e-02 -3.4626491292110889e-01 1.6122248052279436e-01 
        </Neuron>
        <Neuron NSynapses="9">
          -4.8912968736244506e+00 1.9637668656013521e-01 2.7406994170501240e+00 -1.3025093807880853e-01 1.7923127415316151e+00 -4.1271188195029858e+00 1.3983735463990423e+00 2.3701656899372248e+00 1.8218469782393976e+00 
        </Neuron>
        <Neuron NSynapses="9">
          -2.3089329673337255e+00 3.7935633961505710e-01 1.2624309931412017e+00 1.5933169482118519e+00 -1.6023191128402761e-01 -1.4621818801122657e+00 -2.8689400628838158e-01 -1.1516939219660476e+00 1.3723365475136293e+00 
        </Neuron>
        <Neuron NSynapses="9">
          1.2396436304629090e+00 -1.4689847626135362e+00 8.1283309051280367e-02 1.5147418787384177e+00 -3.6904557349994110e-01 -2.2235729857432047e+00 2.6703880407378962e+00 3.4573676247033397e-01 -5.2391514296594988e-01 
        </Neuron>
        <Neuron NSynapses="9">
          8.3029209651296773e-02 9.9781249621711088e-01 5.5758040818523813e-01 1.1076408656614312e+00 -1.6221131864487996e+00 1.7274822404966812e+00 6.0694736663310922e-01 7.7623213206771535e-01 4.2032936846263158e-01 
        </Neuron>
        <Neuron NSynapses="9">
          3.4692810278254566e-01 -8.8177290892652727e-01 -2.9569121040669394e-01 1.7651319818596765e+00 -5.2393778932244162e-01 -1.2452109174050185e+00 1.6668321509719046e+00 1.1853913445673221e+00 -2.8491911992391811e-01 
        </Neuron>
        <Neuron NSynapses="9">
          4.8132365082071313e+00 2.4616947837824630e+00 -3.9019512782431689e+00 -4.2796605740573712e-01 -8.6334427591795881e-01 1.2316359217802015e+00 -1.7478922811390696e+00 -1.1710066824367247e+00 9.5780269724465517e-01 
        </Neuron>
        <Neuron NSynapses="9">
          3.3683280845669081e+00 -1.4395504105441512e+00 -2.3169011333628080e+00 -1.7396908674501137e+00 -7.2027208641074192e-01 3.6324034709855773e+00 -1.8841532791302316e+00 -1.1529549531607144e+00 -1.2620809500257666e+00 
        </Neuron>
        <Neuron NSynapses="9">
          -2.1401264888996572e+00 1.3190331767998844e+00 3.3142048841187521e+00 1.4367057124850204e+00 -4.9542819940741134e-01 -4.7602160931402926e+00 2.7095237483312475e+00 1.2202129716352046e+00 -1.4064190407372521e+00 
        </Neuron>
        <Neuron NSynapses="9">
          -1.1585950985549063e+00 3.1734204265864913e-01 -7.6986584972638758e-02 -1.8343794133524844e+00 1.3201774796187518e+00 7.0950111489330603e-01 -6.9141616859013133e-01 1.3938390652872623e-01 1.4482200508439163e+00 
        </Neuron>
      </Layer>
      <Layer Index="2" NNeurons="10">
        <Neuron NSynapses="1">
          6.7232746185009571e+00 
        </Neuron>
        <Neuron NSynapses="1">
          9.2957059177217394e-01 
        </Neuron>
        <Neuron NSynapses="1">
          -4.5951994931541504e+00 
        </Neuron>
        <Neuron NSynapses="1">
          -2.3066546003921387e+00 
        </Neuron>
        <Neuron NSynapses="1">
          -8.4365168446367711e-01 
        </Neuron>
        <Neuron NSynapses="1">
          7.0780637406453586e+00 
        </Neuron>
        <Neuron NSynapses="1">
          -3.6205589719781544e+00 
        </Neuron>
        <Neuron NSynapses="1">
          -2.2913831347465679e+00 
        </Neuron>
        <Neuron NSynapses="1">
          1.4942487133220309e-01 
        </Neuron>
        <Neuron NSynapses="1">
          1.8684163129363029e+00 
        </Neuron>
      </Layer>
      <Layer Index="3" NNeurons="1">
        <Neuron NSynapses="0"/>
      </Layer>
    </Layout>
  </Weights>
  <Calibration>
    <Calib Index="0" TrkQualCalib="1" TrkQual="0.999987"/>
    <Calib Index="1" TrkQualCalib="0.99" TrkQual="0.999933"/>
    <Calib Index="2" TrkQualCalib="0.98" TrkQual="0.999911"/>
    <Calib Index="3" TrkQualCalib="0.97" TrkQual="0.999887"/>
    <Calib Index="4" TrkQualCalib="0.96" TrkQual="0.999863"/>
    <Calib Index="5" TrkQualCalib="0.95" TrkQual="0.999839"/>
    <Calib Index="6" TrkQualCalib="0.94" TrkQual="0.999819"/>
    <Calib Index="7" TrkQualCalib="0.93" TrkQual="0.999789"/>
    <Calib Index="8" TrkQualCalib="0.92" TrkQual="0.999761"/>
    <Calib Index="9" TrkQualCalib="0.91" TrkQual="0.999735"/>
    <Calib Index="10" TrkQualCalib="0.9" TrkQual="0.999705"/>
    <Calib Index="11" TrkQualCalib="0.89" TrkQual="0.999673"/>
    <Calib Index="12" TrkQualCalib="0.88" TrkQual="0.999637"/>
    <Calib Index="13" TrkQualCalib="0.87" TrkQual="0.999605"/>
    <Calib Index="14" TrkQualCalib="0.86" TrkQual="0.999565"/>
    <Calib Index="15" TrkQualCalib="0.85" TrkQual="0.999523"/>
    <Calib Index="16" TrkQualCalib="0.84" TrkQual="0.999483"/>
    <Calib Index="17" TrkQualCalib="0.83" TrkQual="0.999437"/>
    <Calib Index="18" TrkQualCalib="0.82" TrkQual="0.999383"/>
    <Calib Index="19" TrkQualCalib="0.81" TrkQual="0.999337"/>
    <Calib Index="20" TrkQualCalib="0.8" TrkQual="0.999285"/>
    <Calib Index="21" TrkQualCalib="0.79" TrkQual="0.999225"/>
    <Calib Index="22" TrkQualCalib="0.78" TrkQual="0.999163"/>
    <Calib Index="23" TrkQualCalib="0.77" TrkQual="0.999101"/>
    <Calib Index="24" TrkQualCalib="0.76" TrkQual="0.999029"/>
    <Calib Index="25" TrkQualCalib="0.75" TrkQual="0.998955"/>
    <Calib Index="26" TrkQualCalib="0.74" TrkQual="0.998875"/>
    <Calib Index="27" TrkQualCalib="0.73" TrkQual="0.998791"/>
    <Calib Index="28" TrkQualCalib="0.72" TrkQual="0.998705"/>
    <Calib Index="29" TrkQualCalib="0.71" TrkQual="0.998613"/>
    <Calib Index="30" TrkQualCalib="0.7" TrkQual="0.998509"/>
    <Calib Index="31" TrkQualCalib="0.69" TrkQual="0.998401"/>
    <Calib Index="32" TrkQualCalib="0.68" TrkQual="0.998285"/>
    <Calib Index="33" TrkQualCalib="0.67" TrkQual="0.998163"/>
    <Calib Index="34" TrkQualCalib="0.66" TrkQual="0.998033"/>
    <Calib Index="35" TrkQualCalib="0.65" TrkQual="0.997889"/>
    <Calib Index="36" TrkQualCalib="0.64" TrkQual="0.997745"/>
    <Calib Index="37" TrkQualCalib="0.63" TrkQual="0.997585"/>
    <Calib Index="38" TrkQualCalib="0.62" TrkQual="0.997415"/>
    <Calib Index="39" TrkQualCalib="0.61" TrkQual="0.997229"/>
    <Calib Index="40" TrkQualCalib="0.6" TrkQual="0.997029"/>
    <Calib Index="41" TrkQualCalib="0.59" TrkQual="0.996821"/>
    <Calib Index="42" TrkQualCalib="0.58" TrkQual="0.996601"/>
    <Calib Index="43" TrkQualCalib="0.57" TrkQual="0.996357"/>
    <Calib Index="44" TrkQualCalib="0.56" TrkQual="0.996099"/>
    <Calib Index="45" TrkQualCalib="0.55" TrkQual="0.995813"/>
    <Calib Index="46" TrkQualCalib="0.54" TrkQual="0.995517"/>
    <Calib Index="47" TrkQualCalib="0.53" TrkQual="0.995197"/>
    <Calib Index="48" TrkQualCalib="0.52" TrkQual="0.994847"/>
    <Calib Index="49" TrkQualCalib="0.51" TrkQual="0.994469"/>
    <Calib Index="50" TrkQualCalib="0.5" TrkQual="0.994055"/>
    <Calib Index="51" TrkQualCalib="0.49" TrkQual="0.993603"/>
    <Calib Index="52" TrkQualCalib="0.48" TrkQual="0.993127"/>
    <Calib Index="53" TrkQualCalib="0.47" TrkQual="0.992619"/>
    <Calib Index="54" TrkQualCalib="0.46" TrkQual="0.992057"/>
    <Calib Index="55" TrkQualCalib="0.45" TrkQual="0.991467"/>
    <Calib Index="56" TrkQualCalib="0.44" TrkQual="0.990807"/>
    <Calib Index="57" TrkQualCalib="0.43" TrkQual="0.990099"/>
    <Calib Index="58" TrkQualCalib="0.42" TrkQual="0.989323"/>
    <Calib Index="59" TrkQualCalib="0.41" TrkQual="0.988447"/>
    <Calib Index="60" TrkQualCalib="0.4" TrkQual="0.987497"/>
    <Calib Index="61" TrkQualCalib="0.39" TrkQual="0.986443"/>
    <Calib Index="62" TrkQualCalib="0.38" TrkQual="0.985295"/>
    <Calib Index="63" TrkQualCalib="0.37" TrkQual="0.984015"/>
    <Calib Index="64" TrkQualCalib="0.36" TrkQual="0.982587"/>
    <Calib Index="65" TrkQualCalib="0.35" TrkQual="0.981039"/>
    <Calib Index="66" TrkQualCalib="0.34" TrkQual="0.979315"/>
    <Calib Index="67" TrkQualCalib="0.33" TrkQual="0.977397"/>
    <Calib Index="68" TrkQualCalib="0.32" TrkQual="0.975261"/>
    <Calib Index="69" TrkQualCalib="0.31" TrkQual="0.972895"/>
    <Calib Index="70" TrkQualCalib="0.3" TrkQual="0.970197"/>
    <Calib Index="71" TrkQualCalib="0.29" TrkQual="0.967241"/>
    <Calib Index="72" TrkQualCalib="0.28" TrkQual="0.963921"/>
    <Calib Index="73" TrkQualCalib="0.27" TrkQual="0.960139"/>
    <Calib Index="74" TrkQualCalib="0.26" TrkQual="0.955677"/>
    <Calib Index="75" TrkQualCalib="0.25" TrkQual="0.950801"/>
    <Calib Index="76" TrkQualCalib="0.24" TrkQual="0.945135"/>
    <Calib Index="77" TrkQualCalib="0.23" TrkQual="0.938687"/>
    <Calib Index="78" TrkQualCalib="0.22" TrkQual="0.931147"/>
    <Calib Index="79" TrkQualCalib="0.21" TrkQual="0.922603"/>
    <Calib Index="80" TrkQualCalib="0.2" TrkQual="0.912695"/>
    <Calib Index="81" TrkQualCalib="0.19" TrkQual="0.901353"/>
    <Calib Index="82" TrkQualCalib="0.18" TrkQual="0.888409"/>
    <Calib Index="83" TrkQualCalib="0.17" TrkQual="0.873141"/>
    <Calib Index="84" TrkQualCalib="0.16" TrkQual="0.854925"/>
    <Calib Index="85" TrkQualCalib="0.15" TrkQual="0.833057"/>
    <Calib Index="86" TrkQualCalib="0.14" TrkQual="0.807565"/>
    <Calib Index="87" TrkQualCalib="0.13" TrkQual="0.777629"/>
    <Calib Index="88" TrkQualCalib="0.12" TrkQual="0.741755"/>
    <Calib Index="89" TrkQualCalib="0.11" TrkQual="0.699713"/>
    <Calib Index="90" TrkQualCalib="0.1" TrkQual="0.651537"/>
    <Calib Index="91" TrkQualCalib="0.09" TrkQual="0.593675"/>
    <Calib Index="92" TrkQualCalib="0.08" TrkQual="0.526085"/>
    <Calib Index="93" TrkQualCalib="0.07" TrkQual="0.451437"/>
    <Calib Index="94" TrkQualCalib="0.06" TrkQual="0.368983"/>
    <Calib Index="95" TrkQualCalib="0.05" TrkQual="0.280109"/>
    <Calib Index="96" TrkQualCalib="0.04" TrkQual="0.196493"/>
    <Calib Index="97" TrkQualCalib="0.03" TrkQual="0.115733"/>
    <Calib Index="98" TrkQualCalib="0.02" TrkQual="0.051205"/>
    <Calib Index="99" TrkQualCalib="0.01" TrkQual="0.010807"/>
  </Calibration>
</MethodSetup>


















