<?xml version="1.0"?>
<MethodSetup Method="MLP::MLP">
  <GeneralInfo>
    <Info name="TMVA Release" value="4.2.0 [262656]"/>
    <Info name="ROOT Release" value="5.34/32 [336416]"/>
    <Info name="Creator" value="brownd"/>
    <Info name="Date" value="Sat Mar 19 09:30:24 2016"/>
    <Info name="Host" value="Linux buildservice004.fnal.gov 2.6.32-504.23.4.el6.x86_64 #1 SMP Tue Jun 9 11:55:03 CDT 2015 x86_64 x86_64 x86_64 GNU/Linux"/>
    <Info name="Dir" value="/home/online1/brownd/mu2e/Mu2eSim/art24/Offline"/>
    <Info name="Training events" value="6468"/>
    <Info name="TrainingTime" value="9.19580212e+01"/>
    <Info name="AnalysisType" value="Classification"/>
  </GeneralInfo>
  <Options>
    <Option name="NCycles" modified="No">500</Option>
    <Option name="HiddenLayers" modified="No">N,N-1</Option>
    <Option name="NeuronType" modified="No">sigmoid</Option>
    <Option name="RandomSeed" modified="No">1</Option>
    <Option name="EstimatorType" modified="No">MSE</Option>
    <Option name="NeuronInputType" modified="No">sum</Option>
    <Option name="V" modified="Yes">False</Option>
    <Option name="VerbosityLevel" modified="No">Default</Option>
    <Option name="VarTransform" modified="Yes">N</Option>
    <Option name="H" modified="Yes">False</Option>
    <Option name="CreateMVAPdfs" modified="No">False</Option>
    <Option name="IgnoreNegWeightsInTraining" modified="No">False</Option>
    <Option name="TrainingMethod" modified="No">BP</Option>
    <Option name="LearningRate" modified="No">2.000000e-02</Option>
    <Option name="DecayRate" modified="No">1.000000e-02</Option>
    <Option name="TestRate" modified="No">10</Option>
    <Option name="EpochMonitoring" modified="No">False</Option>
    <Option name="Sampling" modified="No">1.000000e+00</Option>
    <Option name="SamplingEpoch" modified="No">1.000000e+00</Option>
    <Option name="SamplingImportance" modified="No">1.000000e+00</Option>
    <Option name="SamplingTraining" modified="No">True</Option>
    <Option name="SamplingTesting" modified="No">False</Option>
    <Option name="ResetStep" modified="No">50</Option>
    <Option name="Tau" modified="No">3.000000e+00</Option>
    <Option name="BPMode" modified="No">sequential</Option>
    <Option name="BatchSize" modified="No">-1</Option>
    <Option name="ConvergenceImprove" modified="No">1.000000e-30</Option>
    <Option name="ConvergenceTests" modified="No">-1</Option>
    <Option name="UseRegulator" modified="No">False</Option>
    <Option name="UpdateLimit" modified="No">10000</Option>
    <Option name="CalculateErrors" modified="No">False</Option>
    <Option name="WeightRange" modified="No">1.000000e+00</Option>
  </Options>
  <Variables NVar="10">
    <Variable VarIndex="0" Expression="fit.nactive" Label="fit.nactive" Title="NActive" Unit="Count" Internal="fit.nactive" Type="I" Min="1.50000000e+01" Max="8.30000000e+01"/>
    <Variable VarIndex="1" Expression="fit.nactive/fit.nhits" Label="fit.nactive/fit.nhits" Title="FActive" Unit="Fraction" Internal="fit.nactive_D_fit.nhits" Type="F" Min="6.87500000e-01" Max="1.00000000e+00"/>
    <Variable VarIndex="2" Expression="log10(fit.con)" Label="log10(fit.con)" Title="LogFitCon" Unit="Probability" Internal="log10_fit.con_" Type="F" Min="-3.73195839e+01" Max="0.00000000e+00"/>
    <Variable VarIndex="3" Expression="fit.momerr" Label="fit.momerr" Title="FitMomErr" Unit="MeV/c" Internal="fit.momerr" Type="F" Min="6.13441803e-02" Max="1.57965326e+00"/>
    <Variable VarIndex="4" Expression="fit.t0err" Label="fit.t0err" Title="T0Err" Unit="nsec" Internal="fit.t0err" Type="F" Min="3.37001830e-01" Max="2.75427508e+00"/>
    <Variable VarIndex="5" Expression="fit.d0" Label="fit.d0" Title="D0" Unit="mm" Internal="fit.d0" Type="F" Min="-3.78189209e+02" Max="9.63962250e+01"/>
    <Variable VarIndex="6" Expression="fit.d0+2./fit.om" Label="fit.d0+2./fit.om" Title="MaxRadius" Unit="mm" Internal="fit.d0_P_2._D_fit.om" Type="F" Min="4.38505951e+02" Max="6.74410828e+02"/>
    <Variable VarIndex="7" Expression="fit.ndactive/fit.nactive" Label="fit.ndactive/fit.nactive" Title="DoubleHitFraction" Unit="Fraction" Internal="fit.ndactive_D_fit.nactive" Type="F" Min="1.78571433e-01" Max="5.88235319e-01"/>
    <Variable VarIndex="8" Expression="fit.nnullambig/fit.nactive" Label="fit.nnullambig/fit.nactive" Title="NullHitFraction" Unit="Fraction" Internal="fit.nnullambig_D_fit.nactive" Type="F" Min="0.00000000e+00" Max="4.19354826e-01"/>
    <Variable VarIndex="9" Expression="fit.nmatactive/fit.nactive" Label="fit.nmatactive/fit.nactive" Title="MatFraction" Unit="Fraction" Internal="fit.nmatactive_D_fit.nactive" Type="F" Min="1.00000000e+00" Max="2.94736838e+00"/>
  </Variables>
  <Spectators NSpec="0"/>
  <Classes NClass="2">
    <Class Name="Background" Index="0"/>
    <Class Name="Signal" Index="1"/>
  </Classes>
  <Transformations NTransformations="1">
    <Transform Name="Normalize">
      <Selection>
        <Input NInputs="10">
          <Input Type="Variable" Label="fit.nactive" Expression="fit.nactive"/>
          <Input Type="Variable" Label="fit.nactive/fit.nhits" Expression="fit.nactive/fit.nhits"/>
          <Input Type="Variable" Label="log10(fit.con)" Expression="log10(fit.con)"/>
          <Input Type="Variable" Label="fit.momerr" Expression="fit.momerr"/>
          <Input Type="Variable" Label="fit.t0err" Expression="fit.t0err"/>
          <Input Type="Variable" Label="fit.d0" Expression="fit.d0"/>
          <Input Type="Variable" Label="fit.d0+2./fit.om" Expression="fit.d0+2./fit.om"/>
          <Input Type="Variable" Label="fit.ndactive/fit.nactive" Expression="fit.ndactive/fit.nactive"/>
          <Input Type="Variable" Label="fit.nnullambig/fit.nactive" Expression="fit.nnullambig/fit.nactive"/>
          <Input Type="Variable" Label="fit.nmatactive/fit.nactive" Expression="fit.nmatactive/fit.nactive"/>
        </Input>
        <Output NOutputs="10">
          <Output Type="Variable" Label="fit.nactive" Expression="fit.nactive"/>
          <Output Type="Variable" Label="fit.nactive/fit.nhits" Expression="fit.nactive/fit.nhits"/>
          <Output Type="Variable" Label="log10(fit.con)" Expression="log10(fit.con)"/>
          <Output Type="Variable" Label="fit.momerr" Expression="fit.momerr"/>
          <Output Type="Variable" Label="fit.t0err" Expression="fit.t0err"/>
          <Output Type="Variable" Label="fit.d0" Expression="fit.d0"/>
          <Output Type="Variable" Label="fit.d0+2./fit.om" Expression="fit.d0+2./fit.om"/>
          <Output Type="Variable" Label="fit.ndactive/fit.nactive" Expression="fit.ndactive/fit.nactive"/>
          <Output Type="Variable" Label="fit.nnullambig/fit.nactive" Expression="fit.nnullambig/fit.nactive"/>
          <Output Type="Variable" Label="fit.nmatactive/fit.nactive" Expression="fit.nmatactive/fit.nactive"/>
        </Output>
      </Selection>
      <Class ClassIndex="0">
        <Ranges>
          <Range Index="0" Min="1.5000000000000000e+01" Max="6.8000000000000000e+01"/>
          <Range Index="1" Min="6.8750000000000000e-01" Max="1.0000000000000000e+00"/>
          <Range Index="2" Min="-3.7319583892822266e+01" Max="-6.8240777181927115e-05"/>
          <Range Index="3" Min="8.4113575518131256e-02" Max="1.5796532630920410e+00"/>
          <Range Index="4" Min="3.7014913558959961e-01" Max="2.7542750835418701e+00"/>
          <Range Index="5" Min="-3.7818920898437500e+02" Max="8.2379127502441406e+01"/>
          <Range Index="6" Min="4.3906091308593750e+02" Max="6.7277429199218750e+02"/>
          <Range Index="7" Min="2.0000000298023224e-01" Max="5.8823531866073608e-01"/>
          <Range Index="8" Min="0.0000000000000000e+00" Max="4.0000000596046448e-01"/>
          <Range Index="9" Min="1.0000000000000000e+00" Max="2.9473683834075928e+00"/>
        </Ranges>
      </Class>
      <Class ClassIndex="1">
        <Ranges>
          <Range Index="0" Min="1.6000000000000000e+01" Max="8.3000000000000000e+01"/>
          <Range Index="1" Min="8.0392158031463623e-01" Max="1.0000000000000000e+00"/>
          <Range Index="2" Min="-3.0829900741577148e+01" Max="0.0000000000000000e+00"/>
          <Range Index="3" Min="6.1344180256128311e-02" Max="4.0317004919052124e-01"/>
          <Range Index="4" Min="3.3700183033943176e-01" Max="2.6669855117797852e+00"/>
          <Range Index="5" Min="-1.0471044921875000e+02" Max="9.6396224975585938e+01"/>
          <Range Index="6" Min="4.3850595092773438e+02" Max="6.7441082763671875e+02"/>
          <Range Index="7" Min="1.7857143282890320e-01" Max="5.3846156597137451e-01"/>
          <Range Index="8" Min="0.0000000000000000e+00" Max="4.1935482621192932e-01"/>
          <Range Index="9" Min="1.0000000000000000e+00" Max="2.1904761791229248e+00"/>
        </Ranges>
      </Class>
      <Class ClassIndex="2">
        <Ranges>
          <Range Index="0" Min="1.5000000000000000e+01" Max="8.3000000000000000e+01"/>
          <Range Index="1" Min="6.8750000000000000e-01" Max="1.0000000000000000e+00"/>
          <Range Index="2" Min="-3.7319583892822266e+01" Max="0.0000000000000000e+00"/>
          <Range Index="3" Min="6.1344180256128311e-02" Max="1.5796532630920410e+00"/>
          <Range Index="4" Min="3.3700183033943176e-01" Max="2.7542750835418701e+00"/>
          <Range Index="5" Min="-3.7818920898437500e+02" Max="9.6396224975585938e+01"/>
          <Range Index="6" Min="4.3850595092773438e+02" Max="6.7441082763671875e+02"/>
          <Range Index="7" Min="1.7857143282890320e-01" Max="5.8823531866073608e-01"/>
          <Range Index="8" Min="0.0000000000000000e+00" Max="4.1935482621192932e-01"/>
          <Range Index="9" Min="1.0000000000000000e+00" Max="2.9473683834075928e+00"/>
        </Ranges>
      </Class>
    </Transform>
  </Transformations>
  <MVAPdfs/>
  <Weights>
    <Layout NLayers="4">
      <Layer Index="0" NNeurons="11">
        <Neuron NSynapses="10">
          -1.8845895993690440e-01 2.0126656383595591e+00 -6.8820483557700041e-01 7.1940713740558460e-01 -1.5251683272860397e+00 -1.2845922305520054e+00 -7.7290695914131480e-01 2.2582515701959034e+00 -3.2102035959912772e-01 -2.0068278388772591e+00 
        </Neuron>
        <Neuron NSynapses="10">
          -1.6680225257273980e+00 -4.2897282716462870e-01 -1.5268261898449087e+00 1.1731709994423463e-01 -8.0866042851725228e-01 8.6502118656088578e-01 -4.5021415989782398e-01 2.0070589719488865e+00 4.1166876911104128e-01 8.7674685031097502e-02 
        </Neuron>
        <Neuron NSynapses="10">
          -3.4540604273231745e-01 -7.8518289888649073e-01 2.3035472362017353e-01 7.3728835947849214e-01 -1.2557425607686388e+00 1.1664373158369938e-01 1.6861638585566125e+00 -5.7472136339621460e-01 -1.6031258834370492e+00 -1.2826015301274425e+00 
        </Neuron>
        <Neuron NSynapses="10">
          8.1423804487664708e-01 1.6475221677431771e+00 -7.2585088899051270e-02 -1.0640006756395746e+00 6.9668628579136760e-01 -4.5856620249603974e-01 -1.5231182859886219e+00 1.3493918388881077e+00 -1.5761209632919544e+00 1.9448888164673248e+00 
        </Neuron>
        <Neuron NSynapses="10">
          1.2878719609171305e+00 8.6232582798800006e-01 1.1562584474713982e+00 9.7048171694601892e-01 -5.9528143885075302e-01 -1.6785227736967097e+00 1.0181942253988079e+00 -3.5091816012141885e-01 1.2940828391395642e+00 1.2777478591542462e+00 
        </Neuron>
        <Neuron NSynapses="10">
          1.5168202149569130e+00 1.3033182599393254e+00 -1.5964821023374676e+00 1.1067713423926155e+00 -1.9929004202581271e+00 -8.8513175404825428e-01 -1.2973634404526633e+00 -1.4763659979149661e+00 1.7896731623758000e+00 2.1029725304619740e-01 
        </Neuron>
        <Neuron NSynapses="10">
          -1.6151520404639192e+00 3.7266910078048504e-01 4.6556912974548509e-01 5.5701745677237924e-01 1.7883338152752468e+00 -6.5817373050312533e-01 -1.7181139250461391e-01 -1.1265989100761089e+00 5.1367587698805728e-01 -1.0170535008973250e-01 
        </Neuron>
        <Neuron NSynapses="10">
          -7.4505925215918756e-01 -1.4379973766488647e+00 6.0842501138910621e-01 1.1456153306820687e+00 1.3421196516879041e+00 -3.0972842973717563e-01 -1.6277406941861996e+00 -1.7252370569970243e+00 1.1536756177573455e+00 4.8203933824460192e-02 
        </Neuron>
        <Neuron NSynapses="10">
          1.9667419759444704e+00 6.4712658388427635e-01 1.3937066264783038e+00 -9.8366159108504847e-01 -8.5482680500469921e-01 -4.1085176442606347e-01 1.0588935100659600e+00 -1.2891241732216498e+00 -1.6821006321986849e+00 -8.2868485919045176e-01 
        </Neuron>
        <Neuron NSynapses="10">
          -1.0028090004806410e-01 -1.0634143389149485e-01 1.2711609225869567e+00 -1.3590219881401264e+00 -7.3880508812478929e-01 1.4119941081302154e+00 -5.7805419777389144e-01 -1.8455950423814902e+00 -1.5108813273108594e+00 3.7557411629028709e-01 
        </Neuron>
        <Neuron NSynapses="10">
          -2.0936550412515684e+00 -1.7020017335736652e+00 2.3293533202222969e+00 2.8518809483081755e+00 -1.7605005367318987e+00 1.6304130562667762e+00 -1.1405781549559864e+00 -6.3871637702143369e-01 -5.3486999157318005e-01 1.1719013780103060e+00 
        </Neuron>
      </Layer>
      <Layer Index="1" NNeurons="11">
        <Neuron NSynapses="9">
          -1.8334590856988715e+00 2.6426047201404446e-01 2.8898445533365619e-01 3.8409980049660858e-01 -1.4822163007693383e+00 1.6528101073843031e+00 3.8591581541208747e-01 -9.1475715248327716e-01 7.9993335034443691e-01 
        </Neuron>
        <Neuron NSynapses="9">
          -1.0956488582645334e+00 -1.5804683547211973e+00 1.4336598535117784e-01 -3.3270355171857857e-01 1.8168118982354711e+00 6.7687106468350067e-01 -4.9161728359541947e-02 -3.4606361032540817e-01 1.6177732383164883e-01 
        </Neuron>
        <Neuron NSynapses="9">
          -2.1329389315103775e+00 1.0706221622895558e+00 3.0959712821459950e-01 -1.3669496430550885e+00 7.4880843394148000e-01 -2.7801406155864163e+00 -5.0635488722877119e-02 1.1857213734402086e+00 1.7719024345918879e+00 
        </Neuron>
        <Neuron NSynapses="9">
          -1.9613960313201395e+00 1.5213618750431140e-01 1.3792542930793470e+00 1.8788011646825502e+00 -1.7222395087000186e-01 -1.7052269430641942e+00 -2.1488169213374272e-01 -1.4056733304642328e+00 1.4825144467857430e+00 
        </Neuron>
        <Neuron NSynapses="9">
          8.6940431464636170e-01 -4.4248210171929647e-01 -2.1724738408473274e-01 6.7779525242759919e-01 -9.9166624000845438e-01 -3.3261915402142295e-01 1.5252015934356971e+00 -6.6561380660483893e-01 -6.0035060118498473e-01 
        </Neuron>
        <Neuron NSynapses="9">
          -1.0300823431598416e-02 8.0816590468129157e-01 5.3753798314125667e-01 1.6238555013211105e+00 -1.5475286788061464e+00 9.9168651671418595e-01 6.5649494455359059e-01 4.2321752650432010e-01 5.2069029417878132e-01 
        </Neuron>
        <Neuron NSynapses="9">
          9.9881711484674218e-01 -7.8737968487610244e-01 -7.4905150651969754e-01 1.4953909227905757e+00 -1.1401746689533017e+00 -9.6549022008981286e-02 1.6617276176203304e+00 9.6520497004703931e-01 -3.4442694849614641e-01 
        </Neuron>
        <Neuron NSynapses="9">
          1.4404218489420784e+00 1.8647488629807611e+00 -1.9358372476101742e+00 6.0940983009474048e-01 5.8598328042979925e-03 6.1699687108683199e-01 -1.8524989581387146e+00 -1.5851877875950244e+00 1.1308843218653666e+00 
        </Neuron>
        <Neuron NSynapses="9">
          1.7535493665208950e+00 -1.9376901544282821e+00 -3.5947101726995417e-01 -1.3930819912675638e-01 1.4876981752734703e-01 1.5457060542810224e+00 -4.6000685487754600e-01 -4.8000915834149976e-01 -1.1225188246417150e+00 
        </Neuron>
        <Neuron NSynapses="9">
          6.3928385004531951e-01 1.5403368199077805e+00 1.2265571536707829e+00 4.8728625564272127e-01 -8.6007510022569500e-01 -3.2956671488998728e+00 1.0559178325004117e+00 5.0153115162753437e-01 -1.4143070905542707e+00 
        </Neuron>
        <Neuron NSynapses="9">
          -9.4768302484574696e-01 1.2851543145459227e-01 6.1113218992614189e-02 -1.2753587330558169e+00 1.4306251186122749e+00 2.6198135328147504e-01 -6.6300211127368791e-01 -1.7495199352436624e-01 1.5546274119723855e+00 
        </Neuron>
      </Layer>
      <Layer Index="2" NNeurons="10">
        <Neuron NSynapses="1">
          3.5437423965527770e-01 
        </Neuron>
        <Neuron NSynapses="1">
          -5.3367764814142771e-01 
        </Neuron>
        <Neuron NSynapses="1">
          -2.0654857420597256e-01 
        </Neuron>
        <Neuron NSynapses="1">
          -1.7288625572831353e+00 
        </Neuron>
        <Neuron NSynapses="1">
          -7.0309038247787947e-01 
        </Neuron>
        <Neuron NSynapses="1">
          2.1925840203091704e+00 
        </Neuron>
        <Neuron NSynapses="1">
          8.2332737565161063e-01 
        </Neuron>
        <Neuron NSynapses="1">
          2.8972777644348180e-01 
        </Neuron>
        <Neuron NSynapses="1">
          -1.2987652576613956e-01 
        </Neuron>
        <Neuron NSynapses="1">
          1.5696572587223856e+00 
        </Neuron>
      </Layer>
      <Layer Index="3" NNeurons="1">
        <Neuron NSynapses="0"/>
      </Layer>
    </Layout>
  </Weights>
</MethodSetup>
