<?xml version="1.0"?>
<MethodSetup Method="MLP::MLP">
  <GeneralInfo>
    <Info name="TMVA Release" value="4.2.1 [262657]"/>
    <Info name="ROOT Release" value="6.08/04 [395268]"/>
    <Info name="Creator" value="lvinas"/>
    <Info name="Date" value="Fri Oct 12 11:54:29 2018"/>
    <Info name="Host" value="Linux buildservice004.fnal.gov 2.6.32-642.13.1.el6.x86_64 #1 SMP Tue Jan 10 11:22:50 CST 2017 x86_64 x86_64 x86_64 GNU/Linux"/>
    <Info name="Dir" value="/home/online1/lvinas/trkqual-project"/>
    <Info name="Training events" value="8936"/>
    <Info name="TrainingTime" value="3.00310621e+02"/>
    <Info name="AnalysisType" value="Classification"/>
  </GeneralInfo>
  <Options>
    <Option name="NCycles" modified="No">500</Option>
    <Option name="HiddenLayers" modified="No">N,N-1</Option>
    <Option name="NeuronType" modified="No">sigmoid</Option>
    <Option name="RandomSeed" modified="No">1</Option>
    <Option name="EstimatorType" modified="No">CE</Option>
    <Option name="NeuronInputType" modified="No">sum</Option>
    <Option name="V" modified="Yes">False</Option>
    <Option name="VerbosityLevel" modified="No">Default</Option>
    <Option name="VarTransform" modified="Yes">N</Option>
    <Option name="H" modified="Yes">False</Option>
    <Option name="CreateMVAPdfs" modified="No">False</Option>
    <Option name="IgnoreNegWeightsInTraining" modified="No">False</Option>
    <Option name="TrainingMethod" modified="No">BP</Option>
    <Option name="LearningRate" modified="No">2.000000e-02</Option>
    <Option name="DecayRate" modified="No">1.000000e-02</Option>
    <Option name="TestRate" modified="No">10</Option>
    <Option name="EpochMonitoring" modified="No">False</Option>
    <Option name="Sampling" modified="No">1.000000e+00</Option>
    <Option name="SamplingEpoch" modified="No">1.000000e+00</Option>
    <Option name="SamplingImportance" modified="No">1.000000e+00</Option>
    <Option name="SamplingTraining" modified="No">True</Option>
    <Option name="SamplingTesting" modified="No">False</Option>
    <Option name="ResetStep" modified="No">50</Option>
    <Option name="Tau" modified="No">3.000000e+00</Option>
    <Option name="BPMode" modified="No">sequential</Option>
    <Option name="BatchSize" modified="No">-1</Option>
    <Option name="ConvergenceImprove" modified="No">1.000000e-30</Option>
    <Option name="ConvergenceTests" modified="No">-1</Option>
    <Option name="UseRegulator" modified="No">False</Option>
    <Option name="UpdateLimit" modified="No">10000</Option>
    <Option name="CalculateErrors" modified="No">False</Option>
    <Option name="WeightRange" modified="No">1.000000e+00</Option>
  </Options>
  <Variables NVar="10">
    <Variable VarIndex="0" Expression="detrkqual.NActiveHits" Label="detrkqual.NActiveHits" Title="NActive" Unit="Count" Internal="detrkqual.NActiveHits" Type="D" Min="1.50000000e+01" Max="7.80000000e+01"/>
    <Variable VarIndex="1" Expression="detrkqual.ActiveHitFraction" Label="detrkqual.ActiveHitFraction" Title="FActive" Unit="Fraction" Internal="detrkqual.ActiveHitFraction" Type="D" Min="3.91304344e-01" Max="1.00000000e+00"/>
    <Variable VarIndex="2" Expression="detrkqual.Log10FitCon" Label="detrkqual.Log10FitCon" Title="LogFitCon" Unit="Probability" Internal="detrkqual.Log10FitCon" Type="D" Min="-5.00000000e+01" Max="-3.10631748e-07"/>
    <Variable VarIndex="3" Expression="detrkqual.MomError" Label="detrkqual.MomError" Title="FitMomErr" Unit="MeV/c" Internal="detrkqual.MomError" Type="D" Min="5.83206713e-02" Max="2.20222187e+00"/>
    <Variable VarIndex="4" Expression="detrkqual.T0Error" Label="detrkqual.T0Error" Title="T0Err" Unit="nsec" Internal="detrkqual.T0Error" Type="D" Min="3.13314945e-01" Max="6.75369072e+00"/>
    <Variable VarIndex="5" Expression="detrkqual.d0" Label="detrkqual.d0" Title="D0" Unit="mm" Internal="detrkqual.d0" Type="D" Min="-2.23350204e+02" Max="1.11416824e+02"/>
    <Variable VarIndex="6" Expression="detrkqual.MaxRadius" Label="detrkqual.MaxRadius" Title="MaxRadius" Unit="mm" Internal="detrkqual.MaxRadius" Type="D" Min="4.14828735e+02" Max="6.71354370e+02"/>
    <Variable VarIndex="7" Expression="detrkqual.DoubleHitFraction" Label="detrkqual.DoubleHitFraction" Title="DoubleHitFraction" Unit="Fraction" Internal="detrkqual.DoubleHitFraction" Type="D" Min="1.11111112e-01" Max="1.00000000e+00"/>
    <Variable VarIndex="8" Expression="detrkqual.NullAmbigHitFraction" Label="detrkqual.NullAmbigHitFraction" Title="NullHitFraction" Unit="Fraction" Internal="detrkqual.NullAmbigHitFraction" Type="D" Min="0.00000000e+00" Max="5.00000000e-01"/>
    <Variable VarIndex="9" Expression="detrkqual.StrawHitFraction" Label="detrkqual.StrawHitFraction" Title="MatFraction" Unit="Fraction" Internal="detrkqual.StrawHitFraction" Type="D" Min="9.52380955e-01" Max="3.37500000e+00"/>
  </Variables>
  <Spectators NSpec="0"/>
  <Classes NClass="2">
    <Class Name="Background" Index="0"/>
    <Class Name="Signal" Index="1"/>
  </Classes>
  <Transformations NTransformations="1">
    <Transform Name="Normalize">
      <Selection>
        <Input NInputs="10">
          <Input Type="Variable" Label="detrkqual.NActiveHits" Expression="detrkqual.NActiveHits"/>
          <Input Type="Variable" Label="detrkqual.ActiveHitFraction" Expression="detrkqual.ActiveHitFraction"/>
          <Input Type="Variable" Label="detrkqual.Log10FitCon" Expression="detrkqual.Log10FitCon"/>
          <Input Type="Variable" Label="detrkqual.MomError" Expression="detrkqual.MomError"/>
          <Input Type="Variable" Label="detrkqual.T0Error" Expression="detrkqual.T0Error"/>
          <Input Type="Variable" Label="detrkqual.d0" Expression="detrkqual.d0"/>
          <Input Type="Variable" Label="detrkqual.MaxRadius" Expression="detrkqual.MaxRadius"/>
          <Input Type="Variable" Label="detrkqual.DoubleHitFraction" Expression="detrkqual.DoubleHitFraction"/>
          <Input Type="Variable" Label="detrkqual.NullAmbigHitFraction" Expression="detrkqual.NullAmbigHitFraction"/>
          <Input Type="Variable" Label="detrkqual.StrawHitFraction" Expression="detrkqual.StrawHitFraction"/>
        </Input>
        <Output NOutputs="10">
          <Output Type="Variable" Label="detrkqual.NActiveHits" Expression="detrkqual.NActiveHits"/>
          <Output Type="Variable" Label="detrkqual.ActiveHitFraction" Expression="detrkqual.ActiveHitFraction"/>
          <Output Type="Variable" Label="detrkqual.Log10FitCon" Expression="detrkqual.Log10FitCon"/>
          <Output Type="Variable" Label="detrkqual.MomError" Expression="detrkqual.MomError"/>
          <Output Type="Variable" Label="detrkqual.T0Error" Expression="detrkqual.T0Error"/>
          <Output Type="Variable" Label="detrkqual.d0" Expression="detrkqual.d0"/>
          <Output Type="Variable" Label="detrkqual.MaxRadius" Expression="detrkqual.MaxRadius"/>
          <Output Type="Variable" Label="detrkqual.DoubleHitFraction" Expression="detrkqual.DoubleHitFraction"/>
          <Output Type="Variable" Label="detrkqual.NullAmbigHitFraction" Expression="detrkqual.NullAmbigHitFraction"/>
          <Output Type="Variable" Label="detrkqual.StrawHitFraction" Expression="detrkqual.StrawHitFraction"/>
        </Output>
      </Selection>
      <Class ClassIndex="0">
        <Ranges>
          <Range Index="0" Min="1.5000000000000000e+01" Max="6.6000000000000000e+01"/>
          <Range Index="1" Min="3.9130434393882751e-01" Max="1.0000000000000000e+00"/>
          <Range Index="2" Min="-5.0000000000000000e+01" Max="-6.0551501519512385e-05"/>
          <Range Index="3" Min="8.3690531551837921e-02" Max="2.2022218704223633e+00"/>
          <Range Index="4" Min="4.4025340676307678e-01" Max="6.7536907196044922e+00"/>
          <Range Index="5" Min="-2.2335020446777344e+02" Max="8.3463981628417969e+01"/>
          <Range Index="6" Min="4.1482873535156250e+02" Max="6.7135437011718750e+02"/>
          <Range Index="7" Min="1.1111111193895340e-01" Max="1.0000000000000000e+00"/>
          <Range Index="8" Min="0.0000000000000000e+00" Max="5.0000000000000000e-01"/>
          <Range Index="9" Min="1.0000000000000000e+00" Max="3.3750000000000000e+00"/>
        </Ranges>
      </Class>
      <Class ClassIndex="1">
        <Ranges>
          <Range Index="0" Min="1.6000000000000000e+01" Max="7.8000000000000000e+01"/>
          <Range Index="1" Min="6.0714286565780640e-01" Max="1.0000000000000000e+00"/>
          <Range Index="2" Min="-5.0000000000000000e+01" Max="-3.1063174787959724e-07"/>
          <Range Index="3" Min="5.8320671319961548e-02" Max="3.6525675654411316e-01"/>
          <Range Index="4" Min="3.1331494450569153e-01" Max="2.3631467819213867e+00"/>
          <Range Index="5" Min="-1.0128401947021484e+02" Max="1.1141682434082031e+02"/>
          <Range Index="6" Min="4.3471926879882812e+02" Max="6.7130151367187500e+02"/>
          <Range Index="7" Min="4.2105263471603394e-01" Max="1.0000000000000000e+00"/>
          <Range Index="8" Min="0.0000000000000000e+00" Max="3.3333334326744080e-01"/>
          <Range Index="9" Min="9.5238095521926880e-01" Max="2.1428570747375488e+00"/>
        </Ranges>
      </Class>
      <Class ClassIndex="2">
        <Ranges>
          <Range Index="0" Min="1.5000000000000000e+01" Max="7.8000000000000000e+01"/>
          <Range Index="1" Min="3.9130434393882751e-01" Max="1.0000000000000000e+00"/>
          <Range Index="2" Min="-5.0000000000000000e+01" Max="-3.1063174787959724e-07"/>
          <Range Index="3" Min="5.8320671319961548e-02" Max="2.2022218704223633e+00"/>
          <Range Index="4" Min="3.1331494450569153e-01" Max="6.7536907196044922e+00"/>
          <Range Index="5" Min="-2.2335020446777344e+02" Max="1.1141682434082031e+02"/>
          <Range Index="6" Min="4.1482873535156250e+02" Max="6.7135437011718750e+02"/>
          <Range Index="7" Min="1.1111111193895340e-01" Max="1.0000000000000000e+00"/>
          <Range Index="8" Min="0.0000000000000000e+00" Max="5.0000000000000000e-01"/>
          <Range Index="9" Min="9.5238095521926880e-01" Max="3.3750000000000000e+00"/>
        </Ranges>
      </Class>
    </Transform>
  </Transformations>
  <MVAPdfs/>
  <Weights>
    <Layout NLayers="4">
      <Layer Index="0" NNeurons="11">
        <Neuron NSynapses="10">
          -2.5369405530358230e-01 1.9892431930340839e+00 4.5506481642519020e-01 9.1356769412058370e-01 -5.4451064574441921e-01 -7.0212856321214911e-01 -7.0347996722655115e-01 1.2642824954849570e+00 -1.2034129760459229e+00 -8.1608104290856598e-01 
        </Neuron>
        <Neuron NSynapses="10">
          -1.6978537090179933e+00 -4.2556367864621153e-01 -5.8978251016373828e-01 -1.5934064229242928e-01 -6.8566810614414564e-01 2.0166696840355085e-02 -1.5333429810988419e+00 5.3921607989344944e-01 1.6420710564445401e-01 -4.9829672176607437e-01 
        </Neuron>
        <Neuron NSynapses="10">
          -4.7607293119092914e-01 -7.2441998811606478e-01 -7.2603034882868311e-01 7.4308017602193810e-01 -1.1131723880147402e+00 -6.3227740206704608e-01 2.6926023948248518e-01 2.5018823192874882e+00 -5.8158313326233772e-03 -1.2702920502409213e-02 
        </Neuron>
        <Neuron NSynapses="10">
          7.4390112034207101e-01 1.6788656794775705e+00 4.6190678963063361e+00 -8.4770826795312737e-01 -1.0936707248475122e+00 2.7572321236632197e-01 -3.8544387443650319e-01 3.6681948742934273e-01 -2.9209392649516572e+00 5.7105078169900922e+00 
        </Neuron>
        <Neuron NSynapses="10">
          1.2539846075407852e+00 8.8553791887409095e-01 3.1964474615243375e+00 5.7760664512431237e-01 -1.8078649461064009e+00 -1.2416505031677905e+00 1.3365939771284687e+00 1.7406367692702934e-01 8.3922521076396916e-01 2.7398201393167745e+00 
        </Neuron>
        <Neuron NSynapses="10">
          1.5391691325031494e+00 1.3010265424943313e+00 -4.7781812213387358e+00 1.0372383525214139e+00 -2.2893636547420941e+00 -3.7388928965623774e-01 -1.9384089054792950e+00 -1.2363334766626805e-01 4.5032993095854685e+00 5.8358608075983998e-01 
        </Neuron>
        <Neuron NSynapses="10">
          -1.6163445592754508e+00 3.5318396882672826e-01 3.7006101612229281e+00 2.8727848035949111e-01 2.8467465624116768e+00 1.3850347779417496e+00 1.2795240392088907e+00 -7.0351914126799353e-01 -2.1102531403104979e-01 3.0289014252972368e-01 
        </Neuron>
        <Neuron NSynapses="10">
          -7.6445828084293510e-01 -1.4419085353319503e+00 -4.7188004978785031e-01 1.7035236144242361e+00 1.3831527684861871e+00 -1.1957842844095223e+00 -1.0800308388533690e+00 -1.1545581510600444e+00 1.1476361894140972e+00 1.1155119362443617e+00 
        </Neuron>
        <Neuron NSynapses="10">
          1.9604179468165248e+00 6.5039048535912225e-01 -2.8421104378983125e-01 -1.0076913180862224e+00 -2.2387598028182487e+00 -9.2286768906083760e-01 1.0056126159934435e+00 -2.5692294886492223e-01 -1.9464412393718419e-01 -5.8207777739942856e-01 
        </Neuron>
        <Neuron NSynapses="10">
          -1.3849574465801059e-01 -8.1679120044573589e-02 -3.4701358523269604e-01 -2.1565372665592037e+00 -1.1923111902809320e+00 3.1173863716515586e+00 -5.0865772924731635e-02 -4.8735412059271761e+00 -1.9593773297487482e+00 -9.7023580190051062e-01 
        </Neuron>
        <Neuron NSynapses="10">
          -2.0284029480525327e+00 -1.7006801095393422e+00 6.9059688413090283e+00 2.7224454136252474e+00 -3.1611975096930456e+00 1.5357936704193198e+00 -5.7246060826610612e-01 -6.0268600427104442e+00 -3.6831263235737759e+00 5.3674932322006015e+00 
        </Neuron>
      </Layer>
      <Layer Index="1" NNeurons="11">
        <Neuron NSynapses="9">
          -1.8403121804312010e+00 2.2335076855297784e-01 3.1585039969974682e-01 4.8135136151622754e-01 -1.3918579196959362e+00 1.7085348167940644e+00 3.3294926610317349e-01 -9.8467656304565021e-01 8.0194812428372286e-01 
        </Neuron>
        <Neuron NSynapses="9">
          -1.0596349763237727e+00 -1.5803307032237244e+00 1.2004483444813377e-01 -3.3063157654395275e-01 1.7984055062964412e+00 7.8715086713003068e-01 -2.5079712005249180e-02 -3.3656703689666706e-01 1.6131556478875295e-01 
        </Neuron>
        <Neuron NSynapses="9">
          -4.2970250181699923e+00 2.8624698905271586e+00 1.8704093302845985e+00 1.2407162867949657e+00 1.7044618714748556e+00 -4.3384382238030952e+00 8.3212698428175269e-01 2.3515507538276306e+00 1.9460206344187374e+00 
        </Neuron>
        <Neuron NSynapses="9">
          -2.2690599422241360e+00 -2.5270213542021080e-01 1.5916148930284837e+00 1.1918544110599500e+00 1.1339132636059030e-02 -2.4035941505230696e+00 -4.4186306886177840e-01 -1.1711122993825964e+00 1.0456470983249588e+00 
        </Neuron>
        <Neuron NSynapses="9">
          2.6449923711130214e+00 1.4305666025842129e-01 -1.0190734730344522e+00 9.8505415820109654e-01 -1.1259525529812311e+00 2.6403918131884536e+00 1.5509890416573469e+00 1.8117166232432153e-01 -9.2514923956576189e-01 
        </Neuron>
        <Neuron NSynapses="9">
          -1.2302371574089632e+00 8.8729046787980015e-01 1.6010859443901746e+00 7.2930693701032967e-01 -1.4443231425537513e+00 2.8169064462915157e+00 2.1498505406562443e-01 3.9123832456394325e-01 2.8018825926181201e-01 
        </Neuron>
        <Neuron NSynapses="9">
          4.2970244963353316e-01 -6.1085366902546478e-01 -4.2595519703705276e-01 1.8447342782826543e+00 -5.9758644644757808e-01 -9.9757158010224822e-01 1.5509277358711437e+00 1.0132289072009668e+00 -2.7853643659984995e-01 
        </Neuron>
        <Neuron NSynapses="9">
          3.4835762996760917e+00 9.5952613045123758e-01 -3.0131049147619851e+00 -4.0322171644464333e-01 -6.4533329650175719e-01 1.2712311558169602e+00 -1.9943848656967014e+00 -1.3125160318567164e+00 7.3152466664771298e-01 
        </Neuron>
        <Neuron NSynapses="9">
          2.3937062845351909e+00 -3.0719404441172675e+00 -1.1897738179021371e+00 -2.2205813368781979e+00 -2.8012241754727502e-01 1.9105826483831090e+00 -8.9280895557541973e-01 -7.3533247107235700e-01 -1.5765983474124501e+00 
        </Neuron>
        <Neuron NSynapses="9">
          -4.0932707987731409e-01 2.2234384337378086e+00 2.0087185461567088e+00 2.0458483448454614e+00 -2.4074580376745322e-01 -4.6512199547289557e+00 1.7515963290250325e+00 1.2240257839352262e+00 -1.3588705911787624e+00 
        </Neuron>
        <Neuron NSynapses="9">
          -1.2521014126411956e+00 -3.0725219859235370e-01 2.5386016785861909e-01 -2.1959197306737268e+00 1.4819592542876978e+00 -3.4192582694723206e-01 -8.4155111773598412e-01 1.0014140695205125e-01 1.1226940838143271e+00 
        </Neuron>
      </Layer>
      <Layer Index="2" NNeurons="10">
        <Neuron NSynapses="1">
          5.7160547309277998e+00 
        </Neuron>
        <Neuron NSynapses="1">
          -3.0916625311911883e+00 
        </Neuron>
        <Neuron NSynapses="1">
          -3.6040607409738175e+00 
        </Neuron>
        <Neuron NSynapses="1">
          -3.0700452610776514e+00 
        </Neuron>
        <Neuron NSynapses="1">
          -1.0073788530861780e+00 
        </Neuron>
        <Neuron NSynapses="1">
          7.0009317928498787e+00 
        </Neuron>
        <Neuron NSynapses="1">
          -1.8411658889172933e+00 
        </Neuron>
        <Neuron NSynapses="1">
          -2.2074634846581889e+00 
        </Neuron>
        <Neuron NSynapses="1">
          -4.4331920969965599e-01 
        </Neuron>
        <Neuron NSynapses="1">
          1.6916216460465272e+00 
        </Neuron>
      </Layer>
      <Layer Index="3" NNeurons="1">
        <Neuron NSynapses="0"/>
      </Layer>
    </Layout>
  </Weights>
</MethodSetup>
