<?xml version="1.0"?>
<MethodSetup Method="MLP::MLP">
  <GeneralInfo>
    <Info name="TMVA Release" value="4.2.0 [262656]"/>
    <Info name="ROOT Release" value="5.34/32 [336416]"/>
    <Info name="Creator" value="murat"/>
    <Info name="Date" value="Fri Jul 15 09:18:09 2016"/>
    <Info name="Host" value="Linux buildservice003.fnal.gov 2.6.18-406.el5 #1 SMP Tue Jun 2 11:24:48 CDT 2015 x86_64 x86_64 x86_64 GNU/Linux"/>
    <Info name="Dir" value="/mu2e/app/users/murat/dev2"/>
    <Info name="Training events" value="13000"/>
    <Info name="TrainingTime" value="6.50496051e+02"/>
    <Info name="AnalysisType" value="Classification"/>
  </GeneralInfo>
  <Options>
    <Option name="NCycles" modified="No">500</Option>
    <Option name="HiddenLayers" modified="No">N,N-1</Option>
    <Option name="NeuronType" modified="No">sigmoid</Option>
    <Option name="RandomSeed" modified="No">1</Option>
    <Option name="EstimatorType" modified="No">MSE</Option>
    <Option name="NeuronInputType" modified="No">sum</Option>
    <Option name="V" modified="Yes">False</Option>
    <Option name="VerbosityLevel" modified="No">Default</Option>
    <Option name="VarTransform" modified="Yes">N</Option>
    <Option name="H" modified="Yes">False</Option>
    <Option name="CreateMVAPdfs" modified="No">False</Option>
    <Option name="IgnoreNegWeightsInTraining" modified="No">False</Option>
    <Option name="TrainingMethod" modified="No">BP</Option>
    <Option name="LearningRate" modified="No">2.000000e-02</Option>
    <Option name="DecayRate" modified="No">1.000000e-02</Option>
    <Option name="TestRate" modified="No">10</Option>
    <Option name="EpochMonitoring" modified="No">False</Option>
    <Option name="Sampling" modified="No">1.000000e+00</Option>
    <Option name="SamplingEpoch" modified="No">1.000000e+00</Option>
    <Option name="SamplingImportance" modified="No">1.000000e+00</Option>
    <Option name="SamplingTraining" modified="No">True</Option>
    <Option name="SamplingTesting" modified="No">False</Option>
    <Option name="ResetStep" modified="No">50</Option>
    <Option name="Tau" modified="No">3.000000e+00</Option>
    <Option name="BPMode" modified="No">sequential</Option>
    <Option name="BatchSize" modified="No">-1</Option>
    <Option name="ConvergenceImprove" modified="No">1.000000e-30</Option>
    <Option name="ConvergenceTests" modified="No">-1</Option>
    <Option name="UseRegulator" modified="No">False</Option>
    <Option name="UpdateLimit" modified="No">10000</Option>
    <Option name="CalculateErrors" modified="No">False</Option>
    <Option name="WeightRange" modified="No">1.000000e+00</Option>
  </Options>
  <Variables NVar="10">
    <Variable VarIndex="0" Expression="nactive" Label="nactive" Title="NActive" Unit="Count" Internal="nactive" Type="F" Min="1.50000000e+01" Max="8.20000000e+01"/>
    <Variable VarIndex="1" Expression="nafract" Label="nafract" Title="FActive" Unit="Fraction" Internal="nafract" Type="F" Min="5.94594598e-01" Max="1.00000000e+00"/>
    <Variable VarIndex="2" Expression="log10(fcons)" Label="log10(fcons)" Title="LogFitCon" Unit="Probability" Internal="log10_fcons_" Type="F" Min="-4.39503784e+01" Max="0.00000000e+00"/>
    <Variable VarIndex="3" Expression="momerr" Label="momerr" Title="FitMomErr" Unit="MeV/c" Internal="momerr" Type="F" Min="6.34735897e-02" Max="9.52081800e-01"/>
    <Variable VarIndex="4" Expression="t0err" Label="t0err" Title="T0Err" Unit="nsec" Internal="t0err" Type="F" Min="3.33032250e-01" Max="3.62649298e+00"/>
    <Variable VarIndex="5" Expression="d0" Label="d0" Title="D0" Unit="mm" Internal="d0" Type="F" Min="-1.76559326e+02" Max="1.12220871e+02"/>
    <Variable VarIndex="6" Expression="rmax" Label="rmax" Title="MaxRadius" Unit="mm" Internal="rmax" Type="F" Min="4.27422119e+02" Max="6.69340637e+02"/>
    <Variable VarIndex="7" Expression="nda_o_na" Label="nda_o_na" Title="DoubleHitFraction" Unit="Fraction" Internal="nda_o_na" Type="F" Min="1.36363640e-01" Max="5.00000000e-01"/>
    <Variable VarIndex="8" Expression="nza_o_na" Label="nza_o_na" Title="NullHitFraction" Unit="Fraction" Internal="nza_o_na" Type="F" Min="0.00000000e+00" Max="5.23809552e-01"/>
    <Variable VarIndex="9" Expression="nma_o_na" Label="nma_o_na" Title="MatFraction" Unit="Fraction" Internal="nma_o_na" Type="F" Min="1.00000000e+00" Max="3.70588231e+00"/>
  </Variables>
  <Spectators NSpec="0"/>
  <Classes NClass="2">
    <Class Name="Background" Index="0"/>
    <Class Name="Signal" Index="1"/>
  </Classes>
  <Transformations NTransformations="1">
    <Transform Name="Normalize">
      <Selection>
        <Input NInputs="10">
          <Input Type="Variable" Label="nactive" Expression="nactive"/>
          <Input Type="Variable" Label="nafract" Expression="nafract"/>
          <Input Type="Variable" Label="log10(fcons)" Expression="log10(fcons)"/>
          <Input Type="Variable" Label="momerr" Expression="momerr"/>
          <Input Type="Variable" Label="t0err" Expression="t0err"/>
          <Input Type="Variable" Label="d0" Expression="d0"/>
          <Input Type="Variable" Label="rmax" Expression="rmax"/>
          <Input Type="Variable" Label="nda_o_na" Expression="nda_o_na"/>
          <Input Type="Variable" Label="nza_o_na" Expression="nza_o_na"/>
          <Input Type="Variable" Label="nma_o_na" Expression="nma_o_na"/>
        </Input>
        <Output NOutputs="10">
          <Output Type="Variable" Label="nactive" Expression="nactive"/>
          <Output Type="Variable" Label="nafract" Expression="nafract"/>
          <Output Type="Variable" Label="log10(fcons)" Expression="log10(fcons)"/>
          <Output Type="Variable" Label="momerr" Expression="momerr"/>
          <Output Type="Variable" Label="t0err" Expression="t0err"/>
          <Output Type="Variable" Label="d0" Expression="d0"/>
          <Output Type="Variable" Label="rmax" Expression="rmax"/>
          <Output Type="Variable" Label="nda_o_na" Expression="nda_o_na"/>
          <Output Type="Variable" Label="nza_o_na" Expression="nza_o_na"/>
          <Output Type="Variable" Label="nma_o_na" Expression="nma_o_na"/>
        </Output>
      </Selection>
      <Class ClassIndex="0">
        <Ranges>
          <Range Index="0" Min="1.5000000000000000e+01" Max="6.1000000000000000e+01"/>
          <Range Index="1" Min="5.9459459781646729e-01" Max="1.0000000000000000e+00"/>
          <Range Index="2" Min="-4.3950378417968750e+01" Max="0.0000000000000000e+00"/>
          <Range Index="3" Min="8.1074580550193787e-02" Max="9.5208179950714111e-01"/>
          <Range Index="4" Min="3.8674288988113403e-01" Max="3.6264929771423340e+00"/>
          <Range Index="5" Min="-1.7655932617187500e+02" Max="9.3738700866699219e+01"/>
          <Range Index="6" Min="4.2742211914062500e+02" Max="6.5541699218750000e+02"/>
          <Range Index="7" Min="1.3636364042758942e-01" Max="5.0000000000000000e-01"/>
          <Range Index="8" Min="0.0000000000000000e+00" Max="5.2380955219268799e-01"/>
          <Range Index="9" Min="1.0000000000000000e+00" Max="3.7058823108673096e+00"/>
        </Ranges>
      </Class>
      <Class ClassIndex="1">
        <Ranges>
          <Range Index="0" Min="1.6000000000000000e+01" Max="8.2000000000000000e+01"/>
          <Range Index="1" Min="7.5862067937850952e-01" Max="1.0000000000000000e+00"/>
          <Range Index="2" Min="-3.6065975189208984e+01" Max="0.0000000000000000e+00"/>
          <Range Index="3" Min="6.3473589718341827e-02" Max="4.0507733821868896e-01"/>
          <Range Index="4" Min="3.3303225040435791e-01" Max="3.0002312660217285e+00"/>
          <Range Index="5" Min="-9.2962577819824219e+01" Max="1.1222087097167969e+02"/>
          <Range Index="6" Min="4.2926293945312500e+02" Max="6.6934063720703125e+02"/>
          <Range Index="7" Min="1.9047619402408600e-01" Max="4.8780488967895508e-01"/>
          <Range Index="8" Min="0.0000000000000000e+00" Max="4.4999998807907104e-01"/>
          <Range Index="9" Min="1.0000000000000000e+00" Max="2.1764705181121826e+00"/>
        </Ranges>
      </Class>
      <Class ClassIndex="2">
        <Ranges>
          <Range Index="0" Min="1.5000000000000000e+01" Max="8.2000000000000000e+01"/>
          <Range Index="1" Min="5.9459459781646729e-01" Max="1.0000000000000000e+00"/>
          <Range Index="2" Min="-4.3950378417968750e+01" Max="0.0000000000000000e+00"/>
          <Range Index="3" Min="6.3473589718341827e-02" Max="9.5208179950714111e-01"/>
          <Range Index="4" Min="3.3303225040435791e-01" Max="3.6264929771423340e+00"/>
          <Range Index="5" Min="-1.7655932617187500e+02" Max="1.1222087097167969e+02"/>
          <Range Index="6" Min="4.2742211914062500e+02" Max="6.6934063720703125e+02"/>
          <Range Index="7" Min="1.3636364042758942e-01" Max="5.0000000000000000e-01"/>
          <Range Index="8" Min="0.0000000000000000e+00" Max="5.2380955219268799e-01"/>
          <Range Index="9" Min="1.0000000000000000e+00" Max="3.7058823108673096e+00"/>
        </Ranges>
      </Class>
    </Transform>
  </Transformations>
  <MVAPdfs/>
  <Weights>
    <Layout NLayers="4">
      <Layer Index="0" NNeurons="11">
        <Neuron NSynapses="10">
          -3.5927082464376264e-01 1.9987470393990776e+00 1.7188919305412695e-01 1.1083971961581378e+00 -2.4358442466710026e+00 -1.0649286784774981e+00 -1.8183656116406131e+00 2.3245718693694370e+00 -8.6802720124969632e-02 -1.3068465168634051e+00 
        </Neuron>
        <Neuron NSynapses="10">
          -1.5275086731760961e+00 -4.2702759710918164e-01 -1.7417875183352864e+00 -8.1096156752117298e-04 -6.2185139250520372e-01 1.0742964136769046e+00 -3.3861720793791000e-01 1.9991205386748578e+00 -2.4171801368136958e-01 3.0742642336055576e-01 
        </Neuron>
        <Neuron NSynapses="10">
          -3.1361329228862345e-01 -7.7379960803803083e-01 1.1852062996845357e-01 7.3580014702891083e-01 -1.4807426408987092e+00 -5.2211221539887991e-02 1.7003823628360122e+00 -4.2058062610402225e-01 -6.3031074620653749e-01 -1.6642041726950156e+00 
        </Neuron>
        <Neuron NSynapses="10">
          5.9919819577121169e-01 1.6603683505322524e+00 8.8562733896588042e-01 -6.3200071706505745e-01 6.7446170681680973e-01 -7.4373643470845507e-01 -9.8686170187419198e-01 1.0681643045958336e+00 -2.5100631356470355e+00 3.4113759038462281e+00 
        </Neuron>
        <Neuron NSynapses="10">
          1.3166808877974792e+00 8.7246332879957966e-01 1.6605528267915335e+00 1.0157012314461789e+00 -9.8076801307674943e-01 -1.4900215109900103e+00 1.1424906137221662e+00 -1.9447455867517216e-01 3.0851931623785062e-01 8.5120669579952712e-01 
        </Neuron>
        <Neuron NSynapses="10">
          1.5596685997997661e+00 1.3229253600417856e+00 -2.2153444766474237e+00 1.1667384360474544e+00 -1.8013129999087150e+00 -7.1219504357149799e-01 -1.2336228055814238e+00 -1.6081697381814539e+00 1.4980775102324411e+00 -1.7643093752815453e-01 
        </Neuron>
        <Neuron NSynapses="10">
          -1.7258308379248937e+00 3.6403050484829541e-01 7.9918510399114517e-01 5.6809413105268458e-01 1.4136253384433735e+00 -5.4920372165606446e-01 5.7414749250058272e-01 -1.1518965093182765e+00 -3.0276161373643795e-01 5.1516511792630344e-02 
        </Neuron>
        <Neuron NSynapses="10">
          -7.4481665546604703e-01 -1.4429230078187631e+00 4.0411203977488735e-02 1.2123788967504034e+00 1.1090500725789645e+00 -2.4739696188555929e-01 -1.2402284597841744e+00 -1.4678958181039647e+00 8.9690394055236211e-01 -1.7510792004212108e-01 
        </Neuron>
        <Neuron NSynapses="10">
          2.0362341540494429e+00 6.3197089471526835e-01 1.9361232059236091e-01 -1.0586975711828017e+00 -5.9803056074799221e-01 -2.1795716747341717e-01 1.1817273890026097e+00 -1.4642717478259812e+00 -1.9113435067833404e+00 7.8203780122339875e-02 
        </Neuron>
        <Neuron NSynapses="10">
          -2.6468537164983291e-01 -1.0732567075122602e-01 1.6078199658101990e+00 -1.8532534442048454e+00 -6.6507939112810044e-01 1.3255269706676658e+00 -1.9514987634630269e-02 -1.8740966979437070e+00 -1.8529496412619588e+00 2.3512327359833785e-01 
        </Neuron>
        <Neuron NSynapses="10">
          -1.9320150977740354e+00 -1.6941742594951921e+00 3.4903413516583170e+00 2.6062315025583054e+00 -1.1012970305636702e+00 1.5411490367005738e+00 -1.8648486776643580e+00 -9.1711979820726575e-01 -2.5046432511032815e+00 4.2570374748081719e+00 
        </Neuron>
      </Layer>
      <Layer Index="1" NNeurons="11">
        <Neuron NSynapses="9">
          -1.7677878735413639e+00 2.3831918869488258e-01 2.7209437831070721e-01 4.2896782818966245e-01 -1.4456770685323810e+00 1.8184066528910026e+00 4.6580401141251621e-01 -9.6961028778744873e-01 7.6000819195379177e-01 
        </Neuron>
        <Neuron NSynapses="9">
          -1.0650530023420139e+00 -1.6048157077270868e+00 1.2421575166166399e-01 -3.8322167230227794e-01 1.7566947754795141e+00 8.0720712042340603e-01 -6.0471418664006312e-04 -3.5777613737073299e-01 1.2957191176235100e-01 
        </Neuron>
        <Neuron NSynapses="9">
          -2.0077650167790906e+00 1.0647893798731873e+00 3.4889627169611137e-01 -1.3598604379477899e+00 7.2815193156092650e-01 -3.8803987586276487e+00 -4.1629151732393749e-01 1.2056937811651505e+00 1.8223549161664221e+00 
        </Neuron>
        <Neuron NSynapses="9">
          -2.3960283155917854e+00 -5.2582254592826139e-01 7.5421748576644254e-01 1.9183272605010935e+00 -2.3872165140331203e-01 -1.3755257040612714e+00 -4.8593763933404027e-01 -1.6081775523427684e+00 6.9794291907767425e-01 
        </Neuron>
        <Neuron NSynapses="9">
          1.0389511370534319e+00 -6.6087169891802777e-01 -2.4742747817364158e-01 1.3403402646086073e+00 -9.5916220944273423e-01 -3.9289816871317962e-01 1.6997840460208076e+00 -6.8771798609743984e-01 -7.7555493124555064e-01 
        </Neuron>
        <Neuron NSynapses="9">
          -3.4003730969258150e-01 2.1363683366410899e-01 -1.0231161058345813e-01 1.6406824761379397e+00 -1.5837740805579130e+00 1.1663126656575320e+00 4.5074652363834911e-01 2.9946205493468986e-01 -1.3559443962997089e-01 
        </Neuron>
        <Neuron NSynapses="9">
          1.2211614174579888e+00 -1.0435815379957067e+00 -1.1179349599380068e+00 1.0286185442792333e+00 -1.4519638638848995e+00 6.8224468155789575e-01 2.1647519280114746e+00 1.0107901640653107e+00 -7.5934718035221960e-01 
        </Neuron>
        <Neuron NSynapses="9">
          1.0519529730244450e+00 1.2970687376140946e+00 -2.2300482619099826e+00 3.6102949052145655e-01 -3.3304666527638455e-01 1.2894085472578727e+00 -2.1419188740150110e+00 -1.4439394305163475e+00 6.1674393748014056e-01 
        </Neuron>
        <Neuron NSynapses="9">
          1.1474814490777319e+00 -2.4539108054835217e+00 -8.8440381148602387e-01 -1.5019508733705736e-01 2.4259788325255663e-01 3.3172549030911447e+00 -8.6100701808792968e-01 -6.7915483263985632e-01 -1.6566917760421747e+00 
        </Neuron>
        <Neuron NSynapses="9">
          9.3130374194844912e-01 1.4171414677491510e+00 7.9832800477227006e-01 6.9790775405297389e-01 -8.5879598071158969e-01 -5.0758177405807929e+00 1.3924504301099450e+00 4.0619397712103683e-01 -1.6829953214073960e+00 
        </Neuron>
        <Neuron NSynapses="9">
          -1.2906670650521765e+00 -5.5749116940800203e-01 -6.0653914686050547e-01 -1.4096606845000565e+00 1.2497037256419523e+00 6.1892876688604992e-01 -8.7640872618439070e-01 -3.4277421526501084e-01 7.7605045633928127e-01 
        </Neuron>
      </Layer>
      <Layer Index="2" NNeurons="10">
        <Neuron NSynapses="1">
          5.7960499253111453e-01 
        </Neuron>
        <Neuron NSynapses="1">
          -2.1393852732048824e-01 
        </Neuron>
        <Neuron NSynapses="1">
          -1.5829110743488231e-01 
        </Neuron>
        <Neuron NSynapses="1">
          -1.7383753906312804e+00 
        </Neuron>
        <Neuron NSynapses="1">
          -5.3035411078672690e-01 
        </Neuron>
        <Neuron NSynapses="1">
          1.3894454329111616e+00 
        </Neuron>
        <Neuron NSynapses="1">
          8.5289935200580769e-01 
        </Neuron>
        <Neuron NSynapses="1">
          -5.6613253676729847e-01 
        </Neuron>
        <Neuron NSynapses="1">
          -6.4680415013582918e-02 
        </Neuron>
        <Neuron NSynapses="1">
          1.4134240616480196e+00 
        </Neuron>
      </Layer>
      <Layer Index="3" NNeurons="1">
        <Neuron NSynapses="0"/>
      </Layer>
    </Layout>
  </Weights>
</MethodSetup>
