<?xml version="1.0"?>
<MethodSetup Method="MLP::MLP">
  <GeneralInfo>
    <Info name="TMVA Release" value="4.2.0 [262656]"/>
    <Info name="ROOT Release" value="5.34/32 [336416]"/>
    <Info name="Creator" value="murat"/>
    <Info name="Date" value="Sun Jul 17 22:56:48 2016"/>
    <Info name="Host" value="Linux buildservice003.fnal.gov 2.6.18-406.el5 #1 SMP Tue Jun 2 11:24:48 CDT 2015 x86_64 x86_64 x86_64 GNU/Linux"/>
    <Info name="Dir" value="/mu2e/app/users/murat/dev2"/>
    <Info name="Training events" value="12777"/>
    <Info name="TrainingTime" value="6.71725745e+02"/>
    <Info name="AnalysisType" value="Classification"/>
  </GeneralInfo>
  <Options>
    <Option name="NCycles" modified="No">500</Option>
    <Option name="HiddenLayers" modified="No">N,N-1</Option>
    <Option name="NeuronType" modified="No">sigmoid</Option>
    <Option name="RandomSeed" modified="No">1</Option>
    <Option name="EstimatorType" modified="No">MSE</Option>
    <Option name="NeuronInputType" modified="No">sum</Option>
    <Option name="V" modified="Yes">False</Option>
    <Option name="VerbosityLevel" modified="No">Default</Option>
    <Option name="VarTransform" modified="Yes">N</Option>
    <Option name="H" modified="Yes">False</Option>
    <Option name="CreateMVAPdfs" modified="No">False</Option>
    <Option name="IgnoreNegWeightsInTraining" modified="No">False</Option>
    <Option name="TrainingMethod" modified="No">BP</Option>
    <Option name="LearningRate" modified="No">2.000000e-02</Option>
    <Option name="DecayRate" modified="No">1.000000e-02</Option>
    <Option name="TestRate" modified="No">10</Option>
    <Option name="EpochMonitoring" modified="No">False</Option>
    <Option name="Sampling" modified="No">1.000000e+00</Option>
    <Option name="SamplingEpoch" modified="No">1.000000e+00</Option>
    <Option name="SamplingImportance" modified="No">1.000000e+00</Option>
    <Option name="SamplingTraining" modified="No">True</Option>
    <Option name="SamplingTesting" modified="No">False</Option>
    <Option name="ResetStep" modified="No">50</Option>
    <Option name="Tau" modified="No">3.000000e+00</Option>
    <Option name="BPMode" modified="No">sequential</Option>
    <Option name="BatchSize" modified="No">-1</Option>
    <Option name="ConvergenceImprove" modified="No">1.000000e-30</Option>
    <Option name="ConvergenceTests" modified="No">-1</Option>
    <Option name="UseRegulator" modified="No">False</Option>
    <Option name="UpdateLimit" modified="No">10000</Option>
    <Option name="CalculateErrors" modified="No">False</Option>
    <Option name="WeightRange" modified="No">1.000000e+00</Option>
  </Options>
  <Variables NVar="10">
    <Variable VarIndex="0" Expression="nactive" Label="nactive" Title="NActive" Unit="Count" Internal="nactive" Type="F" Min="1.50000000e+01" Max="7.80000000e+01"/>
    <Variable VarIndex="1" Expression="nafract" Label="nafract" Title="FActive" Unit="Fraction" Internal="nafract" Type="F" Min="4.73684222e-01" Max="1.00000000e+00"/>
    <Variable VarIndex="2" Expression="log10(fcons)" Label="log10(fcons)" Title="LogFitCon" Unit="Probability" Internal="log10_fcons_" Type="F" Min="-1.74610672e+01" Max="0.00000000e+00"/>
    <Variable VarIndex="3" Expression="momerr" Label="momerr" Title="FitMomErr" Unit="MeV/c" Internal="momerr" Type="F" Min="6.06474653e-02" Max="3.07068872e+00"/>
    <Variable VarIndex="4" Expression="t0err" Label="t0err" Title="T0Err" Unit="nsec" Internal="t0err" Type="F" Min="2.71266639e-01" Max="6.77239180e+00"/>
    <Variable VarIndex="5" Expression="d0" Label="d0" Title="D0" Unit="mm" Internal="d0" Type="F" Min="-3.74575623e+02" Max="1.09855202e+02"/>
    <Variable VarIndex="6" Expression="rmax" Label="rmax" Title="MaxRadius" Unit="mm" Internal="rmax" Type="F" Min="4.20360718e+02" Max="6.83617065e+02"/>
    <Variable VarIndex="7" Expression="nda_o_na" Label="nda_o_na" Title="DoubleHitFraction" Unit="Fraction" Internal="nda_o_na" Type="F" Min="1.11111112e-01" Max="5.00000000e-01"/>
    <Variable VarIndex="8" Expression="nza_o_na" Label="nza_o_na" Title="NullHitFraction" Unit="Fraction" Internal="nza_o_na" Type="F" Min="0.00000000e+00" Max="9.58333313e-01"/>
    <Variable VarIndex="9" Expression="nma_o_na" Label="nma_o_na" Title="MatFraction" Unit="Fraction" Internal="nma_o_na" Type="F" Min="1.00000000e+00" Max="2.97886353e+03"/>
  </Variables>
  <Spectators NSpec="0"/>
  <Classes NClass="2">
    <Class Name="Background" Index="0"/>
    <Class Name="Signal" Index="1"/>
  </Classes>
  <Transformations NTransformations="1">
    <Transform Name="Normalize">
      <Selection>
        <Input NInputs="10">
          <Input Type="Variable" Label="nactive" Expression="nactive"/>
          <Input Type="Variable" Label="nafract" Expression="nafract"/>
          <Input Type="Variable" Label="log10(fcons)" Expression="log10(fcons)"/>
          <Input Type="Variable" Label="momerr" Expression="momerr"/>
          <Input Type="Variable" Label="t0err" Expression="t0err"/>
          <Input Type="Variable" Label="d0" Expression="d0"/>
          <Input Type="Variable" Label="rmax" Expression="rmax"/>
          <Input Type="Variable" Label="nda_o_na" Expression="nda_o_na"/>
          <Input Type="Variable" Label="nza_o_na" Expression="nza_o_na"/>
          <Input Type="Variable" Label="nma_o_na" Expression="nma_o_na"/>
        </Input>
        <Output NOutputs="10">
          <Output Type="Variable" Label="nactive" Expression="nactive"/>
          <Output Type="Variable" Label="nafract" Expression="nafract"/>
          <Output Type="Variable" Label="log10(fcons)" Expression="log10(fcons)"/>
          <Output Type="Variable" Label="momerr" Expression="momerr"/>
          <Output Type="Variable" Label="t0err" Expression="t0err"/>
          <Output Type="Variable" Label="d0" Expression="d0"/>
          <Output Type="Variable" Label="rmax" Expression="rmax"/>
          <Output Type="Variable" Label="nda_o_na" Expression="nda_o_na"/>
          <Output Type="Variable" Label="nza_o_na" Expression="nza_o_na"/>
          <Output Type="Variable" Label="nma_o_na" Expression="nma_o_na"/>
        </Output>
      </Selection>
      <Class ClassIndex="0">
        <Ranges>
          <Range Index="0" Min="1.5000000000000000e+01" Max="6.6000000000000000e+01"/>
          <Range Index="1" Min="4.7368422150611877e-01" Max="1.0000000000000000e+00"/>
          <Range Index="2" Min="-1.5471162796020508e+01" Max="0.0000000000000000e+00"/>
          <Range Index="3" Min="9.9279418587684631e-02" Max="3.0706887245178223e+00"/>
          <Range Index="4" Min="3.1518381834030151e-01" Max="6.7723917961120605e+00"/>
          <Range Index="5" Min="-3.7457562255859375e+02" Max="1.0812776947021484e+02"/>
          <Range Index="6" Min="4.2036071777343750e+02" Max="6.8361706542968750e+02"/>
          <Range Index="7" Min="1.3333334028720856e-01" Max="5.0000000000000000e-01"/>
          <Range Index="8" Min="3.7037037312984467e-02" Max="9.5833331346511841e-01"/>
          <Range Index="9" Min="1.0000000000000000e+00" Max="2.9788635253906250e+03"/>
        </Ranges>
      </Class>
      <Class ClassIndex="1">
        <Ranges>
          <Range Index="0" Min="1.5000000000000000e+01" Max="7.8000000000000000e+01"/>
          <Range Index="1" Min="5.9016394615173340e-01" Max="1.0000000000000000e+00"/>
          <Range Index="2" Min="-1.7461067199707031e+01" Max="0.0000000000000000e+00"/>
          <Range Index="3" Min="6.0647465288639069e-02" Max="9.0904992818832397e-01"/>
          <Range Index="4" Min="2.7126663923263550e-01" Max="4.6961908340454102e+00"/>
          <Range Index="5" Min="-9.0301208496093750e+01" Max="1.0985520172119141e+02"/>
          <Range Index="6" Min="4.3774435424804688e+02" Max="6.7552618408203125e+02"/>
          <Range Index="7" Min="1.1111111193895340e-01" Max="5.0000000000000000e-01"/>
          <Range Index="8" Min="0.0000000000000000e+00" Max="8.0000001192092896e-01"/>
          <Range Index="9" Min="1.0000000000000000e+00" Max="2.6213999023437500e+03"/>
        </Ranges>
      </Class>
      <Class ClassIndex="2">
        <Ranges>
          <Range Index="0" Min="1.5000000000000000e+01" Max="7.8000000000000000e+01"/>
          <Range Index="1" Min="4.7368422150611877e-01" Max="1.0000000000000000e+00"/>
          <Range Index="2" Min="-1.7461067199707031e+01" Max="0.0000000000000000e+00"/>
          <Range Index="3" Min="6.0647465288639069e-02" Max="3.0706887245178223e+00"/>
          <Range Index="4" Min="2.7126663923263550e-01" Max="6.7723917961120605e+00"/>
          <Range Index="5" Min="-3.7457562255859375e+02" Max="1.0985520172119141e+02"/>
          <Range Index="6" Min="4.2036071777343750e+02" Max="6.8361706542968750e+02"/>
          <Range Index="7" Min="1.1111111193895340e-01" Max="5.0000000000000000e-01"/>
          <Range Index="8" Min="0.0000000000000000e+00" Max="9.5833331346511841e-01"/>
          <Range Index="9" Min="1.0000000000000000e+00" Max="2.9788635253906250e+03"/>
        </Ranges>
      </Class>
    </Transform>
  </Transformations>
  <MVAPdfs/>
  <Weights>
    <Layout NLayers="4">
      <Layer Index="0" NNeurons="11">
        <Neuron NSynapses="10">
          -3.3788049115520125e-01 1.9808438823536334e+00 9.1163849878310610e-01 8.7748065385953444e-01 -2.2657837697808483e+00 -1.8223524965291054e+00 -2.0839448684291608e+00 1.7448726537188008e+00 -1.1434860152510615e+00 -1.0715905488962629e+00 
        </Neuron>
        <Neuron NSynapses="10">
          -1.6102635838219239e+00 -4.0119029207999218e-01 -1.4844017232472482e+00 -3.0741975276361116e-01 -1.8666535762901582e+00 4.5289605320866656e-02 -1.3369757037825181e+00 1.7261789321457379e+00 7.2144723079241901e-01 9.8236072462930735e-01 
        </Neuron>
        <Neuron NSynapses="10">
          -3.3379069753400675e-01 -7.3151802803061017e-01 7.1756446346715719e-01 7.1950571284828624e-01 -1.8991824721057580e+00 -7.1869138046018821e-01 -4.5791255217684568e-01 -2.2340052678718975e-01 -6.9438526797505229e-01 -8.7808660177126685e-02 
        </Neuron>
        <Neuron NSynapses="10">
          8.2520611090255902e-01 1.6914423753607202e+00 -3.3518767595151244e-01 -9.0791497100057950e-01 3.4827525564476063e+00 -5.1444230204701435e-01 1.2147304437378394e+00 2.2771107863444002e+00 -1.6977122729597687e+00 1.8177347426395143e+00 
        </Neuron>
        <Neuron NSynapses="10">
          1.4471642258356607e+00 8.8743261473490231e-01 1.6619906217627056e+00 5.3287553820895783e-01 2.2234795657815501e-01 -1.2743597649665592e+00 1.5027236996354594e+00 -8.5042934286640004e-02 1.2067639159172578e+00 1.7558893641684590e+00 
        </Neuron>
        <Neuron NSynapses="10">
          1.5293375759566754e+00 1.2840892814462554e+00 -1.7782278585900595e+00 1.4911064353390999e+00 -2.6457269352622834e+00 -1.4598709401010868e+00 -2.2211649739002954e+00 -1.3374335528105672e+00 1.8199349039013717e+00 7.1795456312133932e-01 
        </Neuron>
        <Neuron NSynapses="10">
          -1.4567011087880537e+00 3.3919888002835025e-01 -3.2878923999497223e-01 2.4648873801973245e-01 2.0156020194937621e+00 -3.0873052835714548e-01 5.2609843631881470e-01 -9.3657635875788570e-01 5.6839026371250922e-01 -1.0820714087710412e+00 
        </Neuron>
        <Neuron NSynapses="10">
          -5.0044777622440784e-01 -1.4392184129359222e+00 7.2728767540953687e-01 1.4371787707654626e+00 1.0638072102269480e+00 -1.1379955563333252e-01 1.0515172854770341e-01 -1.6375551381089966e+00 5.2300456308234744e-01 1.9604418701782658e-02 
        </Neuron>
        <Neuron NSynapses="10">
          2.0303423294384992e+00 6.4854350512701042e-01 8.3180011302912860e-01 -7.5233693809996549e-01 5.2961425664854012e-01 -4.2831084003629277e-01 1.8744797818639931e+00 -1.5744973306288421e+00 -1.4916622200658654e+00 -1.1176672610404961e+00 
        </Neuron>
        <Neuron NSynapses="10">
          -3.3354278612552746e-01 -8.8732072434134779e-02 1.9668631406043726e+00 -1.4471730845783297e+00 -3.6074471787595552e+00 2.4259660756288297e+00 -2.6908968855333870e+00 -2.2901183236916074e+00 -2.1428079977630259e+00 1.9918091289404230e-01 
        </Neuron>
        <Neuron NSynapses="10">
          -1.8516409330382391e+00 -1.6972428656722898e+00 5.1034525706320866e-01 2.7073813610230482e+00 1.7738768802557541e+00 7.8472755769859215e-01 1.0727934437634938e+00 -6.5502262926099163e-04 -1.1378814269265147e-01 3.7443420091567975e-01 
        </Neuron>
      </Layer>
      <Layer Index="1" NNeurons="11">
        <Neuron NSynapses="9">
          -1.8834214084361267e+00 5.9828834425801622e-03 1.5738345362491404e-01 8.5234138143144667e-01 -1.4980705169682351e+00 1.6102545702721498e+00 4.8718558923203364e-01 -9.9242335241502355e-01 7.9100697073607384e-01 
        </Neuron>
        <Neuron NSynapses="9">
          -1.0777718226044406e+00 -1.6263430528239478e+00 7.5711909753514869e-02 -3.4356494109718250e-01 1.7465266256356315e+00 7.8475159971727693e-01 1.4224527842203431e-02 -3.5014665085257984e-01 1.6205294143350799e-01 
        </Neuron>
        <Neuron NSynapses="9">
          -1.8911326696081725e+00 1.0162526502778810e+00 1.9435373879228368e-01 -9.6077857900135255e-01 1.0052362375216730e+00 -1.7266393169278376e+00 -8.0431781095126817e-02 1.0247705229020649e+00 1.7757110873161019e+00 
        </Neuron>
        <Neuron NSynapses="9">
          -2.4269515361299643e+00 -2.4789699317103239e-01 7.8374984531483904e-01 2.3144101727073288e-01 -1.7681446407193793e-02 -1.9299267988040230e+00 -5.4050247182875244e-01 -1.4327603997784442e+00 8.0947434579503763e-01 
        </Neuron>
        <Neuron NSynapses="9">
          6.8242335459003078e-01 -1.2947097208278824e+00 -6.3420964494410059e-01 5.3314023888456834e+00 -1.4310220336847397e+00 -4.3204993048609058e-01 1.3749015770158841e+00 -5.8498570231956371e-01 -6.9949647942718929e-01 
        </Neuron>
        <Neuron NSynapses="9">
          -9.9958977189328849e-02 8.3572977245363778e-01 5.7692960457258635e-01 -1.0511346571300939e+00 -1.3620977086504760e+00 1.0776119591515778e+00 2.4119117024265885e-01 4.2835333031861050e-01 1.7283122207909773e-01 
        </Neuron>
        <Neuron NSynapses="9">
          5.2451805133078611e-01 -1.0014784398205601e+00 -1.0320300173350523e+00 3.0474607417040112e+00 -1.1573341472210217e+00 -1.0582579746351621e+00 1.7432826105324588e+00 1.1181278622860187e+00 -4.6623183476044017e-01 
        </Neuron>
        <Neuron NSynapses="9">
          1.4927840038779636e+00 1.2775926024155437e+00 -2.0410669861323276e+00 2.2395760585691651e+00 4.6065947641373908e-02 3.3175514597029687e-01 -1.5042880645647314e+00 -1.5719009714474526e+00 1.0050127776023536e+00 
        </Neuron>
        <Neuron NSynapses="9">
          1.2866671915504531e+00 -2.4383289440753746e+00 -9.3190850749054865e-01 -2.0296993411689810e+00 -1.2650915137621666e-01 1.2170482161493845e+00 -6.4757044957728471e-01 -5.2334858311895116e-01 -1.7520912450454651e+00 
        </Neuron>
        <Neuron NSynapses="9">
          9.1380369592802901e-01 1.2448696235282120e+00 7.7171428322952096e-01 9.9989484931306705e-01 -8.0210715960329859e-01 -2.2926900631988807e+00 1.4213969005192857e+00 3.5919134768218164e-01 -1.6305486967884399e+00 
        </Neuron>
        <Neuron NSynapses="9">
          -1.2952153581190404e+00 -3.2307550145165914e-01 -5.2520474791576044e-01 -2.8648863335911163e+00 1.6110568659094202e+00 7.2212078142670638e-02 -1.0527075021624213e+00 -2.6724196897012542e-01 8.8031613720897339e-01 
        </Neuron>
      </Layer>
      <Layer Index="2" NNeurons="10">
        <Neuron NSynapses="1">
          1.8085863887520520e-01 
        </Neuron>
        <Neuron NSynapses="1">
          -5.8666620193432806e-01 
        </Neuron>
        <Neuron NSynapses="1">
          -1.0257671708778522e+00 
        </Neuron>
        <Neuron NSynapses="1">
          -1.9747396342638859e+00 
        </Neuron>
        <Neuron NSynapses="1">
          -6.8583656055630560e-01 
        </Neuron>
        <Neuron NSynapses="1">
          3.1970109136194480e-01 
        </Neuron>
        <Neuron NSynapses="1">
          6.5708464235104147e-01 
        </Neuron>
        <Neuron NSynapses="1">
          -3.2354720916222252e-01 
        </Neuron>
        <Neuron NSynapses="1">
          1.2082038131626932e-01 
        </Neuron>
        <Neuron NSynapses="1">
          1.5941368967801581e+00 
        </Neuron>
      </Layer>
      <Layer Index="3" NNeurons="1">
        <Neuron NSynapses="0"/>
      </Layer>
    </Layout>
  </Weights>
</MethodSetup>
