<?xml version="1.0"?>
<MethodSetup Method="MLP::MLP">
  <GeneralInfo>
    <Info name="TMVA Release" value="4.2.0 [262656]"/>
    <Info name="ROOT Release" value="5.34/18 [336402]"/>
    <Info name="Creator" value="brownd"/>
    <Info name="Date" value="Tue Sep 23 06:30:50 2014"/>
    <Info name="Host" value="Linux larsoftdev5.fnal.gov 2.6.18-371.8.1.el5 #1 SMP Thu Apr 24 14:03:58 CDT 2014 x86_64 x86_64 x86_64 GNU/Linux"/>
    <Info name="Dir" value="/home/online1/brownd/mu2e/Mu2eSim/art11/Offline"/>
    <Info name="Training events" value="55858"/>
    <Info name="TrainingTime" value="5.83940358e+02"/>
    <Info name="AnalysisType" value="Classification"/>
  </GeneralInfo>
  <Options>
    <Option name="NCycles" modified="No">500</Option>
    <Option name="HiddenLayers" modified="No">N,N-1</Option>
    <Option name="NeuronType" modified="No">sigmoid</Option>
    <Option name="RandomSeed" modified="No">1</Option>
    <Option name="EstimatorType" modified="No">MSE</Option>
    <Option name="NeuronInputType" modified="No">sum</Option>
    <Option name="V" modified="Yes">False</Option>
    <Option name="VerbosityLevel" modified="No">Default</Option>
    <Option name="VarTransform" modified="Yes">N</Option>
    <Option name="H" modified="Yes">False</Option>
    <Option name="CreateMVAPdfs" modified="No">False</Option>
    <Option name="IgnoreNegWeightsInTraining" modified="No">False</Option>
    <Option name="TrainingMethod" modified="No">BP</Option>
    <Option name="LearningRate" modified="No">2.000000e-02</Option>
    <Option name="DecayRate" modified="No">1.000000e-02</Option>
    <Option name="TestRate" modified="No">10</Option>
    <Option name="EpochMonitoring" modified="No">False</Option>
    <Option name="Sampling" modified="No">1.000000e+00</Option>
    <Option name="SamplingEpoch" modified="No">1.000000e+00</Option>
    <Option name="SamplingImportance" modified="No">1.000000e+00</Option>
    <Option name="SamplingTraining" modified="No">True</Option>
    <Option name="SamplingTesting" modified="No">False</Option>
    <Option name="ResetStep" modified="No">50</Option>
    <Option name="Tau" modified="No">3.000000e+00</Option>
    <Option name="BPMode" modified="No">sequential</Option>
    <Option name="BatchSize" modified="No">-1</Option>
    <Option name="ConvergenceImprove" modified="No">1.000000e-30</Option>
    <Option name="ConvergenceTests" modified="No">-1</Option>
    <Option name="UseRegulator" modified="No">False</Option>
    <Option name="UpdateLimit" modified="No">10000</Option>
    <Option name="CalculateErrors" modified="No">False</Option>
    <Option name="WeightRange" modified="No">1.000000e+00</Option>
  </Options>
  <Variables NVar="7">
    <Variable VarIndex="0" Expression="nactive" Label="nactive" Title="NActive" Unit="Count" Internal="nactive" Type="I" Min="1.50000000e+01" Max="1.10000000e+02"/>
    <Variable VarIndex="1" Expression="nactive/nhits" Label="nactive/nhits" Title="FActive" Unit="Fraction" Internal="nactive_D_nhits" Type="F" Min="4.22222227e-01" Max="1.00000000e+00"/>
    <Variable VarIndex="2" Expression="log10(fitcon)" Label="log10(fitcon)" Title="LogFitCon" Unit="Probability" Internal="log10_fitcon_" Type="F" Min="-3.36995888e+01" Max="-2.58859689e-08"/>
    <Variable VarIndex="3" Expression="fitmomerr" Label="fitmomerr" Title="FitMomErr" Unit="MeV/c" Internal="fitmomerr" Type="F" Min="4.78484482e-02" Max="1.34274077e+00"/>
    <Variable VarIndex="4" Expression="t0err" Label="t0err" Title="T0Err" Unit="nsec" Internal="t0err" Type="F" Min="1.52126268e-01" Max="2.25441051e+00"/>
    <Variable VarIndex="5" Expression="d0" Label="d0" Title="D0" Unit="mm" Internal="d0" Type="F" Min="-3.69777649e+02" Max="1.58336777e+02"/>
    <Variable VarIndex="6" Expression="d0+2./om" Label="d0+2./om" Title="MaxRadius" Unit="mm" Internal="d0_P_2._D_om" Type="F" Min="4.19670563e+02" Max="6.77870605e+02"/>
  </Variables>
  <Spectators NSpec="0"/>
  <Classes NClass="2">
    <Class Name="Background" Index="0"/>
    <Class Name="Signal" Index="1"/>
  </Classes>
  <Transformations NTransformations="1">
    <Transform Name="Normalize">
      <Selection>
        <Input NInputs="7">
          <Input Type="Variable" Label="nactive" Expression="nactive"/>
          <Input Type="Variable" Label="nactive/nhits" Expression="nactive/nhits"/>
          <Input Type="Variable" Label="log10(fitcon)" Expression="log10(fitcon)"/>
          <Input Type="Variable" Label="fitmomerr" Expression="fitmomerr"/>
          <Input Type="Variable" Label="t0err" Expression="t0err"/>
          <Input Type="Variable" Label="d0" Expression="d0"/>
          <Input Type="Variable" Label="d0+2./om" Expression="d0+2./om"/>
        </Input>
        <Output NOutputs="7">
          <Output Type="Variable" Label="nactive" Expression="nactive"/>
          <Output Type="Variable" Label="nactive/nhits" Expression="nactive/nhits"/>
          <Output Type="Variable" Label="log10(fitcon)" Expression="log10(fitcon)"/>
          <Output Type="Variable" Label="fitmomerr" Expression="fitmomerr"/>
          <Output Type="Variable" Label="t0err" Expression="t0err"/>
          <Output Type="Variable" Label="d0" Expression="d0"/>
          <Output Type="Variable" Label="d0+2./om" Expression="d0+2./om"/>
        </Output>
      </Selection>
      <Class ClassIndex="0">
        <Ranges>
          <Range Index="0" Min="1.5000000000000000e+01" Max="8.5000000000000000e+01"/>
          <Range Index="1" Min="4.2222222685813904e-01" Max="1.0000000000000000e+00"/>
          <Range Index="2" Min="-3.2934986114501953e+01" Max="-5.8894569519907236e-05"/>
          <Range Index="3" Min="6.0732029378414154e-02" Max="1.3427407741546631e+00"/>
          <Range Index="4" Min="2.1977074444293976e-01" Max="2.2544105052947998e+00"/>
          <Range Index="5" Min="-3.6977764892578125e+02" Max="1.0228505706787109e+02"/>
          <Range Index="6" Min="4.1967056274414062e+02" Max="6.7264361572265625e+02"/>
        </Ranges>
      </Class>
      <Class ClassIndex="1">
        <Ranges>
          <Range Index="0" Min="1.5000000000000000e+01" Max="1.1000000000000000e+02"/>
          <Range Index="1" Min="5.7142859697341919e-01" Max="1.0000000000000000e+00"/>
          <Range Index="2" Min="-3.3699588775634766e+01" Max="-2.5885968923944347e-08"/>
          <Range Index="3" Min="4.7848448157310486e-02" Max="5.4474699497222900e-01"/>
          <Range Index="4" Min="1.5212626755237579e-01" Max="1.5593883991241455e+00"/>
          <Range Index="5" Min="-1.1397947692871094e+02" Max="1.5833677673339844e+02"/>
          <Range Index="6" Min="4.2208380126953125e+02" Max="6.7787060546875000e+02"/>
        </Ranges>
      </Class>
      <Class ClassIndex="2">
        <Ranges>
          <Range Index="0" Min="1.5000000000000000e+01" Max="1.1000000000000000e+02"/>
          <Range Index="1" Min="4.2222222685813904e-01" Max="1.0000000000000000e+00"/>
          <Range Index="2" Min="-3.3699588775634766e+01" Max="-2.5885968923944347e-08"/>
          <Range Index="3" Min="4.7848448157310486e-02" Max="1.3427407741546631e+00"/>
          <Range Index="4" Min="1.5212626755237579e-01" Max="2.2544105052947998e+00"/>
          <Range Index="5" Min="-3.6977764892578125e+02" Max="1.5833677673339844e+02"/>
          <Range Index="6" Min="4.1967056274414062e+02" Max="6.7787060546875000e+02"/>
        </Ranges>
      </Class>
    </Transform>
  </Transformations>
  <MVAPdfs/>
  <Weights>
    <Layout NLayers="4">
      <Layer Index="0" NNeurons="8">
        <Neuron NSynapses="7">
          -2.0173246697411568e-01 3.7361908681780243e+00 -8.6486040217109084e-01 1.2024076140517506e+00 -1.8031526407390739e+00 -3.0043459303856426e+00 -3.2524765610917741e+00 
        </Neuron>
        <Neuron NSynapses="7">
          2.2153500485630055e+00 8.5994784849214678e-01 -1.5209553943000302e+00 -2.0563149815393973e+00 -6.8292295852949159e-01 -1.8598686242945730e+00 -1.3161953718971351e+00 
        </Neuron>
        <Neuron NSynapses="7">
          -6.9046643275233921e-01 9.1560977738639326e-01 -1.7569918528405817e+00 1.2290022413412598e+00 2.3911077807170711e-01 -2.7437606847751678e-01 -3.0111806144519013e+00 
        </Neuron>
        <Neuron NSynapses="7">
          -6.0393964430717884e-01 1.2053674060719932e+00 1.0497014808130780e+00 -7.9346889050466429e-01 -3.0622251262731504e-01 2.7650880242162215e+00 1.7406599718008977e+00 
        </Neuron>
        <Neuron NSynapses="7">
          -1.8915704287895538e+00 -7.7525653296065844e-01 1.5286647016741843e+00 2.3254771490702666e+00 -2.5730399196155229e-01 1.2456632180202130e+00 2.0715910762517589e+00 
        </Neuron>
        <Neuron NSynapses="7">
          -4.3638419949444018e-01 -3.1478167703846710e-01 1.4191958946066343e+00 -1.7955043621843683e+00 8.3161332194889792e-01 -4.9694220355882918e-01 -1.6154254709857712e+00 
        </Neuron>
        <Neuron NSynapses="7">
          1.6533744232265415e+00 3.9483722667349369e-01 3.1118565559251266e-01 -1.8068702049323195e+00 8.0284375178286882e-01 -8.1264911632747205e-01 7.8757617567000948e-01 
        </Neuron>
        <Neuron NSynapses="7">
          1.3396293372081127e+00 2.5757625135345412e+00 3.2215588475860888e+00 -1.3086395639604922e+00 1.2172300658353599e+00 -1.8752899341692406e-01 4.4674319508071090e+00 
        </Neuron>
      </Layer>
      <Layer Index="1" NNeurons="8">
        <Neuron NSynapses="6">
          -1.6954457624942356e+00 -4.8864512034812807e-01 8.5108131078026128e-01 3.8896349736164687e-01 -1.7154746161003074e+00 -7.4365485415644819e-03 
        </Neuron>
        <Neuron NSynapses="6">
          4.5402597310157511e-01 -8.3077345096232780e-01 1.8003934522931693e+00 -2.9746813360176833e-01 -1.2457888321279754e-01 -1.8124329662701437e+00 
        </Neuron>
        <Neuron NSynapses="6">
          1.8162472680319173e+00 -2.3533107330329002e+00 -1.5497175990609937e+00 -1.6953051406095685e+00 9.1032224026562425e-01 2.7175658395015887e+00 
        </Neuron>
        <Neuron NSynapses="6">
          1.8542180772441146e+00 -8.2107707603928970e-01 -1.8543016777472507e+00 -1.8077748794148114e+00 9.5918682363182406e-01 2.7769430733725980e-01 
        </Neuron>
        <Neuron NSynapses="6">
          1.7159254887832771e+00 1.8978851109828516e+00 4.2873840492306720e-01 -1.1241975977899596e+00 -8.1461767174930566e-01 -2.5925516553020256e-01 
        </Neuron>
        <Neuron NSynapses="6">
          2.2966982833533036e+00 -2.2117871807923422e+00 -1.7755025124765820e+00 -1.7382950707166485e+00 9.0026281765238622e-02 1.0370836105646526e+00 
        </Neuron>
        <Neuron NSynapses="6">
          3.5130162214321055e+00 -4.3182182617154901e+00 -1.4206733880591331e+00 1.3264956388060214e+00 -6.4986518196701393e-01 1.5982483143947909e-01 
        </Neuron>
        <Neuron NSynapses="6">
          -1.6558400126151693e+00 1.2502926620174188e+00 -2.5699328691198504e+00 -1.9429257131147655e+00 6.7851605900328738e-01 1.4189499187448260e+00 
        </Neuron>
      </Layer>
      <Layer Index="2" NNeurons="7">
        <Neuron NSynapses="1">
          -1.1191242764188665e+00 
        </Neuron>
        <Neuron NSynapses="1">
          1.9130668809097027e+00 
        </Neuron>
        <Neuron NSynapses="1">
          -9.6476983924760917e-01 
        </Neuron>
        <Neuron NSynapses="1">
          -2.4794583695694389e-01 
        </Neuron>
        <Neuron NSynapses="1">
          -2.0640525346439337e-01 
        </Neuron>
        <Neuron NSynapses="1">
          1.5159179715663700e+00 
        </Neuron>
        <Neuron NSynapses="1">
          -2.9690315634325903e-01 
        </Neuron>
      </Layer>
      <Layer Index="3" NNeurons="1">
        <Neuron NSynapses="0"/>
      </Layer>
    </Layout>
  </Weights>
</MethodSetup>
