<?xml version="1.0"?>
<MethodSetup Method="MLP::MLP">
  <GeneralInfo>
    <Info name="TMVA Release" value="4.2.0 [262656]"/>
    <Info name="ROOT Release" value="5.34/18 [336402]"/>
    <Info name="Creator" value="brownd"/>
    <Info name="Date" value="Thu Sep 25 20:04:37 2014"/>
    <Info name="Host" value="Linux larsoftdev5.fnal.gov 2.6.18-371.8.1.el5 #1 SMP Thu Apr 24 14:03:58 CDT 2014 x86_64 x86_64 x86_64 GNU/Linux"/>
    <Info name="Dir" value="/home/online1/brownd/mu2e/Mu2eSim/art11/Offline"/>
    <Info name="Training events" value="55964"/>
    <Info name="TrainingTime" value="6.68120679e+02"/>
    <Info name="AnalysisType" value="Classification"/>
  </GeneralInfo>
  <Options>
    <Option name="NCycles" modified="No">500</Option>
    <Option name="HiddenLayers" modified="No">N,N-1</Option>
    <Option name="NeuronType" modified="No">sigmoid</Option>
    <Option name="RandomSeed" modified="No">1</Option>
    <Option name="EstimatorType" modified="No">MSE</Option>
    <Option name="NeuronInputType" modified="No">sum</Option>
    <Option name="V" modified="Yes">False</Option>
    <Option name="VerbosityLevel" modified="No">Default</Option>
    <Option name="VarTransform" modified="Yes">N</Option>
    <Option name="H" modified="Yes">False</Option>
    <Option name="CreateMVAPdfs" modified="No">False</Option>
    <Option name="IgnoreNegWeightsInTraining" modified="No">False</Option>
    <Option name="TrainingMethod" modified="No">BP</Option>
    <Option name="LearningRate" modified="No">2.000000e-02</Option>
    <Option name="DecayRate" modified="No">1.000000e-02</Option>
    <Option name="TestRate" modified="No">10</Option>
    <Option name="EpochMonitoring" modified="No">False</Option>
    <Option name="Sampling" modified="No">1.000000e+00</Option>
    <Option name="SamplingEpoch" modified="No">1.000000e+00</Option>
    <Option name="SamplingImportance" modified="No">1.000000e+00</Option>
    <Option name="SamplingTraining" modified="No">True</Option>
    <Option name="SamplingTesting" modified="No">False</Option>
    <Option name="ResetStep" modified="No">50</Option>
    <Option name="Tau" modified="No">3.000000e+00</Option>
    <Option name="BPMode" modified="No">sequential</Option>
    <Option name="BatchSize" modified="No">-1</Option>
    <Option name="ConvergenceImprove" modified="No">1.000000e-30</Option>
    <Option name="ConvergenceTests" modified="No">-1</Option>
    <Option name="UseRegulator" modified="No">False</Option>
    <Option name="UpdateLimit" modified="No">10000</Option>
    <Option name="CalculateErrors" modified="No">False</Option>
    <Option name="WeightRange" modified="No">1.000000e+00</Option>
  </Options>
  <Variables NVar="8">
    <Variable VarIndex="0" Expression="nactive" Label="nactive" Title="NActive" Unit="Count" Internal="nactive" Type="I" Min="1.50000000e+01" Max="1.09000000e+02"/>
    <Variable VarIndex="1" Expression="nactive/nhits" Label="nactive/nhits" Title="FActive" Unit="Fraction" Internal="nactive_D_nhits" Type="F" Min="4.52380955e-01" Max="1.00000000e+00"/>
    <Variable VarIndex="2" Expression="log10(fitcon)" Label="log10(fitcon)" Title="LogFitCon" Unit="Probability" Internal="log10_fitcon_" Type="F" Min="-3.66473846e+01" Max="0.00000000e+00"/>
    <Variable VarIndex="3" Expression="fitmomerr" Label="fitmomerr" Title="FitMomErr" Unit="MeV/c" Internal="fitmomerr" Type="F" Min="4.60484251e-02" Max="2.12321401e+00"/>
    <Variable VarIndex="4" Expression="t0err" Label="t0err" Title="T0Err" Unit="nsec" Internal="t0err" Type="F" Min="1.47604078e-01" Max="2.08837867e+00"/>
    <Variable VarIndex="5" Expression="d0" Label="d0" Title="D0" Unit="mm" Internal="d0" Type="F" Min="-2.20050201e+02" Max="2.61912628e+02"/>
    <Variable VarIndex="6" Expression="d0+2./om" Label="d0+2./om" Title="MaxRadius" Unit="mm" Internal="d0_P_2._D_om" Type="F" Min="4.24114380e+02" Max="6.78706726e+02"/>
    <Variable VarIndex="7" Expression="ndactive/nactive" Label="ndactive/nactive" Title="DoubleHitFraction" Unit="Fraction" Internal="ndactive_D_nactive" Type="F" Min="9.09090936e-02" Max="1.00000000e+00"/>
  </Variables>
  <Spectators NSpec="0"/>
  <Classes NClass="2">
    <Class Name="Background" Index="0"/>
    <Class Name="Signal" Index="1"/>
  </Classes>
  <Transformations NTransformations="1">
    <Transform Name="Normalize">
      <Selection>
        <Input NInputs="8">
          <Input Type="Variable" Label="nactive" Expression="nactive"/>
          <Input Type="Variable" Label="nactive/nhits" Expression="nactive/nhits"/>
          <Input Type="Variable" Label="log10(fitcon)" Expression="log10(fitcon)"/>
          <Input Type="Variable" Label="fitmomerr" Expression="fitmomerr"/>
          <Input Type="Variable" Label="t0err" Expression="t0err"/>
          <Input Type="Variable" Label="d0" Expression="d0"/>
          <Input Type="Variable" Label="d0+2./om" Expression="d0+2./om"/>
          <Input Type="Variable" Label="ndactive/nactive" Expression="ndactive/nactive"/>
        </Input>
        <Output NOutputs="8">
          <Output Type="Variable" Label="nactive" Expression="nactive"/>
          <Output Type="Variable" Label="nactive/nhits" Expression="nactive/nhits"/>
          <Output Type="Variable" Label="log10(fitcon)" Expression="log10(fitcon)"/>
          <Output Type="Variable" Label="fitmomerr" Expression="fitmomerr"/>
          <Output Type="Variable" Label="t0err" Expression="t0err"/>
          <Output Type="Variable" Label="d0" Expression="d0"/>
          <Output Type="Variable" Label="d0+2./om" Expression="d0+2./om"/>
          <Output Type="Variable" Label="ndactive/nactive" Expression="ndactive/nactive"/>
        </Output>
      </Selection>
      <Class ClassIndex="0">
        <Ranges>
          <Range Index="0" Min="1.5000000000000000e+01" Max="7.6000000000000000e+01"/>
          <Range Index="1" Min="4.5238095521926880e-01" Max="1.0000000000000000e+00"/>
          <Range Index="2" Min="-3.6647384643554688e+01" Max="-2.7543543183128349e-05"/>
          <Range Index="3" Min="6.0426656156778336e-02" Max="2.1232140064239502e+00"/>
          <Range Index="4" Min="1.6060923039913177e-01" Max="2.0883786678314209e+00"/>
          <Range Index="5" Min="-2.2005020141601562e+02" Max="9.3436714172363281e+01"/>
          <Range Index="6" Min="4.2411437988281250e+02" Max="6.7870672607421875e+02"/>
          <Range Index="7" Min="9.0909093618392944e-02" Max="1.0000000000000000e+00"/>
        </Ranges>
      </Class>
      <Class ClassIndex="1">
        <Ranges>
          <Range Index="0" Min="1.5000000000000000e+01" Max="1.0900000000000000e+02"/>
          <Range Index="1" Min="5.6250000000000000e-01" Max="1.0000000000000000e+00"/>
          <Range Index="2" Min="-2.4816295623779297e+01" Max="0.0000000000000000e+00"/>
          <Range Index="3" Min="4.6048425137996674e-02" Max="6.5320777893066406e-01"/>
          <Range Index="4" Min="1.4760407805442810e-01" Max="1.6103589534759521e+00"/>
          <Range Index="5" Min="-1.0782993316650391e+02" Max="2.6191262817382812e+02"/>
          <Range Index="6" Min="4.2658068847656250e+02" Max="6.7662646484375000e+02"/>
          <Range Index="7" Min="9.0909093618392944e-02" Max="1.0000000000000000e+00"/>
        </Ranges>
      </Class>
      <Class ClassIndex="2">
        <Ranges>
          <Range Index="0" Min="1.5000000000000000e+01" Max="1.0900000000000000e+02"/>
          <Range Index="1" Min="4.5238095521926880e-01" Max="1.0000000000000000e+00"/>
          <Range Index="2" Min="-3.6647384643554688e+01" Max="0.0000000000000000e+00"/>
          <Range Index="3" Min="4.6048425137996674e-02" Max="2.1232140064239502e+00"/>
          <Range Index="4" Min="1.4760407805442810e-01" Max="2.0883786678314209e+00"/>
          <Range Index="5" Min="-2.2005020141601562e+02" Max="2.6191262817382812e+02"/>
          <Range Index="6" Min="4.2411437988281250e+02" Max="6.7870672607421875e+02"/>
          <Range Index="7" Min="9.0909093618392944e-02" Max="1.0000000000000000e+00"/>
        </Ranges>
      </Class>
    </Transform>
  </Transformations>
  <MVAPdfs/>
  <Weights>
    <Layout NLayers="4">
      <Layer Index="0" NNeurons="9">
        <Neuron NSynapses="8">
          -2.2601624567095890e-01 1.6399800153368433e+00 7.7444618875961124e-01 2.5017842125626344e+00 -2.7669280210369886e+00 -1.7805996291383603e+00 4.0020660291126164e-01 1.6739822511493503e+00 
        </Neuron>
        <Neuron NSynapses="8">
          -1.5800835118054715e+00 -1.5892202949039461e-01 -1.0583276597270281e+00 6.1187734218941714e-01 -1.7801462929745540e+00 -1.1848973412904980e+00 2.7761976528215332e-01 1.0313696597491926e+00 
        </Neuron>
        <Neuron NSynapses="8">
          -6.3698070729248812e-01 2.6498709260053759e+00 2.3345503796029285e-01 1.1756711657806769e+00 -2.7491899736175203e+00 -1.5464552946511314e+00 1.1171593650289242e+00 5.8202782057967295e-01 
        </Neuron>
        <Neuron NSynapses="8">
          -6.7190733181354412e-01 -2.3118324702746937e+00 1.2547553773847013e+00 1.2883110281200288e-01 1.1283252810661748e+00 1.8103821765937362e+00 9.7385385704967464e-02 1.5884039785252906e+00 
        </Neuron>
        <Neuron NSynapses="8">
          1.1250214744387164e-01 -4.5861137774824395e-01 -1.0518566862945777e-01 -1.5403882020192014e-01 7.5025658491847735e-01 1.8737870573883668e+00 -1.9024011985857827e+00 4.4761022899136682e-01 
        </Neuron>
        <Neuron NSynapses="8">
          9.8876018489728834e-01 6.6089487024711691e-01 1.8399216930406606e+00 1.3931792976462642e+00 -8.6145092724641803e-01 -3.0551562479466332e+00 1.2732657473457305e+00 8.8668017245968955e-02 
        </Neuron>
        <Neuron NSynapses="8">
          1.2866086224550950e+00 6.8036061133346548e-01 1.5151582379281268e+00 6.7040859304878753e-01 2.6415611511460113e-01 1.2534422796638771e+00 -1.4555602332841513e+00 -1.0634368825040998e+00 
        </Neuron>
        <Neuron NSynapses="8">
          -1.2085367350208680e+00 -7.2063740567031642e-01 1.7609065449093941e+00 3.3212760531010237e-02 -7.3132235548291791e-01 6.5415733639314841e-02 -5.1867644773406774e-01 4.5554007847573402e-01 
        </Neuron>
        <Neuron NSynapses="8">
          2.0108378272719518e+00 -2.4268469656291503e+00 9.9646886926715017e-01 -8.2599904578941549e-02 3.2459411223729608e+00 2.1833161334333901e+00 -1.9554594624166213e+00 -4.3883762677728622e-01 
        </Neuron>
      </Layer>
      <Layer Index="1" NNeurons="9">
        <Neuron NSynapses="7">
          5.5508855201505247e-01 -7.7791180168508223e-01 1.0929009814930069e+00 -1.4288340802193536e-01 -2.0226630498501739e+00 -1.9703964756775219e+00 9.1186009376207600e-01 
        </Neuron>
        <Neuron NSynapses="7">
          3.7404124098307218e-01 3.9211645799609722e+00 7.6698567315718058e-02 1.2137643483627141e+00 -6.6252458550224003e-01 -5.4504437442468590e-01 -3.8778988408206955e-01 
        </Neuron>
        <Neuron NSynapses="7">
          1.1230762979265565e+00 -1.7442583425191589e+00 -1.7068229397302546e+00 -1.6263000193473569e+00 -4.7762820745633339e-01 -1.9333403141523434e-01 1.5953159492608373e+00 
        </Neuron>
        <Neuron NSynapses="7">
          -1.6568883106730634e+00 -5.8744932416513862e-01 1.1747923450687201e+00 -7.5336172186257389e-01 -1.8699212582278690e+00 -1.2793103471104175e+00 -5.7024557240047555e-02 
        </Neuron>
        <Neuron NSynapses="7">
          -1.8340273575489991e+00 -4.1817931982162646e+00 2.0996309861001730e-01 2.2413203805949120e+00 -1.2362386280591930e+00 1.3481185206831285e+00 2.5646865748792086e-01 
        </Neuron>
        <Neuron NSynapses="7">
          -9.8838529608473258e-01 -3.7236012486333059e+00 8.2733899719256065e-01 -1.9695992971708618e+00 -5.5758720639758863e-01 -2.2312360285977506e-01 8.3253991995433296e-01 
        </Neuron>
        <Neuron NSynapses="7">
          -1.5096427912839860e+00 2.0915777956992079e+00 3.5630037467157044e-01 -7.0431709589677494e-01 4.5569541897100679e-01 -9.1063891630207816e-01 -1.7734542278664569e+00 
        </Neuron>
        <Neuron NSynapses="7">
          5.5854751006767372e-02 -1.2070425763930188e+00 1.9949581015589544e+00 4.5554657301206369e-01 -2.9252268646345941e-01 -3.2769419716577514e-01 -9.5725872548446056e-02 
        </Neuron>
        <Neuron NSynapses="7">
          -2.0344145425697491e+00 -2.3537072372393186e-01 -2.0299750068699390e-01 -1.3287149147424240e+00 1.1796091844913550e-01 -1.7126065563163768e+00 1.2179138269720013e-01 
        </Neuron>
      </Layer>
      <Layer Index="2" NNeurons="8">
        <Neuron NSynapses="1">
          9.2298151125848227e-01 
        </Neuron>
        <Neuron NSynapses="1">
          1.7006793412774490e+00 
        </Neuron>
        <Neuron NSynapses="1">
          -8.4702171602960563e-01 
        </Neuron>
        <Neuron NSynapses="1">
          1.3391288690584300e+00 
        </Neuron>
        <Neuron NSynapses="1">
          8.9714929178942493e-01 
        </Neuron>
        <Neuron NSynapses="1">
          1.2781443726795911e+00 
        </Neuron>
        <Neuron NSynapses="1">
          8.9885170622040922e-01 
        </Neuron>
        <Neuron NSynapses="1">
          -5.2309384802398917e-01 
        </Neuron>
      </Layer>
      <Layer Index="3" NNeurons="1">
        <Neuron NSynapses="0"/>
      </Layer>
    </Layout>
  </Weights>
</MethodSetup>
