<?xml version="1.0"?>
<MethodSetup Method="MLP::MLP">
  <GeneralInfo>
    <Info name="TMVA Release" value="4.2.0 [262656]"/>
    <Info name="ROOT Release" value="5.34/18 [336402]"/>
    <Info name="Creator" value="brownd"/>
    <Info name="Date" value="Fri Sep 26 14:30:06 2014"/>
    <Info name="Host" value="Linux larsoftdev5.fnal.gov 2.6.18-371.8.1.el5 #1 SMP Thu Apr 24 14:03:58 CDT 2014 x86_64 x86_64 x86_64 GNU/Linux"/>
    <Info name="Dir" value="/home/online1/brownd/mu2e/Mu2eSim/art11/Offline"/>
    <Info name="Training events" value="54847"/>
    <Info name="TrainingTime" value="6.20889302e+02"/>
    <Info name="AnalysisType" value="Classification"/>
  </GeneralInfo>
  <Options>
    <Option name="NCycles" modified="No">500</Option>
    <Option name="HiddenLayers" modified="No">N,N-1</Option>
    <Option name="NeuronType" modified="No">sigmoid</Option>
    <Option name="RandomSeed" modified="No">1</Option>
    <Option name="EstimatorType" modified="No">MSE</Option>
    <Option name="NeuronInputType" modified="No">sum</Option>
    <Option name="V" modified="Yes">False</Option>
    <Option name="VerbosityLevel" modified="No">Default</Option>
    <Option name="VarTransform" modified="Yes">N</Option>
    <Option name="H" modified="Yes">False</Option>
    <Option name="CreateMVAPdfs" modified="No">False</Option>
    <Option name="IgnoreNegWeightsInTraining" modified="No">False</Option>
    <Option name="TrainingMethod" modified="No">BP</Option>
    <Option name="LearningRate" modified="No">2.000000e-02</Option>
    <Option name="DecayRate" modified="No">1.000000e-02</Option>
    <Option name="TestRate" modified="No">10</Option>
    <Option name="EpochMonitoring" modified="No">False</Option>
    <Option name="Sampling" modified="No">1.000000e+00</Option>
    <Option name="SamplingEpoch" modified="No">1.000000e+00</Option>
    <Option name="SamplingImportance" modified="No">1.000000e+00</Option>
    <Option name="SamplingTraining" modified="No">True</Option>
    <Option name="SamplingTesting" modified="No">False</Option>
    <Option name="ResetStep" modified="No">50</Option>
    <Option name="Tau" modified="No">3.000000e+00</Option>
    <Option name="BPMode" modified="No">sequential</Option>
    <Option name="BatchSize" modified="No">-1</Option>
    <Option name="ConvergenceImprove" modified="No">1.000000e-30</Option>
    <Option name="ConvergenceTests" modified="No">-1</Option>
    <Option name="UseRegulator" modified="No">False</Option>
    <Option name="UpdateLimit" modified="No">10000</Option>
    <Option name="CalculateErrors" modified="No">False</Option>
    <Option name="WeightRange" modified="No">1.000000e+00</Option>
  </Options>
  <Variables NVar="8">
    <Variable VarIndex="0" Expression="nactive" Label="nactive" Title="NActive" Unit="Count" Internal="nactive" Type="I" Min="1.50000000e+01" Max="1.09000000e+02"/>
    <Variable VarIndex="1" Expression="nactive/nhits" Label="nactive/nhits" Title="FActive" Unit="Fraction" Internal="nactive_D_nhits" Type="F" Min="4.49999988e-01" Max="1.00000000e+00"/>
    <Variable VarIndex="2" Expression="log10(fitcon)" Label="log10(fitcon)" Title="LogFitCon" Unit="Probability" Internal="log10_fitcon_" Type="F" Min="-3.39126205e+01" Max="0.00000000e+00"/>
    <Variable VarIndex="3" Expression="fitmomerr" Label="fitmomerr" Title="FitMomErr" Unit="MeV/c" Internal="fitmomerr" Type="F" Min="4.86178882e-02" Max="1.36726141e+00"/>
    <Variable VarIndex="4" Expression="t0err" Label="t0err" Title="T0Err" Unit="nsec" Internal="t0err" Type="F" Min="1.52240798e-01" Max="2.30047154e+00"/>
    <Variable VarIndex="5" Expression="d0" Label="d0" Title="D0" Unit="mm" Internal="d0" Type="F" Min="-4.38118347e+02" Max="1.97642456e+02"/>
    <Variable VarIndex="6" Expression="d0+2./om" Label="d0+2./om" Title="MaxRadius" Unit="mm" Internal="d0_P_2._D_om" Type="F" Min="-3.84096298e+01" Max="6.79560852e+02"/>
    <Variable VarIndex="7" Expression="ndactive/nactive" Label="ndactive/nactive" Title="DoubleHitFraction" Unit="Fraction" Internal="ndactive_D_nactive" Type="F" Min="1.17647059e-01" Max="1.00000000e+00"/>
  </Variables>
  <Spectators NSpec="0"/>
  <Classes NClass="2">
    <Class Name="Background" Index="0"/>
    <Class Name="Signal" Index="1"/>
  </Classes>
  <Transformations NTransformations="1">
    <Transform Name="Normalize">
      <Selection>
        <Input NInputs="8">
          <Input Type="Variable" Label="nactive" Expression="nactive"/>
          <Input Type="Variable" Label="nactive/nhits" Expression="nactive/nhits"/>
          <Input Type="Variable" Label="log10(fitcon)" Expression="log10(fitcon)"/>
          <Input Type="Variable" Label="fitmomerr" Expression="fitmomerr"/>
          <Input Type="Variable" Label="t0err" Expression="t0err"/>
          <Input Type="Variable" Label="d0" Expression="d0"/>
          <Input Type="Variable" Label="d0+2./om" Expression="d0+2./om"/>
          <Input Type="Variable" Label="ndactive/nactive" Expression="ndactive/nactive"/>
        </Input>
        <Output NOutputs="8">
          <Output Type="Variable" Label="nactive" Expression="nactive"/>
          <Output Type="Variable" Label="nactive/nhits" Expression="nactive/nhits"/>
          <Output Type="Variable" Label="log10(fitcon)" Expression="log10(fitcon)"/>
          <Output Type="Variable" Label="fitmomerr" Expression="fitmomerr"/>
          <Output Type="Variable" Label="t0err" Expression="t0err"/>
          <Output Type="Variable" Label="d0" Expression="d0"/>
          <Output Type="Variable" Label="d0+2./om" Expression="d0+2./om"/>
          <Output Type="Variable" Label="ndactive/nactive" Expression="ndactive/nactive"/>
        </Output>
      </Selection>
      <Class ClassIndex="0">
        <Ranges>
          <Range Index="0" Min="1.5000000000000000e+01" Max="7.7000000000000000e+01"/>
          <Range Index="1" Min="4.4999998807907104e-01" Max="1.0000000000000000e+00"/>
          <Range Index="2" Min="-3.3912620544433594e+01" Max="-1.7343945728498511e-05"/>
          <Range Index="3" Min="5.8044768869876862e-02" Max="1.3672614097595215e+00"/>
          <Range Index="4" Min="2.1018819510936737e-01" Max="2.3004715442657471e+00"/>
          <Range Index="5" Min="-4.1571493530273438e+02" Max="1.0159713745117188e+02"/>
          <Range Index="6" Min="4.2488638305664062e+02" Max="6.7217285156250000e+02"/>
          <Range Index="7" Min="1.1764705926179886e-01" Max="1.0000000000000000e+00"/>
        </Ranges>
      </Class>
      <Class ClassIndex="1">
        <Ranges>
          <Range Index="0" Min="1.5000000000000000e+01" Max="1.0900000000000000e+02"/>
          <Range Index="1" Min="4.5283019542694092e-01" Max="1.0000000000000000e+00"/>
          <Range Index="2" Min="-2.3051471710205078e+01" Max="0.0000000000000000e+00"/>
          <Range Index="3" Min="4.8617888242006302e-02" Max="8.3836114406585693e-01"/>
          <Range Index="4" Min="1.5224079787731171e-01" Max="1.7259703874588013e+00"/>
          <Range Index="5" Min="-4.3811834716796875e+02" Max="1.9764245605468750e+02"/>
          <Range Index="6" Min="-3.8409629821777344e+01" Max="6.7956085205078125e+02"/>
          <Range Index="7" Min="2.0000000298023224e-01" Max="1.0000000000000000e+00"/>
        </Ranges>
      </Class>
      <Class ClassIndex="2">
        <Ranges>
          <Range Index="0" Min="1.5000000000000000e+01" Max="1.0900000000000000e+02"/>
          <Range Index="1" Min="4.4999998807907104e-01" Max="1.0000000000000000e+00"/>
          <Range Index="2" Min="-3.3912620544433594e+01" Max="0.0000000000000000e+00"/>
          <Range Index="3" Min="4.8617888242006302e-02" Max="1.3672614097595215e+00"/>
          <Range Index="4" Min="1.5224079787731171e-01" Max="2.3004715442657471e+00"/>
          <Range Index="5" Min="-4.3811834716796875e+02" Max="1.9764245605468750e+02"/>
          <Range Index="6" Min="-3.8409629821777344e+01" Max="6.7956085205078125e+02"/>
          <Range Index="7" Min="1.1764705926179886e-01" Max="1.0000000000000000e+00"/>
        </Ranges>
      </Class>
    </Transform>
  </Transformations>
  <MVAPdfs/>
  <Weights>
    <Layout NLayers="4">
      <Layer Index="0" NNeurons="9">
        <Neuron NSynapses="8">
          -4.8650507542978327e-01 2.2897358932861827e+00 1.7177423240772234e+00 6.1549576121983274e-01 -2.6696305698346214e+00 -2.1226947267467366e+00 -1.3579383755765720e-01 1.8740742078878274e+00 
        </Neuron>
        <Neuron NSynapses="8">
          -1.3124710315042731e+00 -1.8270682988871462e-01 -9.7674520625796191e-01 2.3706567533760317e-01 -2.3042442999856139e+00 -7.8560176897612510e-01 -5.0916438904204442e-02 7.7143613489716545e-01 
        </Neuron>
        <Neuron NSynapses="8">
          -2.8443781199412016e-01 2.6297988467478932e+00 -5.8845657198395862e-01 2.2091267812358981e+00 -2.0693618368133353e+00 -1.3016492237541260e+00 1.7674835086292873e+00 2.2502449957330389e-01 
        </Neuron>
        <Neuron NSynapses="8">
          -1.1755973491323035e+00 -1.6880844007857834e+00 2.5885265895214906e+00 -1.4276869973474171e+00 3.2344207011378029e-01 1.1637926146201361e+00 -1.1075660840459398e+00 1.6377709616412077e+00 
        </Neuron>
        <Neuron NSynapses="8">
          -4.2781670210017941e-01 -9.4507760410496577e-01 3.9807610248444375e-01 -5.3728936463560417e-01 3.8746498043115962e-01 2.0578832474832445e+00 -1.9044955632007468e+00 1.0401874220464793e+00 
        </Neuron>
        <Neuron NSynapses="8">
          1.1726777732727769e+00 9.5895797336786681e-01 1.6242997361543814e+00 1.2608097021702107e+00 -9.6500807989595960e-01 -1.8544339656660498e+00 1.8557762755243239e+00 6.8079343155671324e-02 
        </Neuron>
        <Neuron NSynapses="8">
          1.6088703080905247e+00 6.8384504940065260e-01 2.1080686098839885e+00 1.9436949270136341e+00 -2.7194042721401152e-01 2.0473487197568150e+00 -2.0499089531573089e+00 -8.3925169854668147e-01 
        </Neuron>
        <Neuron NSynapses="8">
          -1.2220285386355290e+00 -8.2017730957469914e-01 1.2804714776609301e+00 1.0302572336662694e+00 -1.2263743982134971e+00 8.6810231934129956e-02 1.8847281282879949e-01 7.5011636840265894e-01 
        </Neuron>
        <Neuron NSynapses="8">
          1.9742127945961239e+00 -2.4566845641423694e+00 2.1502539845240802e+00 5.3882102145072129e-02 2.9335244407391712e+00 1.3695209939293667e+00 -3.1404805581913373e+00 -1.2460868191188565e+00 
        </Neuron>
      </Layer>
      <Layer Index="1" NNeurons="9">
        <Neuron NSynapses="7">
          4.0768925323763694e-01 3.2285283122377573e-01 1.4196304320012554e+00 -2.9131447401069943e-01 -2.2594755530216131e+00 -1.7892716684982142e+00 1.2325925380277722e+00 
        </Neuron>
        <Neuron NSynapses="7">
          1.8578266444547442e-01 3.8420643646384702e+00 6.5208562857040686e-01 1.0394210031081574e+00 -1.0023691161510562e+00 -4.9929940553764991e-02 -5.6717747955475573e-02 
        </Neuron>
        <Neuron NSynapses="7">
          9.3450327727156668e-01 -3.4871228449231961e+00 -1.5111799637290260e+00 -1.6597915222925534e+00 -5.3423006852664390e-01 7.6739668119086613e-02 1.6288680001018132e+00 
        </Neuron>
        <Neuron NSynapses="7">
          -1.9401917755139677e+00 -1.0424169379312820e+00 1.6197252389968599e+00 -7.5235300232777058e-01 -1.7566846802818401e+00 -1.0294390981730015e+00 4.5940006430249319e-01 
        </Neuron>
        <Neuron NSynapses="7">
          -1.9090864427533860e+00 -3.8598098775486802e+00 6.0516168442354845e-01 1.7702904150465903e+00 -1.1524529019171086e+00 1.4775128196467806e+00 -3.5332680459096288e-01 
        </Neuron>
        <Neuron NSynapses="7">
          -9.1971793063247997e-01 -3.2938979594062316e+00 4.0888360176915378e-01 -1.7718516454477635e+00 9.2058196872581613e-02 -1.9729025748284404e-01 6.4948983603854271e-01 
        </Neuron>
        <Neuron NSynapses="7">
          -1.5977305273631395e+00 4.3921011352580575e+00 3.6815432774677820e-01 -8.7290698258243038e-01 6.8790940847512050e-01 -2.7040277955050979e-01 -1.3148212288946193e+00 
        </Neuron>
        <Neuron NSynapses="7">
          1.0818997982673256e-01 -6.2849255181115582e-01 1.8279421176669794e+00 7.5532591569709817e-01 -7.5083462508338306e-02 -4.3377779598202659e-01 7.9885769272600021e-02 
        </Neuron>
        <Neuron NSynapses="7">
          -2.1935324177673001e+00 -2.2234191660473154e-01 2.8510740683289287e-01 -1.7854724535004458e+00 2.3508946035715519e-01 -1.4989452324482371e+00 1.7652737843949051e-01 
        </Neuron>
      </Layer>
      <Layer Index="2" NNeurons="8">
        <Neuron NSynapses="1">
          7.2436109726351938e-01 
        </Neuron>
        <Neuron NSynapses="1">
          1.1296548839821259e+00 
        </Neuron>
        <Neuron NSynapses="1">
          -1.0774763767180467e-01 
        </Neuron>
        <Neuron NSynapses="1">
          4.3573411994317579e-01 
        </Neuron>
        <Neuron NSynapses="1">
          1.1997931047882648e+00 
        </Neuron>
        <Neuron NSynapses="1">
          1.3099571381546533e+00 
        </Neuron>
        <Neuron NSynapses="1">
          2.6429370549229525e-01 
        </Neuron>
        <Neuron NSynapses="1">
          -2.1231093271665047e-01 
        </Neuron>
      </Layer>
      <Layer Index="3" NNeurons="1">
        <Neuron NSynapses="0"/>
      </Layer>
    </Layout>
  </Weights>
</MethodSetup>
