<?xml version="1.0"?>
<MethodSetup Method="MLP::MLP">
  <GeneralInfo>
    <Info name="TMVA Release" value="4.2.1 [262657]"/>
    <Info name="ROOT Release" value="6.10/08 [395784]"/>
    <Info name="Creator" value="brownd"/>
    <Info name="Date" value="Thu Feb  1 13:44:38 2018"/>
    <Info name="Host" value="Linux buildservice001.fnal.gov 2.6.32-696.1.1.el6.x86_64 #1 SMP Tue Apr 11 08:56:50 CDT 2017 x86_64 x86_64 x86_64 GNU/Linux"/>
    <Info name="Dir" value="/home/online1/brownd/mu2e/Mu2eSim/triggerDev/Offline"/>
    <Info name="Training events" value="14411"/>
    <Info name="TrainingTime" value="4.98326765e+02"/>
    <Info name="AnalysisType" value="Classification"/>
  </GeneralInfo>
  <Options>
    <Option name="NCycles" modified="No">500</Option>
    <Option name="HiddenLayers" modified="No">N,N-1</Option>
    <Option name="NeuronType" modified="No">sigmoid</Option>
    <Option name="RandomSeed" modified="No">1</Option>
    <Option name="EstimatorType" modified="No">CE</Option>
    <Option name="NeuronInputType" modified="No">sum</Option>
    <Option name="V" modified="Yes">False</Option>
    <Option name="VerbosityLevel" modified="No">Default</Option>
    <Option name="VarTransform" modified="Yes">N</Option>
    <Option name="H" modified="Yes">True</Option>
    <Option name="CreateMVAPdfs" modified="No">False</Option>
    <Option name="IgnoreNegWeightsInTraining" modified="No">False</Option>
    <Option name="TrainingMethod" modified="No">BP</Option>
    <Option name="LearningRate" modified="No">2.000000e-02</Option>
    <Option name="DecayRate" modified="No">1.000000e-02</Option>
    <Option name="TestRate" modified="No">10</Option>
    <Option name="EpochMonitoring" modified="No">False</Option>
    <Option name="Sampling" modified="No">1.000000e+00</Option>
    <Option name="SamplingEpoch" modified="No">1.000000e+00</Option>
    <Option name="SamplingImportance" modified="No">1.000000e+00</Option>
    <Option name="SamplingTraining" modified="No">True</Option>
    <Option name="SamplingTesting" modified="No">False</Option>
    <Option name="ResetStep" modified="No">50</Option>
    <Option name="Tau" modified="No">3.000000e+00</Option>
    <Option name="BPMode" modified="No">sequential</Option>
    <Option name="BatchSize" modified="No">-1</Option>
    <Option name="ConvergenceImprove" modified="No">1.000000e-30</Option>
    <Option name="ConvergenceTests" modified="No">-1</Option>
    <Option name="UseRegulator" modified="No">False</Option>
    <Option name="UpdateLimit" modified="No">10000</Option>
    <Option name="CalculateErrors" modified="No">False</Option>
    <Option name="WeightRange" modified="No">1.000000e+00</Option>
  </Options>
  <Variables NVar="9">
    <Variable VarIndex="0" Expression="HitRho" Label="HitRho" Title="Cluster Hit Rho" Unit="F" Internal="HitRho" Type="F" Min="3.97197753e-02" Max="8.66994934e+01"/>
    <Variable VarIndex="1" Expression="HitRhoSpread" Label="HitRhoSpread" Title="Cluster Hit Rho RMS" Unit="F" Internal="HitRhoSpread" Type="F" Min="2.97981165e-02" Max="4.97293053e+01"/>
    <Variable VarIndex="2" Expression="ClusterRho" Label="ClusterRho" Title="Cluster transverse Radius" Unit="F" Internal="ClusterRho" Type="F" Min="3.80079865e+02" Max="8.65067993e+02"/>
    <Variable VarIndex="3" Expression="ZMin" Label="ZMin" Title="Z of first hit" Unit="F" Internal="ZMin" Type="F" Min="-1.51847034e+03" Max="1.46777637e+03"/>
    <Variable VarIndex="4" Expression="ZMax" Label="ZMax" Title="Z of last hit" Unit="F" Internal="ZMax" Type="F" Min="-1.46777637e+03" Max="1.51847034e+03"/>
    <Variable VarIndex="5" Expression="ZGap" Label="ZGap" Title="Biggest z gap between hits" Unit="F" Internal="ZGap" Type="F" Min="2.27473145e+01" Max="3.03333203e+03"/>
    <Variable VarIndex="6" Expression="NPlanes" Label="NPlanes" Title="Number of Planes" Unit="F" Internal="NPlanes" Type="F" Min="2.00000000e+00" Max="3.60000000e+01"/>
    <Variable VarIndex="7" Expression="PlaneFraction" Label="PlaneFraction" Title="Plane Fraction" Unit="F" Internal="PlaneFraction" Type="F" Min="5.00000007e-02" Max="1.00000000e+00"/>
    <Variable VarIndex="8" Expression="NHits" Label="NHits" Title="Number of hits" Unit="F" Internal="NHits" Type="F" Min="3.00000000e+00" Max="1.51000000e+02"/>
  </Variables>
  <Spectators NSpec="0"/>
  <Classes NClass="2">
    <Class Name="Signal" Index="0"/>
    <Class Name="Background" Index="1"/>
  </Classes>
  <Transformations NTransformations="1">
    <Transform Name="Normalize">
      <Selection>
        <Input NInputs="9">
          <Input Type="Variable" Label="HitRho" Expression="HitRho"/>
          <Input Type="Variable" Label="HitRhoSpread" Expression="HitRhoSpread"/>
          <Input Type="Variable" Label="ClusterRho" Expression="ClusterRho"/>
          <Input Type="Variable" Label="ZMin" Expression="ZMin"/>
          <Input Type="Variable" Label="ZMax" Expression="ZMax"/>
          <Input Type="Variable" Label="ZGap" Expression="ZGap"/>
          <Input Type="Variable" Label="NPlanes" Expression="NPlanes"/>
          <Input Type="Variable" Label="PlaneFraction" Expression="PlaneFraction"/>
          <Input Type="Variable" Label="NHits" Expression="NHits"/>
        </Input>
        <Output NOutputs="9">
          <Output Type="Variable" Label="HitRho" Expression="HitRho"/>
          <Output Type="Variable" Label="HitRhoSpread" Expression="HitRhoSpread"/>
          <Output Type="Variable" Label="ClusterRho" Expression="ClusterRho"/>
          <Output Type="Variable" Label="ZMin" Expression="ZMin"/>
          <Output Type="Variable" Label="ZMax" Expression="ZMax"/>
          <Output Type="Variable" Label="ZGap" Expression="ZGap"/>
          <Output Type="Variable" Label="NPlanes" Expression="NPlanes"/>
          <Output Type="Variable" Label="PlaneFraction" Expression="PlaneFraction"/>
          <Output Type="Variable" Label="NHits" Expression="NHits"/>
        </Output>
      </Selection>
      <Class ClassIndex="0">
        <Ranges>
          <Range Index="0" Min="3.9719775319099426e-02" Max="8.6699493408203125e+01"/>
          <Range Index="1" Min="2.9798116534948349e-02" Max="4.9729305267333984e+01"/>
          <Range Index="2" Min="3.8007986450195312e+02" Max="8.6506799316406250e+02"/>
          <Range Index="3" Min="-1.5184703369140625e+03" Max="1.4677763671875000e+03"/>
          <Range Index="4" Min="-1.4677763671875000e+03" Max="1.5184703369140625e+03"/>
          <Range Index="5" Min="2.2747314453125000e+01" Max="3.0333320312500000e+03"/>
          <Range Index="6" Min="2.0000000000000000e+00" Max="3.6000000000000000e+01"/>
          <Range Index="7" Min="5.0000000745058060e-02" Max="1.0000000000000000e+00"/>
          <Range Index="8" Min="3.0000000000000000e+00" Max="1.5100000000000000e+02"/>
        </Ranges>
      </Class>
      <Class ClassIndex="1">
        <Ranges>
          <Range Index="0" Min="3.9625930786132812e-01" Max="7.4899635314941406e+01"/>
          <Range Index="1" Min="1.2370512485504150e+00" Max="4.9336273193359375e+01"/>
          <Range Index="2" Min="3.8103115844726562e+02" Max="6.6752941894531250e+02"/>
          <Range Index="3" Min="-1.5184703369140625e+03" Max="1.4398297119140625e+03"/>
          <Range Index="4" Min="-1.4398297119140625e+03" Max="1.5184703369140625e+03"/>
          <Range Index="5" Min="2.5453674316406250e+01" Max="2.9835402832031250e+03"/>
          <Range Index="6" Min="2.0000000000000000e+00" Max="1.1000000000000000e+01"/>
          <Range Index="7" Min="5.4054055362939835e-02" Max="1.0000000000000000e+00"/>
          <Range Index="8" Min="3.0000000000000000e+00" Max="2.5000000000000000e+01"/>
        </Ranges>
      </Class>
      <Class ClassIndex="2">
        <Ranges>
          <Range Index="0" Min="3.9719775319099426e-02" Max="8.6699493408203125e+01"/>
          <Range Index="1" Min="2.9798116534948349e-02" Max="4.9729305267333984e+01"/>
          <Range Index="2" Min="3.8007986450195312e+02" Max="8.6506799316406250e+02"/>
          <Range Index="3" Min="-1.5184703369140625e+03" Max="1.4677763671875000e+03"/>
          <Range Index="4" Min="-1.4677763671875000e+03" Max="1.5184703369140625e+03"/>
          <Range Index="5" Min="2.2747314453125000e+01" Max="3.0333320312500000e+03"/>
          <Range Index="6" Min="2.0000000000000000e+00" Max="3.6000000000000000e+01"/>
          <Range Index="7" Min="5.0000000745058060e-02" Max="1.0000000000000000e+00"/>
          <Range Index="8" Min="3.0000000000000000e+00" Max="1.5100000000000000e+02"/>
        </Ranges>
      </Class>
    </Transform>
  </Transformations>
  <MVAPdfs/>
  <Weights>
    <Layout NLayers="4">
      <Layer Index="0" NNeurons="10">
        <Neuron NSynapses="9">
          -1.7288576275022598e+00 9.4606168934812562e-01 3.5673208579818536e+00 -2.8339397292181618e+00 6.2420871505721054e-01 -2.1967826911453265e+00 2.6078970543043813e+00 1.8211073559244324e+00 -3.3801214081620334e-01 
        </Neuron>
        <Neuron NSynapses="9">
          -3.0397815170424898e+00 -4.2035400716836504e+00 -2.5396399696477436e+00 -4.8912520700456008e-01 -1.9724519290942064e+00 8.1221491479571639e-01 8.3045592371601573e-01 -2.4476222476739671e+00 2.4799811816763118e+00 
        </Neuron>
        <Neuron NSynapses="9">
          4.1681956802076110e+00 3.7456083370190449e+00 -5.1300397628830243e+00 -1.3021306148629810e+01 5.9906019808948530e-01 3.1285075421960995e+00 2.7644522321882965e+00 -7.1351114419418349e-01 5.0266199898653898e+00 
        </Neuron>
        <Neuron NSynapses="9">
          -7.4048920715732114e-01 -9.0878645249094436e+00 6.9148323005371273e+00 1.6974932659422866e+00 -2.7585753873807950e+00 -8.5998298135167506e+00 3.6507112320375940e-01 -1.1047975163140947e+01 2.9581613409703338e+00 
        </Neuron>
        <Neuron NSynapses="9">
          -2.9817293312878417e+00 4.7484989265480069e+00 2.6121228203586724e+00 9.3303415405710122e-01 2.9976425520032195e+00 8.8420279149796919e+00 -4.1042316466236075e+00 1.0368744925698415e+01 7.9528981177363078e-01 
        </Neuron>
        <Neuron NSynapses="9">
          2.0944982217640251e+00 4.9082939683114590e+00 -2.5224557353032049e+00 -7.5283813618960416e-01 1.4933729585554175e+01 3.5193211170062986e+00 1.0504695568014791e+01 -4.3110326154610830e+00 2.2650461877136885e+00 
        </Neuron>
        <Neuron NSynapses="9">
          -2.0707893219052558e+00 5.2482518514678258e+00 -5.0388740360601965e+00 -6.1957204960855252e+00 -1.3842463128678755e+00 6.4845307170007507e+00 -1.0942262651636515e+01 9.8326361331500856e+00 4.8851014044524194e-01 
        </Neuron>
        <Neuron NSynapses="9">
          -9.5981662432057399e-02 5.1662293961034660e+00 -1.0635245174885934e+01 -1.0378850465059413e+00 -1.2270203287648564e+00 7.8047275386516557e-01 -9.6533080882866358e+00 -1.1257500547214587e+00 -3.4764330526664424e+00 
        </Neuron>
        <Neuron NSynapses="9">
          1.1406316583710496e+00 2.2957436427649545e+00 2.7355672275411802e+00 5.1689203629300517e-01 1.5743606080834878e+00 -1.2878316110030421e+00 6.9930806128803713e+00 2.2793095547122544e+00 -4.5996775544238616e-01 
        </Neuron>
        <Neuron NSynapses="9">
          -1.9689724089859033e+00 2.2177666587957945e+00 -4.5809760919438212e+00 -3.2506317806273639e+00 3.1151420651877766e+00 6.5986405283989162e+00 -4.3292966748303130e-01 6.8901856138301465e+00 -1.7878396258366911e+00 
        </Neuron>
      </Layer>
      <Layer Index="1" NNeurons="10">
        <Neuron NSynapses="8">
          -1.9573596695549908e-01 -1.7676632129518319e+00 3.5696691588952451e-01 -1.3140384114889427e+00 -3.9154372707979177e+00 1.8771563831224496e+00 -5.8468018179680159e-01 -4.0522322635033712e+00 
        </Neuron>
        <Neuron NSynapses="8">
          -1.4802530318340607e-01 -2.4110021849581518e+00 -4.0578531957971054e+00 -8.1758108719497589e+00 8.6593556923510846e+00 4.1407526336400569e+00 4.4934882952344107e-01 8.8411004984290442e-01 
        </Neuron>
        <Neuron NSynapses="8">
          -8.0871553826052569e+00 4.6328079679720746e-01 -1.9985680695193315e-02 4.4053214493817903e+00 -1.0052239568763628e+01 -1.1752518522633155e+00 -1.4450099983024038e+00 -2.6530460154272979e+00 
        </Neuron>
        <Neuron NSynapses="8">
          -3.7400583093988611e+00 2.6142434104812384e+00 3.6400156030935299e-01 -6.0919923593418901e-01 -2.1368804743577021e+00 -3.3731301012268919e+00 -3.5298544496744455e+00 3.1428901767637063e+00 
        </Neuron>
        <Neuron NSynapses="8">
          -3.3587907206778578e+00 4.3244465579971365e+00 3.7428512321914091e+00 1.2182395812516102e+00 2.3156677249878781e+00 1.5345370134257164e+00 -5.5531136140339097e+00 6.8779687400072405e+00 
        </Neuron>
        <Neuron NSynapses="8">
          2.0375569997211171e-02 -4.4231808505439121e+00 -1.7374722816563686e+00 -2.3786129805399496e+00 2.7904257702730710e+00 7.7207660614128620e-02 5.9028350554078530e+00 -4.9696929210183383e+00 
        </Neuron>
        <Neuron NSynapses="8">
          -1.0912986600254180e+00 3.8053108740857189e+00 2.9188807938824759e+00 1.5064222819200797e+00 -3.5154113385531818e+00 9.6922705425767675e-01 -6.5022603958311525e+00 6.7015854246017614e+00 
        </Neuron>
        <Neuron NSynapses="8">
          4.3014046582848957e+00 -2.5818824347944260e+00 -2.5018055521465881e+00 1.0142469127268763e+00 3.1773446597523330e-01 -7.7298358356267804e-01 7.3540563338338751e+00 -3.5321052190914823e+00 
        </Neuron>
        <Neuron NSynapses="8">
          -6.1066789348770500e-01 -1.4435710061940694e+00 -2.4045969505076719e+00 2.7499887558134657e+00 1.6167284237642288e+00 -1.6049931981734034e+00 4.0955164537250326e+00 -1.7474528301439745e+00 
        </Neuron>
        <Neuron NSynapses="8">
          2.1842946272290100e+00 -9.3092616000162642e-01 -1.8368224722981781e+00 7.0614632431467972e-01 3.5769638179669307e-02 -7.3826629525728782e-01 -4.5461090999543297e-01 -1.7959434665735881e+00 
        </Neuron>
      </Layer>
      <Layer Index="2" NNeurons="9">
        <Neuron NSynapses="1">
          5.8909486804456730e+00 
        </Neuron>
        <Neuron NSynapses="1">
          -2.2644848311777261e+00 
        </Neuron>
        <Neuron NSynapses="1">
          -3.3678647449264769e+00 
        </Neuron>
        <Neuron NSynapses="1">
          7.3987406626080316e+00 
        </Neuron>
        <Neuron NSynapses="1">
          9.3617088762805594e+00 
        </Neuron>
        <Neuron NSynapses="1">
          4.4426233699798692e+00 
        </Neuron>
        <Neuron NSynapses="1">
          1.4665968021116620e+00 
        </Neuron>
        <Neuron NSynapses="1">
          -5.1152481972799819e+00 
        </Neuron>
        <Neuron NSynapses="1">
          -4.0050232201326113e+00 
        </Neuron>
      </Layer>
      <Layer Index="3" NNeurons="1">
        <Neuron NSynapses="0"/>
      </Layer>
    </Layout>
  </Weights>
</MethodSetup>
