<?xml version="1.0"?>
<MethodSetup Method="MLP::MLP">
  <GeneralInfo>
    <Info name="TMVA Release" value="4.2.1 [262657]"/>
    <Info name="ROOT Release" value="6.10/08 [395784]"/>
    <Info name="Creator" value="brownd"/>
    <Info name="Date" value="Mon Feb 19 15:41:03 2018"/>
    <Info name="Host" value="Linux buildservice001.fnal.gov 2.6.32-696.1.1.el6.x86_64 #1 SMP Tue Apr 11 08:56:50 CDT 2017 x86_64 x86_64 x86_64 GNU/Linux"/>
    <Info name="Dir" value="/home/online1/brownd/mu2e/Mu2eSim/triggerDev/Offline"/>
    <Info name="Training events" value="24533"/>
    <Info name="TrainingTime" value="8.36503668e+02"/>
    <Info name="AnalysisType" value="Classification"/>
  </GeneralInfo>
  <Options>
    <Option name="NCycles" modified="No">500</Option>
    <Option name="HiddenLayers" modified="No">N,N-1</Option>
    <Option name="NeuronType" modified="No">sigmoid</Option>
    <Option name="RandomSeed" modified="No">1</Option>
    <Option name="EstimatorType" modified="No">CE</Option>
    <Option name="NeuronInputType" modified="No">sum</Option>
    <Option name="V" modified="Yes">False</Option>
    <Option name="VerbosityLevel" modified="No">Default</Option>
    <Option name="VarTransform" modified="Yes">N</Option>
    <Option name="H" modified="Yes">True</Option>
    <Option name="CreateMVAPdfs" modified="No">False</Option>
    <Option name="IgnoreNegWeightsInTraining" modified="No">False</Option>
    <Option name="TrainingMethod" modified="No">BP</Option>
    <Option name="LearningRate" modified="No">2.000000e-02</Option>
    <Option name="DecayRate" modified="No">1.000000e-02</Option>
    <Option name="TestRate" modified="No">10</Option>
    <Option name="EpochMonitoring" modified="No">False</Option>
    <Option name="Sampling" modified="No">1.000000e+00</Option>
    <Option name="SamplingEpoch" modified="No">1.000000e+00</Option>
    <Option name="SamplingImportance" modified="No">1.000000e+00</Option>
    <Option name="SamplingTraining" modified="No">True</Option>
    <Option name="SamplingTesting" modified="No">False</Option>
    <Option name="ResetStep" modified="No">50</Option>
    <Option name="Tau" modified="No">3.000000e+00</Option>
    <Option name="BPMode" modified="No">sequential</Option>
    <Option name="BatchSize" modified="No">-1</Option>
    <Option name="ConvergenceImprove" modified="No">1.000000e-30</Option>
    <Option name="ConvergenceTests" modified="No">-1</Option>
    <Option name="UseRegulator" modified="No">False</Option>
    <Option name="UpdateLimit" modified="No">10000</Option>
    <Option name="CalculateErrors" modified="No">False</Option>
    <Option name="WeightRange" modified="No">1.000000e+00</Option>
  </Options>
  <Variables NVar="9">
    <Variable VarIndex="0" Expression="HitRho" Label="HitRho" Title="Cluster Hit Rho" Unit="F" Internal="HitRho" Type="F" Min="1.84677586e-01" Max="1.03819397e+02"/>
    <Variable VarIndex="1" Expression="HitRhoSpread" Label="HitRhoSpread" Title="Cluster Hit Rho RMS" Unit="F" Internal="HitRhoSpread" Type="F" Min="1.85200498e-01" Max="7.40108795e+01"/>
    <Variable VarIndex="2" Expression="ClusterRho" Label="ClusterRho" Title="Cluster transverse Radius" Unit="F" Internal="ClusterRho" Type="F" Min="3.95066315e+02" Max="6.49994385e+02"/>
    <Variable VarIndex="3" Expression="ZMin" Label="ZMin" Title="Z of first hit" Unit="F" Internal="ZMin" Type="F" Min="-1.51847034e+03" Max="1.46777637e+03"/>
    <Variable VarIndex="4" Expression="ZMax" Label="ZMax" Title="Z of last hit" Unit="F" Internal="ZMax" Type="F" Min="-1.46777637e+03" Max="1.51847034e+03"/>
    <Variable VarIndex="5" Expression="ZGap" Label="ZGap" Title="Biggest z gap between hits" Unit="F" Internal="ZGap" Type="F" Min="2.27473145e+01" Max="3.00628760e+03"/>
    <Variable VarIndex="6" Expression="NPlanes" Label="NPlanes" Title="Number of Planes" Unit="F" Internal="NPlanes" Type="F" Min="2.00000000e+00" Max="3.60000000e+01"/>
    <Variable VarIndex="7" Expression="PlaneFraction" Label="PlaneFraction" Title="Plane Fraction" Unit="F" Internal="PlaneFraction" Type="F" Min="5.00000007e-02" Max="1.00000000e+00"/>
    <Variable VarIndex="8" Expression="NHits" Label="NHits" Title="Number of hits" Unit="F" Internal="NHits" Type="F" Min="3.00000000e+00" Max="1.62000000e+02"/>
  </Variables>
  <Spectators NSpec="0"/>
  <Classes NClass="2">
    <Class Name="Signal" Index="0"/>
    <Class Name="Background" Index="1"/>
  </Classes>
  <Transformations NTransformations="1">
    <Transform Name="Normalize">
      <Selection>
        <Input NInputs="9">
          <Input Type="Variable" Label="HitRho" Expression="HitRho"/>
          <Input Type="Variable" Label="HitRhoSpread" Expression="HitRhoSpread"/>
          <Input Type="Variable" Label="ClusterRho" Expression="ClusterRho"/>
          <Input Type="Variable" Label="ZMin" Expression="ZMin"/>
          <Input Type="Variable" Label="ZMax" Expression="ZMax"/>
          <Input Type="Variable" Label="ZGap" Expression="ZGap"/>
          <Input Type="Variable" Label="NPlanes" Expression="NPlanes"/>
          <Input Type="Variable" Label="PlaneFraction" Expression="PlaneFraction"/>
          <Input Type="Variable" Label="NHits" Expression="NHits"/>
        </Input>
        <Output NOutputs="9">
          <Output Type="Variable" Label="HitRho" Expression="HitRho"/>
          <Output Type="Variable" Label="HitRhoSpread" Expression="HitRhoSpread"/>
          <Output Type="Variable" Label="ClusterRho" Expression="ClusterRho"/>
          <Output Type="Variable" Label="ZMin" Expression="ZMin"/>
          <Output Type="Variable" Label="ZMax" Expression="ZMax"/>
          <Output Type="Variable" Label="ZGap" Expression="ZGap"/>
          <Output Type="Variable" Label="NPlanes" Expression="NPlanes"/>
          <Output Type="Variable" Label="PlaneFraction" Expression="PlaneFraction"/>
          <Output Type="Variable" Label="NHits" Expression="NHits"/>
        </Output>
      </Selection>
      <Class ClassIndex="0">
        <Ranges>
          <Range Index="0" Min="1.8467758595943451e-01" Max="1.0310716247558594e+02"/>
          <Range Index="1" Min="1.8520049750804901e-01" Max="6.1994377136230469e+01"/>
          <Range Index="2" Min="3.9506631469726562e+02" Max="6.4999438476562500e+02"/>
          <Range Index="3" Min="-1.5184703369140625e+03" Max="1.4677763671875000e+03"/>
          <Range Index="4" Min="-1.4677763671875000e+03" Max="1.5184703369140625e+03"/>
          <Range Index="5" Min="2.2747314453125000e+01" Max="3.0062875976562500e+03"/>
          <Range Index="6" Min="2.0000000000000000e+00" Max="3.6000000000000000e+01"/>
          <Range Index="7" Min="5.0000000745058060e-02" Max="1.0000000000000000e+00"/>
          <Range Index="8" Min="3.0000000000000000e+00" Max="1.6200000000000000e+02"/>
        </Ranges>
      </Class>
      <Class ClassIndex="1">
        <Ranges>
          <Range Index="0" Min="8.0383044481277466e-01" Max="1.0381939697265625e+02"/>
          <Range Index="1" Min="1.8301038742065430e+00" Max="7.4010879516601562e+01"/>
          <Range Index="2" Min="3.9508547973632812e+02" Max="6.4979565429687500e+02"/>
          <Range Index="3" Min="-1.5184703369140625e+03" Max="1.4425360107421875e+03"/>
          <Range Index="4" Min="-1.4677763671875000e+03" Max="1.5184703369140625e+03"/>
          <Range Index="5" Min="2.5240234375000000e+01" Max="2.9076059570312500e+03"/>
          <Range Index="6" Min="2.0000000000000000e+00" Max="9.0000000000000000e+00"/>
          <Range Index="7" Min="5.2631579339504242e-02" Max="1.0000000000000000e+00"/>
          <Range Index="8" Min="3.0000000000000000e+00" Max="2.5000000000000000e+01"/>
        </Ranges>
      </Class>
      <Class ClassIndex="2">
        <Ranges>
          <Range Index="0" Min="1.8467758595943451e-01" Max="1.0381939697265625e+02"/>
          <Range Index="1" Min="1.8520049750804901e-01" Max="7.4010879516601562e+01"/>
          <Range Index="2" Min="3.9506631469726562e+02" Max="6.4999438476562500e+02"/>
          <Range Index="3" Min="-1.5184703369140625e+03" Max="1.4677763671875000e+03"/>
          <Range Index="4" Min="-1.4677763671875000e+03" Max="1.5184703369140625e+03"/>
          <Range Index="5" Min="2.2747314453125000e+01" Max="3.0062875976562500e+03"/>
          <Range Index="6" Min="2.0000000000000000e+00" Max="3.6000000000000000e+01"/>
          <Range Index="7" Min="5.0000000745058060e-02" Max="1.0000000000000000e+00"/>
          <Range Index="8" Min="3.0000000000000000e+00" Max="1.6200000000000000e+02"/>
        </Ranges>
      </Class>
    </Transform>
  </Transformations>
  <MVAPdfs/>
  <Weights>
    <Layout NLayers="4">
      <Layer Index="0" NNeurons="10">
        <Neuron NSynapses="9">
          6.2677091739806441e+00 3.6620563049234101e-01 2.0976115171619227e+00 5.7641271984879037e+00 2.1939504692906162e+00 6.0455476864813540e-01 -2.7040509106579957e+00 -3.5264699047712833e-01 1.8855958900266350e+00 
        </Neuron>
        <Neuron NSynapses="9">
          8.4681398221974749e-02 -3.5109899970762651e-02 1.9355077637537957e-01 -1.7044027062732681e+00 -6.0429154565789268e-02 -1.5789597820954440e+00 9.5472013173674186e-01 -1.3551895950047912e+00 -2.7928758929615982e-01 
        </Neuron>
        <Neuron NSynapses="9">
          -9.7896226443206447e-01 2.4562333809045782e+00 -6.0481449047057572e+00 -1.3718873980160757e+00 8.8669758663878462e-01 4.6436790489648050e-01 -2.1042483683949094e+00 -7.4553886826235187e+00 8.3350995176078531e+00 
        </Neuron>
        <Neuron NSynapses="9">
          -1.4249301603606686e+00 -6.2652518630725340e-01 -2.5644167686286514e+00 1.1463489795218919e+01 -7.2216810395159026e-01 -1.4962276124009300e+01 -9.4978284402432500e-01 -3.8663530613550900e+00 -1.5596562555979756e+00 
        </Neuron>
        <Neuron NSynapses="9">
          -3.5970894524580688e+00 -1.7466007077636436e+00 -4.5592739959291277e+00 2.6667387423063555e+00 -8.2997880938431490e-01 1.4762625225910121e+01 2.8904461739397664e+00 -2.4638861802038139e-02 -4.6718556094827068e+00 
        </Neuron>
        <Neuron NSynapses="9">
          -4.6799437649870397e+00 1.3418788248678373e+01 1.4403493838556320e+00 -2.7006197384349626e+00 1.3041782449815859e+01 4.7628150055133593e+00 1.2449647101644608e+01 -5.0344935027774600e+00 -1.7909187442359997e+00 
        </Neuron>
        <Neuron NSynapses="9">
          -2.4090611022609667e+00 3.4295810425597428e-01 -1.3009131484450181e+01 -1.4077061304987900e+01 -6.5034396178042666e+00 7.9904226338661948e+00 -4.7611529934717129e+00 9.4453798365785175e+00 4.5159505984315365e+00 
        </Neuron>
        <Neuron NSynapses="9">
          -3.7016492576059323e+00 5.5278450997334838e+00 -9.9014203363212469e-02 -2.2898556869950113e+00 -5.8954478498906715e+00 -1.2359663963787060e+00 -2.2759667597725377e+00 -2.9552808846477241e+00 -4.9331539304467782e+00 
        </Neuron>
        <Neuron NSynapses="9">
          3.1343772887793979e+00 -3.8055745420749103e+00 3.3366691910764459e+00 -1.6061836455081751e+00 7.6418488391053918e+00 -6.1050236797648028e-01 4.1183785744661199e+00 6.6873807993559842e-01 1.8831837955343651e+00 
        </Neuron>
        <Neuron NSynapses="9">
          -5.1069267865949008e-02 1.8863556358513667e+00 -9.3695892888958465e-01 -2.3912515241210910e+00 1.6942966969412045e+00 1.1388651217264346e+01 5.0912922719194755e+00 -2.6279698323818192e+00 -3.6513173594773067e+00 
        </Neuron>
      </Layer>
      <Layer Index="1" NNeurons="10">
        <Neuron NSynapses="8">
          -2.2263803182754067e+00 3.9341663787506680e+00 2.9541369431640359e+00 -2.5704344327869357e+00 -1.1448181479124071e+00 4.6420747328924988e-01 -5.8835564747548181e+00 -3.3782334153198925e+00 
        </Neuron>
        <Neuron NSynapses="8">
          1.6110513822397770e+00 -1.0847667797700347e-01 -7.0621643290861478e+00 -1.2340106121370542e+00 2.4567825699015655e+00 3.8165698074603891e+00 1.7719031380936017e+00 4.1555249886247294e+00 
        </Neuron>
        <Neuron NSynapses="8">
          -4.0211095782776090e+00 7.0093881501580679e-01 -2.1822890812273101e+00 -6.8747283730919451e-01 -5.7341382319040308e+00 -4.3408670226385633e+00 -2.9242150774110622e+00 3.3950676498958088e-01 
        </Neuron>
        <Neuron NSynapses="8">
          -3.2821554716940020e+00 1.5001330594969904e+00 1.7541152643540057e+00 -1.1660183152050276e+00 -3.6670083021582367e+00 -4.1937827822852345e+00 -2.4665870671863623e+00 8.8633267179986996e-01 
        </Neuron>
        <Neuron NSynapses="8">
          -1.5471723191668778e+00 4.5919138425713006e+00 1.8779373275967044e+00 -2.4002217094261355e-01 2.0485133037394925e+00 4.6124788031544517e-01 -2.7532005365650773e+00 7.5417423326313298e+00 
        </Neuron>
        <Neuron NSynapses="8">
          3.4659726885547468e+00 -4.9685828997077977e+00 -7.3565129910987670e+00 -6.8760485850134490e-01 3.2925592489807882e+00 1.7659364577795955e+00 6.3387275556608698e+00 -5.6759951976737462e+00 
        </Neuron>
        <Neuron NSynapses="8">
          -2.3282496090390015e+00 3.9500149090911898e+00 5.1063677894621113e+00 3.9615809884672187e-01 -3.7198300949537040e+00 6.0744451181862624e-01 -4.1922516275173676e+00 3.3529288137887132e+00 
        </Neuron>
        <Neuron NSynapses="8">
          3.0299976502592734e+00 -4.4969700011020581e+00 -9.4235903166375867e-01 4.5372107351544588e-01 -1.2895598051466302e+00 -4.1362096331144815e-01 5.8518024740214667e+00 -1.1253977344932671e-01 
        </Neuron>
        <Neuron NSynapses="8">
          -1.3484726956400666e+00 1.1993106403654230e+00 -4.1831654630932462e+00 9.1187958432865901e-01 5.5645942548026426e+00 -2.9609655170940186e+00 2.7037204644973900e+00 -3.1558249840232397e+00 
        </Neuron>
        <Neuron NSynapses="8">
          1.7153094892424914e+00 -1.2593988719152927e-01 2.3803804458370945e+00 -7.6206053162505794e-01 9.9668146321831586e-01 -1.0180873093937421e+00 1.1929055020721684e-01 -1.7085585656133002e+00 
        </Neuron>
      </Layer>
      <Layer Index="2" NNeurons="9">
        <Neuron NSynapses="1">
          4.5883679376148985e+00 
        </Neuron>
        <Neuron NSynapses="1">
          -1.2724663657464095e+00 
        </Neuron>
        <Neuron NSynapses="1">
          -3.1450534833023505e+00 
        </Neuron>
        <Neuron NSynapses="1">
          1.4919497740780847e+00 
        </Neuron>
        <Neuron NSynapses="1">
          4.8038766016272145e+00 
        </Neuron>
        <Neuron NSynapses="1">
          4.7731259402214343e+00 
        </Neuron>
        <Neuron NSynapses="1">
          5.9531776305391526e+00 
        </Neuron>
        <Neuron NSynapses="1">
          -3.6082339826948662e+00 
        </Neuron>
        <Neuron NSynapses="1">
          1.6158796160086319e+00 
        </Neuron>
      </Layer>
      <Layer Index="3" NNeurons="1">
        <Neuron NSynapses="0"/>
      </Layer>
    </Layout>
  </Weights>
</MethodSetup>
